c0 3.50964927334805 0.0137903840749174 -0.184557873681314 -0.244826391166908 -0.158975806378828 -0.0122358184965251 -0.0640207241575769 0.051031910087206 0.00262568010555034 -0.0510073780859889 0.0386032789789822 -0.190240741010263 -0.189987454278884 0.0187634364890972 -0.132702982504394 -0.00829026034805281 0.0129912352815786 -0.0168161021726908 -0.227432647053682 0.255004805956969
c1 3.517552407109 0.123324754025896 -0.301827185187461 -0.153075274724321 -0.130529647100566 0.0326823583025262 -0.052192056347067 0.0572345731490365 0.0392386877451742 -0.013832193035327 0.0216978581976965 -0.175218426316406 -0.219699924485155 0.0229076153737525 -0.118278070639807 -0.0164374173025037 -0.0203118017164799 0.0051879473542791 -0.203733215572776 0.154280420669456
c2 3.517552407109 0.123324754025889 -0.301827185187453 -0.15307527472429 -0.130529647100562 0.0326823583025815 -0.0521920563470946 0.0572345731490273 0.0392386877451509 -0.0138321930353631 0.0216978581976676 -0.175218426316349 -0.219699924485163 0.0229076153737976 -0.118278070639764 -0.0164374173024902 -0.0203118017165168 0.00518794735436545 -0.203733215572798 0.15428042066953
c3 3.517552407109 0.123324754025895 -0.301827185187434 -0.153075274724397 -0.130529647100495 0.0326823583024956 -0.0521920563470476 0.0572345731490034 0.0392386877451655 -0.0138321930353552 0.0216978581979309 -0.175218426316373 -0.219699924485203 0.0229076153736191 -0.118278070639595 -0.0164374173023441 -0.0203118017163224 0.00518794735460157 -0.203733215572734 0.154280420669184
c4 3.46016193540689 -0.517202213785576 0.280757331187294 -0.726039414591088 -0.43703743954355 -0.413450352832277 -0.459918634764225 0.507613963270792 1.26000197761224 -1.37067016833407 -0.914217581153575 1.1248321212741 0.394448073973747 -0.0905319326496942 0.409915042441918 0.0343051681304673 0.0134690047205067 -0.0265078042565231 0.24863315004713 -0.124191382525446
c5 3.51658458668505 0.115470115260975 -0.296229523208168 -0.167283910316033 -0.144734693182662 0.0340644955397284 -0.0635237818053063 0.0622712367939241 0.0394884244823025 -0.00521812990815815 0.0271650512143496 -0.199417647736626 -0.247142203285688 0.0233128636745281 -0.126738004534592 -0.0106332197569255 -0.0477109759232383 0.0102784017563703 -0.284151616128971 0.224535332816205
c6 3.46315184475506 -0.899388485339055 0.788241812299488 -0.887851044687898 -0.622344569537843 -0.00769694433647157 -0.216739040777526 0.0615630484611175 -0.0463637676948403 0.0738444176663153 0.0843582732943558 -0.161042860298912 -0.195261180817626 0.00488938533698116 -0.0664712312084879 -0.0291600783598639 -0.112686535622498 0.0197326540855972 -0.297476832358611 0.154374082843373
c7 3.51658458668505 0.115470115260963 -0.296229523208163 -0.167283910316015 -0.144734693182706 0.0340644955397609 -0.0635237818053185 0.0622712367939263 0.0394884244823053 -0.00521812990813408 0.0271650512142478 -0.19941764773661 -0.247142203285701 0.0233128636745932 -0.126738004534711 -0.0106332197570246 -0.047710975923243 0.0102784017562802 -0.284151616128928 0.224535332816247
c8 3.51658458668505 0.115470115260979 -0.29622952320817 -0.167283910315987 -0.144734693182702 0.0340644955397475 -0.0635237818052882 0.0622712367939784 0.0394884244822771 -0.00521812990811291 0.027165051214264 -0.199417647736637 -0.24714220328568 0.023312863674611 -0.126738004534655 -0.0106332197570255 -0.047710975923313 0.0102784017562208 -0.28415161612895 0.224535332816331
c9 3.50207825616739 -0.121901194209873 -0.0416384170708947 -0.351776782907067 -0.241311220761217 0.0235180943585174 -0.103494930392321 0.0680459079218764 0.0305039608142559 0.0467574607394625 0.0363571089079709 -0.247460763351907 -0.185854107985851 0.00524019723458582 -0.0915674276909555 0.0768539086211038 -0.0637446606265471 -0.00422295051635074 -0.29079946340985 0.391129039322224
c10 3.52122544648241 0.116097676675174 -0.284371748367031 -0.142830859437441 -0.119595499175338 0.0297941656722545 -0.0440816677094057 0.0481146305613612 0.0330213014007591 -0.0097879991231381 0.016541342378169 -0.131897794178352 -0.161745239386625 0.0164428024671531 -0.083554257977131 -0.0113322874144338 -0.0154830007575598 0.00474677666605585 -0.115895463825316 0.0743654536650943
c11 3.5212254464824 0.116097676675204 -0.284371748367048 -0.142830859437422 -0.119595499175296 0.029794165672275 -0.0440816677094256 0.0481146305614311 0.0330213014006718 -0.00978799912317722 0.0165413423782337 -0.131897794178316 -0.16174523938661 0.016442802467183 -0.0835542579772811 -0.0113322874144311 -0.015483000757671 0.0047467766661723 -0.11589546382535 0.0743654536650295
c12 3.50833094049781 0.172803706627302 -0.421773816814767 -0.225701766642166 -0.233691562385527 0.118267448511051 -0.684348343079126 -1.38285261319094 -0.218672053571931 0.0543114352729349 -0.0644605602549096 0.242876140836381 0.182678374181908 -0.0316473526783508 0.128150557247046 0.0290682518014943 0.00582895351834232 -0.00254951740715532 0.119294757413504 0.0995130045213728
c13 3.50833094049781 0.172803706627291 -0.421773816814736 -0.225701766642151 -0.233691562385552 0.118267448511014 -0.684348343079149 -1.38285261319096 -0.218672053571826 0.0543114352729346 -0.0644605602550342 0.242876140836384 0.182678374181847 -0.0316473526782639 0.128150557247045 0.0290682518014376 0.00582895351833425 -0.00254951740729001 0.119294757413555 0.0995130045214249
c14 3.50549911653216 0.179044288581929 -0.435955819485645 -0.233041399761746 -0.243310602582964 0.12487331119841 -0.729603245849932 -1.48123856093814 -0.235300235520389 0.0587209858907607 -0.0694691519192354 0.267213963925663 0.201433184765468 -0.035079366812384 0.143729992510074 0.0335740250743708 0.00592387173326409 -0.0023972601803169 0.143697454786463 0.130937416592195
c15 3.50833094049781 0.172803706627296 -0.421773816814764 -0.225701766642183 -0.233691562385541 0.118267448511096 -0.684348343079159 -1.3828526131909 -0.218672053571901 0.0543114352728737 -0.0644605602549415 0.242876140836338 0.18267837418185 -0.0316473526783085 0.128150557246964 0.0290682518014249 0.00582895351840832 -0.00254951740725344 0.119294757413557 0.099513004521332
c16 3.50833094049781 0.172803706627296 -0.421773816814767 -0.225701766642163 -0.233691562385546 0.118267448511062 -0.684348343079148 -1.38285261319094 -0.218672053571876 0.0543114352728974 -0.0644605602549866 0.242876140836417 0.182678374181856 -0.0316473526782374 0.128150557246974 0.0290682518014635 0.00582895351839118 -0.00254951740727908 0.119294757413585 0.0995130045213461
c17 3.50549911653216 0.179044288581922 -0.435955819485646 -0.233041399761668 -0.243310602583037 0.124873311198461 -0.729603245849938 -1.48123856093813 -0.235300235520494 0.0587209858908797 -0.0694691519192121 0.267213963925608 0.201433184765501 -0.035079366812298 0.143729992510041 0.0335740250742927 0.00592387173325034 -0.00239726018016579 0.143697454786381 0.130937416592236
c18 3.50833094049781 0.172803706627304 -0.42177381681477 -0.225701766642195 -0.233691562385511 0.118267448511067 -0.684348343079126 -1.38285261319095 -0.218672053571867 0.0543114352728887 -0.0644605602549086 0.242876140836404 0.18267837418187 -0.0316473526783785 0.128150557247097 0.0290682518015745 0.00582895351841655 -0.0025495174071163 0.119294757413535 0.0995130045213295
c19 3.50043695205238 0.206190716535647 -0.420740161804416 -0.232653890169916 -0.239459387554814 0.154114798647985 -0.730273823330501 -1.46044039253526 -0.207756748268979 0.0344889002528323 -0.0925197044238874 0.116027333306411 0.379927755844762 0.0476221616418628 -0.159968833092713 -0.161628938705223 0.0709758857402642 -0.0208932714066755 -0.558512246045418 -1.60438799422269
c20 3.50833094049781 0.172803706627307 -0.421773816814752 -0.225701766642178 -0.233691562385545 0.118267448511045 -0.684348343079114 -1.38285261319096 -0.218672053571942 0.054311435272894 -0.0644605602549741 0.242876140836478 0.182678374181857 -0.0316473526783064 0.128150557246994 0.0290682518014961 0.005828953518435 -0.00254951740714906 0.119294757413558 0.0995130045213534
c21 3.50833094049781 0.172803706627317 -0.421773816814765 -0.225701766642176 -0.233691562385526 0.11826744851104 -0.684348343079122 -1.38285261319094 -0.218672053571873 0.0543114352729301 -0.0644605602549573 0.242876140836354 0.182678374181844 -0.0316473526783158 0.128150557247022 0.0290682518014183 0.00582895351842945 -0.00254951740723133 0.119294757413598 0.0995130045213328
c22 3.50833094049781 0.172803706627297 -0.421773816814767 -0.225701766642159 -0.233691562385571 0.118267448511053 -0.684348343079151 -1.38285261319097 -0.218672053571834 0.0543114352728655 -0.0644605602550608 0.242876140836397 0.182678374181846 -0.031647352678243 0.128150557246945 0.0290682518014242 0.00582895351838717 -0.00254951740728084 0.119294757413549 0.0995130045213928
c23 3.50833094049781 0.172803706627284 -0.421773816814766 -0.225701766642176 -0.233691562385553 0.11826744851106 -0.684348343079098 -1.38285261319099 -0.218672053571862 0.0543114352728675 -0.0644605602549798 0.242876140836453 0.182678374181879 -0.031647352678327 0.128150557247027 0.0290682518015097 0.00582895351845403 -0.00254951740725221 0.119294757413593 0.0995130045213665
c24 3.50833094049781 0.17280370662729 -0.421773816814748 -0.225701766642137 -0.233691562385556 0.118267448511122 -0.684348343079139 -1.38285261319093 -0.218672053571922 0.0543114352729452 -0.064460560255027 0.242876140836343 0.182678374181835 -0.0316473526782358 0.128150557246991 0.0290682518014436 0.00582895351830298 -0.00254951740727716 0.119294757413561 0.0995130045214475
c25 3.50833094049781 0.172803706627304 -0.421773816814769 -0.225701766642203 -0.233691562385504 0.118267448511032 -0.684348343079087 -1.382852613191 -0.218672053571865 0.0543114352729274 -0.064460560254878 0.242876140836397 0.182678374181886 -0.0316473526783652 0.128150557247177 0.0290682518015611 0.00582895351849875 -0.00254951740714005 0.119294757413604 0.0995130045212422
c26 3.50833094049781 0.172803706627304 -0.421773816814756 -0.225701766642172 -0.233691562385525 0.118267448511074 -0.684348343079094 -1.38285261319091 -0.218672053571879 0.0543114352728757 -0.0644605602549032 0.242876140836391 0.182678374181933 -0.03164735267837 0.128150557247039 0.029068251801524 0.0058289535184235 -0.0025495174071984 0.119294757413576 0.0995130045213173
c27 3.50833094049781 0.172803706627304 -0.421773816814756 -0.225701766642175 -0.233691562385555 0.118267448511124 -0.68434834307913 -1.38285261319094 -0.218672053571921 0.0543114352729229 -0.0644605602549966 0.242876140836401 0.182678374181817 -0.0316473526782401 0.128150557246969 0.0290682518014533 0.00582895351839146 -0.00254951740731771 0.119294757413618 0.0995130045214262
c28 3.50833094049781 0.172803706627283 -0.421773816814743 -0.225701766642151 -0.233691562385574 0.11826744851103 -0.684348343079153 -1.38285261319096 -0.218672053571863 0.0543114352729013 -0.0644605602550509 0.242876140836398 0.182678374181879 -0.0316473526782046 0.128150557246986 0.0290682518014594 0.00582895351820414 -0.002549517407265 0.119294757413602 0.0995130045214092
c29 3.38949782203456 -0.141736706074948 1.55393700532743 -0.191228611416436 1.24173521464756 -0.76545840893172 0.176562636080979 -0.187485720136429 -0.133206544512156 0.378783600315217 -0.0140381817047246 0.695524545508771 0.019864778214 0.0304921506114439 -0.114212551452379 -0.0938845172015083 0.0593133323410726 -0.000149518659904359 0.154824001326917 -0.0692510633653654
c30 3.52122544648241 0.116097676675177 -0.284371748367061 -0.142830859437417 -0.119595499175309 0.0297941656722358 -0.0440816677093772 0.0481146305613634 0.0330213014006589 -0.00978799912315816 0.0165413423782385 -0.131897794178283 -0.161745239386483 0.0164428024671144 -0.0835542579772201 -0.0113322874143743 -0.0154830007575347 0.00474677666612529 -0.11589546382519 0.0743654536651915
c31 3.51121565406354 0.0958676952268583 -0.312242746799273 -0.191967384970432 -0.151373529346621 -0.0860499964994495 -0.181939318310724 0.234688966967598 0.562688490036021 -0.451090133837668 -0.377488992039802 0.187319162702339 0.2986141986252 -0.00505525314936634 -0.00956269107508241 0.0129761175408749 0.0287841961869136 -0.00346952065734758 0.15874395505759 0.157697192585185
c32 3.51121565406354 0.0958676952268604 -0.312242746799276 -0.191967384970425 -0.151373529346647 -0.0860499964994891 -0.181939318310656 0.234688966967583 0.562688490036061 -0.451090133837693 -0.377488992039867 0.187319162702322 0.298614198625153 -0.00505525314933053 -0.00956269107509588 0.0129761175408341 0.0287841961869729 -0.00346952065738592 0.158743955057561 0.157697192585222
c33 3.47693695207242 -0.432868037258464 0.222182244486268 -0.455345525206798 -0.329668194075482 -0.15456514964925 -0.284840349024551 0.280343912589046 0.707964272684416 -0.363196142121443 -0.517779155605337 -0.0233966651158745 0.970726447623515 0.018064969552076 -0.183072571680765 -0.0299438027682125 -0.0453902372691497 0.0372369231914433 0.399622472058951 0.410751295347004
c34 3.48109854323741 -0.50122722213607 0.31796947787644 -0.623149303392029 -0.436777127749639 -0.107668971416603 -0.263679278291905 0.231607609448313 0.516803765561614 -0.376262845418524 -0.343979551822868 0.237682787408425 0.281388331404153 -0.00773150399500092 0.00167972573086728 -0.043770398779366 0.0984299567042241 -0.0332420213570632 0.0899939385919406 0.00398921268874825
c35 3.46010977394994 -0.869999716052463 0.736328363378526 -0.890417603356524 -0.604283269025244 -0.105688960953739 -0.316749638262477 0.224309349445747 0.464918911482405 -0.360189233928884 -0.317749609003255 0.219717357869282 0.324765779288714 -0.00698773324114935 -0.000315314461478192 -0.00659684411898527 0.236597808838493 -0.0881246911711182 0.102691974825978 -0.00573836010673818
c36 3.51653442110568 0.113920667473062 -0.270458176553837 -0.174631796236966 0.0428338779976938 0.158746862837869 -0.0366498396634478 0.0444058448905319 0.0152445010096883 -0.0776137020079159 0.0318967281430611 -0.108224075828194 -0.206810634418155 0.0374423448102034 -0.202247787714841 0.01471529224948 -0.0242937659308471 0.0223061107315322 -0.155506239339425 0.144323268006767
c37 3.48482693845648 0.0822480074055743 -0.0595570827466759 -0.237837157864183 1.1030411751858 0.702795969949945 0.036948324264493 0.0147557652278722 -0.10719952908301 -0.262856144301138 0.0410418148722656 0.10655055395423 -0.103867423589517 0.145725787951364 -0.299230543505879 0.0643622329227726 -0.0359173630576766 0.0487297697591855 -0.0386468694293583 0.143505198129243
c38 3.51653442110568 0.113920667473053 -0.270458176553858 -0.174631796236997 0.0428338779977198 0.158746862837874 -0.0366498396634037 0.0444058448905064 0.0152445010096901 -0.0776137020079616 0.0318967281431179 -0.108224075828173 -0.206810634418152 0.0374423448101755 -0.202247787714732 0.0147152922495951 -0.0242937659307679 0.0223061107315158 -0.155506239339448 0.144323268006695
c39 3.51653442110568 0.113920667473074 -0.270458176553846 -0.174631796237005 0.0428338779976877 0.158746862837806 -0.0366498396633944 0.0444058448905234 0.0152445010097259 -0.0776137020079819 0.0318967281431127 -0.10822407582822 -0.206810634418121 0.0374423448101972 -0.202247787714783 0.0147152922495438 -0.0242937659307175 0.0223061107315018 -0.155506239339397 0.144323268006651
c40 3.51653442110568 0.113920667473073 -0.27045817655386 -0.174631796236994 0.0428338779976954 0.158746862837865 -0.0366498396633795 0.0444058448905436 0.0152445010096392 -0.0776137020079582 0.0318967281431559 -0.108224075828169 -0.206810634418154 0.0374423448102069 -0.202247787714776 0.0147152922495147 -0.0242937659307059 0.0223061107314887 -0.155506239339378 0.144323268006626
c41 3.51405974847415 0.127655513007557 -0.32209711618215 -0.176733714140864 -0.158468085290988 0.0412931885778245 -0.0773774588891326 0.0829192789584998 0.0586668103767106 -0.0119658277654384 0.0485998982872655 -0.355080914406212 -0.553492309080251 0.0589419101998805 -0.317828039014935 -0.0985276933906114 -0.774068907692008 -1.2650204372361 0.925354261536778 -0.320076839309131
c42 3.51122793277766 0.133380627952145 -0.334313835810867 -0.180780378906062 -0.166967339179671 0.0461849434764759 -0.0864760321528277 0.0981327381255036 0.0828428363959361 -0.0101177487673276 0.143805921236804 -0.343583770254448 -0.557021787966912 0.0652844008153024 -0.329273148671184 -0.108837906892822 -0.818535009612022 -1.34971591204241 0.997662513425537 -0.357883426421165
c43 3.51405974847415 0.127655513007569 -0.322097116182155 -0.176733714140862 -0.158468085290963 0.0412931885778702 -0.0773774588891616 0.0829192789585546 0.0586668103767186 -0.011965827765437 0.0485998982872997 -0.355080914406164 -0.553492309080267 0.0589419101999105 -0.317828039015078 -0.0985276933906141 -0.774068907692133 -1.26502043723596 0.925354261536772 -0.320076839309075
c44 3.51405974847415 0.127655513007557 -0.322097116182173 -0.176733714140845 -0.158468085290977 0.0412931885778174 -0.0773774588891888 0.0829192789584352 0.0586668103767303 -0.0119658277654216 0.0485998982872604 -0.355080914406225 -0.553492309080254 0.058941910199937 -0.317828039014971 -0.098527693390664 -0.774068907692131 -1.26502043723614 0.925354261536789 -0.320076839309036
c45 3.47572657617414 -0.618518048450183 0.461133746020882 -0.687071248413574 -0.515824916495697 0.00281572351353988 -0.169153402556239 0.0716121634517166 -0.0209042208496489 0.0525935880443564 0.0881930106335757 -0.34737173131581 -0.530902266105937 0.0443329842170002 -0.27048542380546 -0.0951006046047928 -0.902051124859667 -1.23602328422122 0.92798139674136 -0.463916638517417
c46 3.51405974847415 0.127655513007551 -0.322097116182155 -0.176733714140847 -0.158468085290983 0.0412931885777723 -0.077377458889181 0.0829192789584734 0.0586668103767091 -0.0119658277654442 0.0485998982872705 -0.355080914406109 -0.553492309080254 0.0589419101999394 -0.317828039014987 -0.0985276933906619 -0.774068907692258 -1.2650204372361 0.925354261536822 -0.320076839309069
c47 3.51405974847415 0.127655513007563 -0.322097116182158 -0.176733714140837 -0.158468085290969 0.0412931885778351 -0.0773774588891905 0.0829192789585214 0.0586668103766741 -0.0119658277654524 0.0485998982872461 -0.355080914406222 -0.553492309080258 0.0589419101999462 -0.317828039014974 -0.0985276933906331 -0.774068907692138 -1.26502043723612 0.925354261536843 -0.320076839308998
c48 3.51405974847415 0.127655513007565 -0.322097116182159 -0.176733714140834 -0.158468085290974 0.0412931885778673 -0.077377458889191 0.0829192789584657 0.0586668103766497 -0.0119658277654426 0.0485998982873142 -0.355080914406226 -0.553492309080276 0.0589419101999493 -0.317828039014997 -0.0985276933906444 -0.77406890769217 -1.26502043723596 0.925354261536747 -0.32007683930911
c49 3.51697778840185 0.124224696949491 -0.302412480981216 -0.151323019919753 -0.129178002934028 0.0334398688250099 -0.0507773054841294 0.0562068879208523 0.0399918664597497 -0.0116212060658227 0.0202383967747859 -0.16665191482488 -0.21094023964677 0.0221430666958963 -0.110473372525467 -0.0162349907539376 -0.0229308087990854 0.00781127674561284 -0.178358318011393 0.119838873637059
c50 3.51697778840185 0.124224696949409 -0.302412480981246 -0.151323019919703 -0.129178002934215 0.0334398688250392 -0.0507773054841019 0.0562068879206687 0.0399918664594839 -0.0116212060656489 0.0202383967746167 -0.166651914824976 -0.210940239646719 0.0221430666960706 -0.110473372525201 -0.0162349907539076 -0.0229308087988325 0.00781127674610691 -0.178358318011788 0.119838873636844
c51 3.4344594092482 0.105218474549814 0.488851640267104 1.48072957184212 0.11730703176534 0.0482666524444431 0.0671734567321268 0.0275067015794292 0.157088585805252 0.171646889851261 -0.171429633607974 -0.0479811336945525 0.760859065281932 -0.145764892299647 0.0113865471814755 0.0955044281744484 -0.0422646162079827 0.00214442180885758 0.464281587610305 0.381586631161083
c52 3.4375726497056 -0.674617348037508 0.667678246473507 -0.590117878377191 1.19056020909147 -0.445547108876581 0.0937119358790639 -0.152167561989228 -0.408859370516104 -0.499035948963896 0.22789368931817 0.0435513023160906 0.137491432442005 0.00402335196547992 -0.0948819755352246 -0.0316665347571821 0.164489520012002 -0.0935610407044471 0.109661810030717 -0.0707371267311346
c53 3.51658474508126 0.125045876946487 -0.30723980930935 -0.157717241727896 -0.13619845398267 0.0354186080211549 -0.0568261360911613 0.062145742919032 0.043803956629586 -0.0119961067008846 0.0246087881230824 -0.197316937681813 -0.259165836520891 0.0259446998860326 -0.135548762809353 -0.0227777561644862 -0.0389260713949422 0.0166570827235244 -0.278310213240257 0.202626236355048
c54 3.51658474508126 0.125045876946476 -0.307239809309348 -0.157717241727932 -0.136198453982655 0.0354186080211656 -0.056826136091124 0.0621457429190183 0.0438039566296 -0.011996106700917 0.0246087881231624 -0.197316937681807 -0.259165836520911 0.0259446998859343 -0.135548762809197 -0.0227777561644048 -0.0389260713947734 0.0166570827236268 -0.278310213240288 0.202626236355046
c55 3.51658474508126 0.12504587694646 -0.307239809309313 -0.157717241727832 -0.136198453982722 0.0354186080211734 -0.0568261360912369 0.0621457429190421 0.0438039566295941 -0.0119961067009199 0.0246087881229427 -0.1973169376819 -0.259165836520873 0.0259446998861217 -0.135548762809496 -0.0227777561645406 -0.0389260713951998 0.0166570827235058 -0.278310213240408 0.202626236355328
c56 3.50613385921006 -0.0959448473584037 -0.0689556676090087 -0.318213851631201 -0.238653804176844 0.0272378630621786 -0.0913610018793198 0.0646278991520963 0.0241370415603233 0.00622779067787705 0.050495180502732 -0.183984576513078 -0.254756395025836 0.0127640357497367 -0.113188901073951 -0.0294942425991456 -0.0742330080483392 0.0416717729499276 -0.276881314966316 0.226943611933938
c57 3.51658474508126 0.12504587694646 -0.307239809309328 -0.157717241727869 -0.136198453982695 0.0354186080211867 -0.0568261360911689 0.0621457429190014 0.0438039566295534 -0.0119961067009249 0.0246087881229995 -0.197316937681839 -0.25916583652085 0.0259446998860675 -0.135548762809356 -0.0227777561645626 -0.0389260713950217 0.0166570827234591 -0.278310213240362 0.202626236355259
c58 3.44715449905744 -0.54951188686217 -0.132406038542893 0.869447386374088 1.09279891279337 0.704681769764462 0.0665777352883974 0.0881562235286312 -0.29630475642495 -0.135396629640425 -0.0812018862200088 0.265348898384021 0.235256521658048 -0.393626813952614 -0.101644681955889 0.208134209782402 -0.0692523700179248 0.0243858104095848 0.246969453794503 0.213940804731369
c59 3.51540972187643 0.106806442605743 -0.294347365115456 -0.096008311868548 -0.101852978408661 0.0882573869222535 -0.101665428666404 0.214682081439904 -0.215342287025644 0.0487941371638431 -0.00369935645280881 -0.013446366529575 0.0299982149052241 -0.410363421280047 -0.0499550899609585 0.0735276423914602 -0.0193503654723933 0.00594167286905185 0.0346150523212046 0.150252598756684
c60 3.48581731275494 -0.324916434433118 0.173318472098382 -0.272833277283864 -0.254133943988773 0.0946451806682576 -0.186045800347256 0.269949015853675 -0.229123427462805 0.152637263716866 0.151955753759833 0.00597939264536585 0.285449284792939 -0.585706477144921 0.0686168829494821 0.34801206680963 0.00211645604079827 -0.00363316382799646 0.270298951477467 0.395404132144143
c61 3.49178684898182 0.242159103721075 -0.372016017363916 -0.115021096159606 -0.221807105077675 0.190871758860826 -0.352103914017047 0.907708210689597 -1.37550596818602 0.229133455373049 -0.267910783939123 0.473367616432824 0.481684959183128 -2.07575706316447 -0.0147526458358442 -0.127600251597486 0.0614465667650019 -0.016329402857174 0.157736052282535 -0.202860461737106
c62 3.5212254464824 0.116097676675172 -0.284371748367054 -0.142830859437422 -0.119595499175312 0.0297941656722479 -0.0440816677093811 0.0481146305614135 0.0330213014007225 -0.00978799912321469 0.0165413423782217 -0.131897794178284 -0.161745239386505 0.0164428024671693 -0.0835542579772311 -0.0113322874144192 -0.0154830007575113 0.00474677666607986 -0.115895463825304 0.074365453665102
c63 3.51568842879036 0.109773710084103 -0.293157227784401 -0.179764142952097 -0.157965628012512 0.0354306262935082 -0.0721547914240251 0.0664895205605161 0.0356894593046572 -0.00608042262980915 0.0359788974195526 -0.223723748477639 -0.299280012774075 0.0276741011347247 -0.158574543481434 -0.0392185852605698 -0.0817561962423097 0.0316016675262092 -0.46729632955182 0.371482194091992
c64 3.47274921511901 -0.696178988174578 0.576676430914619 -0.745238020185951 -0.54136331427444 -0.00812331333425381 -0.172012298857357 0.0535081243565807 -0.0572225909386464 0.0056763023452931 0.0759727097040975 -0.180549411565337 -0.252586400058779 0.0186608599503419 -0.124085496266351 -0.0796449320344218 -0.270294283072881 0.10232074637104 -0.453561823770172 0.451101241287272
c65 3.51568842879036 0.109773710084082 -0.29315722778438 -0.179764142952017 -0.157965628012527 0.0354306262935107 -0.072154791424109 0.0664895205605109 0.0356894593046853 -0.00608042262987095 0.0359788974194157 -0.22372374847761 -0.299280012774063 0.0276741011347952 -0.158574543481425 -0.0392185852607026 -0.0817561962422616 0.0316016675260229 -0.467296329551836 0.371482194092108
c66 3.51568842879036 0.109773710084102 -0.293157227784405 -0.179764142952027 -0.157965628012531 0.0354306262935156 -0.0721547914241039 0.0664895205605504 0.0356894593046329 -0.00608042262985463 0.0359788974194615 -0.223723748477628 -0.299280012774057 0.0276741011347855 -0.15857454348151 -0.0392185852606036 -0.0817561962423449 0.0316016675260792 -0.467296329551832 0.371482194092126
c67 3.51568842879036 0.109773710084118 -0.293157227784396 -0.179764142952059 -0.157965628012498 0.0354306262935726 -0.0721547914241038 0.0664895205604802 0.0356894593046837 -0.00608042262978915 0.0359788974195263 -0.223723748477672 -0.299280012774062 0.0276741011347626 -0.158574543481341 -0.0392185852606047 -0.0817561962422473 0.0316016675261704 -0.467296329551864 0.371482194092048
c68 3.45161174191612 -1.07875843005929 0.982661102185531 -1.04167235233223 -0.717256589892692 0.0132009518521146 -0.229222986617638 0.0612450697382755 -0.0795210197275159 0.100287068161458 0.132396992166195 -0.191765869076674 -0.239812505253714 -0.0033664885495658 -0.118132145930664 -0.0434974524058875 -0.0165672070464646 0.00395665450537228 -0.464775162685142 0.306431745407006
c69 3.49469060562231 -0.319787010399299 0.215258370449819 -0.423138716250844 -0.331541675951629 -0.035561012186955 -0.121855119548384 0.053540694299528 0.00457134502954204 0.0984321983639612 0.0230892718095796 -0.218834430635564 -0.104185876564746 -0.0233090948289281 0.00165731976601046 0.206315165674007 -0.223530283427749 0.0598760847116069 -0.0128063082675648 0.257782461425319
c70 3.50618334824416 0.0600617690467032 -0.355071564296042 -0.0777763449078849 -0.147277405923087 0.0230525757623026 -0.0701215254701611 0.0773702498328167 0.0503825121739871 -0.0140947031720859 0.0277421844758785 -0.545689015456103 -0.759519774589108 0.0761942778755926 0.0143756017471716 -0.60333235315716 1.52208843373665 0.649188265780794 1.10098664256252 -0.161821950469034
c71 3.51337634791482 0.0466391817753509 -0.319195035318575 -0.0608976137061242 -0.160407124000723 0.0644958903095672 -0.0638091800770759 0.0638230561059952 0.0429641569088129 -0.00279553779469482 0.00798806212083539 -0.312204320864008 -0.578669917353624 0.0707659869875993 -0.20873181626837 -0.325672148818712 1.14463655097856 0.47055906515011 0.920661731316809 -0.170033240680174
c72 3.51337634791482 0.0466391817753834 -0.319195035318562 -0.060897613706127 -0.160407124000737 0.0644958903096163 -0.0638091800770847 0.0638230561060278 0.0429641569088445 -0.00279553779471461 0.00798806212085303 -0.312204320864037 -0.578669917353663 0.0707659869875944 -0.208731816268361 -0.325672148818698 1.14463655097853 0.47055906515014 0.920661731316769 -0.170033240680185
c73 3.51337634791482 0.0466391817753755 -0.319195035318585 -0.0608976137061461 -0.160407124000735 0.0644958903095786 -0.0638091800770722 0.0638230561059735 0.0429641569088186 -0.00279553779466983 0.00798806212083359 -0.312204320864026 -0.578669917353689 0.0707659869876722 -0.20873181626836 -0.325672148818844 1.14463655097852 0.470559065150142 0.920661731316762 -0.170033240680049
c74 3.43673187532313 -1.34088929054916 0.472552039172823 0.417440859176703 -0.397197438083291 0.112898445894526 -0.0482631031771135 -0.028264124965377 -0.0688158559068061 0.074845696056403 -0.039546175725544 -0.0949521080353666 -0.374515265905827 0.0663467664647038 -0.103978695821414 -0.317252965729482 1.20254376305482 0.314341478756839 0.88727244913383 -0.23771935919909
c75 3.51337634791482 0.046639181775386 -0.319195035318575 -0.0608976137061151 -0.160407124000741 0.0644958903096259 -0.0638091800770402 0.0638230561059704 0.0429641569088375 -0.0027955377946942 0.00798806212080835 -0.312204320864052 -0.578669917353663 0.0707659869876346 -0.208731816268381 -0.325672148818774 1.14463655097859 0.47055906515008 0.920661731316842 -0.170033240680122
c76 3.51337634791482 0.0466391817753742 -0.31919503531857 -0.0608976137061216 -0.160407124000713 0.0644958903096178 -0.0638091800770702 0.063823056106016 0.0429641569088415 -0.00279553779466075 0.0079880621209187 -0.31220432086404 -0.578669917353642 0.070765986987615 -0.208731816268358 -0.325672148818751 1.1446365509785 0.470559065150122 0.92066173131687 -0.170033240680217
c77 3.47208994907216 -0.732030432297474 0.530928529966156 -0.636554706159074 -0.536393688577182 0.0905478118489712 -0.167830589281461 0.0569976792110325 -0.0408886847129514 0.0629487045873738 0.0699333696860027 -0.291916707495865 -0.614351122713136 0.0654905085099707 -0.221323391491494 -0.301970559252519 1.34373940258928 0.388409494248163 0.823479722012679 -0.373856772949198
c78 3.51337634791482 0.0466391817753741 -0.319195035318578 -0.060897613706142 -0.160407124000726 0.0644958903096044 -0.0638091800770089 0.063823056105968 0.0429641569087607 -0.00279553779472317 0.00798806212096411 -0.31220432086406 -0.578669917353631 0.0707659869875629 -0.20873181626829 -0.32567214881871 1.14463655097856 0.470559065150203 0.920661731316857 -0.170033240680162
c79 3.49648500121942 -0.291927414405276 0.161396132623573 -0.456969987067865 -0.316357314034627 0.0446567963026075 -0.117301124880752 0.054209728640127 -0.00408379788686592 0.011316251309263 0.0449044186411266 -0.158600457823386 -0.207749899382159 0.0177797375349143 -0.110083295605755 0.0218099271593076 0.0749066059879598 -0.0354072709900364 -0.191353898016963 0.0209614333467237
c80 3.51755237431014 0.120811258340772 -0.298768307829404 -0.155469528793286 -0.133002272538218 0.0341572371701639 -0.0540464191845371 0.0573601267056316 0.0389309069193942 -0.0108563795296145 0.0220120144935432 -0.173057979033951 -0.221116362753377 0.0228278603239465 -0.116346300202928 -0.0132448311821568 -0.0128433432510851 0.00278874987912595 -0.198257483362565 0.11639187180849
c81 3.51755237431014 0.120811258340793 -0.298768307829401 -0.155469528793292 -0.133002272538198 0.0341572371701828 -0.0540464191845519 0.0573601267056657 0.0389309069194253 -0.010856379529677 0.0220120144935673 -0.173057979033959 -0.221116362753348 0.0228278603238437 -0.11634630020296 -0.013244831182133 -0.012843343251039 0.00278874987916257 -0.198257483362559 0.116391871808439
c82 3.51755237431014 0.120811258340749 -0.298768307829355 -0.155469528793214 -0.133002272538242 0.0341572371701753 -0.0540464191845203 0.0573601267056428 0.0389309069194095 -0.0108563795297202 0.022012014493392 -0.173057979033945 -0.221116362753347 0.0228278603239368 -0.116346300202896 -0.0132448311822875 -0.0128433432510171 0.00278874987893572 -0.198257483362545 0.116391871808665
c83 3.49501206172451 0.0975522119030802 -0.228937942069998 0.0138067357726566 0.0271269741899421 -0.107303363620499 -0.139541595810301 0.196781856849802 0.616960892871113 0.147761725494854 -0.442167866662133 -0.838489900678183 1.67137938301196 0.15412487043845 -0.800766879022419 -0.309976224277053 0.0469609552668182 0.0298803428356007 0.296691382014341 0.249865342225308
c84 3.30472713284725 -0.932141331638461 1.67261142106731 0.708120122065043 1.54014266227418 -0.586970719915102 0.0478659532521506 0.0406572693458548 0.481175064443887 0.936879435751159 -0.39064681651934 -0.34501833713665 1.40988635207269 -0.348365839678142 1.09074496177547 1.61436910636877 0.0957846782110326 -0.0215178783449141 0.913307937757506 0.0297195671310385
c85 3.49231363217414 -0.165464423031356 -0.0214072870547869 -0.172381604827762 -0.037009314499747 -0.0785625024230471 -0.11756631695671 0.15197809438041 0.442749165856935 0.108979041586629 -0.311760330916064 -0.431740784729878 1.04895124297561 0.0438318638646592 -0.339445610518337 -0.0437563615054895 0.0809259067749192 -0.0141629905730876 0.376237972149163 0.504799639584678
c86 3.5097941824013 0.0643968368620708 -0.276905904949988 -0.0629842336603329 -0.0682746932282105 -0.0362615670588784 -0.11196203662342 0.14876319237443 0.388508577190681 -0.0120215346147607 -0.263349990327129 -0.371723885016693 0.751139681721208 0.0505730756090066 -0.309682303216546 -0.0239531547742644 0.0154654258092619 0.0104306898811759 0.251841712855069 0.32975468311147
c87 3.50979418240129 0.064396836862027 -0.276905904949985 -0.0629842336602917 -0.0682746932282667 -0.0362615670589174 -0.111962036623415 0.148763192374476 0.388508577190721 -0.0120215346148013 -0.263349990327266 -0.371723885016649 0.751139681721209 0.0505730756091506 -0.309682303216589 -0.0239531547744484 0.0154654258091062 0.0104306898810543 0.251841712855027 0.329754683111512
c88 3.50979418240129 0.0643968368620486 -0.276905904949956 -0.0629842336602713 -0.0682746932282562 -0.0362615670588289 -0.111962036623537 0.148763192374499 0.388508577190648 -0.0120215346148268 -0.26334999032731 -0.37172388501666 0.751139681721117 0.0505730756091639 -0.309682303216691 -0.0239531547743945 0.0154654258091356 0.0104306898811091 0.251841712854924 0.329754683111632
c89 3.50979418240129 0.0643968368620414 -0.27690590494996 -0.0629842336603023 -0.0682746932282141 -0.0362615670588875 -0.111962036623492 0.148763192374441 0.388508577190712 -0.0120215346148024 -0.263349990327198 -0.371723885016638 0.751139681721096 0.0505730756090931 -0.309682303216612 -0.0239531547743259 0.0154654258091852 0.0104306898812744 0.251841712854957 0.329754683111523
c90 3.449654867156 -1.03581998743075 0.194155495982804 0.592508715730585 -0.196320334250315 0.000974584130972828 -0.109877149625498 0.0802905598972999 0.316830413722485 0.0628228320618341 -0.278338638346809 -0.160078392280669 0.803244930101246 0.0553118064308248 -0.192084286011114 -0.149697615865526 0.00202210401154619 -0.00392649254826896 0.241897176809235 0.200356251249191
c91 3.51439901391401 0.0897940342195532 -0.285263972671591 -0.172659781817028 -0.0391670265061097 -0.260627677432773 -0.0258384513126061 0.0179343630777551 -0.0955772008755231 -0.139789010788629 0.111902131563576 -0.27389401184943 -0.228140694541133 0.0168770586255021 -0.0814257302156689 -0.0400802354130055 -0.00969149719040066 -0.0193771623755 -0.37259999894968 0.13162996396446
c92 3.44975014752223 -1.12365540828693 1.01041435931669 -1.02732047340405 -0.626176940190849 -0.323673900067557 -0.196732659410445 0.0113507710384753 -0.213660206651956 -0.0204854333059139 0.185942372769148 -0.263417453947171 -0.171732582273196 -0.00838145869108441 -0.0206924385912728 -0.0380419285934009 -0.0762700624408864 0.00278271033611315 -0.360597593465262 0.0571226849904231
c93 3.51439901391401 0.0897940342195302 -0.285263972671577 -0.172659781816983 -0.0391670265061827 -0.260627677432749 -0.0258384513126811 0.0179343630777116 -0.0955772008755615 -0.139789010788637 0.111902131563495 -0.27389401184961 -0.228140694541174 0.0168770586255766 -0.0814257302158671 -0.0400802354130498 -0.00969149719044866 -0.0193771623755964 -0.372599998949744 0.131629963964532
c94 3.51439901391401 0.0897940342195467 -0.285263972671566 -0.172659781816997 -0.039167026506152 -0.260627677432726 -0.0258384513126667 0.0179343630777505 -0.0955772008755487 -0.139789010788652 0.111902131563507 -0.27389401184954 -0.228140694541133 0.0168770586255348 -0.0814257302158646 -0.0400802354130438 -0.0096914971905596 -0.0193771623756156 -0.37259999894971 0.13162996396465
c95 3.51439901391401 0.0897940342195345 -0.285263972671583 -0.172659781816982 -0.0391670265061564 -0.260627677432759 -0.0258384513126457 0.0179343630777272 -0.0955772008755506 -0.139789010788661 0.111902131563408 -0.273894011849457 -0.228140694541144 0.0168770586255856 -0.081425730215802 -0.0400802354130843 -0.00969149719048663 -0.0193771623756526 -0.372599998949723 0.131629963964693
c96 3.46276130907412 -0.869225294789512 0.7496500733922 -0.856958825615095 -0.477311209084486 -0.280176539699481 -0.157091271407999 0.00649723909109595 -0.199558876203706 -0.0256585914635686 0.165446037160575 -0.290263321758642 -0.151801192337529 0.000724018325156376 -0.0928702943319649 0.0198332909772838 0.125887310684702 -0.104985748440066 -0.404421016124149 0.0744724015014524
c97 3.49005350017958 -0.0151966663264364 -0.231855653448463 -0.0744999588346272 0.544856172888702 -1.24954742086758 0.123240985614643 -0.114675251739594 -0.376773512302627 -0.435769783585059 0.251989088922767 -0.265402338030423 -0.0794223543898809 -0.000696090761343686 0.0379285299505764 -0.0575795887279391 0.00748086207015807 -0.0342767095890152 -0.251055460138708 0.0253160319051576
c98 3.42414344170524 0.601906801967526 0.732625792016637 0.30406129672194 1.58708443856893 -0.780731718757863 0.206773894580201 -0.100122998205522 0.14749647790463 0.145172602342229 -0.185476180747325 0.818734435503721 0.0283257986763558 0.0246509067527627 -0.0682789938707948 -0.0621469653696041 0.0213612963994829 0.00739966551935165 0.179346577680797 -0.147170996273432
c99 3.47397587376074 -0.374489956957967 0.168826590374965 -0.309820719614116 0.368571277652318 -1.17904041317984 0.0713203605221893 -0.109368129698356 -0.344548558076535 -0.306200515784435 0.217083802099996 -0.170114914255548 0.0858101621426052 -0.00654500307631125 0.0536217506257178 -0.0630583126044808 0.098216056535214 -0.0531675266797729 0.0260447465602808 -0.0186771546029585
c100 3.49572696531281 -0.00170801923620752 -0.225732168779075 -0.0454210085372864 0.518045690303667 -1.0927473341968 0.121344928255788 -0.102743648944671 -0.301350657719546 -0.359609559214563 0.18947539298085 -0.150272951465321 -0.0087525735174224 -0.00314399795880691 0.050787353433843 -0.037578403588931 0.00520744396117116 -0.0160780390825382 -0.0239397638643209 -0.0366437965256709
c101 3.49289501497796 -0.00243500253424256 -0.2317192599278 -0.0529553217453505 0.527136862982291 -1.14565820312061 0.12513818623851 -0.10858527649934 -0.326076009384762 -0.386059776129624 0.208062484027692 -0.173508537374441 -0.00724778634035044 -0.00289393740807116 0.0546928906608588 -0.0473760525032101 0.0174201385713736 -0.0236347305352108 -0.0258270958133604 -0.0375600212531997
c102 3.49572696531281 -0.00170801923620427 -0.225732168779066 -0.0454210085372936 0.518045690303677 -1.09274733419684 0.121344928255811 -0.102743648944634 -0.30135065771958 -0.359609559214523 0.189475392980842 -0.150272951465207 -0.00875257351740116 -0.00314399795878617 0.0507873534338809 -0.0375784035889655 0.00520744396107956 -0.0160780390825146 -0.0239397638643932 -0.0366437965256651
c103 3.49162046286228 -0.00440767790447075 -0.221645129308893 -0.0410227381827137 0.591184077130324 -1.18446908384876 0.12303473187772 -0.0903439729029587 -0.208499665696151 -0.170430989196711 0.125439164615331 -0.123180363545709 0.124449501332671 0.00313177982955537 -0.0187982380397727 -0.0585774894757966 0.00547000423477926 -0.0138650570066166 0.0480059614421099 0.0198141561568465
c104 3.49572696531281 -0.00170801923619266 -0.225732168779085 -0.0454210085373127 0.518045690303695 -1.09274733419685 0.121344928255775 -0.102743648944624 -0.301350657719575 -0.359609559214527 0.18947539298077 -0.150272951465166 -0.00875257351744203 -0.00314399795875416 0.0507873534339343 -0.0375784035889717 0.00520744396103429 -0.0160780390825103 -0.0239397638644686 -0.0366437965257063
c105 3.48789933844516 0.0131364612335758 -0.26509685578346 -0.0636690034705487 0.522762603774778 -1.11295046218138 0.109498823844687 -0.0831892356422916 -0.281757250308839 -0.359362245473641 0.204018787023545 -0.406853033219253 -0.233971317627162 0.0070161492789535 0.270945395346783 -0.352754872069404 0.49333381934476 0.21300026962426 0.249879238127021 -0.0385810851114523
c106 3.49572696531281 -0.00170801923619241 -0.225732168779099 -0.0454210085373105 0.518045690303685 -1.09274733419689 0.121344928255883 -0.102743648944642 -0.301350657719653 -0.359609559214531 0.189475392981019 -0.150272951465213 -0.00875257351740094 -0.00314399795889081 0.0507873534340293 -0.0375784035888873 0.00520744396119098 -0.0160780390824389 -0.0239397638644226 -0.0366437965257226
c107 3.49572696531281 -0.00170801923621139 -0.225732168779087 -0.0454210085373271 0.518045690303664 -1.09274733419681 0.121344928255787 -0.102743648944639 -0.301350657719561 -0.359609559214516 0.189475392980798 -0.150272951465268 -0.00875257351750199 -0.00314399795875057 0.0507873534337981 -0.0375784035888996 0.00520744396107831 -0.0160780390824752 -0.023939763864416 -0.0366437965256814
c108 3.49572696531281 -0.00170801923629487 -0.225732168779148 -0.0454210085373186 0.518045690303722 -1.09274733419674 0.121344928255715 -0.102743648944575 -0.301350657719611 -0.359609559214489 0.189475392980938 -0.150272951465305 -0.00875257351750736 -0.003143997958896 0.0507873534339629 -0.0375784035888959 0.00520744396118773 -0.0160780390823266 -0.0239397638648147 -0.036643796525776
c109 3.49572696531281 -0.00170801923633425 -0.225732168779155 -0.0454210085373385 0.518045690303681 -1.09274733419681 0.121344928255706 -0.102743648944586 -0.301350657719524 -0.359609559214492 0.189475392980874 -0.150272951465263 -0.00875257351753624 -0.00314399795884508 0.0507873534338963 -0.0375784035888657 0.00520744396120289 -0.016078039082443 -0.0239397638647383 -0.0366437965257745
c110 3.44148129551073 -0.589024739827635 -0.100045994673225 0.816992353206051 1.46076621925956 -0.271475134129287 0.244041764487805 -0.195337196770204 -0.328085210488244 -0.515085486488239 0.120603544388774 0.183535362461623 0.0579305213535468 0.0343490835867203 -0.03541165434589 -0.069022211166134 -0.00135126869069899 -0.00601204364190013 0.0489624075044324 -0.115395795568149
c111 3.49381870885299 -0.0316186163490206 -0.230330092648241 -0.00213448491649031 0.529607300315331 -1.11821442282017 0.128805959507666 -0.110457341725735 -0.315647542066785 -0.372828392414923 0.191149178936061 -0.148981678854856 -0.0115407681248072 -0.00173856967940533 0.057707020945342 -0.0434081341218176 -0.00163182248235631 -0.0189864468318215 -0.0328925114527309 -0.0434971622185107
c112 3.49572696531281 -0.00170801923630768 -0.225732168779167 -0.0454210085373134 0.518045690303704 -1.09274733419677 0.121344928255723 -0.102743648944615 -0.30135065771959 -0.359609559214546 0.189475392980976 -0.150272951465282 -0.00875257351747949 -0.00314399795892949 0.0507873534339568 -0.0375784035887819 0.00520744396113063 -0.0160780390823218 -0.0239397638647509 -0.0366437965256511
c113 3.48911373972483 -0.153012763011203 -0.0793070231194431 -0.127296675162657 0.440145299580428 -1.11990731046258 0.107583147738011 -0.108852127985111 -0.327966429369219 -0.356223133920316 0.192511988155687 -0.166309887343263 0.00290405508909996 -0.0097241314593137 0.0630301102856718 -0.0247632825129095 -0.192964842915444 0.0778464127270116 0.0345275176013995 -0.0207714379626441
c114 3.47635846679972 0.0394187088751816 -0.194941651709485 -0.0897369538795377 0.843293134075629 -1.40862269708493 0.140500405432512 -0.0642342743227006 0.0841819887088244 0.708858739777412 -0.0440341718884458 0.416486976850643 -0.223421300303986 0.0162586860103695 -0.13034291175274 -0.113606006751173 0.0178493902936119 -0.0130793765458904 -0.194978290353154 -0.0208706167398161
c115 3.42803681845795 -1.0457485862367 0.164593341227788 0.740872176113146 0.495580271546993 -0.995388521900357 0.107090656473171 -0.105874267350262 -0.145536374154262 -0.138917108466983 -0.0540906004736495 -0.303509548255539 0.725065210312568 -0.0220675735364505 -0.0167690202659495 0.0404161505020738 -0.311527422581096 0.0736280271242188 0.362056179521988 0.2241506662935
c116 3.49572696531281 -0.00170801923629713 -0.225732168779154 -0.0454210085373239 0.518045690303699 -1.09274733419678 0.121344928255747 -0.10274364894455 -0.301350657719614 -0.35960955921454 0.189475392980835 -0.150272951465294 -0.00875257351764407 -0.00314399795885032 0.0507873534338167 -0.0375784035889455 0.00520744396118904 -0.0160780390824474 -0.0239397638647459 -0.0366437965256684
c117 3.49572696531281 -0.00170801923630354 -0.225732168779174 -0.0454210085373212 0.518045690303728 -1.09274733419675 0.121344928255808 -0.10274364894456 -0.301350657719663 -0.359609559214493 0.189475392980995 -0.150272951465338 -0.00875257351754736 -0.00314399795888654 0.0507873534340029 -0.037578403588873 0.00520744396114476 -0.0160780390822538 -0.0239397638647979 -0.036643796525682
c118 3.49572696531281 -0.0017080192363242 -0.225732168779181 -0.0454210085373303 0.518045690303717 -1.09274733419675 0.121344928255685 -0.10274364894466 -0.301350657719649 -0.359609559214477 0.189475392981085 -0.150272951465498 -0.00875257351755356 -0.0031439979589185 0.0507873534339781 -0.0375784035888374 0.00520744396128604 -0.0160780390823644 -0.0239397638647087 -0.036643796525799
c119 3.48782390093893 -0.11003856979152 -0.109194596910668 -0.138829346387623 0.47691374917848 -1.10302409768714 0.102506589814224 -0.101807723542814 -0.320826301406026 -0.37879384027764 0.197326511044731 -0.167145092279936 0.00452617072580775 -0.00523693035208249 0.0222014193593361 -0.027305483215022 0.0361446264989668 -0.0359607431866091 -0.0699462888278899 0.0896238615429861
c120 3.46723978101437 -0.569599064983864 0.375362111430069 -0.450064951531526 0.243864484835867 -1.11611720272347 0.0424059039941765 -0.104102288344829 -0.340479820741206 -0.310170188858538 0.213555903071421 -0.111138541491499 0.0151657049068765 -0.00581574273662102 0.0699919482831976 -0.0908975758370382 -0.0226955186758628 -0.011282923748952 -0.0594024906231965 -0.125588491102197
c121 3.41548344072862 -1.50268045359586 0.685512546817817 0.297883314887564 0.0936724474509339 -0.954809489837074 0.0553670702658221 -0.157893357851879 -0.379661738423676 -0.252407842855496 0.136949144312673 0.063163287739051 0.0461822078482947 -0.0169269693270157 0.132653877553488 -0.0736952358270046 -0.219172492765286 0.0184234528259219 0.0092611205595551 -0.115876239902342
c122 3.46755658896342 -0.559616229467233 0.372183249090957 -0.430925804627854 0.255988339805096 -1.11765533771039 0.0761394142690398 -0.119974993363752 -0.363225906040594 -0.320333959015603 0.207935979838915 -0.087254081840856 0.0485015406225563 -0.0112750037419285 0.0891372503416906 -0.0726342306625197 -0.015859116644509 -0.00281246755275042 0.0212075605011498 0.0497653137929558
c123 3.49572696531281 -0.00170801923631802 -0.225732168779183 -0.0454210085373335 0.518045690303699 -1.09274733419682 0.121344928255761 -0.102743648944561 -0.301350657719655 -0.359609559214523 0.189475392980894 -0.150272951465349 -0.00875257351755378 -0.00314399795888584 0.0507873534338916 -0.0375784035889332 0.00520744396117598 -0.0160780390823711 -0.0239397638647503 -0.0366437965257149
c124 3.4906328322406 -0.129100165907312 -0.0887771328536717 -0.139268059703181 0.456923344907677 -1.09505694470612 0.0975929943458147 -0.0989398009250232 -0.299910709214024 -0.328650378795874 0.197431275891172 -0.135694409227095 -0.00115730235956448 -0.00448034951844661 0.0582401518062317 -0.0541441291057778 0.0427921172832133 -0.0245871153482072 -0.041645521582018 -0.0558084403675576
c125 3.45514831455879 -0.633015177135048 0.419630296403 -0.554199522003751 0.207698246266047 -1.25779916648537 -0.0694218020776043 0.0265531083358207 -0.00894014805092392 -0.676992631043383 0.00352294203993255 0.211988458675434 0.117481337739475 -0.0435502617060901 0.253231889638742 -0.0956428254302692 -0.0925111575932234 0.0180737220204019 0.0114487203380006 -0.0862674777503676
c126 3.49572696531281 -0.00170801923630878 -0.225732168779164 -0.0454210085373302 0.518045690303715 -1.09274733419681 0.121344928255729 -0.102743648944627 -0.301350657719574 -0.359609559214542 0.189475392980983 -0.150272951465367 -0.00875257351753128 -0.00314399795891572 0.050787353434101 -0.0375784035889445 0.00520744396139093 -0.0160780390823605 -0.0239397638647493 -0.0366437965256645
c127 3.50156377497824 0.14467229639372 -0.421132411535575 -0.323493960000125 -0.365866847610431 0.187005772247234 1.59105737031 -0.369793606634117 -0.0734791339008437 -0.0063035179408598 -0.0945820814807079 0.255717200892428 0.289624368496189 -0.0253899317583434 0.130708389654782 0.0360274932028957 0.421350193772234 -0.55480654639423 -0.131281702214113 0.131435286309398
c128 3.49954350614191 0.142703327607423 -0.438250424230203 -0.36191452779063 -0.414062503753652 0.206417016357598 1.76266638384041 -0.405152075166166 -0.0813069161586356 -0.00283686684023795 -0.095366497614236 0.212468416989639 0.189465596876361 -0.0217188170072682 0.08909484622322 0.00052488948679815 -0.507575697555577 0.669986946892797 0.359098119626393 -0.239344617657628
c129 3.50156377497824 0.144672296393754 -0.42113241153556 -0.323493960000156 -0.365866847610381 0.187005772247226 1.59105737030997 -0.369793606634081 -0.0734791339008003 -0.00630351794091658 -0.0945820814806117 0.255717200892409 0.289624368496152 -0.0253899317583277 0.130708389654693 0.0360274932029375 0.421350193772133 -0.554806546394222 -0.131281702214059 0.131435286309273
c130 3.50156377497824 0.144672296393749 -0.421132411535565 -0.323493960000177 -0.365866847610413 0.187005772247195 1.59105737031003 -0.369793606634084 -0.0734791339007313 -0.00630351794091916 -0.0945820814806005 0.255717200892438 0.289624368496148 -0.0253899317583613 0.130708389654795 0.0360274932029574 0.421350193772274 -0.554806546394387 -0.131281702213972 0.131435286309312
c131 3.49659209706688 -0.071339640128647 -0.156655273935119 -0.465972370303113 -0.416206709187544 0.187640924426795 1.34660114206044 -0.318348823176265 -0.0910122813519998 -0.0106536185305064 -0.0618550805892825 0.205732384960198 0.257625795755594 -0.0213740052213896 0.0617342071718887 0.0357260721465923 0.356340886738909 -0.35751448861868 -0.069045941418719 0.119038030255498
c132 3.50678692194151 0.133166851238117 -0.39241879121063 -0.303569621353616 -0.337128147412063 0.165851174685357 1.37564115987604 -0.315839136241127 -0.0633599036524886 -0.00464836080647359 -0.0781207545685205 0.201161263462723 0.219606637170937 -0.0199234075592802 0.0977565295638293 0.0246210092289231 0.260170190331448 -0.330559537713758 -0.0634237364267615 0.0613878257024332
c133 3.50678692194151 0.133166851238101 -0.392418791210599 -0.303569621353595 -0.337128147412119 0.165851174685391 1.37564115987603 -0.315839136241069 -0.0633599036525149 -0.00464836080654699 -0.0781207545686285 0.20116126346256 0.219606637170928 -0.0199234075592471 0.097756529563654 0.0246210092288744 0.26017019033141 -0.330559537713855 -0.0634237364268553 0.0613878257025216
c134 3.50678692194151 0.133166851238124 -0.392418791210606 -0.303569621353632 -0.337128147412094 0.165851174685333 1.37564115987605 -0.315839136241059 -0.0633599036525201 -0.00464836080650717 -0.0781207545686327 0.201161263462696 0.219606637170895 -0.0199234075592414 0.0977565295637235 0.0246210092289115 0.26017019033155 -0.33055953771385 -0.063423736426914 0.0613878257023978
c135 3.49098878297759 -0.198233840329654 -0.0346902176469311 -0.525166289236279 -0.493606347817408 0.147479708263249 1.36101291988048 -0.334522896651239 -0.113074889024875 0.0214100028413019 -0.0637104895349617 0.254179529509498 0.236313020496957 -0.0198715043291213 0.120386685499602 -0.00931644616937233 0.321021368897403 -0.335569711846078 -0.00952693058580593 0.0720709644523922
c136 3.49098878297759 -0.198233840329704 -0.0346902176470118 -0.525166289236071 -0.493606347817491 0.147479708263313 1.36101291988045 -0.334522896651235 -0.113074889024974 0.0214100028413159 -0.0637104895350588 0.254179529509509 0.236313020497237 -0.0198715043291461 0.120386685499529 -0.00931644616967553 0.321021368897103 -0.335569711846405 -0.00952693058588571 0.0720709644527945
c137 3.49169932186683 -0.178762219726751 -0.0582281097299565 -0.518325224000988 -0.485928406847751 0.157810223011948 1.34118676773784 -0.32316740692864 -0.102110403198125 0.0160440282071117 -0.0599381044068773 0.21065409949005 0.213699891058776 -0.0232553250867271 0.116466707361952 0.0187963794042658 0.227830675433584 -0.317843730660364 -0.0437630345154337 0.0406383906405935
c138 3.50395509063857 0.138791865122035 -0.406110924411138 -0.312564411782271 -0.34979422449639 0.174746442435175 1.46226652660605 -0.337042153945856 -0.0670254412162535 -0.00535159386014682 -0.0843640499459802 0.220429440543108 0.243549511373242 -0.0216837621437081 0.108790268692723 0.0283167629044405 0.312284327303319 -0.401633072196473 -0.0847393524291066 0.0827320385125634
c139 3.47109844984662 -0.557221870443448 0.348665898015023 -0.799546513131176 -0.655698749984773 0.168942595119602 1.27342115417704 -0.322979621850158 -0.139386097795419 0.0327257670723879 -0.0357131270872828 0.2289517933118 0.211637946315773 -0.0216137879826893 0.071597679683345 0.0143008159558081 0.35738428794187 -0.425387753106745 -0.137503875194379 -0.180529466306796
c140 3.50678692194151 0.133166851238114 -0.392418791210611 -0.303569621353617 -0.337128147412081 0.165851174685358 1.37564115987604 -0.315839136241106 -0.0633599036525044 -0.00464836080652418 -0.0781207545685849 0.201161263462633 0.219606637170912 -0.0199234075592813 0.0977565295637575 0.0246210092289176 0.260170190331402 -0.330559537713802 -0.0634237364269187 0.0613878257025463
c141 3.50678692194151 0.133166851238112 -0.392418791210611 -0.303569621353621 -0.337128147412092 0.165851174685347 1.37564115987605 -0.315839136241082 -0.0633599036524988 -0.0046483608065237 -0.0781207545685679 0.201161263462706 0.219606637170926 -0.0199234075592663 0.0977565295637237 0.0246210092288738 0.260170190331447 -0.330559537713867 -0.0634237364268833 0.0613878257023787
c142 3.48117156446553 -0.373553188808464 0.152854026494259 -0.655616547219665 -0.57321439166957 0.160724511230597 1.30634805208232 -0.323307873373601 -0.119837990728851 0.0503165041193549 -0.0520312869992889 0.190280316651838 0.234978054818408 -0.0232421538441685 0.116572394884963 0.0518012234134801 0.409868334095506 -0.40048192970745 -0.0848768903138051 -0.0369569994892315
c143 3.50395509063857 0.138791865122098 -0.406110924411134 -0.312564411782393 -0.349794224496285 0.174746442435079 1.462266526606 -0.337042153945731 -0.067025441216035 -0.00535159386040265 -0.0843640499457617 0.220429440543108 0.243549511373119 -0.0216837621438462 0.108790268692635 0.0283167629045686 0.312284327303276 -0.401633072196717 -0.0847393524288209 0.0827320385124314
c144 3.50529523934627 0.174332819743053 -0.414054465389164 -0.212171663285994 -0.217563082238168 0.111210827366325 -0.281132860464614 0.68617485311599 -1.04206649181669 0.171374323206524 -0.234124530493886 0.391586093367375 0.302738138719979 1.21532957422255 0.284933856004806 0.0724847073848404 0.00439048656049017 -0.00389731665245234 0.0923026447272244 -0.038872039125692
c145 3.50830396565157 0.128397523745172 -0.358413402748544 -0.234232182360757 -0.185342432786368 -0.106957397557533 -0.238402102402057 0.325965317076668 0.793820080024233 -0.833749576075161 -0.538683989205192 0.700322403494537 -0.0746011622144611 -0.049699418619863 0.257537671921699 0.033099929383688 0.0316753419035147 -0.0112924823898687 -0.020983992060641 -0.177677396304842
c146 3.50830396565157 0.128397523745161 -0.358413402748523 -0.234232182360749 -0.185342432786308 -0.106957397557515 -0.238402102402023 0.325965317076652 0.793820080024222 -0.83374957607518 -0.538683989205133 0.700322403494609 -0.0746011622144726 -0.0496994186198804 0.257537671921664 0.0330999293836848 0.0316753419035529 -0.0112924823898258 -0.0209839920607071 -0.177677396304858
c147 3.50830396565157 0.128397523745179 -0.358413402748557 -0.234232182360784 -0.185342432786315 -0.106957397557564 -0.238402102401974 0.325965317076635 0.793820080024204 -0.833749576075145 -0.538683989205057 0.700322403494684 -0.074601162214439 -0.0496994186199009 0.257537671921799 0.0330999293837192 0.0316753419036574 -0.0112924823897528 -0.0209839920606269 -0.177677396304891
c148 3.50830396565157 0.12839752374518 -0.358413402748534 -0.234232182360742 -0.185342432786308 -0.106957397557522 -0.238402102402013 0.325965317076608 0.793820080024224 -0.833749576075079 -0.538683989205117 0.700322403494595 -0.0746011622144389 -0.0496994186199039 0.257537671921829 0.0330999293837174 0.0316753419035786 -0.0112924823897886 -0.0209839920606159 -0.177677396304902
c149 3.50830396565157 0.12839752374517 -0.358413402748529 -0.234232182360739 -0.185342432786312 -0.106957397557484 -0.238402102402014 0.325965317076659 0.79382008002424 -0.833749576075109 -0.538683989205095 0.700322403494597 -0.0746011622144241 -0.0496994186198848 0.257537671921738 0.0330999293837648 0.0316753419034457 -0.0112924823897933 -0.0209839920606015 -0.177677396304924
c150 3.50830396565157 0.128397523745145 -0.358413402748534 -0.234232182360762 -0.185342432786321 -0.106957397557541 -0.238402102402005 0.325965317076647 0.793820080024193 -0.833749576075134 -0.538683989205188 0.700322403494644 -0.0746011622144418 -0.0496994186198914 0.257537671921704 0.0330999293837212 0.0316753419035158 -0.0112924823898567 -0.0209839920606221 -0.177677396304884
c151 3.50830396565157 0.128397523745152 -0.358413402748532 -0.234232182360735 -0.185342432786345 -0.106957397557527 -0.238402102402017 0.32596531707668 0.793820080024188 -0.833749576075159 -0.538683989205246 0.700322403494596 -0.0746011622144131 -0.0496994186198617 0.257537671921653 0.0330999293836941 0.0316753419034741 -0.0112924823898811 -0.0209839920606745 -0.177677396304867
c152 3.50830396565157 0.128397523745164 -0.358413402748518 -0.234232182360718 -0.185342432786356 -0.106957397557491 -0.238402102402054 0.325965317076644 0.793820080024183 -0.83374957607509 -0.538683989205167 0.700322403494601 -0.0746011622144764 -0.0496994186197938 0.257537671921671 0.0330999293836364 0.031675341903452 -0.0112924823898807 -0.0209839920606658 -0.177677396304801
c153 3.50830396565157 0.128397523745152 -0.358413402748548 -0.234232182360778 -0.185342432786314 -0.106957397557624 -0.238402102401984 0.32596531707664 0.793820080024279 -0.833749576075124 -0.538683989205178 0.70032240349465 -0.0746011622144527 -0.0496994186198542 0.257537671921842 0.0330999293837379 0.0316753419036311 -0.0112924823898518 -0.0209839920606251 -0.17767739630488
c154 3.50830396565157 0.128397523745156 -0.358413402748533 -0.234232182360764 -0.185342432786337 -0.106957397557574 -0.238402102401992 0.325965317076612 0.793820080024195 -0.833749576075133 -0.538683989205127 0.700322403494637 -0.0746011622144805 -0.0496994186198746 0.257537671921772 0.0330999293837086 0.0316753419036416 -0.01129248238986 -0.0209839920606493 -0.17767739630492
c155 3.51183009912525 0.119640545842691 -0.285569340685893 -0.123230886446336 -0.0601650369898653 0.000953479772252726 -0.0637980704057981 0.0873198850507041 0.133769179350586 0.125364048022607 -0.0286714042222556 -0.484945163209413 -0.118970689167285 -0.056524470698869 0.127156051106608 1.59716620945143 0.216838729295202 0.0648864325101428 -0.0456352226664597 -0.416678106276285
c156 3.51183009912525 0.11964054584268 -0.285569340685889 -0.12323088644632 -0.0601650369898775 0.00095347977220533 -0.0637980704057941 0.0873198850506583 0.133769179350595 0.125364048022611 -0.0286714042222594 -0.484945163209378 -0.118970689167251 -0.0565244706987866 0.12715605110665 1.59716620945134 0.216838729295298 0.0648864325100457 -0.0456352226664915 -0.416678106276122
c157 3.51183009912525 0.119640545842709 -0.28556934068589 -0.123230886446357 -0.0601650369898575 0.000953479772261888 -0.0637980704058126 0.0873198850506518 0.133769179350571 0.125364048022623 -0.0286714042221044 -0.484945163209488 -0.118970689167255 -0.0565244706989094 0.127156051106641 1.59716620945141 0.216838729295189 0.0648864325102693 -0.0456352226665856 -0.416678106276364
c158 3.51183009912525 0.119640545842664 -0.285569340685881 -0.123230886446319 -0.0601650369899142 0.000953479772198764 -0.0637980704058263 0.0873198850507059 0.133769179350599 0.125364048022573 -0.028671404222374 -0.484945163209479 -0.118970689167262 -0.0565244706987968 0.127156051106551 1.59716620945139 0.21683872929519 0.0648864325100441 -0.0456352226666158 -0.416678106276254
c159 3.51183009912525 0.119640545842693 -0.285569340685899 -0.123230886446324 -0.0601650369898853 0.000953479772265451 -0.0637980704057905 0.0873198850507688 0.133769179350515 0.125364048022575 -0.0286714042222801 -0.484945163209463 -0.118970689167249 -0.0565244706988213 0.127156051106512 1.59716620945133 0.216838729295147 0.0648864325101745 -0.0456352226665677 -0.416678106276202
c160 3.51183009912525 0.119640545842695 -0.285569340685904 -0.123230886446356 -0.0601650369898693 0.000953479772213064 -0.0637980704057792 0.0873198850506728 0.133769179350642 0.125364048022635 -0.0286714042221736 -0.484945163209428 -0.118970689167274 -0.0565244706989093 0.127156051106671 1.59716620945148 0.216838729295304 0.064886432510199 -0.0456352226665616 -0.416678106276401
c161 3.51267310328119 0.0417382409544121 -0.270701452142669 -0.0344339145427274 0.0138095499422461 -0.00694996812275681 -0.030712522398685 0.0506880716868062 0.0245939592014176 0.0118068943073842 -0.017516336888022 -0.213756935184527 0.0112551610146556 -0.055063019873499 -0.0415649772652378 0.222255117197572 -0.0743254020871543 0.0181719568065459 0.0617402332640314 0.29848410128133
c162 3.4783144168887 -0.611461858395992 0.437675870436236 -0.48459431245161 -0.29471248297231 -0.0602683529264234 -0.121018469330635 0.0409979316043511 -0.0436338486390844 0.0787311918394251 -0.00261439620886656 -0.188448641601572 0.105280234745797 -0.0612583576347158 -0.0510385912254664 0.209416566572979 -0.111576490185629 0.053999950941512 0.156109677429398 0.41920105475139
c163 3.51267310328119 0.0417382409544058 -0.270701452142668 -0.034433914542738 0.013809549942265 -0.00694996812280646 -0.0307125223986696 0.0506880716867668 0.0245939592014394 0.0118068943073968 -0.0175163368880027 -0.213756935184548 0.0112551610146085 -0.0550630198734722 -0.0415649772652595 0.222255117197552 -0.0743254020870415 0.0181719568065194 0.0617402332640359 0.298484101281263
c164 3.50984119678718 0.0542512100210506 -0.272089790940576 -0.030924853285371 0.00899756891322988 -0.00634701084939697 -0.0310059951723143 0.0520630668292994 0.0267065206326456 0.0090732780037683 -0.0196607655946671 -0.227542516569858 -0.00177644755328244 -0.0522006353612262 -0.0441671762569797 0.232884169538181 -0.0821754449399347 0.0206323156017328 0.0618052262182334 0.339044615518044
c165 3.51267310328119 0.0417382409544123 -0.270701452142685 -0.0344339145427627 0.0138095499422887 -0.0069499681228401 -0.030712522398618 0.0506880716867543 0.0245939592014883 0.011806894307366 -0.0175163368879159 -0.213756935184489 0.0112551610146209 -0.0550630198735521 -0.0415649772651121 0.222255117197591 -0.0743254020869671 0.0181719568065304 0.0617402332640769 0.298484101281163
c166 3.50984120268452 0.0395149401389101 -0.283147394632132 -0.0228233360744175 0.011199048222909 -0.00188531907436545 -0.0306643197567835 0.0522174469571286 0.0275855601166829 0.011425799675741 -0.0215977151605806 -0.223656023406194 -0.00288804222051302 -0.054051308895547 -0.0479308544786711 0.230609694958385 -0.0826952477330621 0.0176943664656813 0.0486128791476707 0.32669968333119
c167 3.50694242841851 0.0999071538797148 -0.239433189247834 -0.206530321451587 0.319700069901145 0.276380436270858 -0.0542077774986865 0.097914950316668 0.263248456581822 0.299304460248865 -0.084688606668531 -0.612812809802379 0.043435322199186 -0.0765552842284478 1.23516303715167 -0.440237857881146 -0.0948528932577825 -0.0869650340684141 -0.135729413427995 -0.141115757210074
c168 3.50694242841851 0.0999071538797137 -0.239433189247801 -0.206530321451549 0.319700069901098 0.276380436270856 -0.0542077774986975 0.0979149503167386 0.263248456581811 0.299304460248847 -0.084688606668669 -0.612812809802325 0.0434353221991161 -0.0765552842283151 1.2351630371516 -0.440237857881257 -0.0948528932578857 -0.0869650340684904 -0.135729413427962 -0.141115757209983
c169 3.47513407522841 -0.519324375314246 0.431006818921593 -0.64717052867472 0.0200713035877059 0.277177078575515 -0.141517258558489 0.0940106772212755 0.203161532680015 0.333312831340289 -0.0412576746134273 -0.57505294865388 0.0471784276286165 -0.0770992250033984 1.22710996718629 -0.454730515853746 0.0715277463314716 -0.177055187907992 -0.141729574439341 -0.29008154371486
c170 3.432935775497 -0.464887165010001 0.570087543589287 -0.589625715032359 1.37148954823866 0.231454599128216 -0.044321586602535 0.0950609169474678 0.613990115277768 1.181774569919 -0.337844698027287 0.0111538410210901 0.638250879076363 -0.0320275970795147 0.537228466414947 -0.40800735274063 -0.122325652323239 -0.0160570749183741 0.191815550853136 0.091121812495486
c171 3.50694242841851 0.0999071538796966 -0.23943318924781 -0.206530321451554 0.319700069901126 0.276380436270867 -0.054207777498697 0.0979149503167183 0.263248456581832 0.299304460248839 -0.0846886066686711 -0.612812809802315 0.0434353221991262 -0.076555284228308 1.23516303715156 -0.44023785788126 -0.0948528932578773 -0.0869650340685457 -0.135729413428053 -0.141115757209976
c172 3.50694242841851 0.0999071538796822 -0.239433189247809 -0.206530321451562 0.319700069901112 0.276380436270796 -0.054207777498697 0.0979149503166967 0.26324845658187 0.299304460248843 -0.0846886066687047 -0.612812809802243 0.0434353221990599 -0.0765552842283307 1.23516303715169 -0.44023785788135 -0.0948528932577383 -0.0869650340686416 -0.135729413428022 -0.141115757210006
c173 3.50694242841851 0.099907153879711 -0.239433189247803 -0.206530321451565 0.31970006990113 0.276380436270827 -0.0542077774986476 0.0979149503166957 0.263248456581814 0.299304460248859 -0.0846886066685967 -0.61281280980227 0.0434353221991546 -0.0765552842283525 1.23516303715166 -0.44023785788123 -0.0948528932577508 -0.0869650340684913 -0.135729413427985 -0.141115757210052
c174 3.50694242841851 0.0999071538796725 -0.239433189247811 -0.206530321451577 0.319700069901113 0.276380436270787 -0.0542077774986547 0.0979149503167187 0.263248456581835 0.299304460248825 -0.084688606668704 -0.612812809802247 0.043435322199125 -0.0765552842283331 1.23516303715157 -0.440237857881331 -0.0948528932578307 -0.0869650340685782 -0.135729413428002 -0.141115757210049
c175 3.50694242841851 0.0999071538796952 -0.23943318924782 -0.206530321451577 0.319700069901134 0.276380436270797 -0.054207777498689 0.0979149503166713 0.263248456581851 0.299304460248807 -0.0846886066686334 -0.612812809802289 0.0434353221991492 -0.0765552842283995 1.23516303715167 -0.440237857881209 -0.0948528932578254 -0.0869650340685051 -0.135729413427959 -0.141115757209989
c176 3.48258322233013 0.0689384249694751 -0.0373098457706869 -0.255062628937378 1.24555645037817 0.760412458990648 0.0304239715522383 0.0252230971343572 0.132055125028555 0.0127803904520689 -0.0313475526595046 -0.340340119753648 0.060282266168045 -0.046002248045038 0.862805836939725 -0.33305166477892 -0.0902469997529209 -0.0451999928855274 -0.0447424663764739 -0.106116131523026
c177 3.50411051455614 0.112665789366058 -0.240681438533969 -0.204009861319798 0.317348071796242 0.280788555828836 -0.0549286032432725 0.100269705061604 0.271131126658028 0.303808925818777 -0.0886050211253845 -0.641167013979536 0.0317546082578199 -0.0746223150740873 1.29115494935476 -0.467545150582149 -0.104065146659791 -0.091848236097379 -0.151905501426071 -0.13895891532356
c178 3.48630313910247 -0.316199248142973 0.199076419432365 -0.508914577894104 0.12025010475381 0.23500261276535 -0.126794229027658 0.108409439291739 0.25306443024472 0.382679224135775 -0.0367694834425333 -0.589316426253761 0.0843592602354411 -0.0915298980678875 1.28189427222932 -0.480807633379863 -0.203282998738008 -0.0264459266426992 -0.140453369412968 -0.126441416389403
c179 3.50694242841851 0.0999071538797026 -0.239433189247823 -0.206530321451576 0.319700069901146 0.276380436270836 -0.0542077774987059 0.0979149503167138 0.26324845658184 0.299304460248861 -0.0846886066686247 -0.612812809802278 0.0434353221990935 -0.0765552842283806 1.23516303715157 -0.440237857881182 -0.0948528932579051 -0.0869650340684566 -0.135729413428018 -0.141115757210047
c180 3.49974944206665 0.112962675433557 -0.275917961613491 -0.222038551514111 0.326615571845773 0.230528565790224 -0.060785599897923 0.110456401087699 0.263155964709049 0.277314881969229 -0.0615067490588232 -0.832539523415791 -0.17112478757508 -0.0631315234923677 1.37743805378237 -0.711137270265328 0.373434053308391 0.134467151151464 0.134169069211426 -0.135406740998601
c181 3.48258322233013 0.0689384249694996 -0.0373098457707056 -0.255062628937375 1.24555645037816 0.760412458990695 0.0304239715521726 0.0252230971343522 0.13205512502859 0.0127803904520956 -0.0313475526595422 -0.340340119753708 0.0602822661680131 -0.0460022480449653 0.862805836939616 -0.333051664778936 -0.0902469997529192 -0.0451999928855325 -0.0447424663764689 -0.106116131522992
c182 3.50856392622338 0.144177713075533 -0.297756275930419 -0.0315900346631114 -0.209911356136031 0.0987794259511997 -0.136544034436968 0.229974203744276 0.357018838688686 0.0398442351797024 1.45646131402745 0.347882630064215 0.276044302340414 0.0274301958718267 0.0642150387739211 -0.0313861828019308 0.0489083279231959 0.0158358992066577 0.0140208921209668 -0.0856385251486145
c183 3.50856392622338 0.144177713075538 -0.297756275930393 -0.0315900346630986 -0.209911356136045 0.0987794259512236 -0.136544034436989 0.229974203744265 0.35701883868869 0.0398442351797276 1.45646131402738 0.347882630064286 0.276044302340359 0.0274301958718872 0.0642150387739047 -0.0313861828019927 0.0489083279232548 0.0158358992065841 0.0140208921209753 -0.085638525148602
c184 3.50856392622338 0.144177713075525 -0.297756275930388 -0.0315900346630932 -0.209911356136063 0.0987794259512113 -0.13654403443702 0.229974203744322 0.357018838688726 0.0398442351797096 1.45646131402738 0.347882630064238 0.276044302340368 0.0274301958719238 0.0642150387738512 -0.0313861828019985 0.0489083279232741 0.0158358992065169 0.0140208921209835 -0.0856385251486567
c185 3.50856392622338 0.144177713075532 -0.297756275930411 -0.0315900346631103 -0.209911356136044 0.0987794259511953 -0.136544034437027 0.22997420374422 0.35701883868873 0.0398442351797432 1.45646131402736 0.347882630064267 0.276044302340377 0.0274301958718935 0.0642150387739535 -0.0313861828020508 0.0489083279233668 0.0158358992065273 0.0140208921210005 -0.085638525148643
c186 3.50856392622338 0.144177713075558 -0.297756275930417 -0.0315900346631044 -0.209911356136043 0.0987794259511931 -0.13654403443699 0.229974203744217 0.35701883868876 0.0398442351797013 1.45646131402744 0.347882630064247 0.276044302340345 0.0274301958718156 0.0642150387739977 -0.0313861828019981 0.0489083279233845 0.0158358992065607 0.0140208921210187 -0.0856385251486724
c187 3.50856392622338 0.144177713075546 -0.297756275930409 -0.0315900346631108 -0.20991135613603 0.098779425951211 -0.136544034437019 0.229974203744179 0.35701883868873 0.039844235179713 1.45646131402749 0.347882630064201 0.276044302340416 0.0274301958718521 0.0642150387740289 -0.0313861828019276 0.0489083279233696 0.0158358992066374 0.014020892121043 -0.0856385251486079
c188 3.50856392622338 0.144177713075551 -0.297756275930408 -0.0315900346630797 -0.20991135613606 0.0987794259511934 -0.136544034436982 0.229974203744268 0.357018838688703 0.039844235179695 1.4564613140273 0.347882630064318 0.276044302340357 0.0274301958719121 0.0642150387739147 -0.0313861828021015 0.0489083279233067 0.0158358992064263 0.0140208921210601 -0.085638525148578
c189 3.48792463577031 -0.272034593311111 0.140907995974674 -0.334619340571525 -0.406593486190526 0.0588827213261116 -0.208224006270033 0.238860062805196 0.345536321720525 0.126927015231358 1.48139772777854 0.35272776691929 0.311839639634798 0.0101437159438784 0.138107139342645 -0.083132446412361 -0.0637958656006829 0.0730833389062802 0.00401972795375064 -0.0730134051139662
c190 3.50856392622338 0.144177713075542 -0.297756275930418 -0.0315900346631055 -0.209911356136028 0.098779425951187 -0.136544034436981 0.229974203744244 0.357018838688707 0.0398442351797467 1.45646131402746 0.347882630064311 0.276044302340414 0.02743019587182 0.0642150387739881 -0.0313861828019587 0.0489083279232444 0.0158358992067166 0.0140208921209788 -0.0856385251486869
c191 3.50573212256255 0.149786095642491 -0.310165281582097 -0.0370543911497479 -0.217728781246698 0.102453931491502 -0.144016595455958 0.240660558993346 0.370740369627093 0.0398099360451227 1.49870195812192 0.325100499534054 0.226815750977483 0.0355476971754905 0.0305700181208309 -0.046296688765757 -0.0569420629990428 -0.168921603940694 0.16550161048579 -0.144734324338692
c192 3.46025749850696 -0.464689903465968 -0.340388343927871 1.08406921016973 -0.08324372784703 0.206597441797861 -0.0727925588857707 0.230633975588125 0.317844618337311 0.112647761059594 1.41867377050772 0.504778957844173 0.535917805370138 -0.196780523223042 0.229135203460544 0.204185218446063 0.00934574545012911 0.0121842951572353 0.327554574957178 0.169556046194366
c193 3.50856392622338 0.144177713075585 -0.297756275930424 -0.0315900346630716 -0.209911356136132 0.0987794259511841 -0.13654403443698 0.22997420374424 0.357018838688665 0.0398442351796867 1.45646131402739 0.347882630064212 0.276044302340385 0.0274301958718713 0.0642150387739768 -0.0313861828020271 0.0489083279233321 0.015835899206453 0.0140208921210345 -0.0856385251486454
c194 3.50856392622338 0.144177713075577 -0.297756275930433 -0.0315900346631031 -0.209911356136058 0.0987794259511802 -0.136544034436965 0.229974203744162 0.357018838688691 0.0398442351796827 1.45646131402748 0.347882630064258 0.276044302340449 0.0274301958717609 0.0642150387740491 -0.0313861828019181 0.0489083279234073 0.0158358992065995 0.0140208921210152 -0.085638525148757
c195 3.50573197139494 0.15721972782363 -0.299761202462363 -0.0267112076493338 -0.218308243791015 0.103082391574206 -0.142865456034335 0.244006114458789 0.385211460934435 0.0407617253417899 1.57922760835899 0.391988628593099 0.313565711294877 0.0347967381985889 0.0799447687051335 -0.0377256685447914 0.0574038884558564 0.0197364675222354 0.0289579614636242 -0.104547564245069
c196 3.50028215732292 -0.0354401772197218 -0.0906975842497129 -0.166867942364642 -0.296988871659708 0.112697419179967 -0.161258644402588 0.227701965159238 0.333919603674449 0.0528896583901639 1.4684384249775 0.348596243088108 0.270928546051361 0.0229765214573449 0.0803674677908927 -0.0384287993179592 0.133394825954138 -0.0163610436457357 0.00301433004840182 -0.12779569547945
c197 3.46799283914853 0.790522495255734 0.522163319777082 0.490160092521747 -0.194251211536334 0.064546425886078 -0.0609168492655895 0.164257353360218 0.332658390056709 0.00573240176362487 1.43395694721252 0.47011279998586 0.368168682943506 0.0573857556676549 0.168075118647379 -0.0364349691628562 0.0546744606948042 0.0182078304390536 0.120483868357509 -0.111506533576096
c198 3.51156257880584 0.198918210456299 -0.27951556875692 -0.121856248076083 -0.171782756613421 0.0842495788893611 -0.155073628862742 0.361217035644005 -0.492136258641634 0.0697114221660788 -0.0993391003003837 0.0799497123777624 0.0439694281761566 -1.05693284101559 -0.103151972636927 -0.107450418602781 0.0215986193990853 -0.00563970930838194 -0.0591061710048488 -0.0644985001921192
c199 3.51156257880584 0.198918210456312 -0.279515568756945 -0.121856248076098 -0.171782756613395 0.0842495788893937 -0.155073628862734 0.361217035643991 -0.492136258641655 0.0697114221661325 -0.0993391003002979 0.0799497123777653 0.0439694281761371 -1.05693284101567 -0.103151972636847 -0.107450418602786 0.0215986193990519 -0.00563970930824133 -0.0591061710047952 -0.064498500192135
c200 3.51156257880584 0.198918210456308 -0.279515568756908 -0.1218562480761 -0.171782756613403 0.084249578889404 -0.155073628862728 0.361217035644021 -0.49213625864164 0.0697114221660798 -0.0993391003002714 0.0799497123778719 0.0439694281761197 -1.05693284101569 -0.103151972636878 -0.107450418602711 0.0215986193991526 -0.00563970930827677 -0.059106171004781 -0.0644985001921918
c201 3.46620405980652 0.860508292825357 0.51585673035892 0.395924341794012 -0.178682386556516 0.0701066140537302 -0.12754300387213 0.431858383772658 -0.757388140921262 0.0727112434886546 -0.203941605937961 0.285715062813245 0.222444100127015 -1.87142871293301 -0.0510875519384778 -0.210732372293279 0.0537169731033858 -0.0140655967533303 0.0629855725376566 -0.235085840374744
c202 3.50421605828511 0.231547527205251 -0.3034927227565 -0.126521974420807 -0.20012764794933 0.10717200033391 -0.20958668682888 0.517293944517607 -0.756219689432616 0.108465360121963 -0.160199606945959 0.187550869654447 0.149300573423741 -1.97529797615374 -0.152888431744649 -0.219263677911973 0.0550368324491614 -0.0138703958627176 -0.0359596270532212 -0.228125218702378
c203 3.50421605828511 0.231547527205219 -0.303492722756479 -0.126521974420784 -0.200127647949414 0.107172000333846 -0.209586686828873 0.517293944517547 -0.756219689432658 0.10846536012197 -0.160199606945965 0.187550869654403 0.149300573423801 -1.97529797615369 -0.152888431744486 -0.219263677912032 0.05503683244935 -0.0138703958627616 -0.0359596270531548 -0.228125218702281
c204 3.50873077037721 0.205562870431821 -0.291319975014595 -0.126987099678278 -0.179574844539243 0.0892154070366694 -0.166434624356623 0.38896121612453 -0.531540105185008 0.0754490538160195 -0.10748845917756 0.0844728956483324 0.0432466630866801 -1.20625534032593 -0.122132136325123 -0.127768899362782 0.02490841861446 -0.00615672189784668 -0.0792636963808515 -0.0764075874927606
c205 3.50873077037721 0.20556287043189 -0.291319975014555 -0.126987099678374 -0.17957484453911 0.0892154070366572 -0.166434624356659 0.388961216124642 -0.5315401051848 0.0754490538158029 -0.107488459177383 0.0844728956484074 0.0432466630865573 -1.20625534032599 -0.122132136325218 -0.127768899362723 0.0249084186143587 -0.00615672189813371 -0.0792636963806079 -0.0764075874927654
c206 3.4797224123524 -0.557354626200961 -0.35763746696445 0.973409127438543 -0.0167209001406477 0.139578086127662 0.0390098668713526 -0.0177386523392044 0.0183605696309538 -0.00410523672240568 -0.0776381611290083 0.00368102109119386 -0.167537216857546 0.0358176242711455 -0.0409544187140541 -0.0465282208126599 -0.052534921264069 -0.0166152665469101 -0.241604481195177 0.024943229267756
c207 3.51590371136557 0.0513031670728602 -0.308521875741171 -0.0465914689915809 -0.136347832869666 0.0547201272697104 -0.0458760155788638 0.0488307319438121 0.0365444839855532 -0.00673071182309609 0.00046945245481158 -0.155279790464464 -0.255622642407671 0.0309321235305633 -0.113830203369681 -0.0334192747103964 -0.0573801966533089 0.00187388775320283 -0.300916792636146 0.110826298377801
c208 3.51590371136557 0.0513031670728596 -0.308521875741199 -0.046591468991575 -0.136347832869684 0.0547201272697192 -0.0458760155788597 0.048830731943811 0.0365444839855318 -0.00673071182309342 0.000469452454747736 -0.15527979046437 -0.255622642407667 0.0309321235305163 -0.113830203369618 -0.0334192747104097 -0.0573801966534609 0.00187388775324686 -0.300916792636142 0.1108262983779
c209 3.51590371136557 0.051303167072876 -0.308521875741207 -0.0465914689915662 -0.136347832869658 0.0547201272697036 -0.0458760155788041 0.048830731943786 0.0365444839855331 -0.00673071182308114 0.000469452454826185 -0.155279790464361 -0.255622642407704 0.030932123530497 -0.113830203369574 -0.0334192747104698 -0.0573801966533075 0.0018738877531714 -0.300916792636119 0.110826298377873
c210 3.48674228283124 -0.527983407317632 0.315050141036373 -0.461084831061911 -0.423112540666787 0.0439601259794179 -0.135597247591421 0.0498458186434271 -0.0128009104264296 0.0506183517826641 0.0405045856634282 -0.129350595074319 -0.264030095805066 0.0210841064750563 -0.078661139871245 -0.0500273443242388 0.0311472255704625 -0.0216192323049915 -0.330751307351837 0.000393470169816904
c211 3.51233637948475 -0.0481795532167837 -0.209899135952793 -0.105104117094818 -0.186209985434841 0.034586641439349 -0.0530930838920863 0.0439933988185963 0.017774740810315 -0.00439010776617758 0.00531223392417143 -0.152706861341191 -0.255670037592739 0.0254074591394307 -0.10294094436256 -0.0308841559136791 -0.184435853059917 0.0650492893553928 -0.266341668821499 0.106279858340456
c212 3.51290880726317 0.156204528267413 -0.208135066178597 -0.0951480753443146 -0.0893240379988987 0.00524181795924344 -0.0501475748387773 0.0569143725856853 0.0736322561925914 0.06105622936161 -0.0148776920718092 -0.246517373186922 -0.109336643334949 -0.00441320349723256 0.0244282362174824 0.269872358386824 -0.0163532589010894 -0.000459673847882404 -0.0594403065883476 0.241490692516255
c213 3.51461824761876 0.152403809986137 -0.211954269197784 -0.0958323155173245 -0.0891148439293153 0.0076773932848135 -0.0469999674165708 0.0538332182839898 0.0672424891309217 0.0508484606880842 -0.0118674462461545 -0.223082049938908 -0.109989901387038 -0.00134847403410284 0.0123270130165497 0.22411384584395 -0.0115474702276429 -0.000962855438952239 -0.0626154731718955 0.20391892258677
c214 3.50011192263682 -0.0853836313861994 0.0417600259963303 -0.281354731572876 -0.186772855098837 -0.00208304119746712 -0.0876396353482554 0.0599784433938826 0.0568830004760491 0.100010101193159 -0.000605981818627417 -0.2695705480859 -0.059111326886737 -0.0175350209559629 0.0363582596355681 0.28970557822652 -0.0313092948165576 -0.0142869860931163 -0.0955085597115365 0.373383815235236
c215 3.44240830012736 0.123809814209616 1.34319648701599 -0.0739051758725658 -0.402839018354274 0.0134091325525666 -0.060148283726686 -0.0251941869166898 -0.0625935974764468 0.0272120308085555 0.0114966185984876 -0.0715065213000265 -0.0498715194720997 0.0202536347322661 0.0733397364615667 0.186258556570438 0.225365815874444 -0.0990157624797574 -0.0317108385794816 0.0143903037042055
c216 3.51461824761876 0.15240380998615 -0.211954269197691 -0.0958323155173201 -0.0891148439292959 0.00767739328479157 -0.0469999674165603 0.0538332182840518 0.0672424891310318 0.0508484606880389 -0.0118674462460224 -0.223082049938857 -0.109989901387053 -0.00134847403424541 0.0123270130167726 0.224113845844099 -0.011547470227625 -0.000962855438942101 -0.0626154731719991 0.20391892258665
c217 3.51218786111026 0.116674898033034 -0.325933641701031 -0.210253530149034 -0.161293276502134 -0.0813069197831905 -0.173314969589196 0.226469523313341 0.515689812765466 -0.531345439024085 -0.335282494962444 0.354549153019383 -0.0460217512227825 -0.022408939281497 0.104761086980633 0.011278950576691 -0.00352856483176593 0.0043387872624507 -0.00944031724913531 0.00928352508519052
c218 3.49022014198997 -0.330189890108061 0.146881389137473 -0.51557123359553 -0.380544061122299 -0.110177168264013 -0.233103086974687 0.223729616691455 0.468129512438935 -0.482079549207527 -0.304475011300719 0.367286643747866 -0.0213951683828496 -0.0466567723311857 0.156246289665349 0.0333515519640375 -0.154837002491799 0.0841757070272922 0.0414633170078371 0.0490304544880799
c219 3.51218786111026 0.116674898032998 -0.325933641701009 -0.210253530148992 -0.161293276502151 -0.081306919783178 -0.173314969589175 0.226469523313351 0.515689812765441 -0.531345439024133 -0.335282494962579 0.354549153019354 -0.0460217512227487 -0.0224089392813684 0.104761086980506 0.011278950576617 -0.00352856483188029 0.00433878726231573 -0.00944031724916333 0.00928352508528118
c220 3.51218786111026 0.116674898033039 -0.325933641701028 -0.210253530149059 -0.161293276502103 -0.0813069197831705 -0.173314969589138 0.226469523313379 0.515689812765419 -0.531345439024085 -0.335282494962352 0.354549153019454 -0.0460217512227716 -0.0224089392815141 0.104761086980642 0.0112789505767557 -0.00352856483181555 0.00433878726262049 -0.0094403172492194 0.00928352508511266
c221 3.51218786111026 0.116674898033019 -0.325933641701012 -0.210253530149008 -0.161293276502134 -0.081306919783194 -0.173314969589156 0.226469523313361 0.515689812765448 -0.53134543902413 -0.335282494962467 0.354549153019381 -0.0460217512227502 -0.0224089392814379 0.104761086980615 0.0112789505766594 -0.00352856483185518 0.00433878726240999 -0.00944031724919258 0.00928352508519509
c222 3.51137232747148 0.0742219274998466 -0.260723603945563 0.00222412546817526 -0.0857160188813842 0.0534502832522178 -0.0746239886546701 0.138092103843607 0.0404819309103754 0.0999359540034308 0.164356656521292 -0.0991669749882317 0.138900935274761 -0.259899580166011 0.0465901855533417 0.300069486375595 -0.0488903095130829 0.016874697984497 0.203173110985992 0.379380014134783
c223 3.47766647122675 -0.575042249936427 0.422833141844504 -0.455231242531378 -0.404734075067889 0.00778857701223446 -0.180430610467124 0.146871471340949 -0.00868997401071707 0.201189898635338 0.222918908545708 -0.0937327403007634 0.153715117844321 -0.297902907618082 0.124446925854412 0.318991368988404 -0.223532673216972 0.110110829674514 0.2233486452559 0.423812074442637
c224 3.51137232747148 0.0742219274998279 -0.26072360394551 0.00222412546822859 -0.0857160188814224 0.0534502832522765 -0.0746239886547416 0.138092103843652 0.0404819309104148 0.0999359540034193 0.164356656521091 -0.0991669749883593 0.138900935274719 -0.259899580165935 0.0465901855532001 0.300069486375468 -0.0488903095131918 0.0168746979843155 0.203173110986018 0.379380014134856
c225 3.51137232747148 0.0742219274998216 -0.260723603945526 0.00222412546819753 -0.0857160188813902 0.0534502832522417 -0.0746239886547042 0.138092103843627 0.0404819309104102 0.0999359540034565 0.16435665652122 -0.0991669749883459 0.138900935274679 -0.259899580165968 0.0465901855532629 0.300069486375502 -0.0488903095131472 0.0168746979844139 0.203173110985978 0.379380014134796
c226 3.51137232747148 0.0742219274998283 -0.260723603945546 0.0022241254682098 -0.0857160188814215 0.053450283252217 -0.0746239886547167 0.138092103843656 0.0404819309103797 0.0999359540034303 0.164356656521121 -0.0991669749883268 0.138900935274746 -0.259899580165956 0.0465901855532087 0.300069486375479 -0.0488903095131408 0.0168746979842632 0.203173110986005 0.379380014134831
c227 3.51137232747148 0.0742219274998195 -0.260723603945513 0.00222412546821594 -0.0857160188814154 0.053450283252243 -0.0746239886547136 0.138092103843595 0.0404819309104435 0.0999359540034497 0.164356656521122 -0.0991669749883378 0.13890093527468 -0.259899580165897 0.04659018555324 0.300069486375433 -0.0488903095131194 0.0168746979843102 0.203173110986032 0.379380014134857
c228 3.47959752860275 -0.55492584859704 -0.339568281547736 0.952066048696944 0.0377335776953387 0.0202250595624278 0.0584409939840608 -0.0398557172925042 -0.0318423796075777 -0.0480136024533514 -0.0496259633670497 0.0210830761595513 -0.0908622277155946 0.0276345159808391 0.000856399024800806 -0.0405562711912193 0.00840591464651153 -0.04237519450636 -0.109973068834232 -0.069497511959742
c229 3.49080042642456 -0.483061676502136 0.306321980375285 -0.483471679094424 -0.32110657612518 -0.118475081646417 -0.0829398006233649 0.0187664252758147 -0.0694261909280045 0.00465424308914844 0.0659743563881239 -0.141180003565217 -0.0919553226120269 -0.00586650669717675 -0.00212667225687841 0.00630486026841512 -0.181323742452042 0.0479135403479126 -0.0693679160553675 0.131649972497033
c230 3.51078964733119 0.141654915660133 -0.319288560156242 -0.165945422263421 -0.130811946560429 -0.0256765963369539 -0.0568486421100486 0.0662295164722976 0.0580615071616756 0.0475666317794717 0.0235031705538342 -0.20131119623279 -0.39225927983637 0.0453635936150073 -0.20115895576458 -0.0658557681834095 -0.0293237747147868 0.0122559996756544 -0.653189127037788 0.388454080138724
c231 3.48536466896772 -0.481800469426964 0.328160361538162 -0.586617993459589 -0.438657221315553 0.0131818436584882 -0.136562912566983 0.0610108387267922 -0.00381550452526439 0.0637187474652608 0.0569944514574572 -0.200223960589387 -0.30617145908504 0.0267983275873802 -0.121914881312813 -0.0611293280480249 0.0453943265616009 -0.00423297220541704 -0.522919008257371 0.216722661678746
c232 3.51568864256168 0.124082606880475 -0.309805027548411 -0.165524523805708 -0.144650457461453 0.0348596317467699 -0.0629344629619 0.0671241482114855 0.0470996118216236 -0.00574825771536215 0.0276107324277141 -0.226441325537222 -0.322195901477457 0.0341229613471392 -0.168321523128445 -0.0398202549639229 -0.0260148123084238 0.011878338670885 -0.531563346745708 0.329928090665372
c233 3.51568864256168 0.124082606880462 -0.309805027548425 -0.165524523805746 -0.144650457461423 0.034859631746763 -0.0629344629618889 0.0671241482114997 0.047099611821655 -0.00574825771537823 0.0276107324278332 -0.22644132553724 -0.322195901477423 0.034122961347119 -0.1683215231285 -0.0398202549638393 -0.0260148123084453 0.0118783386710145 -0.531563346745717 0.329928090665325
c234 3.51568864256168 0.124082606880469 -0.309805027548404 -0.165524523805772 -0.144650457461389 0.0348596317467379 -0.0629344629618309 0.0671241482114761 0.0470996118216891 -0.00574825771536792 0.0276107324278722 -0.226441325537223 -0.322195901477438 0.0341229613469978 -0.168321523128368 -0.0398202549637901 -0.0260148123082449 0.0118783386710128 -0.531563346745656 0.329928090665282
c235 3.51568864256168 0.124082606880462 -0.309805027548404 -0.165524523805728 -0.144650457461429 0.0348596317467854 -0.0629344629618787 0.0671241482115029 0.04709961182168 -0.00574825771536369 0.0276107324277999 -0.226441325537279 -0.322195901477418 0.0341229613471154 -0.168321523128486 -0.0398202549638375 -0.0260148123083652 0.0118783386709636 -0.531563346745681 0.329928090665421
c236 3.51568869430748 0.127672634775431 -0.314115900642346 -0.162273741479336 -0.141183518316274 0.0359675749217465 -0.0618925467499755 0.0682039374965572 0.0486456774161389 -0.0138528234384169 0.0284616044686483 -0.25620476999985 -0.340873581911844 0.0341129703874575 -0.135808346704024 -0.0921569605168885 0.0717082664036554 0.0841815390351853 -0.344588025690067 0.31258891823085
c237 3.51568869430748 0.12767263477544 -0.314115900642327 -0.162273741479312 -0.1411835183163 0.0359675749217439 -0.0618925467499711 0.0682039374965617 0.0486456774161306 -0.0138528234384277 0.0284616044685971 -0.256204769999837 -0.340873581911895 0.0341129703875041 -0.135808346704 -0.0921569605169474 0.0717082664036853 0.0841815390350526 -0.344588025689999 0.31258891823082
c238 3.51568869430748 0.127672634775439 -0.314115900642331 -0.162273741479318 -0.141183518316272 0.0359675749217395 -0.0618925467499813 0.0682039374965867 0.0486456774161204 -0.0138528234383941 0.0284616044686169 -0.256204769999812 -0.340873581911855 0.034112970387492 -0.135808346704033 -0.0921569605168764 0.0717082664036131 0.0841815390351305 -0.344588025690014 0.31258891823078
c239 3.50928361957575 0.139246853546979 -0.346658174725357 -0.176734100324278 -0.129048012127392 -0.00259993878241242 -0.0675213405773036 0.0802892681954314 0.0546352777364066 -0.0245973196878522 0.0462559504467789 -0.47305210002718 -0.51884760035018 0.0409501603314989 0.0647084115808666 -0.361567200982865 0.489945524070487 0.275486613293549 -0.0823753438357633 0.282517204842243
c240 3.50424910258194 -0.119410579909643 -0.0459561722579682 -0.339696819667084 -0.26098344931536 0.0242022033222537 -0.102405702109918 0.0681974079593429 0.0254896489174861 0.00602982252351451 0.0472436591743324 -0.248504952303362 -0.347510151888299 0.0311236582625072 -0.118068775941447 -0.0996791597795018 0.0572107255499308 0.0927243773218712 -0.343786000433808 0.259086243760249
c241 3.51568869430748 0.127672634775454 -0.314115900642332 -0.162273741479319 -0.141183518316261 0.0359675749217491 -0.0618925467499713 0.0682039374965704 0.048645677416119 -0.0138528234384038 0.0284616044685807 -0.256204769999865 -0.340873581911846 0.0341129703875442 -0.135808346704072 -0.0921569605169595 0.0717082664035807 0.0841815390351472 -0.344588025690036 0.312588918230876
c242 3.51733759282217 0.104877592490565 -0.255012288155851 -0.116675802585724 -0.067755774013959 0.00720989965236518 -0.0451502776942352 0.0535438055302085 0.0637023572184067 0.0509038337917392 -0.00592475719542255 -0.182884064469828 -0.0852614000391659 -0.00693578323878007 -0.00034688286211065 0.14896644634426 -0.0132579372049652 0.00690822685454487 -0.0470227756879319 0.0997222447117993
c243 3.45901643393591 -0.969398501827052 0.884835270177116 -0.86664621144765 -0.597873667827756 -0.0429894559530706 -0.178461847301368 0.0377145444019469 -0.0511380807664591 0.134757578599801 0.0488749562037984 -0.111052988515953 -0.0506564731211211 -0.0205550495724458 0.0521269520515665 0.0981551647353107 -0.069460040399648 0.0371699217885412 -0.0357885108400697 0.095892881626034
c244 3.51733759282217 0.104877592490589 -0.255012288155847 -0.116675802585777 -0.0677557740139156 0.00720989965238475 -0.0451502776941771 0.0535438055302097 0.0637023572183847 0.0509038337917393 -0.00592475719527054 -0.182884064469809 -0.0852614000391662 -0.00693578323882903 -0.000346882862020084 0.148966446344369 -0.0132579372048518 0.00690822685464695 -0.0470227756879982 0.0997222447116869
c245 3.51762938840102 0.131165316369036 -0.254775117094621 -0.129713067541969 -0.113767373090578 0.0189516094338185 -0.0507618665352661 0.0547266348384393 0.0537689830685192 0.0272946494090939 0.00228043574341308 -0.202526448347537 -0.142605106008771 0.00497415012514776 -0.0283431366972288 0.151950635459581 -0.0213123383571845 0.00246346163525149 -0.0901628385116761 0.188082657483924
c246 3.51753372318276 0.113866612532641 -0.302295436619622 -0.177626023872662 -0.136664232722375 -0.039586937123804 -0.113348895806561 0.144600642210918 0.298428046166567 -0.298356760596769 -0.17929528949693 0.137987696277088 -0.0774006792432355 -0.00516485946878371 0.021491711664219 0.00116585765334883 -0.00121085118026978 0.000779046952434893 -0.0451886519331267 0.0288971672627476
c247 3.51145246241061 0.171720166695615 -0.247352108037005 -0.0997884351639124 -0.127437954976753 0.00025062055721767 -0.0937600943571145 0.109410514583465 0.272849908225199 0.0576330451757874 -0.172449651020951 -0.674389397826112 0.854154744387071 0.152884717452361 -0.72091435851828 -0.337639467348158 0.0451952025926944 0.0299584190811791 -0.123764497426816 -0.0809785114684207
c248 3.51145246241061 0.171720166695615 -0.247352108037003 -0.0997884351639199 -0.127437954976742 0.000250620557221052 -0.0937600943570972 0.109410514583442 0.272849908225206 0.057633045175778 -0.172449651020873 -0.674389397826102 0.854154744387046 0.152884717452318 -0.720914358518206 -0.337639467348114 0.0451952025928241 0.0299584190811527 -0.123764497426784 -0.0809785114684975
c249 3.51145246241061 0.171720166695638 -0.247352108037011 -0.099788435163949 -0.127437954976724 0.000250620557206323 -0.0937600943570953 0.109410514583449 0.272849908225196 0.0576330451757984 -0.172449651020838 -0.674389397826063 0.854154744387059 0.152884717452333 -0.720914358518208 -0.337639467348042 0.0451952025928096 0.0299584190812424 -0.123764497426853 -0.0809785114685398
c250 3.51145246241061 0.171720166695638 -0.247352108037026 -0.099788435163954 -0.127437954976732 0.000250620557186991 -0.0937600943570697 0.10941051458341 0.272849908225191 0.0576330451757811 -0.172449651020791 -0.67438939782606 0.854154744387069 0.152884717452329 -0.720914358518158 -0.337639467348013 0.0451952025928274 0.0299584190812785 -0.123764497426833 -0.0809785114686129
c251 3.46100274284078 0.607373945906913 0.794650828167598 0.281807534513817 -0.187706791613394 -0.0863380352285006 -0.0545048206866937 0.0406648546524157 0.239105061938902 0.135602213053394 -0.225486466411459 -0.481950394387524 0.942213103257283 0.174542501781153 -0.624424002664318 -0.360406818082433 0.0819672606710154 0.0198062563410137 0.0507222044264819 -0.020638759768683
c252 3.50184154563289 0.208933202674618 -0.248510541919873 -0.111540190665914 -0.133838270951951 0.0465972806980316 -0.162591498821787 -0.0225225234805758 0.269055995176957 0.0337907484613888 -0.200111595120317 -0.778954084574617 1.04632032217659 0.234386250170486 -1.0099044757188 -0.532877232097638 0.118178578420874 0.00570972383438273 -0.879289690125178 -2.01100299472717
c253 3.50314441740906 -0.00744355590084905 -0.0541335694389637 -0.218214474710139 -0.21082467007269 0.00935217399950095 -0.118068196317529 0.102109153246869 0.237981051978255 0.0681227531283571 -0.159504645121167 -0.700682078241691 0.840738038290797 0.159680077430981 -0.741312243446603 -0.318925810486343 0.132723680734323 -0.0347340309693181 -0.180846038945565 -0.184922558785001
c254 3.51145246241061 0.171720166695637 -0.247352108036996 -0.0997884351639479 -0.127437954976716 0.000250620557225997 -0.0937600943570909 0.109410514583466 0.272849908225205 0.0576330451758001 -0.172449651020796 -0.67438939782611 0.854154744387058 0.152884717452316 -0.72091435851816 -0.337639467348015 0.0451952025928248 0.0299584190812263 -0.123764497426852 -0.0809785114684887
c255 3.51145246241061 0.171720166695611 -0.247352108036997 -0.0997884351639 -0.127437954976771 0.000250620557237805 -0.0937600943570956 0.109410514583467 0.272849908225191 0.0576330451757692 -0.172449651020953 -0.674389397826107 0.854154744387055 0.152884717452409 -0.720914358518298 -0.33763946734809 0.0451952025927124 0.0299584190811401 -0.123764497426805 -0.0809785114683969
c256 3.51697759508437 0.127238620849922 -0.28673098104585 -0.147032228358661 -0.132654448765542 0.0312531745414529 -0.0495299632838501 0.0521338141599325 0.0361272236673642 -0.0108096294494376 0.0179230068920104 -0.150961430153892 -0.195977293708764 0.0234578016326497 -0.093287458127254 -0.0193644307851374 -0.0282316256203946 0.0108184817405423 -0.150851273566512 0.106614347930208
c257 3.47975355167771 -0.659921547185711 0.534814065462425 -0.702228318993638 -0.494805318677865 -0.0166352557718343 -0.166523015410461 0.0547344696248302 -0.0138106742756886 0.0840418738623199 0.0646131317620432 -0.0774134949860563 -0.136964370439504 -0.000659515893395874 -0.0327588880672035 -0.0713732462563404 -0.10694594961027 0.0532099149929448 -0.154421207754565 0.0528201200110072
c258 3.51107206741806 0.129021338186292 -0.356043428067369 -0.241517998200868 -0.251142618485706 0.103335422669502 0.686515571687353 -0.127961814984318 -0.00732814761428083 -0.00640898010056451 -0.0221680976927868 -0.0541297409815225 -0.124867996875729 0.00697018642621675 -0.0586794371679975 -0.0340426467225028 -0.913286080564187 1.17985240892212 0.421166322670869 -0.303796794153749
c259 3.47942735665043 -0.490305763443822 0.282675174056195 -0.652829069561945 -0.560810826603266 0.0404478402806241 0.605309379305397 -0.135459220228439 -0.0832987210056063 0.0316950258600935 0.0145814392353495 -0.053765285857217 -0.114453203857142 -0.0155156020550547 -0.00406705733524123 -0.0276501572731781 -1.24835027522549 1.30316064669735 0.488799779062147 -0.264672100139622
c260 3.51107206741806 0.129021338186275 -0.356043428067361 -0.24151799820087 -0.251142618485674 0.103335422669507 0.686515571687377 -0.127961814984357 -0.00732814761423424 -0.00640898010055661 -0.0221680976927797 -0.0541297409815372 -0.124867996875763 0.006970186426208 -0.0586794371679935 -0.0340426467225042 -0.913286080564146 1.17985240892212 0.421166322670811 -0.303796794153769
c261 3.51107206741806 0.129021338186257 -0.356043428067347 -0.241517998200844 -0.251142618485719 0.103335422669485 0.686515571687362 -0.127961814984299 -0.00732814761425855 -0.00640898010054277 -0.0221680976929258 -0.0541297409815706 -0.124867996875758 0.00697018642627897 -0.0586794371681106 -0.034042646722595 -0.913286080564314 1.17985240892195 0.42116632267083 -0.303796794153634
