c0 3.50964927334805 0.0137903840750322 -0.184557873681181 -0.244826391166697 0.158975806378807 0.0122358184961275 0.0640207241576232 -0.0510319100879166 -0.00262568010537202 0.0510073780860912 -0.0386032789789154 -0.190240741011734 -0.189987454276847 -0.0187634364903815 -0.132702982505277 -0.00829026034916937 -0.0129912352830601 -0.0168161021745137 -0.227432647050514 0.255004805957992 0.0478113849052474 -0.0424870357970541 0.215104890271074 -0.068913941067847 -0.326104313359377 -0.461017715913959 -0.625769318329551 -0.231961336487032 0.430112286218504 -1.05941486245544 -0.474155053982482 -0.203373111182037 0.145188879258673 -0.00543699480884372 -0.575144641448921 -1.46541151011579 0.299019849975502 -1.37417742675671 0.0683161866768748 0.231796687759176
c1 3.517552407109 0.123324754026175 -0.301827185187506 -0.153075274724382 0.130529647100511 -0.0326823583031925 0.0521920563472142 -0.0572345731490431 -0.0392386877454215 0.0138321930358392 -0.0216978581977384 -0.175218426317243 -0.21969992448381 -0.022907615374562 -0.118278070639572 -0.0164374173027436 0.0203118017155921 0.00518794735362939 -0.203733215570812 0.154280420670501 0.0226019997051675 -0.0496187659714617 0.100525321503895 -0.0629875682391133 -0.111504769989314 -0.194202783735299 -0.243270279925477 -0.04537894560872 0.000862270745278034 -0.471733361548673 -0.212760467772154 -0.0813020186829462 0.0973664293298212 0.0338309256073026 -0.17124339972386 -0.919573917953267 0.403065238140023 -0.91769727414056 0.126058051726457 0.246663116675247
c2 3.517552407109 0.123324754026185 -0.301827185187524 -0.153075274724355 0.130529647100505 -0.0326823583032207 0.0521920563472586 -0.0572345731490509 -0.0392386877454334 0.013832193035796 -0.02169785819774 -0.175218426317232 -0.219699924483846 -0.0229076153745669 -0.118278070639545 -0.0164374173028351 0.0203118017156577 0.0051879473536875 -0.20373321557082 0.154280420670539 0.0226019997052207 -0.0496187659714338 0.100525321503982 -0.0629875682391653 -0.11150476998932 -0.19420278373539 -0.243270279925389 -0.0453789456086875 0.00086227074534999 -0.471733361548717 -0.212760467771998 -0.0813020186829478 0.0973664293297905 0.0338309256071253 -0.171243399723729 -0.919573917953335 0.403065238140162 -0.917697274140509 0.126058051726437 0.246663116675236
c3 3.517552407109 0.123324754026129 -0.3018271851875 -0.153075274724442 0.130529647100531 -0.0326823583031976 0.0521920563472565 -0.0572345731490803 -0.0392386877453726 0.0138321930359375 -0.0216978581978291 -0.175218426317225 -0.219699924483812 -0.0229076153746232 -0.118278070639727 -0.0164374173023235 0.020311801715452 0.00518794735392477 -0.203733215570849 0.154280420670404 0.0226019997051944 -0.0496187659712628 0.100525321503864 -0.0629875682386741 -0.111504769988913 -0.194202783735019 -0.243270279925388 -0.0453789456089203 0.000862270745263968 -0.471733361548736 -0.212760467771881 -0.0813020186833389 0.0973664293298305 0.0338309256075043 -0.171243399724543 -0.919573917952983 0.403065238140133 -0.917697274140518 0.126058051725812 0.246663116675393
c4 3.46016193540689 -0.51720221378544 0.280757331187289 -0.726039414590827 0.437037439543406 0.413450352832459 0.459918634763911 -0.507613963269939 -1.26000197760974 1.37067016832892 0.914217581163565 1.12483212127423 0.394448073967387 0.090531932652074 0.409915042444567 0.0343051681304433 -0.0134690047221594 -0.0265078042575997 0.248633150047141 -0.124191382527641 -0.0634476795319013 0.147701255106223 -0.0384116515135457 0.201362026690364 -0.0326341935462753 -0.223612633948778 -0.0348148438005029 0.258793792272347 0.128068152834247 -0.0548424037289166 0.0371281966039352 -0.119131467246094 -0.0224749973136083 0.0108982017473653 0.441385610032085 -0.30693933717868 -0.594947878500137 0.00527670860304114 -0.0293202315593403 -0.0302302236919507
c5 3.51658458668505 0.115470115261255 -0.296229523208194 -0.16728391031591 0.144734693183059 -0.034064495539926 0.0635237818054114 -0.0622712367941643 -0.0394884244816122 0.00521812990902967 -0.0271650512142904 -0.199417647736658 -0.247142203284066 -0.0233128636747495 -0.126738004536334 -0.0106332197581835 0.0477109759212061 0.0102784017549654 -0.284151616127703 0.224535332816264 0.0771349174260988 -0.0331242815339983 0.114915403165198 -0.246796274542452 -0.379300713233464 -0.55025661356228 -0.848761861652593 -0.213845447796092 0.0704897250943114 0.340553316778257 0.757924620948834 0.768397635965501 0.589080182657355 -0.577604246797605 0.0603947596647239 0.358919630240919 -0.442223343685869 0.342018003243873 0.200814678914835 0.100709045073434
c6 3.46315184475506 -0.899388485339798 0.788241812299069 -0.88785104468787 0.622344569537902 0.00769694433673713 0.216739040777518 -0.06156304846199 0.0463637676953959 -0.0738444176656578 -0.0843582732940145 -0.161042860298888 -0.195261180816962 -0.0048893853366776 -0.066471231209886 -0.0291600783602873 0.112686535621073 0.0197326540853883 -0.297476832360169 0.154374082844594 0.0265100956704471 0.109168417418682 0.031773073346199 -0.210453728366873 -0.366816299291572 -0.502692556174337 -0.938948821674086 -0.114223380306344 -0.0860757875247222 0.558601394030233 0.92239880995444 0.868037571623285 0.664563349382543 -0.569266691758899 -0.034506332380616 0.210713638117247 -0.255363856911272 0.244977554488661 0.0591075906809052 0.0301878293507005
c7 3.51658458668505 0.115470115261257 -0.296229523208205 -0.167283910315883 0.144734693183052 -0.034064495539916 0.0635237818054214 -0.0622712367941184 -0.0394884244816181 0.00521812990905784 -0.0271650512142852 -0.19941764773669 -0.247142203284005 -0.0233128636746976 -0.126738004536279 -0.010633219758297 0.0477109759212041 0.0102784017548534 -0.284151616127665 0.224535332816273 0.0771349174260548 -0.0331242815339818 0.114915403165195 -0.246796274542614 -0.379300713233603 -0.550256613562378 -0.84876186165249 -0.213845447795967 0.0704897250943246 0.34055331677826 0.757924620948863 0.768397635965477 0.589080182657351 -0.577604246797654 0.0603947596648847 0.358919630240857 -0.442223343685955 0.34201800324381 0.200814678914988 0.100709045073307
c8 3.51658458668505 0.115470115261254 -0.296229523208207 -0.167283910315859 0.144734693183033 -0.0340644955399364 0.0635237818054197 -0.0622712367941141 -0.039488424481623 0.00521812990899801 -0.0271650512143167 -0.199417647736691 -0.247142203283988 -0.0233128636746592 -0.12673800453627 -0.0106332197583893 0.0477109759212501 0.0102784017547177 -0.284151616127591 0.224535332816298 0.0771349174261108 -0.0331242815340747 0.114915403165253 -0.24679627454271 -0.379300713233617 -0.550256613562474 -0.848761861652514 -0.213845447796038 0.0704897250944632 0.340553316778288 0.757924620948801 0.768397635965552 0.589080182657391 -0.577604246797633 0.0603947596650505 0.358919630240794 -0.442223343685868 0.342018003243883 0.200814678915092 0.100709045073243
c9 3.50207825616739 -0.121901194209945 -0.0416384170709071 -0.351776782906805 0.24131122076091 -0.0235180943581535 0.103494930392521 -0.068045907921663 -0.0305039608145309 -0.0467574607379613 -0.0363571089073229 -0.247460763351815 -0.185854107984383 -0.00524019723440736 -0.0915674276912184 0.0768539086207001 0.0637446606236751 -0.00422295051783441 -0.290799463406254 0.391129039323425 0.261056963658943 -0.0607067162371234 0.184441709055703 -0.509063782504524 -0.811942893701025 -0.97047136971915 -1.28698190791318 -0.549215522609591 0.665696559564216 0.490657460571559 0.738424149158036 0.689292006085214 0.419562444188307 -0.551392353029651 -0.0807068902398419 0.556309455351626 -0.54517059154704 -0.0605058721526679 0.0216816488893899 0.01209132226803
c10 3.5212254464824 0.116097676675341 -0.284371748366695 -0.142830859437209 0.119595499175555 -0.0297941656724049 0.0440816677099158 -0.0481146305612806 -0.0330213014011374 0.0097879991223787 -0.0165413423781222 -0.131897794178462 -0.161745239385868 -0.0164428024673221 -0.0835542579792784 -0.0113322874145479 0.0154830007575828 0.00474677666589246 -0.115895463823626 0.0743654536648544 0.0101844246938678 -0.0246292750419913 0.0318591269561811 -0.027215054189432 -0.0200306652026245 -0.0410835684944234 -0.0348375929691516 0.0120082086236979 -0.0673069566444413 -0.0502276505558224 -0.0177373641997304 9.83507840615117e-05 0.0192119741284067 0.0145794692547266 0.046903463772793 -0.0579159710472097 0.0751029105352775 0.0334362310401246 0.0192191350840728 0.00297909833985294
c11 3.5212254464824 0.116097676675346 -0.284371748366712 -0.142830859437222 0.119595499175538 -0.0297941656724227 0.0440816677098953 -0.0481146305612789 -0.0330213014011276 0.00978799912239974 -0.0165413423781336 -0.131897794178508 -0.161745239385859 -0.0164428024673153 -0.0835542579792946 -0.0113322874145835 0.0154830007574188 0.0047467766658072 -0.115895463823614 0.0743654536647958 0.0101844246938702 -0.0246292750420365 0.0318591269561366 -0.0272150541894972 -0.0200306652025915 -0.0410835684944598 -0.0348375929691574 0.0120082086238174 -0.0673069566444913 -0.0502276505557457 -0.017737364199795 9.83507841056444e-05 0.0192119741283251 0.0145794692547419 0.0469034637728408 -0.0579159710471234 0.0751029105352078 0.0334362310401364 0.0192191350841897 0.00297909833989379
c12 3.50833094049781 0.172803706627336 -0.42177381681448 -0.225701766642147 0.233691562385577 -0.118267448509438 0.684348343080226 1.38285261319025 0.218672053573492 -0.0543114352744152 0.064460560255193 0.24287614083745 0.182678374180441 0.0316473526787481 0.128150557248975 0.0290682518016777 -0.005828953518948 -0.00254951740716506 0.119294757413514 0.0995130045208776 -0.0801179398186611 0.0064863175304725 -0.0213138662036319 -0.0194059600868939 0.0299133176871741 0.0457799684545358 -0.000699408025599378 -0.0228137692951148 0.00814442966896455 0.0287609985399097 0.00969078831455006 -4.70591709334427e-05 -0.00550558045730394 -0.0063859939303999 -0.00996270009729743 -0.00486276056875384 -0.0191110811602152 -0.0112845037891483 -0.00704721427236228 -0.00282683463639
c13 3.50833094049781 0.172803706627341 -0.421773816814493 -0.225701766642167 0.233691562385554 -0.118267448509439 0.684348343080236 1.38285261319036 0.218672053573508 -0.0543114352745088 0.0644605602551793 0.24287614083747 0.182678374180495 0.0316473526787558 0.128150557248955 0.0290682518016139 -0.00582895351874494 -0.00254951740728059 0.119294757413578 0.0995130045208239 -0.080117939818662 0.00648631753032986 -0.0213138662036147 -0.0194059600870749 0.0299133176871442 0.0457799684544799 -0.000699408025656632 -0.0228137692951144 0.00814442966904275 0.0287609985398314 0.00969078831461245 -4.70591709972965e-05 -0.00550558045744705 -0.0063859939304695 -0.00996270009686864 -0.00486276056896944 -0.0191110811601961 -0.0112845037891151 -0.00704721427245722 -0.00282683463648538
c14 3.50549911653216 0.179044288581929 -0.43595581948551 -0.233041399761849 0.243310602582473 -0.124873311197357 0.729603245850641 1.48123856093666 0.235300235521929 -0.0587209858925711 0.0694691519194404 0.267213963928661 0.201433184763434 0.0350793668127641 0.14372999251239 0.0335740250747025 -0.00592387173234164 -0.00239726018047064 0.143697454786568 0.130937416591145 -0.104800738257942 0.00639155430659868 -0.0265664139051506 -0.028924825528786 0.0412535306464329 0.0615529374184442 -0.00321479128682669 -0.0314253011054245 0.00482837494236698 0.0391908633690303 0.0158992449958776 -0.0011811330883092 -0.00767210993953477 -0.00710691754017195 -0.0132291314503257 -0.0133886081300594 -0.0268192425114861 -0.0169089756462106 -0.00986728221258181 -0.00160783045616729
c15 3.50833094049781 0.172803706627336 -0.421773816814489 -0.225701766642155 0.233691562385566 -0.118267448509465 0.684348343080229 1.38285261319028 0.218672053573475 -0.0543114352744638 0.0644605602552113 0.242876140837499 0.182678374180495 0.0316473526786969 0.128150557248916 0.0290682518016794 -0.00582895351884978 -0.00254951740722049 0.119294757413535 0.0995130045208461 -0.0801179398187138 0.00648631753038314 -0.0213138662036673 -0.019405960086882 0.0299133176870659 0.0457799684545245 -0.000699408025689944 -0.0228137692950484 0.00814442966886944 0.0287609985398814 0.00969078831453961 -4.70591708968712e-05 -0.00550558045730113 -0.00638599393034609 -0.00996270009718182 -0.00486276056894077 -0.0191110811602336 -0.0112845037891595 -0.00704721427235142 -0.00282683463644047
c16 3.50833094049781 0.172803706627346 -0.42177381681451 -0.225701766642159 0.233691562385537 -0.118267448509482 0.684348343080256 1.38285261319034 0.218672053573474 -0.0543114352744921 0.06446056025519 0.242876140837447 0.182678374180485 0.0316473526786998 0.128150557248963 0.0290682518016636 -0.00582895351878298 -0.00254951740725226 0.119294757413515 0.0995130045208638 -0.0801179398186533 0.00648631753037199 -0.0213138662036453 -0.0194059600869796 0.0299133176870802 0.0457799684545461 -0.000699408025685563 -0.0228137692950999 0.00814442966901704 0.028760998539797 0.00969078831456365 -4.7059171017065e-05 -0.00550558045741305 -0.00638599393038162 -0.00996270009703103 -0.0048627605690162 -0.0191110811603567 -0.011284503789041 -0.00704721427243774 -0.00282683463646536
c17 3.50549911653216 0.179044288581915 -0.435955819485514 -0.233041399761802 0.24331060258248 -0.124873311197319 0.729603245850602 1.48123856093666 0.235300235521907 -0.0587209858924752 0.0694691519193891 0.267213963928521 0.201433184763385 0.0350793668128158 0.143729992512586 0.0335740250746463 -0.00592387173235772 -0.00239726018054333 0.143697454786645 0.130937416591068 -0.104800738258039 0.0063915543065006 -0.026566413905074 -0.0289248255289133 0.0412535306461598 0.0615529374184035 -0.00321479128686301 -0.0314253011053482 0.00482837494242837 0.0391908633691434 0.015899244995867 -0.00118113308787339 -0.00767210993964339 -0.00710691754023936 -0.0132291314503797 -0.0133886081300815 -0.0268192425114787 -0.0169089756464901 -0.00986728221268226 -0.00160783045643555
c18 3.50833094049781 0.172803706627346 -0.421773816814488 -0.225701766642151 0.233691562385597 -0.118267448509508 0.684348343080212 1.3828526131903 0.218672053573575 -0.0543114352744085 0.0644605602551228 0.242876140837376 0.182678374180487 0.0316473526787533 0.128150557248948 0.0290682518018043 -0.00582895351880608 -0.00254951740717058 0.11929475741348 0.0995130045209065 -0.0801179398187212 0.0064863175305689 -0.0213138662037144 -0.0194059600868267 0.0299133176871653 0.045779968454555 -0.000699408025628814 -0.0228137692950411 0.00814442966886643 0.0287609985399633 0.00969078831458638 -4.70591707413882e-05 -0.00550558045728679 -0.00638599393038536 -0.00996270009730052 -0.0048627605686977 -0.0191110811603048 -0.011284503789165 -0.00704721427234364 -0.00282683463637208
c19 3.50043695205238 0.206190716535825 -0.420740161804135 -0.232653890170193 0.239459387555117 -0.15411479864673 0.730273823330883 1.46044039253322 0.207756748272282 -0.0344889002543518 0.0925197044231264 0.116027333309195 0.379927755846411 -0.0476221616418186 -0.159968833088068 -0.161628938705345 -0.0709758857370681 -0.0208932714069416 -0.558512246055442 -1.60438799422207 0.908568862352312 0.068855623226117 0.094881746190869 0.397505370624561 -0.302940909369329 -0.400308321013227 0.164405890328474 0.241131569138223 0.213405238338626 -0.185163092294027 -0.0933520872290935 0.01332192516861 0.00987693730355536 0.0158683407303587 -0.0136745537836993 0.274851533612466 0.0446521264817359 0.0648604710867811 0.0396954131722018 0.00865727960701372
c20 3.50833094049781 0.172803706627334 -0.421773816814505 -0.225701766642157 0.233691562385576 -0.118267448509476 0.68434834308024 1.38285261319025 0.218672053573518 -0.0543114352744832 0.0644605602551979 0.242876140837397 0.182678374180439 0.0316473526786948 0.128150557248922 0.0290682518016446 -0.00582895351877336 -0.00254951740721142 0.11929475741356 0.0995130045208319 -0.0801179398186323 0.00648631753045461 -0.021313866203686 -0.0194059600869618 0.0299133176871436 0.0457799684545646 -0.000699408025655739 -0.0228137692950302 0.00814442966895202 0.0287609985399587 0.00969078831455892 -4.70591709474551e-05 -0.00550558045735181 -0.00638599393042576 -0.00996270009700151 -0.00486276056881318 -0.0191110811602706 -0.0112845037890455 -0.00704721427246725 -0.00282683463649812
c21 3.50833094049781 0.172803706627345 -0.421773816814517 -0.225701766642158 0.233691562385557 -0.118267448509482 0.684348343080226 1.38285261319028 0.218672053573485 -0.0543114352744856 0.0644605602551816 0.242876140837322 0.182678374180506 0.0316473526787187 0.128150557248989 0.029068251801654 -0.00582895351887104 -0.00254951740731774 0.11929475741347 0.0995130045209242 -0.0801179398186488 0.00648631753046009 -0.0213138662037169 -0.0194059600868956 0.029913317687049 0.0457799684544852 -0.00069940802565031 -0.0228137692951065 0.0081444296689413 0.0287609985399059 0.00969078831457361 -4.70591710021322e-05 -0.00550558045736121 -0.00638599393038642 -0.00996270009713302 -0.00486276056890557 -0.0191110811603023 -0.0112845037891068 -0.00704721427239799 -0.0028268346365016
c22 3.50833094049781 0.172803706627347 -0.421773816814496 -0.225701766642138 0.233691562385565 -0.118267448509486 0.684348343080204 1.38285261319034 0.218672053573526 -0.054311435274545 0.0644605602552045 0.242876140837405 0.18267837418042 0.031647352678705 0.128150557248884 0.0290682518015657 -0.00582895351877789 -0.00254951740732133 0.119294757413559 0.0995130045208066 -0.0801179398186379 0.00648631753034774 -0.0213138662036307 -0.0194059600871243 0.0299133176870228 0.0457799684544133 -0.000699408025801722 -0.0228137692950438 0.00814442966897987 0.0287609985398609 0.00969078831451011 -4.70591710313937e-05 -0.00550558045749038 -0.00638599393034383 -0.00996270009700172 -0.00486276056889933 -0.0191110811602994 -0.0112845037891069 -0.00704721427238997 -0.00282683463657771
c23 3.50833094049781 0.172803706627321 -0.421773816814505 -0.225701766642146 0.233691562385566 -0.118267448509449 0.684348343080243 1.38285261319025 0.218672053573487 -0.054311435274446 0.064460560255194 0.242876140837392 0.182678374180474 0.0316473526787743 0.128150557248899 0.0290682518016961 -0.00582895351886233 -0.00254951740723363 0.119294757413521 0.0995130045208395 -0.0801179398186379 0.00648631753043249 -0.0213138662036653 -0.0194059600869461 0.0299133176871477 0.0457799684545477 -0.00069940802562833 -0.0228137692951004 0.00814442966896856 0.0287609985399841 0.00969078831455162 -4.70591708845168e-05 -0.00550558045736617 -0.00638599393045269 -0.00996270009721056 -0.00486276056884802 -0.0191110811602254 -0.0112845037891745 -0.00704721427237718 -0.00282683463634622
c24 3.50833094049781 0.17280370662733 -0.421773816814504 -0.225701766642164 0.233691562385552 -0.118267448509457 0.684348343080229 1.38285261319029 0.218672053573474 -0.0543114352744735 0.0644605602551699 0.242876140837395 0.182678374180467 0.0316473526787452 0.128150557249043 0.0290682518015482 -0.00582895351880525 -0.00254951740735308 0.119294757413565 0.099513004520883 -0.0801179398186573 0.00648631753030626 -0.0213138662035838 -0.0194059600872515 0.0299133176871119 0.0457799684544501 -0.000699408025673424 -0.0228137692949383 0.00814442966910242 0.0287609985398715 0.0096907883145527 -4.70591710619939e-05 -0.0055055804575182 -0.00638599393034795 -0.00996270009692415 -0.00486276056891633 -0.0191110811603963 -0.0112845037890654 -0.00704721427244576 -0.00282683463649653
c25 3.50833094049781 0.172803706627324 -0.421773816814498 -0.225701766642153 0.233691562385566 -0.118267448509428 0.684348343080254 1.38285261319032 0.218672053573532 -0.0543114352744096 0.0644605602551958 0.242876140837406 0.182678374180462 0.0316473526787351 0.128150557248853 0.0290682518017367 -0.00582895351891375 -0.00254951740708358 0.119294757413499 0.0995130045208819 -0.0801179398186659 0.00648631753048693 -0.021313866203624 -0.0194059600867886 0.0299133176871764 0.0457799684545835 -0.00069940802552039 -0.022813769295098 0.00814442966888925 0.028760998539973 0.00969078831454197 -4.70591708548842e-05 -0.00550558045727857 -0.00638599393027705 -0.00996270009731838 -0.00486276056877686 -0.0191110811601554 -0.0112845037891155 -0.00704721427233893 -0.00282683463634973
c26 3.50833094049781 0.172803706627336 -0.421773816814483 -0.225701766642158 0.233691562385577 -0.118267448509508 0.684348343080238 1.38285261319028 0.218672053573516 -0.0543114352743912 0.0644605602551815 0.242876140837366 0.182678374180456 0.031647352678727 0.128150557248875 0.0290682518017149 -0.00582895351887769 -0.00254951740720965 0.119294757413516 0.0995130045209322 -0.0801179398186932 0.00648631753047023 -0.0213138662037362 -0.019405960086773 0.0299133176871224 0.0457799684545636 -0.000699408025629258 -0.0228137692950025 0.00814442966889364 0.0287609985400729 0.00969078831446178 -4.70591708663207e-05 -0.0055055804572759 -0.0063859939303305 -0.00996270009732121 -0.0048627605688727 -0.0191110811602525 -0.011284503789081 -0.00704721427239554 -0.00282683463641661
c27 3.50833094049781 0.17280370662734 -0.421773816814501 -0.225701766642166 0.233691562385537 -0.118267448509444 0.684348343080225 1.38285261319028 0.218672053573425 -0.0543114352744898 0.0644605602552012 0.242876140837517 0.182678374180454 0.0316473526787404 0.128150557248973 0.029068251801558 -0.00582895351879768 -0.00254951740729777 0.119294757413571 0.0995130045208458 -0.0801179398186358 0.00648631753027917 -0.0213138662035458 -0.0194059600871298 0.0299133176871513 0.0457799684544413 -0.000699408025627886 -0.0228137692951645 0.00814442966897781 0.0287609985398727 0.00969078831462544 -4.70591710286823e-05 -0.00550558045740472 -0.00638599393040469 -0.00996270009707918 -0.00486276056892837 -0.0191110811603861 -0.0112845037891141 -0.00704721427244873 -0.00282683463645928
c28 3.50833094049781 0.172803706627352 -0.42177381681451 -0.225701766642129 0.233691562385539 -0.118267448509458 0.684348343080246 1.38285261319036 0.218672053573459 -0.0543114352745424 0.064460560255266 0.242876140837465 0.182678374180431 0.0316473526787064 0.128150557248916 0.0290682518015151 -0.00582895351880811 -0.00254951740737097 0.119294757413575 0.0995130045208278 -0.0801179398186188 0.00648631753031294 -0.0213138662036456 -0.0194059600871995 0.0299133176870065 0.0457799684543785 -0.000699408025738373 -0.022813769294996 0.00814442966911689 0.0287609985398605 0.00969078831451417 -4.70591710955443e-05 -0.00550558045744033 -0.00638599393035888 -0.00996270009688888 -0.00486276056899033 -0.0191110811604051 -0.011284503789046 -0.00704721427242098 -0.00282683463650672
c29 3.38949782203456 -0.141736706076046 1.55393700532749 -0.191228611416502 -1.24173521464809 0.765458408931485 -0.176562636083105 0.187485720135502 0.13320654451203 -0.378783600316057 0.0140381817036579 0.695524545509584 0.01986477821339 -0.0304921506110641 -0.114212551453046 -0.0938845172026346 -0.0593133323400204 -0.000149518659759775 0.154824001326476 -0.069251063365609 -0.193091952195585 0.147778221611976 0.0903262089871572 0.0565913349254112 -0.240799895696908 0.243221193320325 -0.207320887293975 0.00652258096375054 0.206873932352693 -0.321226669501907 -0.147446239686329 -0.163061044034648 -0.00247801101765591 0.0240372432179192 -0.0378107789953169 -0.0377220324595861 -0.217181704410596 0.451649809082125 0.00625609948552714 -0.104913332382225
c30 3.5212254464824 0.116097676675318 -0.2843717483667 -0.142830859437193 0.11959549917557 -0.0297941656723755 0.0440816677098965 -0.0481146305612144 -0.033021301401093 0.00978799912260998 -0.0165413423781087 -0.131897794178539 -0.161745239385747 -0.0164428024672841 -0.0835542579791022 -0.0113322874147561 0.0154830007574129 0.00474677666582395 -0.115895463823718 0.0743654536648884 0.0101844246936994 -0.024629275041945 0.0318591269562264 -0.0272150541895129 -0.0200306652027992 -0.0410835684943598 -0.0348375929686983 0.0120082086238244 -0.0673069566443203 -0.0502276505557368 -0.0177373641998604 9.83507841308378e-05 0.0192119741283249 0.0145794692548343 0.0469034637732598 -0.0579159710472216 0.0751029105353387 0.0334362310399462 0.0192191350843661 0.00297909834018615
c31 3.51121565406354 0.0958676952271989 -0.312242746798957 -0.191967384970444 0.15137352934688 0.086049996500114 0.181939318310901 -0.234688966967505 -0.562688490034862 0.451090133836172 0.377488992042387 0.187319162703213 0.298614198625676 0.00505525314907209 -0.00956269107301355 0.012976117540562 -0.028784196187651 -0.00346952065618991 0.15874395505901 0.157697192585054 -0.113688665944077 0.0343358939089616 -0.106312760267763 0.187541888341693 0.167074020849552 -0.671166315216749 0.186481589336175 0.406531588330522 0.0282216480555426 -0.163456558757967 0.0170220211707146 -0.0730585757304796 -0.0143812201351033 -0.0105063845828992 0.455536603417415 0.0119450819201096 -0.161790747914916 -0.0310276034199951 0.0183493822827445 -0.0226806575211022
c32 3.51121565406354 0.095867695227219 -0.312242746798946 -0.19196738497042 0.151373529346868 0.0860499965000602 0.181939318310904 -0.23468896696747 -0.562688490034802 0.451090133836155 0.377488992042356 0.187319162703083 0.298614198625738 0.00505525314904569 -0.00956269107298708 0.0129761175405101 -0.0287841961876347 -0.00346952065625906 0.158743955059018 0.157697192585081 -0.113688665944074 0.0343358939091015 -0.106312760267811 0.187541888341668 0.167074020849491 -0.671166315216809 0.186481589336139 0.406531588330528 0.0282216480554997 -0.163456558758069 0.0170220211706599 -0.0730585757305292 -0.0143812201351807 -0.0105063845829212 0.455536603417569 0.0119450819199309 -0.161790747914926 -0.0310276034198161 0.0183493822826897 -0.0226806575211924
c33 3.47693695207242 -0.43286803725877 0.222182244486226 -0.455345525206746 0.329668194075456 0.154565149649698 0.284840349024743 -0.280343912588205 -0.707964272683467 0.363196142119071 0.517779155607048 -0.0233966651155445 0.970726447625842 -0.0180649695516281 -0.183072571671614 -0.029943802769381 0.0453902372649434 0.0372369231921586 0.399622472061888 0.410751295345215 -0.239619820961802 0.205921475431378 0.0381385728647779 0.420401511089566 -0.117281584105049 -0.770847065293529 0.165349055611689 0.654990593860239 0.254766470262046 -0.324598132956314 -0.109921367908456 -0.234460219552088 -0.0764320110937751 -0.0309588654096889 0.150779685751866 0.0865896116598043 -0.157101762655384 0.307341171251426 0.108366729896447 -0.0907774063716888
c34 3.48109854323741 -0.501227222135901 0.317969477876382 -0.623149303391917 0.436777127749835 0.107668971416678 0.263679278291529 -0.231607609448068 -0.516803765560995 0.376262845417227 0.34397955182482 0.237682787408629 0.281388331403851 0.00773150399609089 0.0016797257343151 -0.0437703987800437 -0.0984299567047687 -0.0332420213577882 0.0899939385907147 0.00398921268907737 -0.202762242337974 0.00678429593061572 -0.274334146824263 0.316375516508229 0.441281167885631 -0.793769108053522 0.171003667065229 0.431809716542165 -0.164645997618195 -0.16988826380659 0.0863668622799699 0.0573012580661823 0.0577754677028331 -0.065279927204671 0.352935680536951 0.00355649489333511 0.116635209245897 -0.578391915698669 -0.00824562630057373 -0.108679930494509
c35 3.46010977394994 -0.869999716052947 0.736328363378453 -0.890417603356274 0.60428326902485 0.10568896095386 0.316749638261955 -0.224309349446165 -0.464918911481604 0.360189233926492 0.317749609005892 0.219717357870385 0.324765779288155 0.00698773324210636 -0.000315314460519001 -0.00659684411951735 -0.23659780883802 -0.0881246911731208 0.102691974825332 -0.0057383601074892 -0.281552990484265 -0.073077554334385 -0.490140081224611 0.0836046912579866 0.500136044602497 -0.80076639462796 0.28502416559378 0.0412450632909296 -0.195799028966521 -0.381301711014256 0.0339463230475677 0.130500420366368 0.136446494415116 -0.0938826492802507 0.60321526805462 0.171031302976144 0.146991185186013 -0.19094218377015 -0.0952385981421206 -0.0564576408722461
c36 3.51653442110568 0.1139206674731 -0.270458176553815 -0.174631796237154 -0.0428338779972504 -0.158746862837796 0.0366498396638649 -0.0444058448904824 -0.0152445010100012 0.0776137020082598 -0.0318967281421636 -0.108224075828111 -0.206810634416072 -0.037442344810213 -0.202247787716166 0.0147152922483456 0.0242937659294208 0.0223061107304316 -0.155506239338735 0.144323268008213 0.00170499341816575 -0.0231507696348336 0.0573070474114285 -0.0539903281178203 -0.0515119001596 -0.051872963833421 -0.0925453644882171 0.115877115172633 -0.134800231450599 -0.0293863079890527 -0.0826111216635242 -0.0266222509648129 0.0570715203319939 0.0500250741267046 0.290117250397201 -0.129596946188818 0.661383238298121 0.309545884657259 1.52287002883529 -0.277371625387148
c37 3.48482693845648 0.0822480074057193 -0.0595570827465776 -0.237837157864217 -1.10304117518532 -0.702795969951378 -0.0369483242632091 -0.0147557652273361 0.10719952908289 0.262856144300569 -0.0410418148705035 0.106550553953579 -0.103867423587138 -0.145725787952305 -0.29923054350619 0.0643622329230744 0.0359173630569152 0.0487297697599693 -0.0386468694283558 0.143505198129127 -0.038357687133772 0.0176746242561331 0.0462779658440905 -0.0278720974975346 -0.061189590491117 0.024144974208083 -0.066066009549255 0.212112331438455 -0.0842275689776034 0.128177976131948 -0.15215331409881 -0.0126981160547661 0.0869021863966315 0.0408069887139988 0.320316693914725 -0.0360918266499184 0.658467718941509 0.28434429082187 1.62486429276775 -0.287284864373525
c38 3.51653442110568 0.113920667473088 -0.270458176553783 -0.174631796237137 -0.0428338779972405 -0.15874686283777 0.0366498396639157 -0.0444058448905394 -0.0152445010100924 0.0776137020082679 -0.0318967281421746 -0.108224075828105 -0.206810634416084 -0.0374423448102098 -0.202247787716179 0.014715292248456 0.0242937659295006 0.0223061107305189 -0.155506239338748 0.144323268008116 0.00170499341817392 -0.0231507696348325 0.0573070474114458 -0.0539903281177886 -0.0515119001594131 -0.0518729638333357 -0.0925453644881813 0.115877115172667 -0.13480023145059 -0.0293863079891625 -0.0826111216633155 -0.026622250965082 0.0570715203319808 0.0500250741267266 0.290117250397137 -0.129596946188892 0.661383238298165 0.309545884657206 1.52287002883523 -0.277371625387082
c39 3.51653442110568 0.113920667473075 -0.270458176553796 -0.174631796237149 -0.0428338779972633 -0.15874686283775 0.0366498396638947 -0.0444058448904982 -0.0152445010100188 0.0776137020082796 -0.031896728142157 -0.108224075828061 -0.206810634416059 -0.0374423448102131 -0.202247787716161 0.014715292248461 0.0242937659293869 0.0223061107304068 -0.155506239338727 0.144323268008154 0.00170499341818157 -0.0231507696348567 0.0573070474115203 -0.0539903281178404 -0.0515119001593924 -0.0518729638333215 -0.0925453644881167 0.115877115172672 -0.134800231450606 -0.0293863079890188 -0.0826111216634309 -0.0266222509649027 0.057071520331998 0.0500250741267368 0.290117250397038 -0.129596946188781 0.661383238298165 0.309545884657267 1.52287002883524 -0.277371625387085
c40 3.51653442110568 0.113920667473099 -0.270458176553787 -0.174631796237174 -0.0428338779972547 -0.158746862837757 0.0366498396639103 -0.0444058448905839 -0.0152445010100175 0.0776137020082284 -0.0318967281421278 -0.108224075828019 -0.206810634416097 -0.0374423448102525 -0.202247787716254 0.0147152922484624 0.0242937659294479 0.0223061107305008 -0.155506239338777 0.144323268008136 0.00170499341814129 -0.0231507696347755 0.0573070474114649 -0.0539903281177453 -0.0515119001594988 -0.0518729638333599 -0.0925453644882245 0.115877115172625 -0.134800231450617 -0.0293863079890938 -0.0826111216634483 -0.0266222509650134 0.057071520331934 0.0500250741267455 0.290117250397046 -0.129596946188763 0.661383238298123 0.309545884657226 1.52287002883528 -0.277371625387091
c41 3.51405974847415 0.127655513008014 -0.32209711618222 -0.176733714140863 0.15846808529095 -0.041293188578026 0.0773774588900711 -0.0829192789577471 -0.0586668103764255 0.0119658277654788 -0.0485998982869392 -0.355080914405916 -0.553492309076529 -0.0589419102022876 -0.317828039021369 -0.0985276933906801 0.774068907708236 -1.2650204372246 0.925354261536 -0.320076839314127 -0.0298304531331485 0.0340521460696524 -0.0592707968290257 0.0587728049770543 0.0435921972260058 0.0234312768778725 0.00753320522139958 -0.0303586399507261 0.161294870910818 -0.0640433549698101 -0.0271048681565207 0.00205360976031622 -0.00298564801345887 -0.0189804970165701 -0.0150122832267865 0.0900047281722781 -0.0512082657521317 -0.0197201235422385 -0.0509765783420568 -0.00954772479411153
c42 3.51122793277766 0.133380627952513 -0.334313835810821 -0.180780378906252 0.166967339179407 -0.0461849434769569 0.086476032153443 -0.0981327381247393 -0.0828428363958147 0.0101177487678698 -0.143805921236528 -0.343583770254929 -0.557021787963269 -0.0652844008181592 -0.329273148679236 -0.108837906894077 0.8185350096305 -1.34971591203051 0.997662513424965 -0.357883426427288 -0.0660460228062719 0.043672703727191 -0.0578409217047516 0.0631506264328993 0.0252629927197708 0.0135407781092072 0.0264125961904154 -0.0449193366139129 0.186533457207148 -0.0725539510164392 -0.0278948301844128 -0.0102046961408249 -0.0141798892927575 -0.0187163734417151 -0.0274015233479089 0.101995319253951 -0.0676524218186298 -0.00205605365724492 -0.0560339434922127 0.0551430111733844
c43 3.51405974847415 0.127655513008012 -0.322097116182221 -0.17673371414087 0.15846808529092 -0.0412931885779912 0.0773774588900746 -0.0829192789576851 -0.0586668103763811 0.0119658277654796 -0.0485998982870042 -0.355080914405914 -0.553492309076484 -0.0589419102022552 -0.317828039021343 -0.0985276933907051 0.774068907708211 -1.2650204372246 0.925354261535988 -0.320076839314135 -0.0298304531331232 0.0340521460696745 -0.0592707968289541 0.0587728049771018 0.0435921972260612 0.0234312768779161 0.00753320522145991 -0.0303586399506875 0.161294870910733 -0.0640433549696832 -0.0271048681567132 0.00205360976045481 -0.0029856480135572 -0.0189804970165043 -0.0150122832268331 0.0900047281723714 -0.0512082657522199 -0.0197201235422555 -0.0509765783419625 -0.00954772479395011
c44 3.51405974847415 0.127655513007998 -0.322097116182223 -0.176733714140861 0.158468085290938 -0.0412931885779445 0.0773774588900491 -0.0829192789576391 -0.0586668103764837 0.0119658277654732 -0.0485998982869658 -0.35508091440588 -0.553492309076517 -0.0589419102022112 -0.31782803902132 -0.0985276933908169 0.774068907708255 -1.26502043722469 0.925354261535958 -0.320076839314134 -0.029830453133158 0.0340521460695457 -0.059270796828905 0.0587728049768796 0.0435921972259846 0.0234312768778635 0.00753320522150377 -0.0303586399505532 0.161294870910841 -0.0640433549697822 -0.0271048681566249 0.00205360976043063 -0.0029856480134846 -0.0189804970164683 -0.0150122832266486 0.0900047281723489 -0.0512082657522315 -0.0197201235423046 -0.0509765783420302 -0.00954772479411701
c45 3.47572657617414 -0.61851804845035 0.461133746020144 -0.687071248413451 0.515824916496175 -0.0028157235131592 0.169153402557005 -0.0716121634514234 0.0209042208492774 -0.052593588043758 -0.0881930106332903 -0.347371731316943 -0.530902266103276 -0.044332984219691 -0.270485423812134 -0.0951006046052484 0.902051124874652 -1.23602328420935 0.927981396741439 -0.463916638523813 0.00897289792255051 0.114148731021997 -0.109634910755227 0.0787862774080229 0.0411825167102478 0.180684498987741 0.141497675575887 0.0192446302701551 -0.0628478303988497 0.408463167969833 0.137791338340557 0.0135498682332952 -0.0586418385239135 -0.0141550500599209 -0.116742266033905 -0.0919973423467827 -0.0615200179048287 -0.0563355616634374 0.135968624711802 -0.0493378704749155
c46 3.51405974847415 0.127655513008028 -0.322097116182233 -0.176733714140853 0.158468085290942 -0.0412931885780038 0.0773774588900756 -0.082919278957622 -0.0586668103764083 0.0119658277654658 -0.0485998982869965 -0.355080914405976 -0.553492309076513 -0.0589419102022287 -0.31782803902135 -0.0985276933908088 0.774068907708233 -1.26502043722472 0.925354261536016 -0.320076839314069 -0.029830453133179 0.0340521460697206 -0.0592707968290246 0.0587728049768835 0.0435921972259841 0.0234312768778024 0.0075332052213362 -0.0303586399506252 0.161294870910819 -0.0640433549697171 -0.0271048681566985 0.00205360976048816 -0.00298564801349543 -0.018980497016528 -0.015012283226644 0.0900047281722755 -0.0512082657523235 -0.0197201235422228 -0.050976578341978 -0.00954772479407474
c47 3.51405974847415 0.127655513008023 -0.322097116182243 -0.176733714140846 0.158468085290912 -0.0412931885779321 0.077377458890036 -0.0829192789576927 -0.0586668103764888 0.0119658277654386 -0.0485998982869523 -0.355080914405885 -0.553492309076471 -0.0589419102022611 -0.317828039021257 -0.098527693390833 0.774068907708317 -1.26502043722469 0.925354261536006 -0.320076839314047 -0.0298304531331391 0.0340521460695529 -0.0592707968289425 0.0587728049767842 0.0435921972260424 0.0234312768777781 0.00753320522145347 -0.0303586399506638 0.161294870910902 -0.0640433549698474 -0.0271048681566045 0.00205360976033443 -0.00298564801354868 -0.0189804970165625 -0.0150122832264644 0.0900047281722579 -0.0512082657522901 -0.0197201235423161 -0.0509765783419418 -0.00954772479416107
c48 3.51405974847415 0.127655513008015 -0.322097116182223 -0.176733714140862 0.158468085290929 -0.0412931885780104 0.0773774588900934 -0.0829192789577056 -0.0586668103764032 0.0119658277654818 -0.04859989828699 -0.355080914405902 -0.553492309076471 -0.0589419102022292 -0.317828039021305 -0.0985276933907314 0.774068907708279 -1.26502043722468 0.925354261535991 -0.320076839314104 -0.0298304531331493 0.0340521460696422 -0.0592707968290108 0.0587728049770537 0.0435921972259845 0.0234312768778974 0.00753320522145052 -0.0303586399507466 0.161294870910887 -0.0640433549698271 -0.0271048681565898 0.00205360976041252 -0.00298564801343615 -0.018980497016536 -0.015012283226687 0.0900047281723418 -0.0512082657522027 -0.0197201235423702 -0.0509765783420281 -0.00954772479396866
c49 3.51697778840185 0.124224696949631 -0.302412480981288 -0.15132301991984 0.12917800293388 -0.0334398688251983 0.0507773054842252 -0.0562068879206047 -0.0399918664590969 0.0116212060658185 -0.0202383967750744 -0.166651914824361 -0.210940239645213 -0.0221430666965404 -0.110473372527057 -0.0162349907546415 0.0229308088006565 0.00781127674692414 -0.178358318012475 0.11983887363756 0.014285964488334 -0.0440982117186717 0.0573116995580214 -0.0514555198850991 -0.0345347856703581 -0.0793883544833686 -0.0706242961675266 0.0258016376766426 -0.148353576884188 -0.114339756995792 -0.0366207766030827 -0.00240744100944904 0.0455397929362062 0.0423302593325078 0.131698972275077 -0.175626989736521 0.263031503181034 0.135913221039476 0.0924468323001107 0.0307164824242244
c50 3.51697778840185 0.124224696949639 -0.302412480981303 -0.151323019919818 0.129178002933945 -0.0334398688251607 0.0507773054842015 -0.0562068879208057 -0.0399918664591195 0.0116212060660001 -0.0202383967749746 -0.166651914824605 -0.210940239645421 -0.0221430666965644 -0.11047337252676 -0.0162349907546332 0.0229308088002545 0.00781127674637876 -0.178358318012024 0.119838873637182 0.014285964488448 -0.0440982117192137 0.0573116995588082 -0.0514555198848141 -0.0345347856705852 -0.0793883544836807 -0.0706242961678624 0.0258016376760356 -0.148353576884112 -0.114339756995953 -0.0366207766031819 -0.00240744100941345 0.0455397929344335 0.0423302593332143 0.131698972275284 -0.175626989736941 0.263031503180559 0.135913221038751 0.0924468322996874 0.0307164824226479
c51 3.4344594092482 0.105218474549192 0.488851640266916 1.48072957184208 -0.117307031764822 -0.0482666524442871 -0.0671734567322017 -0.0275067015794478 -0.157088585804542 -0.171646889851043 0.171429633605725 -0.0479811336939351 0.760859065282227 0.145764892300642 0.0113865471876456 0.0955044281737566 0.0422646162068759 0.00214442180793514 0.464281587614015 0.381586631157876 0.82450801023783 -0.136153867831841 -0.23100869847828 0.0998295973866948 0.572313990850797 0.124143269865511 -0.191391048156977 0.261658675862086 0.165301684063712 -0.0161858319555235 -0.0559527438396469 0.1235511465844 0.187068201873715 -0.103155789068368 -0.372997796309507 0.0934882383391127 0.0580596149490927 0.163223156019334 0.0923602864935249 0.431467805598542
c52 3.4375726497056 -0.674617348037854 0.667678246472831 -0.590117878377248 -1.19056020909198 0.445547108876174 -0.0937119358789739 0.152167561988843 0.408859370516149 0.499035948964532 -0.227893689315245 0.0435513023168904 0.137491432441836 -0.00402335196588118 -0.09488197553292 -0.0316665347586816 -0.164489520012701 -0.0935610407056993 0.10966181003012 -0.0707371267328087 -0.213131085216637 -0.0957440166224478 -0.166113446998307 -0.0458812444059685 0.0903516546970272 0.165069912403653 -0.139842947602248 -0.432500182456917 0.0518740048859896 -0.558673861507563 -0.201110269546146 0.123692696079553 0.0830311529209333 0.0445383650542826 0.358742384353723 0.466402372104793 -0.0730041758522126 0.112489580029735 0.0529761984439288 0.146463191807648
c53 3.51658474508126 0.125045876946711 -0.307239809309406 -0.15771724172785 0.136198453983156 -0.0354186080213459 0.0568261360914627 -0.0621457429188205 -0.043803956628556 0.0119961067018371 -0.0246087881228769 -0.19731693768129 -0.2591658365193 -0.0259446998861776 -0.135548762811671 -0.0227777561635349 0.0389260713931746 0.0166570827221605 -0.278310213239779 0.202626236355208 0.0489402184147246 -0.0805988735277779 0.172763142026923 -0.0395602345054027 0.0262747833964445 -0.143972634692283 -0.193391508887721 0.235582065004536 -0.865436441411236 -0.298409770153981 -0.626090715111074 0.620577898840527 -1.33643081848669 -0.45136125695401 -0.403700382951337 0.36358287586179 -0.382460700130849 0.0902854114533168 -0.11385337234047 -0.0955270091282491
c54 3.51658474508126 0.125045876946685 -0.3072398093094 -0.157717241727864 0.136198453983159 -0.0354186080213566 0.0568261360914483 -0.0621457429188121 -0.0438039566285966 0.011996106701853 -0.0246087881229242 -0.197316937681273 -0.259165836519263 -0.0259446998861383 -0.135548762811668 -0.02277775616346 0.0389260713931162 0.0166570827221512 -0.278310213239713 0.20262623635515 0.0489402184147133 -0.0805988735276996 0.172763142026786 -0.0395602345052436 0.0262747833964914 -0.143972634692182 -0.193391508887828 0.235582065004511 -0.865436441411361 -0.298409770153918 -0.626090715111218 0.620577898840515 -1.33643081848674 -0.451361256953877 -0.403700382951527 0.363582875861923 -0.382460700130904 0.0902854114533358 -0.113853372340676 -0.0955270091279978
c55 3.51658474508126 0.125045876946726 -0.307239809309401 -0.157717241727785 0.136198453983132 -0.0354186080212695 0.0568261360913982 -0.0621457429187637 -0.0438039566286473 0.0119961067017666 -0.0246087881228232 -0.197316937681124 -0.259165836519306 -0.0259446998861302 -0.135548762811513 -0.022777756163902 0.0389260713933355 0.0166570827219373 -0.278310213239665 0.202626236355242 0.0489402184147528 -0.0805988735279989 0.172763142026999 -0.039560234505993 0.026274783396219 -0.143972634692592 -0.193391508887776 0.23558206500465 -0.865436441411112 -0.298409770153976 -0.626090715111009 0.620577898840907 -1.33643081848679 -0.451361256954181 -0.403700382950649 0.363582875861636 -0.382460700130976 0.0902854114532564 -0.113853372340081 -0.0955270091282294
c56 3.50613385921006 -0.095944847358277 -0.0689556676090798 -0.318213851631342 0.238653804176722 -0.0272378630619056 0.091361001879089 -0.0646278991517521 -0.0241370415606063 -0.00622779067736882 -0.0504951805022286 -0.183984576512588 -0.25475639502434 -0.0127640357500893 -0.113188901076178 -0.0294942425970227 0.0742330080468458 0.0416717729485091 -0.276881314965399 0.226943611935137 0.109746465844622 -0.0673976532594031 0.263850645077347 0.087119793837023 0.182692728447332 -0.0547134861147969 -0.154856922095233 0.342327451966233 -0.997711991866874 -0.118604895260002 -0.605078612177737 0.638211725089976 -1.42625026651235 -0.441613154908755 -0.427345588661346 0.410066486564711 -0.351105720130612 -0.137540938671173 -0.0509389934367883 0.0137229059329869
c57 3.51658474508126 0.125045876946706 -0.307239809309422 -0.157717241727802 0.136198453983135 -0.0354186080213242 0.056826136091431 -0.0621457429187906 -0.0438039566286954 0.0119961067017443 -0.024608788122865 -0.197316937681206 -0.259165836519302 -0.0259446998861265 -0.135548762811544 -0.0227777561638271 0.0389260713933062 0.0166570827220479 -0.278310213239712 0.202626236355254 0.0489402184147741 -0.080598873527879 0.172763142026864 -0.0395602345056186 0.0262747833962287 -0.143972634692532 -0.193391508887862 0.235582065004559 -0.865436441411286 -0.298409770153885 -0.626090715111275 0.620577898840764 -1.33643081848676 -0.451361256954013 -0.403700382950865 0.363582875861691 -0.382460700131062 0.0902854114533797 -0.113853372340152 -0.0955270091281764
c58 3.44715449905744 -0.549511886862085 -0.132406038543548 0.869447386374113 -1.09279891279319 -0.704681769765443 -0.0665777352864643 -0.0881562235283049 0.296304756423268 0.135396629638767 0.0812018862205081 0.265348898383816 0.235256521657785 0.393626813952587 -0.10164468195446 0.208134209781949 0.0692523700140412 0.0243858104083663 0.246969453797567 0.213940804728029 0.516425786123946 -0.0196419267986927 0.0113420428721328 0.0803739324382011 -0.473340222953318 0.213093590077733 0.708178249107857 -0.258884341234742 -0.296336155895999 -0.251771264715374 0.336231868500985 0.231931088110889 0.184710038822031 -0.212898313131867 0.0822929496522636 -0.00193690312980968 -0.158794192938894 -0.290121373858739 -0.152358105372983 0.0532696132802706
c59 3.51540972187643 0.106806442606176 -0.294347365115117 -0.0960083118685448 0.101852978408984 -0.0882573869216799 0.101665428666412 -0.214682081441055 0.215342287025396 -0.0487941371638989 0.00369935645269522 -0.0134463665289258 0.0299982149051835 0.410363421279566 -0.0499550899618744 0.0735276423916737 0.0193503654708919 0.00594167286844635 0.0346150523230543 0.150252598755749 0.451087893738175 -0.0899852591116406 -0.0683633756203498 0.00740796841076267 0.124667272265854 0.150420382606615 -0.105760086715984 0.0182865771325946 -0.0850448075506525 -0.217087477762063 0.179612698232519 -0.018341681307674 0.00333955434247537 -0.0115935529707969 0.0699225502687314 -0.0328698624568992 0.0217634414997315 -0.000602737183719425 0.0206466945654464 0.139520496384143
c60 3.48581731275495 -0.324916434433357 0.173318472098222 -0.272833277283929 0.254133943988916 -0.0946451806682845 0.186045800347434 -0.269949015854876 0.229123427463109 -0.152637263715885 -0.151955753762025 0.00597939264667079 0.285449284792206 0.58570647714552 0.0686168829488275 0.348012066809922 -0.00211645604069952 -0.00363316382729552 0.270298951481226 0.395404132143954 1.40220228501128 -0.27235398406164 -0.250992072216885 -0.015336942596394 0.549339387659244 0.376018288674192 -0.442304775844281 -0.102768353091022 0.04651708196689 -0.391735906550871 -0.131252458708959 -0.0582397204335255 0.0803131147123754 -0.0784246373282185 0.0171119820298872 -0.214204435199931 -0.211280401231058 0.199098806372572 0.0546999188031513 0.467952343227127
c61 3.49178684898182 0.242159103721404 -0.372016017364147 -0.115021096159402 0.221807105078023 -0.190871758860937 0.352103914016027 -0.907708210692074 1.37550596818436 -0.22913345537705 0.26791078393602 0.47336761643275 0.481684959178707 2.07575706316534 -0.0147526458367047 -0.12760025159944 -0.0614465667639965 -0.0163294028566923 0.157736052281516 -0.202860461737267 -0.11523978932371 0.0544602128602406 -0.0430168933690184 0.0426420904602646 0.0313147108490849 0.0433463396997218 0.0287020675268021 0.00614285934234225 0.123877053705553 0.231987822360792 -0.322775949587322 0.119485997799284 0.138731150814766 -0.0487448981498857 -0.0293813333157244 0.0788076673076468 -0.127093324898203 -0.0741600217228977 -0.0634086171748478 0.059535651765196
c62 3.5212254464824 0.116097676675339 -0.284371748366688 -0.142830859437199 0.11959549917556 -0.0297941656723828 0.0440816677099022 -0.0481146305611864 -0.0330213014011592 0.00978799912250728 -0.016541342378116 -0.13189779417846 -0.161745239385734 -0.016442802467322 -0.0835542579791793 -0.0113322874146687 0.0154830007574275 0.00474677666577853 -0.115895463823558 0.0743654536647732 0.0101844246937215 -0.0246292750419386 0.0318591269561588 -0.0272150541894637 -0.0200306652027928 -0.0410835684942991 -0.0348375929689116 0.0120082086237585 -0.0673069566444476 -0.0502276505557508 -0.0177373641998926 9.83507840364234e-05 0.0192119741283539 0.0145794692548477 0.0469034637730241 -0.0579159710472337 0.0751029105352402 0.0334362310399778 0.019219135084386 0.00297909833997714
c63 3.51568842879036 0.109773710084219 -0.293157227783917 -0.179764142952004 0.157965628012548 -0.0354306262937581 0.0721547914247564 -0.0664895205600356 -0.0356894593054862 0.00608042263029543 -0.03597889741882 -0.223723748479316 -0.299280012772578 -0.0276741011357948 -0.158574543484543 -0.0392185852605585 0.0817561962425693 0.0316016675304006 -0.467296329549015 0.371482194094085 0.0776488472753539 0.0109778274732724 1.33984950202589 0.494944043977891 0.771637591846213 0.169331920787857 0.502200047977053 -0.315480344205841 0.658256065774863 -0.0266360794302605 0.0718496476804361 0.0284043039976875 0.150295410393556 0.0110910101253283 0.215431489919123 0.337581838038776 -0.0736359228166713 0.0315693043301906 -0.108842646788768 -0.000997249135224695
c64 3.47274921511901 -0.696178988174836 0.57667643091417 -0.745238020186101 0.54136331427464 0.00812331333448231 0.17201229885735 -0.0535081243570556 0.0572225909388808 -0.00567630234479632 -0.0759727097029996 -0.180549411565632 -0.252586400057733 -0.0186608599510634 -0.124085496269467 -0.0796449320339185 0.270294283072732 0.102320746375888 -0.453561823767115 0.451101241289919 0.0471200755604631 0.255672060138363 1.65074947215535 0.737614376289903 0.532441444980938 0.383406923836535 0.38876420163228 0.0501045251688028 0.646259161376285 0.276318926466709 0.180985551707643 0.0187743921752745 0.00285794301913195 0.00181797646007618 -0.194883343862836 0.0461165699029682 -0.142448347809597 -0.194109481372425 0.0201111782647047 -0.0810071433343055
c65 3.51568842879036 0.109773710084228 -0.293157227783953 -0.17976414295197 0.157965628012562 -0.035430626293698 0.0721547914247742 -0.0664895205599096 -0.0356894593056098 0.00608042263023158 -0.0359788974187489 -0.223723748479288 -0.299280012772554 -0.0276741011357739 -0.158574543484407 -0.0392185852609143 0.0817561962426124 0.0316016675302462 -0.467296329549022 0.371482194094162 0.0776488472754059 0.010977827472992 1.33984950202591 0.494944043977548 0.771637591845994 0.169331920787635 0.50220004797694 -0.315480344205782 0.658256065775055 -0.0266360794303425 0.0718496476803114 0.0284043039978482 0.150295410393451 0.0110910101252775 0.21543148991955 0.337581838038628 -0.0736359228168726 0.031569304330307 -0.108842646788626 -0.000997249135378203
c66 3.51568842879036 0.109773710084227 -0.293157227783928 -0.179764142951977 0.157965628012554 -0.0354306262937004 0.0721547914247457 -0.0664895205599579 -0.0356894593055419 0.00608042263024089 -0.0359788974188104 -0.223723748479235 -0.29928001277253 -0.0276741011358126 -0.158574543484333 -0.0392185852607905 0.0817561962425819 0.0316016675302258 -0.467296329548947 0.371482194094116 0.0776488472754186 0.010977827473031 1.339849502026 0.494944043977522 0.771637591846148 0.169331920787684 0.502200047977043 -0.315480344205837 0.658256065775098 -0.0266360794302834 0.0718496476804404 0.0284043039977111 0.150295410393468 0.0110910101252029 0.2154314899195 0.337581838038622 -0.0736359228166642 0.0315693043300932 -0.108842646788533 -0.000997249135311465
c67 3.51568842879036 0.109773710084207 -0.293157227783932 -0.179764142951977 0.157965628012544 -0.0354306262937198 0.072154791424742 -0.0664895205599431 -0.0356894593055412 0.00608042263028806 -0.0359788974188348 -0.223723748479257 -0.299280012772544 -0.0276741011358123 -0.158574543484369 -0.0392185852607384 0.0817561962425151 0.031601667530214 -0.467296329549021 0.371482194094099 0.077648847275416 0.0109778274730832 1.33984950202584 0.494944043977702 0.77163759184609 0.169331920787751 0.502200047977046 -0.315480344205859 0.658256065774985 -0.0266360794303493 0.0718496476803728 0.0284043039976407 0.150295410393541 0.011091010125273 0.215431489919274 0.337581838038639 -0.073635922816758 0.0315693043303342 -0.10884264678873 -0.000997249135325413
c68 3.45161174191612 -1.07875843006029 0.982661102185225 -1.04167235233228 0.717256589892437 -0.0132009518513256 0.229222986616911 -0.0612450697383738 0.0795210197262743 -0.100287068161077 -0.132396992166382 -0.19176586907832 -0.239812505252001 0.00336648854939682 -0.118132145931798 -0.0434974524059212 0.0165672070459711 0.0039566545058009 -0.464775162683049 0.306431745409653 0.127107842887858 -0.0520003215207532 1.21676520041781 0.53230744838539 1.07139502217204 0.136882127926875 0.518077316950279 -0.537201685626439 0.507856783387554 -0.0485340857804663 -0.0602462943859841 0.00548327708299687 0.00355605519974372 -0.0725915786601777 0.0421592129728948 0.224534752848881 -0.129950799887286 0.0593506563831682 -0.037022901475513 0.0597386124419932
c69 3.49469060562231 -0.319787010399306 0.215258370449487 -0.423138716250824 0.331541675952204 0.0355610121865413 0.121855119548928 -0.0535406942990245 -0.00457134503001337 -0.0984321983635312 -0.0230892718098195 -0.218834430637278 -0.104185876563905 0.0233090948284098 0.00165731976373464 0.206315165675661 0.22353028342554 0.0598760847127674 -0.0128063082644371 0.257782461425654 0.494749816593095 -0.00146663504147478 0.168335329290608 -0.278355358843284 -0.677061788516859 -0.0399061855167762 0.0389636085250956 -0.264794523582347 0.0524054302916649 0.935905365359888 -0.25726733889458 -0.706194637196965 -0.742758579771152 0.496815546912895 0.382008267446637 0.0737004065033888 0.107858589653882 0.0784718357134515 0.090484900208117 -0.00690537057169515
c70 3.50618334824416 0.0600617690468098 -0.355071564295931 -0.0777763449077605 0.147277405922865 -0.0230525757617936 0.0701215254706988 -0.0773702498316219 -0.0503825121751139 0.01409470317156 -0.0277421844759758 -0.545689015456519 -0.759519774588711 -0.0761942778777038 0.0143756017425122 -0.603332353160875 -1.52208843374244 0.649188265765194 1.10098664256184 -0.161821950478753 0.244614385243424 0.80648839069252 -0.173748328031434 0.273496672886042 -0.117487378234609 0.251279906308115 0.100419023969349 0.0621271325104646 0.481666999614521 0.319865232688145 0.0208070043392093 -0.432531089519945 -0.307355538873939 -1.46779770990064 0.253447391962519 -0.0466496475697444 0.262158002438006 -0.131209125207154 -0.0671553790405138 0.0219672497045174
c71 3.51337634791482 0.0466391817755613 -0.319195035318374 -0.0608976137061175 0.1604071240011 -0.0644958903093503 0.0638091800774154 -0.0638230561044101 -0.0429641569088639 0.00279553779460749 -0.00798806212150577 -0.312204320865936 -0.578669917351358 -0.0707659869899988 -0.208731816271722 -0.325672148822308 -1.14463655098328 0.470559065138717 0.920661731314231 -0.170033240687539 0.0901935991957212 -0.389779614190948 0.304054140236663 0.0622521586117609 -0.181566511115863 -0.00983334468181395 -0.038863499678029 0.223622134386225 -0.0400084574783776 0.127621601734111 0.0753874187999069 0.0728194732189502 0.0891862124789572 0.431060633207119 -0.160555072168103 0.0312325075051238 -0.123328800644979 -0.0301432469550069 -0.0416286867999678 -0.0129196296502691
c72 3.51337634791482 0.0466391817755884 -0.319195035318398 -0.0608976137061055 0.160407124001082 -0.0644958903094145 0.0638091800774287 -0.063823056104423 -0.0429641569088111 0.00279553779462699 -0.00798806212147591 -0.31220432086597 -0.578669917351383 -0.0707659869899753 -0.208731816271748 -0.325672148822287 -1.14463655098327 0.470559065138624 0.920661731314247 -0.170033240687538 0.0901935991957151 -0.389779614190889 0.304054140236653 0.0622521586119016 -0.181566511115882 -0.0098333446818493 -0.0388634996778938 0.223622134386268 -0.0400084574784165 0.127621601734102 0.07538741879992 0.0728194732189263 0.0891862124789511 0.43106063320711 -0.160555072168134 0.0312325075051876 -0.123328800645028 -0.0301432469549829 -0.0416286867999102 -0.0129196296503908
c73 3.51337634791482 0.046639181775564 -0.319195035318383 -0.0608976137061209 0.160407124001081 -0.0644958903093552 0.0638091800774605 -0.0638230561044555 -0.0429641569087825 0.00279553779462152 -0.00798806212146658 -0.312204320865966 -0.578669917351367 -0.0707659869899633 -0.208731816271752 -0.325672148822381 -1.14463655098325 0.470559065138637 0.920661731314291 -0.170033240687495 0.0901935991957445 -0.389779614191086 0.304054140236719 0.0622521586116107 -0.181566511115829 -0.00983334468195859 -0.0388634996779107 0.223622134386315 -0.0400084574782545 0.127621601733979 0.0753874187999253 0.0728194732188299 0.0891862124788896 0.431060633207049 -0.160555072167876 0.0312325075050085 -0.123328800645025 -0.0301432469549486 -0.0416286867998142 -0.0129196296504292
c74 3.43673187532313 -1.34088929054959 0.472552039171656 0.417440859177239 0.397197438083318 -0.112898445894302 0.0482631031774051 0.0282641249662775 0.0688158559067555 -0.0748456960572338 0.0395461757243118 -0.094952108037655 -0.374515265904805 -0.0663467664663324 -0.103978695822706 -0.317252965733809 -1.20254376305716 0.314341478743734 0.887272449131258 -0.237719359205797 -0.193754880312564 -0.414699762903561 0.0748918951143027 0.00781695304032304 -0.315732578012294 0.183745034091533 -0.0960815677682953 -0.168037156113567 0.210423979176131 -0.597178277496423 -0.250012274798354 0.0883490289990349 0.0938696975087047 0.358345964996067 0.173425567742219 0.545216938248647 -0.207820781071489 0.190274459467283 0.163614881970777 0.0499708104244868
c75 3.51337634791482 0.0466391817755816 -0.319195035318393 -0.0608976137061006 0.160407124001062 -0.0644958903093337 0.063809180077431 -0.0638230561044461 -0.0429641569088073 0.00279553779455875 -0.00798806212151554 -0.312204320866013 -0.578669917351379 -0.070765986990003 -0.208731816271817 -0.325672148822346 -1.1446365509833 0.470559065138638 0.920661731314331 -0.17003324068751 0.0901935991957074 -0.389779614191041 0.304054140236712 0.0622521586117364 -0.181566511115916 -0.00983334468182803 -0.0388634996780326 0.223622134386321 -0.0400084574783898 0.127621601734191 0.0753874187997445 0.0728194732190209 0.0891862124789842 0.431060633207103 -0.160555072168103 0.0312325075051027 -0.123328800645106 -0.030143246955045 -0.0416286867999763 -0.0129196296503928
c76 3.51337634791482 0.0466391817755644 -0.319195035318382 -0.0608976137060956 0.160407124001073 -0.064495890309416 0.0638091800774465 -0.0638230561044496 -0.0429641569087907 0.00279553779457909 -0.007988062121487 -0.312204320866009 -0.57866991735139 -0.0707659869900223 -0.208731816271734 -0.325672148822235 -1.14463655098335 0.470559065138592 0.920661731314339 -0.170033240687545 0.0901935991957157 -0.389779614191003 0.304054140236719 0.0622521586117895 -0.181566511115909 -0.00983334468177208 -0.0388634996778654 0.223622134386332 -0.0400084574783901 0.127621601734108 0.0753874187997998 0.0728194732189773 0.089186212479005 0.431060633207085 -0.160555072168244 0.0312325075051497 -0.123328800645074 -0.0301432469549971 -0.0416286867999663 -0.0129196296503322
c77 3.47208994907216 -0.732030432297832 0.530928529966069 -0.636554706158795 0.536393688577485 -0.0905478118490683 0.167830589280746 -0.0569976792116077 0.0408886847138622 -0.0629487045873687 -0.0699333696871188 -0.291916707496683 -0.614351122710495 -0.0654905085122785 -0.221323391496845 -0.301970559255841 -1.34373940259072 0.388409494234373 0.823479722008942 -0.373856772955826 0.0671035542671348 -0.483827463817106 -0.0333690722784132 -0.0627412406647215 0.512591160682586 -0.197047599334372 0.227684673717127 -0.139873558678814 -0.377689324065212 0.283749495328353 0.154745011455803 0.198053144223077 0.0877505822719089 0.347679529984788 -0.331425103475201 -0.246448511828279 -0.0695268835778245 -0.0808164055228319 -0.0309725324629672 -0.0465888216440793
c78 3.51337634791482 0.0466391817755684 -0.319195035318366 -0.0608976137061187 0.160407124001081 -0.064495890309396 0.063809180077444 -0.0638230561044768 -0.0429641569087721 0.00279553779463221 -0.00798806212145765 -0.312204320865956 -0.578669917351359 -0.0707659869900449 -0.208731816271829 -0.32567214882225 -1.14463655098334 0.470559065138734 0.920661731314288 -0.1700332406875 0.0901935991956744 -0.389779614190872 0.304054140236505 0.0622521586119102 -0.181566511115761 -0.00983334468180135 -0.0388634996779577 0.223622134386159 -0.0400084574784364 0.127621601734259 0.075387418799911 0.0728194732190634 0.0891862124790705 0.431060633207218 -0.160555072168318 0.0312325075052787 -0.123328800645006 -0.0301432469549454 -0.041628686800015 -0.0129196296502204
c79 3.49648500121942 -0.291927414405368 0.16139613262335 -0.456969987067959 0.316357314034408 -0.0446567963023865 0.117301124880633 -0.0542097286406741 0.00408379788762943 -0.0113162513092946 -0.044904418641252 -0.158600457822998 -0.207749899381273 -0.0177797375354871 -0.110083295607911 0.0218099271593996 -0.0749066059856577 -0.0354072709902951 -0.191353898018234 0.0209614333481432 -0.0129014987451534 -0.0724786690338703 -0.231706269060254 -0.199504607294887 0.27208773590215 -0.285604042105023 0.00250618464364709 -0.283020182052564 -0.470966445482566 -0.0253475568680578 0.149614135729911 0.226726905380383 0.254978381366403 0.0106235267791761 0.403502797867238 -0.459284325617212 1.13282446663525 1.04827455165792 -1.23123936152841 -0.0803555478115732
c80 3.51755237431014 0.120811258341047 -0.298768307829443 -0.155469528793366 0.133002272538206 -0.0341572371708395 0.0540464191847349 -0.0573601267057578 -0.0389309069198053 0.0108563795303441 -0.0220120144937083 -0.173057979034824 -0.221116362752198 -0.0228278603245439 -0.116346300202992 -0.0132448311821922 0.0128433432505933 0.00278874987846169 -0.198257483360758 0.11639187180998 0.0113179323578786 -0.0557374229251821 0.00208132307371734 -0.0925414800233896 0.0340669538817376 -0.147973280054664 -0.0634438329054349 -0.0604856535296448 -0.279697534324428 -0.110564589382642 0.0238575309367485 0.0867821583050913 0.140680729138635 0.0407539128150704 0.310582047939352 -0.389138501641695 0.935982319511552 0.885539936721322 -0.967403660489744 -0.0579747879764146
c81 3.51755237431014 0.120811258341052 -0.298768307829441 -0.155469528793346 0.13300227253824 -0.0341572371708571 0.0540464191847659 -0.057360126705784 -0.0389309069198378 0.0108563795302996 -0.0220120144936664 -0.17305797903483 -0.221116362752235 -0.0228278603245776 -0.116346300203059 -0.0132448311821389 0.0128433432505636 0.00278874987852727 -0.198257483360776 0.116391871809975 0.0113179323577846 -0.0557374229251681 0.00208132307374794 -0.0925414800232508 0.0340669538817375 -0.147973280054659 -0.0634438329054581 -0.0604856535296899 -0.279697534324401 -0.110564589382677 0.0238575309368664 0.0867821583050674 0.140680729138754 0.0407539128151007 0.310582047939212 -0.389138501641684 0.935982319511736 0.885539936721175 -0.967403660489915 -0.0579747879763454
c82 3.51755237431014 0.120811258341066 -0.298768307829461 -0.155469528793291 0.133002272538194 -0.0341572371708754 0.0540464191847979 -0.0573601267057063 -0.0389309069198673 0.0108563795302961 -0.0220120144936738 -0.173057979034807 -0.221116362752173 -0.0228278603245489 -0.116346300202917 -0.0132448311824192 0.0128433432507045 0.00278874987837516 -0.19825748336071 0.116391871810027 0.0113179323578731 -0.05573742292534 0.00208132307373191 -0.092541480023647 0.0340669538815585 -0.147973280054907 -0.063443832905453 -0.0604856535295148 -0.279697534324279 -0.110564589382667 0.0238575309367485 0.0867821583053779 0.140680729138706 0.0407539128149575 0.31058204793965 -0.389138501641818 0.935982319511602 0.885539936721403 -0.967403660489489 -0.0579747879765373
c83 3.49501206172451 0.097552211903454 -0.228937942069897 0.0138067357729074 -0.0271269741899607 0.107303363619723 0.13954159581099 -0.196781856848765 -0.616960892870523 -0.147761725495668 0.442167866660209 -0.838489900676275 1.67137938302145 -0.154124870438579 -0.800766879004082 -0.309976224279863 -0.0469609552684096 0.0298803428355814 0.296691382015567 0.249865342222464 -0.339655781227348 0.0447690064707584 -0.049541907651557 0.00490652220568558 0.195065184292996 0.000606495944989107 0.0400513339666801 0.0636034741491285 0.0426963014768371 0.181503366764699 0.0653153583635127 -0.0457885886285744 -0.0286598408080129 -0.0418712418066381 -0.316672184164818 -0.0490728888912035 0.035474009629762 0.129752816819343 0.0144479304679174 -0.0676168904207652
c84 3.30472713284725 -0.932141331639385 1.67261142106623 0.708120122064842 -1.5401426622747 0.586970719914712 -0.0478659532526429 -0.0406572693455031 -0.481175064443969 -0.936879435753435 0.390646816510416 -0.345018337135377 1.409886352064 0.348365839681871 1.09074496178447 1.61436910636978 -0.0957846782158517 -0.0215178783471841 0.913307937758571 0.0297195671231488 0.7835902760002 -0.0963181441683747 -0.234497967598506 0.0129007013284794 -0.220203369971586 -0.277508037127799 0.418393944619208 -0.448536492344379 0.307288248194485 0.526870417139459 -0.0842990432057876 -0.150750823716372 -0.220640280135582 0.193613235720451 -0.0141167022447031 0.435346807940378 -0.109003680447699 -0.155159247825991 -0.123737025431026 0.114559350709703
c85 3.49231363217414 -0.165464423031323 -0.0214072870547769 -0.172381604827935 0.0370093144995923 0.0785625024229685 0.117566316956821 -0.151978094380108 -0.442749165856132 -0.108979041588239 0.311760330914067 -0.431740784728969 1.04895124298038 -0.0438318638640493 -0.339445610508588 -0.0437563615065395 -0.0809259067765835 -0.0141629905747965 0.376237972151659 0.504799639581366 -0.0801803532660824 0.0244958970849893 0.0216143606927176 0.265559676187689 0.217035612704941 -0.908737220487971 0.2171143447154 0.153619601123961 0.421868827817803 -0.348617858591897 -0.171334891031039 -0.121169305976337 -0.0404997162628047 -0.134902690518729 -0.783893835163071 -0.00200813958646405 0.0742418868355077 0.431427393473302 0.103060044677819 -0.060418824620431
c86 3.50979418240129 0.0643968368622525 -0.27690590494979 -0.0629842336604067 0.0682746932282052 0.0362615670585982 0.111962036623467 -0.148763192373381 -0.388508577189548 0.0120215346130812 0.263349990326469 -0.371723885016798 0.751139681724841 -0.0505730756096823 -0.309682303210269 -0.0239531547754039 -0.0154654258106584 0.0104306898807431 0.251841712855149 0.329754683109001 -0.163213728876354 0.0411291195148192 -0.0830101789791518 0.170338678615724 0.165151261841583 -0.663357629336867 0.224389994548097 0.353873479299596 0.132269197474395 -0.0731930943291166 0.000594798599845209 -0.0613580958124155 -0.0290640431122535 -0.0324454769060331 -0.162993842549204 0.18576172610988 0.206675889686829 0.182634788313848 0.075499138169743 -0.047670371813054
c87 3.50979418240129 0.064396836862244 -0.276905904949786 -0.0629842336603889 0.0682746932281461 0.0362615670586112 0.111962036623458 -0.148763192373313 -0.388508577189636 0.0120215346130761 0.263349990326516 -0.371723885016731 0.75113968172484 -0.0505730756096311 -0.309682303210077 -0.0239531547756223 -0.0154654258107147 0.0104306898805197 0.251841712855192 0.329754683108998 -0.163213728876394 0.0411291195147153 -0.0830101789789291 0.170338678615364 0.165151261841509 -0.663357629337039 0.2243899945481 0.353873479299568 0.132269197474517 -0.0731930943291474 0.000594798599884323 -0.0613580958125497 -0.0290640431125322 -0.0324454769060539 -0.16299384254886 0.185761726109744 0.206675889686766 0.182634788313739 0.0754991381698763 -0.0476703718131909
c88 3.50979418240129 0.0643968368622864 -0.276905904949784 -0.0629842336603709 0.0682746932281653 0.0362615670586056 0.111962036623412 -0.14876319237335 -0.388508577189615 0.0120215346129737 0.263349990326461 -0.371723885016719 0.751139681724871 -0.0505730756097564 -0.309682303210133 -0.0239531547756101 -0.0154654258105668 0.0104306898805503 0.251841712855114 0.329754683108943 -0.163213728876323 0.0411291195147707 -0.0830101789789725 0.17033867861542 0.165151261841384 -0.663357629337034 0.224389994548038 0.353873479299722 0.132269197474575 -0.0731930943292559 0.000594798599844783 -0.0613580958124914 -0.0290640431125884 -0.0324454769060248 -0.162993842548724 0.185761726109757 0.206675889686547 0.182634788313858 0.0754991381697772 -0.0476703718130853
c89 3.50979418240129 0.0643968368622512 -0.276905904949792 -0.0629842336604071 0.0682746932282176 0.0362615670585996 0.111962036623421 -0.148763192373462 -0.388508577189544 0.0120215346130854 0.263349990326432 -0.37172388501673 0.751139681724861 -0.0505730756096701 -0.309682303210208 -0.0239531547753735 -0.0154654258106833 0.0104306898806691 0.251841712855071 0.329754683108914 -0.163213728876378 0.0411291195148212 -0.0830101789790541 0.170338678615654 0.165151261841465 -0.663357629336874 0.224389994547962 0.353873479299497 0.132269197474462 -0.0731930943289672 0.000594798599786646 -0.0613580958125206 -0.0290640431123186 -0.032445476906002 -0.16299384254907 0.18576172610977 0.206675889686715 0.182634788313758 0.0754991381697322 -0.0476703718129841
c90 3.449654867156 -1.03581998743088 0.19415549598206 0.592508715730355 0.196320334250408 -0.00097458413030703 0.109877149625405 -0.080290559897211 -0.316830413723064 -0.0628228320628012 0.27833863834527 -0.160078392280706 0.803244930104213 -0.0553118064307746 -0.192084286002277 -0.149697615866533 -0.00202210401357392 -0.00392649254865483 0.241897176810056 0.200356251245808 -0.398944593843711 0.116237331810428 -0.163018339200091 0.163371697174899 0.105225886503304 -0.412233591713259 0.0187643315818788 0.451257499131968 0.120808246313128 -0.263752118843726 0.0708441153022191 0.275060891043042 0.0555472875148718 0.0463840540308138 0.257579168816647 0.886899996559683 0.678444814614172 -0.530272997097338 -0.214997021806005 0.116514540491157
c91 3.51439901391401 0.0897940342199159 -0.285263972671565 -0.172659781817263 0.0391670265062907 0.260627677432361 0.0258384513122072 -0.0179343630791594 0.0955772008761792 0.139789010789391 -0.111902131562934 -0.273894011851302 -0.228140694540472 -0.0168770586265948 -0.0814257302188755 -0.0400802354145318 0.00969149719087063 -0.019377162375998 -0.372599998948381 0.13162996396647 0.0718628412431634 -0.346989375405562 -0.142054759246589 -1.234582417405 -0.0165325474741905 0.1215414451394 0.60406276907928 0.913226016831415 0.625046139471102 -0.118657717483644 0.00153878419778619 -0.0633480397434167 -0.0308712398402901 -0.105032049531122 -0.00871424265948172 0.0913599775894876 -0.0447096563676062 0.000298738617389455 -0.150250353226141 -0.0172745746509077
c92 3.44975014752223 -1.12365540828765 1.0104143593159 -1.02732047340401 0.626176940190388 0.323673900067706 0.196732659410133 -0.0113507710397594 0.213660206651474 0.0204854333074374 -0.185942372768597 -0.263417453948171 -0.17173258227242 0.00838145869066205 -0.020692438594202 -0.038041928593957 0.0762700624409124 0.00278271033555361 -0.360597593464125 0.0571226849927509 0.0529001315830574 -0.253260486478024 -0.219065246634232 -1.22234890481607 -0.0692202602649843 0.357976618295617 0.630570711003529 0.961402940384922 0.447448140435863 0.146023679881924 0.111884479936165 0.0110697919637009 -0.0367110691668574 -0.0795011229964257 -0.0863977644187966 0.10849547405755 0.0561890734869437 -0.270049423344751 0.00542786125511651 0.00512328092796169
c93 3.51439901391401 0.0897940342199223 -0.28526397267158 -0.172659781817233 0.0391670265062875 0.260627677432427 0.0258384513121273 -0.0179343630790955 0.0955772008761245 0.139789010789286 -0.111902131562904 -0.273894011851178 -0.228140694540486 -0.0168770586266498 -0.0814257302188339 -0.0400802354147428 0.00969149719104232 -0.0193771623760905 -0.372599998948365 0.131629963966451 0.071862841243173 -0.346989375405749 -0.142054759246551 -1.23458241740516 -0.0165325474743063 0.121541445139214 0.604062769079303 0.913226016831442 0.625046139471079 -0.118657717483589 0.00153878419773932 -0.0633480397433581 -0.0308712398403152 -0.105032049531121 -0.00871424265922771 0.0913599775894369 -0.0447096563676477 0.000298738617409458 -0.150250353225907 -0.0172745746509191
c94 3.51439901391401 0.0897940342199415 -0.285263972671572 -0.172659781817247 0.0391670265062564 0.26062767743242 0.0258384513121229 -0.0179343630791298 0.0955772008761391 0.139789010789298 -0.111902131562912 -0.273894011851226 -0.228140694540472 -0.016877058626625 -0.0814257302187524 -0.0400802354146819 0.00969149719104729 -0.0193771623760318 -0.372599998948423 0.131629963966456 0.0718628412432163 -0.346989375405734 -0.142054759246488 -1.23458241740531 -0.0165325474742578 0.121541445139101 0.604062769079304 0.913226016831504 0.62504613947116 -0.118657717483676 0.00153878419776875 -0.0633480397434864 -0.0308712398402954 -0.105032049531215 -0.0087142426591546 0.0913599775892965 -0.0447096563676394 0.000298738617480469 -0.150250353225889 -0.0172745746509936
c95 3.51439901391401 0.0897940342199053 -0.285263972671585 -0.172659781817217 0.0391670265062567 0.260627677432447 0.0258384513121379 -0.0179343630791405 0.0955772008760991 0.139789010789284 -0.111902131562872 -0.273894011851198 -0.228140694540444 -0.0168770586266022 -0.081425730218696 -0.0400802354148196 0.00969149719099846 -0.0193771623762001 -0.372599998948332 0.131629963966471 0.0718628412432354 -0.346989375405912 -0.142054759246532 -1.23458241740544 -0.0165325474743235 0.121541445139134 0.604062769079331 0.913226016831473 0.62504613947116 -0.118657717483699 0.00153878419781098 -0.063348039743316 -0.0308712398403898 -0.10503204953123 -0.00871424265897399 0.0913599775893474 -0.0447096563676894 0.000298738617422938 -0.150250353225911 -0.0172745746509631
c96 3.46276130907412 -0.869225294789861 0.749650073391641 -0.85695882561472 0.477311209084247 0.280176539699566 0.15709127140681 -0.00649723909236145 0.199558876203942 0.0256585914651656 -0.165446037161118 -0.290263321758284 -0.151801192337062 -0.000724018325953087 -0.0928702943330362 0.0198332909759295 -0.125887310682298 -0.104985748439765 -0.404421016122936 0.0744724015033055 0.166342639762076 -0.448366445740524 -0.357107837298146 -1.65039300318573 -0.070940711450536 0.0973139867596006 0.637620603709315 0.425188314561886 0.791443970207922 -0.0706039437465021 -0.0479058508271102 -0.0633486211111009 -0.0921363942143652 -0.195076229978817 -0.026357300134289 0.0554512743529547 -0.306236231587258 0.0717149960748497 0.0132562252433263 0.0162210405592681
c97 3.49005350017958 -0.0151966663261202 -0.231855653448365 -0.0744999588347829 -0.544856172889544 1.24954742086682 -0.123240985615497 0.114675251737487 0.376773512303615 0.435769783586988 -0.251989088920518 -0.265402338030697 -0.0794223543901689 0.000696090760462911 0.0379285299500222 -0.0575795887288567 -0.00748086206875188 -0.0342767095883372 -0.251055460138436 0.025316031905713 0.0412182049839529 -0.317251450706855 -0.114963600869245 -0.972076498262011 0.0786941583768254 0.0891526249989175 0.465781400994189 0.684389778856138 0.480023638633412 -0.0582720053243885 0.0196830089331968 -0.0299742818908444 -0.0150986867059692 -0.020630294332547 -0.0464922927091812 0.105276157872581 -0.0721450194208119 0.0211668620589003 -0.125423926027757 -0.0307730737092093
c98 3.42414344170524 0.601906801967322 0.73262579201699 0.304061296721893 -1.58708443856944 0.780731718757289 -0.206773894581567 0.100122998204824 -0.147496477904553 -0.145172602343415 0.18547618074698 0.818734435504665 0.0283257986758202 -0.0246509067532237 -0.0682789938723653 -0.0621469653690428 -0.0213612963983827 0.0073996655215543 0.179346577680463 -0.14717099627316 -0.108833597082026 0.0579561791463146 -0.00422691745672723 0.0111597034921595 0.138962151947278 0.0519493713830654 0.0366937789018227 0.0884391085212769 0.0349083199706509 0.136363405193999 0.103817524430154 -0.0243456986020163 -0.0251973155806071 0.00596266169188758 0.123353176271664 -0.0056308678051022 -0.273447414352958 -0.0504452950415386 -0.0158527219806258 0.0324521034369871
c99 3.47397587376074 -0.374489956958217 0.168826590374976 -0.309820719614558 -0.368571277652723 1.17904041317991 -0.0713203605231715 0.109368129697595 0.344548558077479 0.306200515785656 -0.217083802098577 -0.170114914254402 0.0858101621425622 0.00654500307583246 0.0536217506271155 -0.0630583126062888 -0.098216056533414 -0.0531675266791965 0.0260447465593888 -0.0186771546035307 -0.159303305656066 -0.121551823712242 -0.0780276810532369 -0.0424182349936547 -0.0792059462787401 0.177272459070748 -0.170190109071551 -0.28976457965691 -0.054578373719228 -0.530183717036582 -0.194348290022084 0.188485627944377 0.100903303817946 0.189127135147715 0.564408236706223 0.835980519767687 0.252434950468443 -0.0871196253927433 0.0168926789839063 0.202966098385505
c100 3.49572696531281 -0.00170801923595447 -0.225732168779321 -0.0454210085375533 -0.518045690304273 1.09274733419635 -0.121344928256238 0.102743648944592 0.301350657720363 0.359609559215646 -0.189475392979283 -0.150272951465677 -0.00875257351807169 0.00314399795908079 0.050787353433838 -0.0375784035887837 -0.00520744396031669 -0.0160780390828133 -0.0239397638655598 -0.0366437965249844 -0.0141370643048837 -0.0458913929580381 0.0303918205896822 0.0586205202967147 0.0873409040981179 -0.0451148183683407 -0.0822720891311531 -0.0892529864837936 -0.105204341936256 0.00699891216573311 0.00477115431138303 0.0254095092451403 0.0270993714739127 0.0871893459630915 -0.00839657591171903 -0.0113490947611128 0.0216327538386424 0.0500128759738913 0.0171548775794327 -0.0166655220234288
c101 3.49289501497796 -0.0024350025336304 -0.231719259927758 -0.0529553217450591 -0.527136862982422 1.14565820311929 -0.125138186239249 0.108585276498584 0.326076009385618 0.386059776131387 -0.208062484025777 -0.173508537375143 -0.00724778634048737 0.00289393740754957 0.0546928906587602 -0.0473760525037695 -0.0174201385705932 -0.0236347305345074 -0.0258270958138751 -0.0375600212530925 -0.0445941214658888 -0.0742817297522027 0.0184009213015035 0.0519988704919251 0.0771447487956234 -0.0102603966981716 -0.131730592234403 -0.166765141949987 -0.133665818670846 -0.137153373923342 -0.0483489852232657 0.0808250802762578 0.059290162901594 0.155149559403483 0.172547192652973 0.258431737548975 0.118539385419279 0.0260647312859199 0.028245302894639 0.0670334384817739
c102 3.49572696531281 -0.00170801923595497 -0.225732168779336 -0.0454210085374987 -0.51804569030422 1.0927473341964 -0.121344928256236 0.102743648944593 0.301350657720331 0.359609559215564 -0.189475392979309 -0.150272951465693 -0.00875257351798829 0.00314399795907617 0.0507873534338571 -0.0375784035887407 -0.00520744396040246 -0.0160780390829366 -0.0239397638653928 -0.0366437965250569 -0.0141370643048731 -0.0458913929582427 0.0303918205896331 0.0586205202964791 0.0873409040982766 -0.0451148183683789 -0.0822720891312013 -0.0892529864836429 -0.105204341936153 0.00699891216574493 0.00477115431145551 0.0254095092449954 0.0270993714738263 0.0871893459630784 -0.00839657591158502 -0.0113490947611289 0.0216327538385452 0.0500128759740782 0.0171548775792157 -0.0166655220234049
c103 3.49162046286228 -0.00440767790383585 -0.22164512930891 -0.0410227381829281 -0.591184077130624 1.18446908384791 -0.123034731878519 0.0903439729019023 0.208499665696647 0.170430989197998 -0.125439164613866 -0.12318036354443 0.124449501333871 -0.00313177982907469 -0.0187982380391904 -0.0585774894757667 -0.00547000423474364 -0.0138650570070478 0.0480059614412904 0.0198141561571658 -0.00840582897695785 -0.0344210325983594 0.0319450517700275 0.0849607507845035 0.124391029212191 -0.133903120530713 -0.0161292491408757 -0.058866587921093 -0.0754412301464942 0.0365223083613572 0.0172454602534775 0.0330412116277575 0.0421292723526308 0.0577101865150479 -0.246508269122462 -0.00958264948541117 0.0788013337452854 0.172910663909433 0.0889829024357115 -0.0113967176066358
c104 3.49572696531281 -0.00170801923596286 -0.225732168779338 -0.0454210085375359 -0.518045690304229 1.09274733419643 -0.121344928256277 0.102743648944641 0.301350657720283 0.359609559215582 -0.189475392979275 -0.150272951465621 -0.0087525735180705 0.00314399795904277 0.0507873534338244 -0.0375784035887645 -0.00520744396028186 -0.0160780390828862 -0.0239397638654451 -0.036643796524995 -0.01413706430474 -0.0458913929582397 0.0303918205897851 0.0586205202965895 0.0873409040982342 -0.0451148183682462 -0.0822720891311106 -0.0892529864836171 -0.105204341936207 0.00699891216569836 0.00477115431137834 0.0254095092450967 0.0270993714737628 0.0871893459630516 -0.00839657591154302 -0.011349094761034 0.0216327538386799 0.0500128759739555 0.0171548775792544 -0.0166655220234938
c105 3.48789933844516 0.0131364612339735 -0.265096855783559 -0.0636690034705245 -0.522762603775112 1.11295046218067 -0.109498823845157 0.0831892356417588 0.281757250308313 0.359362245474028 -0.204018787021497 -0.406853033219693 -0.233971317629395 -0.00701614927892003 0.270945395345567 -0.352754872070775 -0.493333819345568 0.213000269618534 0.24987923812885 -0.0385810851153111 0.16186382920293 1.20145196849347 -0.452925211854901 0.285030623933917 0.125753776160318 0.238211694491565 0.0725492808255711 -0.223223785753993 0.461436812867093 0.228922401567337 -0.043827012382703 -0.50818685503042 -0.388332626225933 -1.89275651507091 0.410699143450331 -0.0870534945850565 0.409746289878216 -0.0725279436594776 -0.0207745915303111 0.0216768701840535
c106 3.49572696531281 -0.00170801923596322 -0.225732168779324 -0.0454210085374981 -0.51804569030423 1.09274733419631 -0.121344928256231 0.102743648944479 0.301350657720365 0.359609559215615 -0.189475392979275 -0.150272951465807 -0.00875257351799318 0.00314399795903147 0.0507873534337239 -0.0375784035886508 -0.00520744396034115 -0.0160780390827926 -0.0239397638654278 -0.0366437965250111 -0.0141370643049151 -0.0458913929582129 0.0303918205896058 0.058620520296744 0.0873409040982219 -0.0451148183682444 -0.0822720891311661 -0.0892529864836928 -0.10520434193625 0.00699891216600916 0.00477115431120113 0.0254095092452759 0.0270993714739579 0.0871893459632625 -0.0083965759119662 -0.0113490947610176 0.0216327538386358 0.0500128759738441 0.017154877579441 -0.0166655220233276
c107 3.49572696531281 -0.00170801923594558 -0.225732168779308 -0.0454210085375185 -0.518045690304273 1.09274733419634 -0.12134492825627 0.102743648944535 0.301350657720357 0.359609559215571 -0.189475392979314 -0.150272951465668 -0.00875257351800649 0.00314399795907674 0.0507873534338831 -0.0375784035887044 -0.00520744396029669 -0.0160780390828613 -0.0239397638654142 -0.0366437965250436 -0.0141370643048563 -0.0458913929581628 0.0303918205897059 0.0586205202965857 0.0873409040982467 -0.0451148183683349 -0.0822720891311326 -0.0892529864836254 -0.105204341936215 0.00699891216580757 0.00477115431131408 0.0254095092451237 0.0270993714738201 0.0871893459631397 -0.00839657591159411 -0.0113490947610183 0.0216327538387026 0.0500128759739439 0.0171548775792255 -0.0166655220232916
c108 3.49572696531281 -0.00170801923595899 -0.225732168779283 -0.0454210085375463 -0.51804569030422 1.09274733419631 -0.121344928256283 0.10274364894454 0.301350657720385 0.359609559215625 -0.189475392979285 -0.15027295146569 -0.0087525735179861 0.00314399795905544 0.0507873534338982 -0.0375784035888395 -0.00520744396043206 -0.0160780390828705 -0.0239397638653146 -0.036643796524899 -0.0141370643049124 -0.0458913929580656 0.0303918205896125 0.0586205202966171 0.0873409040982712 -0.0451148183684145 -0.0822720891311459 -0.0892529864837037 -0.10520434193623 0.00699891216606417 0.00477115431129624 0.0254095092452976 0.027099371473955 0.087189345963179 -0.00839657591177215 -0.0113490947611256 0.0216327538387148 0.0500128759736323 0.0171548775793781 -0.0166655220234871
c109 3.49572696531281 -0.00170801923594799 -0.225732168779285 -0.0454210085375319 -0.518045690304244 1.09274733419629 -0.121344928256218 0.102743648944489 0.301350657720364 0.359609559215635 -0.189475392979232 -0.150272951465679 -0.00875257351804933 0.00314399795907509 0.0507873534338138 -0.0375784035888631 -0.00520744396041703 -0.0160780390829658 -0.0239397638653434 -0.0366437965249909 -0.0141370643049076 -0.0458913929581145 0.0303918205897408 0.0586205202964543 0.0873409040983455 -0.0451148183682713 -0.0822720891312577 -0.08925298648361 -0.105204341936311 0.00699891216608658 0.00477115431130464 0.025409509245308 0.0270993714737993 0.0871893459631005 -0.00839657591188982 -0.0113490947610595 0.02163275383864 0.0500128759738737 0.0171548775792983 -0.0166655220234359
c110 3.44148129551072 -0.589024739827404 -0.100045994673968 0.816992353205795 -1.46076621925966 0.271475134128093 -0.244041764486812 0.19533719677003 0.328085210488786 0.515085486488822 -0.120603544385665 0.183535362460925 0.0579305213526592 -0.0343490835866952 -0.0354116543455791 -0.0690222111676342 0.00135126869128444 -0.00601204364216473 0.0489624075033722 -0.115395795569126 -0.14843728758571 0.00580555593429789 -0.003556766052584 0.0206661804974456 0.166742954241627 0.0267611550545664 -0.122930725921365 0.0568744716349822 0.081380172699286 0.124053553428766 0.0369488184036163 -0.00751143693517154 -0.0505002220452318 0.0773258042674147 0.00820735707190904 0.098681914276773 -0.0552101044496726 -0.0231706210467561 -0.0734326122053521 0.0329935161404032
c111 3.49381870885299 -0.0316186163484501 -0.230330092648402 -0.00213448491632345 -0.529607300315888 1.11821442281944 -0.12880595950832 0.110457341724961 0.3156475420675 0.372828392415782 -0.191149178933666 -0.148981678854121 -0.0115407681259652 0.00173856967901384 0.0577070209447131 -0.0434081341219639 0.00163182248321449 -0.0189864468308937 -0.0328925114539134 -0.0434971622179066 -0.0249455915198308 -0.0422993778841413 0.0358009519228676 0.0619900895308583 0.0888318619823938 -0.049946478060604 -0.109483065060779 -0.103398990123218 -0.0925503012619589 0.0156350485524811 0.00911774326025919 0.0358272102201813 0.0165298735655229 0.0941284619759988 -0.0157213190593998 -0.0174166378035091 0.0238057019189943 0.0341054299490443 0.0265508832987276 -0.0166081326797733
c112 3.49572696531281 -0.00170801923598361 -0.225732168779295 -0.0454210085375428 -0.518045690304231 1.09274733419631 -0.121344928256279 0.102743648944551 0.301350657720347 0.359609559215714 -0.189475392979288 -0.150272951465731 -0.00875257351801916 0.00314399795911464 0.0507873534339359 -0.0375784035888003 -0.00520744396026668 -0.0160780390827807 -0.0239397638653468 -0.0366437965248817 -0.0141370643048657 -0.0458913929579354 0.0303918205896347 0.0586205202967355 0.0873409040981272 -0.0451148183683685 -0.0822720891309968 -0.089252986483576 -0.105204341936222 0.00699891216602257 0.00477115431138435 0.0254095092452911 0.0270993714739232 0.0871893459632108 -0.00839657591178739 -0.0113490947611822 0.0216327538387877 0.0500128759737802 0.0171548775795318 -0.0166655220235036
c113 3.48911373972483 -0.153012763010725 -0.0793070231195307 -0.127296675162767 -0.44014529958057 1.1199073104622 -0.107583147739068 0.108852127983966 0.327966429370127 0.356223133921816 -0.192511988153703 -0.16630988734212 0.00290405508956607 0.00972413145914347 0.0630301102860758 -0.0247632825123246 0.192964842914196 0.0778464127288093 0.0345275176012617 -0.0207714379634678 0.0687010867916998 0.0541994194613475 0.188160409124103 0.116658046470651 -0.173647526765853 0.136983334110501 0.0274645114216544 0.0859952555701974 -0.178546791220559 0.368131701765159 0.0661711018485745 -0.167783223575726 -0.0346146928456359 0.0940145392660436 -0.199029576188885 -0.276616751548208 -0.170776341918897 0.331670664984164 0.195396147366345 -0.073652508873657
c114 3.47635846679972 0.0394187088755867 -0.194941651709305 -0.0897369538798107 -0.843293134075845 1.40862269708454 -0.140500405433926 0.0642342743215119 -0.0841819887093909 -0.708858739778026 0.0440341718832357 0.416486976848965 -0.22342130030273 -0.016258686010771 -0.130342911756447 -0.113606006750985 -0.0178493902919643 -0.0130793765448555 -0.19497829035383 -0.0208706167379885 -0.108743582625759 -0.370295321600979 -0.39166414240112 0.480762104524842 0.0155183899153258 0.141822142067145 0.0266309883962605 -0.0760803150241953 0.233907699949186 0.205301117283091 0.091395761224491 -0.0362695376352912 -0.0585423268463315 0.0347492630811961 -0.220462762778501 -0.207356561893003 -0.450060987653761 0.306087979802142 -0.206021197854607 0.0242765393514137
c115 3.42803681845795 -1.04574858623696 0.164593341226707 0.740872176112781 -0.495580271547601 0.995388521900313 -0.10709065647318 0.105874267350512 0.14553637415391 0.138917108467554 0.0540906004736129 -0.303509548254095 0.725065210313604 0.0220675735366928 -0.0167690202579906 0.0404161505033703 0.311527422578195 0.0736280271259803 0.362056179524197 0.224150666290629 0.280349398326205 0.110397373556944 0.27925554323035 0.167038111004112 -0.696939376005029 0.139796208942117 1.0703975329157 -0.0940282303540905 -0.397091908402181 0.607201095262959 0.31020759804159 0.114857754600563 0.1039665212332 -0.168202977766361 -0.644116223543342 -0.378055685791711 -0.30803889338999 0.168064451151129 0.340962853871404 -0.100141501246163
c116 3.49572696531281 -0.00170801923597392 -0.225732168779282 -0.0454210085375741 -0.518045690304253 1.09274733419633 -0.121344928256224 0.102743648944544 0.301350657720265 0.359609559215701 -0.189475392979269 -0.150272951465835 -0.00875257351797526 0.00314399795911873 0.0507873534340441 -0.0375784035889547 -0.00520744396032792 -0.0160780390828774 -0.0239397638654398 -0.0366437965250935 -0.0141370643048033 -0.0458913929581239 0.0303918205895259 0.0586205202966924 0.0873409040982877 -0.0451148183682139 -0.0822720891311849 -0.0892529864835981 -0.10520434193597 0.00699891216572101 0.00477115431134676 0.0254095092452565 0.0270993714738503 0.0871893459634523 -0.00839657591177188 -0.0113490947608891 0.0216327538384089 0.0500128759737399 0.0171548775792136 -0.0166655220234637
c117 3.49572696531281 -0.00170801923596501 -0.22573216877927 -0.0454210085375614 -0.518045690304266 1.0927473341963 -0.121344928256224 0.102743648944531 0.30135065772029 0.359609559215792 -0.189475392979271 -0.150272951465815 -0.00875257351795384 0.00314399795915016 0.0507873534340683 -0.0375784035889595 -0.00520744396044321 -0.0160780390827723 -0.0239397638653952 -0.0366437965251104 -0.0141370643049014 -0.0458913929580967 0.0303918205894259 0.0586205202968516 0.0873409040984356 -0.045114818368165 -0.0822720891310799 -0.0892529864836589 -0.105204341935993 0.00699891216607035 0.00477115431117351 0.0254095092454002 0.0270993714740076 0.08718934596341 -0.00839657591205266 -0.0113490947608741 0.0216327538386203 0.0500128759737439 0.0171548775792952 -0.0166655220235589
c118 3.49572696531281 -0.00170801923599625 -0.225732168779267 -0.0454210085375839 -0.518045690304243 1.09274733419631 -0.121344928256263 0.102743648944501 0.301350657720323 0.359609559215805 -0.18947539297929 -0.150272951465882 -0.00875257351795771 0.00314399795911199 0.0507873534339636 -0.0375784035889614 -0.00520744396038315 -0.0160780390827463 -0.0239397638653496 -0.036643796525073 -0.0141370643049175 -0.0458913929579583 0.0303918205893232 0.0586205202969746 0.0873409040983766 -0.0451148183681862 -0.0822720891310384 -0.0892529864838495 -0.105204341936223 0.00699891216618274 0.00477115431107534 0.0254095092452886 0.0270993714741276 0.0871893459635591 -0.00839657591211078 -0.0113490947608953 0.0216327538386128 0.0500128759734804 0.0171548775794552 -0.0166655220235296
c119 3.48782390093893 -0.110038569791254 -0.109194596910733 -0.138829346387645 -0.476913749178969 1.10302409768678 -0.102506589814908 0.101807723542205 0.320826301407268 0.378793840278534 -0.197326511041728 -0.167145092280254 0.00452617072580527 0.00523693035197517 0.022201419360277 -0.0273054832159865 -0.0361446264978203 -0.0359607431861422 -0.069946288826702 0.0896238615422819 0.0164729352960021 -0.0392026240480165 0.157230162479182 0.0339526470849923 -0.162144812295071 -0.340782100336245 -0.498688123495674 -0.271275931393695 0.350247256827591 -0.680763988924833 -0.303506253655258 -0.119809095091326 0.0896108631766456 0.0363423548811169 -0.455005659117016 -0.765436003347983 0.00282253703660931 -0.64768682653205 -0.0152055334020988 0.034768270701344
c120 3.46723978101437 -0.569599064983972 0.375362111429866 -0.450064951531623 -0.243864484836238 1.11611720272335 -0.0424059039955723 0.10410228834315 0.340479820741708 0.310170188859797 -0.213555903068722 -0.1111385414896 0.0151657049069008 0.00581574273632351 0.0699919482837853 -0.0908975758371162 0.022695518676887 -0.0112829237489313 -0.0594024906240239 -0.125588491102572 -0.125239166811254 0.000875487305665243 -0.0795764643467084 0.214006608767751 0.180090622740506 -0.0956059389803675 -0.134793489961224 0.070260815646208 -0.221742094576708 0.0151515934979949 0.0995272271288869 0.18971505269006 0.0770940168114012 0.0670437621029449 -0.0319584068741165 0.090096515955257 0.365125820704384 -0.560425382169062 -0.0602842067803272 -0.0789791298134216
c121 3.41548344072862 -1.50268045359646 0.685512546816661 0.297883314887306 -0.0936724474517944 0.954809489837257 -0.055367070266241 0.157893357851107 0.379661738423617 0.252407842856318 -0.13694914431077 0.0631632877390219 0.0461822078470261 0.0169269693271395 0.132653877554785 -0.073695235826414 0.219172492764382 0.0184234528278534 0.00926112056016545 -0.115876239901678 0.0710190616581413 0.233204943825927 0.151928437647576 0.0694055252910679 -0.290801362930997 0.21843668866912 -0.244787578632808 0.26820713715637 -0.0110018051141456 0.375986732957829 0.0355745549786747 -0.216238449278367 -0.093772850872284 0.160362417006353 -0.206378112158668 -0.328138522507178 -0.125439960969182 0.261837942158321 -0.0253604071563646 -0.0648796240962499
c122 3.46755658896342 -0.55961622946724 0.372183249090572 -0.430925804627954 -0.255988339805005 1.11765533771007 -0.0761394142692311 0.119974993363171 0.363225906041928 0.320333959016373 -0.207935979836975 -0.0872540818401706 0.0485015406219632 0.0112750037413741 0.0891372503425077 -0.0726342306625999 0.0158591166448313 -0.00281246755160296 0.0212075605014609 0.0497653137935656 -0.101745721759193 0.100494200687281 0.206993917602915 0.240843729734547 -0.315568437707029 0.0798567402992238 -0.385705818190116 0.0261608127180864 0.113651584876501 -0.322607915593576 -0.155410907015795 -0.0801852337214614 0.0378699952342965 0.120314020900172 -0.115479070155178 0.00139703878684595 -0.0202620135854972 0.365598773718304 0.016483506905639 -0.142388530513535
c123 3.49572696531281 -0.00170801923597132 -0.225732168779286 -0.0454210085375614 -0.518045690304235 1.0927473341963 -0.12134492825623 0.102743648944511 0.30135065772026 0.359609559215727 -0.18947539297929 -0.150272951465809 -0.00875257351796289 0.00314399795911953 0.0507873534339477 -0.0375784035889315 -0.00520744396029129 -0.0160780390828616 -0.0239397638654095 -0.0366437965250319 -0.0141370643048468 -0.0458913929580724 0.0303918205893668 0.0586205202967579 0.087340904098376 -0.0451148183681839 -0.0822720891313056 -0.0892529864836979 -0.105204341936 0.00699891216601704 0.00477115431111533 0.025409509245141 0.0270993714739294 0.0871893459634223 -0.00839657591192095 -0.0113490947608484 0.0216327538384212 0.0500128759738349 0.0171548775792409 -0.0166655220234671
c124 3.4906328322406 -0.129100165906806 -0.088777132853766 -0.139268059703243 -0.456923344908306 1.09505694470553 -0.0975929943468744 0.0989398009233366 0.299910709214934 0.328650378797082 -0.197431275889175 -0.135694409225807 -0.00115730236005296 0.00448034951905007 0.0582401518069366 -0.0541441291069665 -0.0427921172823858 -0.0245871153491022 -0.0416455215826444 -0.055808440367647 -0.0619032636056922 -0.077458166538923 -0.0312001098927323 0.0866962763014374 0.212618285062412 -0.100953945194724 -0.0569163743620291 -0.119667425175138 -0.159433137334785 -0.0601193418391925 0.0133849257755797 0.0940695599489565 0.0727842800875746 0.0642708052463858 0.0736383858222489 0.13803356908033 0.158123398229737 -0.0888131966263944 -0.0370956758853585 -0.00502933224632844
c125 3.45514831455879 -0.633015177135243 0.419630296402911 -0.55419952200383 -0.207698246266793 1.25779916648605 0.0694218020765605 -0.0265531083361599 0.0089401480514292 0.676992631043348 -0.00352294203468545 0.21198845867731 0.117481337736743 0.0435502617070742 0.253231889641138 -0.0956428254298559 0.092511157591248 0.0180737220209091 0.0114487203386054 -0.086267477751432 -0.0762866489819281 0.101262571738523 0.127430416736599 0.386867861329466 0.33537973571824 -0.0572020706259445 -0.113152506064495 0.43157245550026 -0.439090762385045 0.385186995568595 0.258051413702689 0.301139725030034 -0.0975884790622741 0.110558646199979 0.291155946963789 0.168699539037197 0.131445022831986 -0.946850070273288 -0.101053667373451 0.121830140579734
c126 3.49572696531281 -0.00170801923597842 -0.2257321687793 -0.0454210085375542 -0.518045690304271 1.09274733419632 -0.121344928256198 0.102743648944563 0.301350657720263 0.359609559215729 -0.189475392979267 -0.150272951465835 -0.00875257351798755 0.00314399795909952 0.0507873534340939 -0.0375784035889688 -0.00520744396040655 -0.0160780390827364 -0.0239397638654126 -0.036643796525021 -0.0141370643047783 -0.045891392958102 0.0303918205894944 0.0586205202968528 0.0873409040982715 -0.0451148183681799 -0.0822720891310406 -0.0892529864838519 -0.105204341936029 0.0069989121659478 0.00477115431121332 0.0254095092452355 0.0270993714740201 0.0871893459634693 -0.00839657591190128 -0.0113490947608478 0.0216327538385325 0.0500128759738413 0.0171548775793343 -0.0166655220234107
c127 3.50156377497825 0.144672296394111 -0.421132411535269 -0.323493960000181 0.365866847610436 -0.187005772248386 -1.59105737030948 0.369793606635501 0.0734791339009212 0.0063035179415108 0.0945820814801464 0.255717200892228 0.289624368493788 0.0253899317603234 0.130708389658132 0.0360274932012216 -0.42135019376666 -0.554806546400666 -0.131281702214393 0.131435286308712 0.082185183433513 0.0689909490267036 0.105102066075968 0.0447547640220589 -0.117535872337729 0.0634041178440981 -0.00479199632289714 0.21301386854574 -0.0600253679830202 0.237538661506497 0.104399005199172 -0.0284880915125169 -0.0023324074116397 0.0352491350364963 0.0359250733453341 -0.0133350776359149 0.0643658455820865 -0.165429696532235 -0.142824028193992 0.147410341451746
c128 3.49954350614191 0.142703327608161 -0.438250424230238 -0.361914527790927 0.414062503754401 -0.206417016358671 -1.76266638383964 0.405152075167199 0.0813069161585222 0.00283686684150926 0.0953664976141362 0.212468416987924 0.189465596875946 0.0217188170078249 0.0890948462260392 0.000524889487638306 0.50757569754791 0.669986946899031 0.359098119624474 -0.23934461765763 -0.0557035815980196 -0.0484125408524457 -0.131613454716992 -0.0558325232940894 0.140820570731451 -0.0515656331197173 0.0633781377393849 -0.150087612015795 0.147719962163035 -0.0755001337092588 -0.0142177161106609 0.0369503897678622 -0.00347189519450121 -0.0347086073965276 0.00418766277694188 0.0990285688490991 -0.103106269673487 -0.0389669027210191 -0.0183741023183701 0.00106545655335648
c129 3.50156377497825 0.144672296394084 -0.421132411535252 -0.323493960000197 0.365866847610437 -0.1870057722484 -1.59105737030949 0.369793606635487 0.0734791339009578 0.00630351794147491 0.0945820814801339 0.255717200892257 0.289624368493767 0.0253899317602309 0.13070838965796 0.0360274932011125 -0.421350193766582 -0.554806546400509 -0.131281702214369 0.131435286308823 0.0821851834336161 0.0689909490268374 0.105102066075948 0.044754764022275 -0.117535872337563 0.0634041178441625 -0.00479199632282804 0.213013868545643 -0.0600253679829478 0.23753866150652 0.104399005199093 -0.0284880915126917 -0.00233240741163733 0.0352491350365494 0.03592507334536 -0.0133350776359229 0.0643658455820523 -0.165429696532264 -0.142824028193913 0.147410341451817
