c0 3.50964927334805 -0.0137903840750247 -0.184557873681137 0.244826391166439 0.158975806378811 0.0122358184960709 0.0640207241576588 -0.051031910087934 -0.00262568010533085 -0.0510073780862616
c1 3.517552407109 -0.123324754026186 -0.301827185187464 0.153075274724356 0.130529647100514 -0.0326823583032345 0.0521920563472401 -0.0572345731490568 -0.0392386877454238 -0.0138321930351236
c2 3.517552407109 -0.123324754026191 -0.301827185187474 0.153075274724326 0.130529647100508 -0.0326823583032722 0.0521920563472906 -0.0572345731490672 -0.0392386877454274 -0.0138321930351379
c3 3.517552407109 -0.123324754026216 -0.301827185187597 0.153075274724461 0.130529647100524 -0.0326823583030851 0.0521920563471843 -0.0572345731490514 -0.0392386877454703 -0.0138321930351697
c4 3.46016193540689 0.517202213785489 0.280757331187281 0.72603941459115 0.437037439543407 0.413450352832416 0.459918634763932 -0.507613963269941 -1.26000197760958 -1.37067016832841
c5 3.51658458668505 -0.115470115261304 -0.296229523208223 0.167283910315865 0.144734693183057 -0.0340644955398897 0.0635237818053873 -0.0622712367941565 -0.0394884244816691 -0.00521812990819935
c6 3.46315184475506 0.899388485339888 0.788241812299012 0.887851044687906 0.622344569537903 0.00769694433670033 0.216739040777543 -0.0615630484620087 0.0463637676953763 0.0738444176657178
c7 3.51658458668505 -0.115470115261282 -0.296229523208192 0.167283910315822 0.144734693183052 -0.0340644955399275 0.0635237818054277 -0.062271236794124 -0.0394884244816471 -0.00521812990820799
c8 3.51658458668505 -0.115470115261264 -0.296229523208165 0.167283910315788 0.144734693183036 -0.0340644955399792 0.0635237818054458 -0.0622712367941282 -0.0394884244816326 -0.00521812990816762
c9 3.50207825616739 0.121901194209915 -0.0416384170709712 0.351776782906283 0.241311220760906 -0.0235180943581046 0.103494930392489 -0.0680459079216542 -0.030503960814621 0.0467574607390485
c10 3.5212254464824 -0.116097676675372 -0.284371748366692 0.142830859437165 0.119595499175555 -0.0297941656724038 0.0440816677099143 -0.0481146305612797 -0.033021301401111 -0.00978799912316713
c11 3.5212254464824 -0.116097676675377 -0.28437174836671 0.142830859437179 0.119595499175538 -0.0297941656724197 0.0440816677098926 -0.0481146305612775 -0.0330213014011042 -0.00978799912313447
c12 3.50833094049781 -0.172803706627399 -0.421773816814506 0.225701766642261 0.233691562385575 -0.1182674485094 0.684348343080181 1.38285261319026 0.218672053573439 0.0543114352744932
c13 3.50833094049781 -0.172803706627364 -0.421773816814446 0.225701766642232 0.233691562385557 -0.118267448509483 0.684348343080243 1.38285261319035 0.218672053573507 0.0543114352745584
c14 3.50549911653216 -0.179044288581991 -0.435955819485533 0.233041399761827 0.243310602582471 -0.124873311197323 0.729603245850597 1.48123856093668 0.235300235521883 0.0587209858925626
c15 3.50833094049781 -0.172803706627386 -0.421773816814491 0.225701766642253 0.233691562385565 -0.118267448509453 0.6843483430802 1.38285261319029 0.218672053573441 0.0543114352744931
c16 3.50833094049781 -0.17280370662738 -0.421773816814485 0.225701766642238 0.233691562385538 -0.118267448509502 0.684348343080248 1.38285261319034 0.21867205357346 0.054311435274504
c17 3.50549911653216 -0.179044288581958 -0.435955819485502 0.233041399761783 0.243310602582481 -0.124873311197324 0.729603245850582 1.48123856093666 0.23530023552188 0.0587209858925524
c18 3.50833094049781 -0.172803706627416 -0.421773816814526 0.225701766642273 0.233691562385594 -0.118267448509456 0.684348343080158 1.38285261319033 0.218672053573512 0.0543114352745427
c19 3.50043695205238 -0.206190716535856 -0.420740161804097 0.232653890170649 0.239459387555119 -0.154114798646761 0.730273823330881 1.46044039253322 0.207756748272253 0.034488900255207
c20 3.50833094049781 -0.172803706627378 -0.421773816814496 0.225701766642248 0.233691562385576 -0.118267448509477 0.684348343080219 1.38285261319026 0.218672053573489 0.0543114352745605
c21 3.50833094049781 -0.172803706627388 -0.421773816814509 0.225701766642249 0.233691562385557 -0.118267448509482 0.684348343080206 1.38285261319028 0.218672053573457 0.0543114352745455
c22 3.50833094049781 -0.172803706627367 -0.421773816814445 0.225701766642199 0.233691562385568 -0.118267448509535 0.684348343080215 1.38285261319033 0.21867205357353 0.0543114352745335
c23 3.50833094049781 -0.172803706627372 -0.421773816814509 0.225701766642245 0.233691562385565 -0.118267448509435 0.684348343080213 1.38285261319026 0.21867205357345 0.0543114352745053
c24 3.50833094049781 -0.172803706627344 -0.421773816814441 0.225701766642219 0.233691562385556 -0.118267448509519 0.684348343080247 1.38285261319027 0.218672053573483 0.0543114352745499
c25 3.50833094049781 -0.172803706627399 -0.421773816814546 0.225701766642281 0.233691562385563 -0.118267448509366 0.684348343080193 1.38285261319034 0.218672053573464 0.0543114352745151
c26 3.50833094049781 -0.172803706627401 -0.421773816814512 0.225701766642274 0.233691562385575 -0.118267448509467 0.684348343080191 1.3828526131903 0.21867205357346 0.0543114352745319
c27 3.50833094049781 -0.17280370662737 -0.421773816814467 0.225701766642239 0.233691562385539 -0.118267448509473 0.684348343080223 1.38285261319028 0.218672053573415 0.054311435274521
c28 3.50833094049781 -0.172803706627357 -0.421773816814432 0.225701766642173 0.233691562385544 -0.118267448509536 0.684348343080275 1.38285261319035 0.218672053573481 0.0543114352745134
c29 3.38949782203456 0.141736706076214 1.55393700532751 0.191228611416292 -1.24173521464809 0.765458408931451 -0.176562636083068 0.187485720135483 0.133206544511993 0.378783600315999
c30 3.5212254464824 -0.116097676675372 -0.284371748366739 0.142830859437204 0.119595499175567 -0.0297941656723267 0.0440816677098644 -0.0481146305612007 -0.033021301401107 -0.00978799912309361
c31 3.51121565406354 -0.0958676952272688 -0.312242746799021 0.19196738497064 0.151373529346875 0.0860499965001922 0.181939318310847 -0.234688966967478 -0.562688490034883 -0.45109013383542
c32 3.51121565406354 -0.0958676952272731 -0.312242746798982 0.191967384970604 0.151373529346865 0.0860499965001065 0.181939318310871 -0.234688966967452 -0.562688490034802 -0.451090133835445
c33 3.47693695207242 0.432868037258812 0.222182244486226 0.455345525207093 0.329668194075458 0.15456514964965 0.284840349024771 -0.280343912588217 -0.707964272683443 -0.363196142118133
c34 3.48109854323741 0.501227222135944 0.317969477876361 0.623149303392256 0.436777127749836 0.107668971416649 0.263679278291543 -0.231607609448075 -0.516803765560981 -0.376262845416521
c35 3.46010977394994 0.869999716052971 0.736328363378288 0.890417603356321 0.604283269024842 0.105688960953953 0.316749638261892 -0.22430934944614 -0.464918911481641 -0.360189233926799
c36 3.51653442110568 -0.113920667473109 -0.270458176553774 0.174631796237159 -0.0428338779972473 -0.158746862837836 0.0366498396638872 -0.0444058448904946 -0.0152445010099656 -0.0776137020085
c37 3.48482693845648 -0.0822480074057225 -0.0595570827465655 0.237837157864359 -1.10304117518531 -0.702795969951386 -0.0369483242632177 -0.0147557652273375 0.107199529082922 -0.262856144300561
c38 3.51653442110568 -0.113920667473118 -0.270458176553782 0.174631796237157 -0.0428338779972401 -0.158746862837767 0.0366498396639101 -0.0444058448905395 -0.0152445010100853 -0.0776137020084663
c39 3.51653442110568 -0.113920667473103 -0.270458176553791 0.174631796237168 -0.0428338779972626 -0.158746862837751 0.0366498396638923 -0.0444058448904997 -0.0152445010100083 -0.0776137020084852
c40 3.51653442110568 -0.113920667473132 -0.270458176553791 0.174631796237196 -0.0428338779972547 -0.158746862837747 0.0366498396639008 -0.044405844890582 -0.0152445010100097 -0.0776137020085361
c41 3.51405974847415 -0.127655513008062 -0.322097116182236 0.176733714141477 0.158468085290948 -0.0412931885780013 0.0773774588900551 -0.0829192789577404 -0.0586668103764297 -0.0119658277657628
c42 3.51122793277766 -0.133380627952561 -0.334313835810835 0.180780378906907 0.166967339179405 -0.0461849434769353 0.086476032153429 -0.0981327381247332 -0.0828428363958135 -0.0101177487681723
c43 3.51405974847415 -0.127655513008056 -0.32209711618223 0.176733714141481 0.158468085290919 -0.0412931885779742 0.0773774588900633 -0.0829192789576804 -0.0586668103763806 -0.0119658277657727
c44 3.51405974847415 -0.127655513008024 -0.3220971161822 0.176733714141457 0.158468085290939 -0.041293188577964 0.0773774588900611 -0.0829192789576446 -0.0586668103764621 -0.0119658277657473
c45 3.47572657617414 0.618518048450434 0.461133746020165 0.687071248414264 0.515824916496179 -0.00281572351325077 0.169153402557065 -0.0716121634514556 0.0209042208492978 0.0525935880439854
c46 3.51405974847415 -0.127655513008058 -0.322097116182216 0.176733714141451 0.158468085290942 -0.0412931885780162 0.077377458890083 -0.0829192789576255 -0.0586668103763906 -0.0119658277657483
c47 3.51405974847415 -0.12765551300804 -0.322097116182202 0.176733714141434 0.158468085290914 -0.0412931885779709 0.0773774588900602 -0.0829192789577035 -0.0586668103764542 -0.0119658277657405
c48 3.51405974847415 -0.127655513008055 -0.322097116182225 0.176733714141469 0.158468085290929 -0.0412931885780017 0.0773774588900874 -0.0829192789577033 -0.0586668103763968 -0.0119658277657932
c49 3.51697778840185 -0.124224696949682 -0.302412480981317 0.151323019919824 0.129178002933877 -0.0334398688251616 0.0507773054842017 -0.0562068879205956 -0.0399918664591265 -0.0116212060656084
c50 3.51697778840185 -0.124224696949637 -0.302412480981238 0.15132301991972 0.12917800293395 -0.0334398688252287 0.0507773054842436 -0.0562068879208257 -0.0399918664590944 -0.0116212060656567
c51 3.4344594092482 -0.105218474549165 0.488851640266899 -1.48072957184195 -0.117307031764826 -0.0482666524442246 -0.0671734567322407 -0.0275067015794155 -0.157088585804558 0.171646889851191
c52 3.4375726497056 0.674617348037892 0.667678246472723 0.590117878377331 -1.19056020909198 0.445547108876216 -0.0937119358789898 0.152167561988845 0.408859370516214 -0.49903594896528
c53 3.51658474508126 -0.125045876946741 -0.307239809309399 0.157717241727773 0.136198453983157 -0.0354186080213528 0.0568261360914676 -0.0621457429188251 -0.0438039566285812 -0.0119961067010342
c54 3.51658474508126 -0.125045876946736 -0.30723980930943 0.1577172417278 0.136198453983157 -0.0354186080213215 0.0568261360914264 -0.062145742918805 -0.0438039566286478 -0.0119961067010506
c55 3.51658474508126 -0.125045876946686 -0.307239809309266 0.15771724172766 0.136198453983142 -0.0354186080214194 0.056826136091494 -0.0621457429188077 -0.0438039566285832 -0.0119961067010449
c56 3.50613385921006 0.0959448473582631 -0.0689556676091036 0.318213851631378 0.238653804176721 -0.0272378630618995 0.0913610018790857 -0.0646278991517534 -0.0241370415606193 0.00622779067740073
c57 3.51658474508126 -0.125045876946689 -0.30723980930933 0.157717241727694 0.136198453983141 -0.0354186080214266 0.0568261360914966 -0.0621457429188213 -0.0438039566286586 -0.011996106701053
c58 3.44715449905744 0.549511886862095 -0.132406038543551 -0.869447386373845 -1.09279891279319 -0.704681769765476 -0.0665777352864548 -0.0881562235283019 0.296304756423337 -0.135396629638955
c59 3.51540972187643 -0.106806442606206 -0.294347365115111 0.0960083118685963 0.101852978408984 -0.0882573869216819 0.101665428666413 -0.214682081441054 0.215342287025381 0.0487941371639127
c60 3.48581731275495 0.324916434433347 0.173318472098147 0.272833277284164 0.254133943988912 -0.0946451806682344 0.1860458003474 -0.269949015854862 0.229123427463034 0.152637263716129
c61 3.49178684898182 -0.242159103721421 -0.372016017364085 0.115021096160123 0.221807105078027 -0.190871758860989 0.352103914016061 -0.907708210692083 1.37550596818431 0.22913345537699
c62 3.5212254464824 -0.116097676675382 -0.284371748366708 0.142830859437185 0.119595499175559 -0.0297941656723553 0.0440816677098838 -0.0481146305611784 -0.0330213014011555 -0.00978799912312224
c63 3.51568842879036 -0.10977371008427 -0.293157227783954 0.179764142951445 0.157965628012546 -0.0354306262937176 0.07215479142473 -0.0664895205600255 -0.0356894593055152 -0.00608042263027018
c64 3.47274921511901 0.696178988174874 0.576676430914068 0.745238020185476 0.541363314274637 0.008123313334511 0.172012298857333 -0.0535081243570569 0.0572225909388224 0.00567630234525358
c65 3.51568842879036 -0.109773710084232 -0.293157227783904 0.179764142951376 0.157965628012565 -0.035430626293753 0.0721547914248085 -0.0664895205599258 -0.0356894593055794 -0.00608042263024596
c66 3.51568842879036 -0.109773710084245 -0.293157227783905 0.179764142951393 0.157965628012556 -0.0354306262937261 0.0721547914247613 -0.0664895205599661 -0.0356894593055295 -0.00608042263024696
c67 3.51568842879036 -0.109773710084238 -0.293157227783935 0.179764142951404 0.157965628012544 -0.0354306262937178 0.07215479142474 -0.0664895205599437 -0.0356894593055477 -0.00608042263024445
c68 3.45161174191612 1.07875843006039 0.98266110218515 1.04167235233183 0.717256589892436 -0.0132009518513614 0.229222986616935 -0.0612450697383944 0.0795210197262391 0.100287068161104
c69 3.49469060562231 0.319787010399311 0.215258370449432 0.42313871625125 0.331541675952202 0.0355610121865639 0.121855119548915 -0.0535406942990229 -0.00457134503006989 0.0984321983641117
c70 3.50618334824416 -0.0600617690468591 -0.355071564295961 0.0777763449069538 0.147277405922864 -0.023052575761765 0.07012152547068 -0.0773702498316129 -0.0503825121751403 -0.0140947031712852
c71 3.51337634791482 -0.0466391817755948 -0.319195035318378 0.0608976137058385 0.1604071240011 -0.064495890309346 0.0638091800774104 -0.0638230561044066 -0.0429641569088737 -0.002795537794483
c72 3.51337634791482 -0.0466391817756255 -0.319195035318408 0.0608976137058298 0.160407124001082 -0.0644958903094029 0.0638091800774192 -0.0638230561044176 -0.0429641569088266 -0.00279553779447203
c73 3.51337634791482 -0.0466391817755819 -0.319195035318358 0.0608976137058272 0.160407124001083 -0.0644958903093826 0.0638091800774757 -0.0638230561044609 -0.0429641569087739 -0.00279553779448296
c74 3.43673187532313 1.34088929054964 0.472552039171549 -0.417440859177548 0.397197438083317 -0.112898445894301 0.048263103177403 0.0282641249662848 0.0688158559067599 0.0748456960571263
c75 3.51337634791482 -0.0466391817756059 -0.31919503531838 0.0608976137058129 0.160407124001063 -0.064495890309348 0.063809180077438 -0.0638230561044478 -0.042964156908805 -0.00279553779446041
c76 3.51337634791482 -0.0466391817756028 -0.319195035318395 0.0608976137058212 0.160407124001072 -0.0644958903094018 0.0638091800774354 -0.0638230561044434 -0.0429641569088066 -0.00279553779446236
c77 3.47208994907216 0.732030432297878 0.530928529965992 0.636554706158637 0.536393688577484 -0.0905478118490574 0.167830589280736 -0.0569976792116067 0.0408886847138228 0.0629487045873365
c78 3.51337634791482 -0.0466391817756267 -0.319195035318415 0.0608976137058629 0.160407124001078 -0.0644958903093415 0.0638091800774072 -0.0638230561044594 -0.0429641569088135 -0.00279553779448394
c79 3.49648500121942 0.291927414405403 0.161396132623356 0.456969987067932 0.31635731403441 -0.0446567963024308 0.11730112488066 -0.0542097286406887 0.00408379788765082 0.011316251309099
c80 3.51755237431014 -0.120811258341096 -0.298768307829472 0.155469528793181 0.133002272538204 -0.0341572371708035 0.0540464191847109 -0.05736012670575 -0.0389309069198585 -0.0108563795296108
c81 3.51755237431014 -0.120811258341112 -0.29876830782949 0.155469528793167 0.133002272538237 -0.0341572371707989 0.0540464191847279 -0.05736012670577 -0.0389309069199028 -0.0108563795296105
c82 3.51755237431014 -0.120811258341072 -0.298768307829412 0.155469528793081 0.133002272538197 -0.0341572371709251 0.0540464191848284 -0.0573601267057221 -0.0389309069198666 -0.0108563795296162
c83 3.49501206172451 -0.097552211903464 -0.228937942069866 -0.0138067357727385 -0.0271269741899591 0.107303363619689 0.139541595811013 -0.196781856848772 -0.616960892870541 0.147761725496156
c84 3.30472713284725 0.93214133163956 1.67261142106619 -0.70812012206366 -1.5401426622747 0.586970719914697 -0.0478659532526222 -0.0406572693455024 -0.481175064444091 0.936879435753806
c85 3.49231363217414 0.165464423031347 -0.0214072870547466 0.17238160482796 0.0370093144995954 0.0785625024229115 0.117566316956857 -0.151978094380123 -0.442749165856116 0.108979041588039
c86 3.50979418240129 -0.0643968368623257 -0.276905904949869 0.062984233660527 0.0682746932281996 0.0362615670586871 0.111962036623409 -0.148763192373355 -0.388508577189612 -0.0120215346129532
c87 3.50979418240129 -0.0643968368622632 -0.276905904949768 0.062984233660453 0.0682746932281473 0.0362615670585907 0.11196203662347 -0.148763192373317 -0.388508577189633 -0.0120215346129717
c88 3.50979418240129 -0.0643968368622965 -0.276905904949749 0.0629842336604255 0.0682746932281676 0.0362615670585667 0.111962036623436 -0.148763192373359 -0.388508577189597 -0.0120215346129622
c89 3.50979418240129 -0.0643968368623078 -0.276905904949841 0.0629842336605101 0.0682746932282141 0.0362615670586549 0.111962036623385 -0.148763192373445 -0.388508577189588 -0.0120215346129448
c90 3.449654867156 1.03581998743088 0.194155495981932 -0.592508715730242 0.196320334250404 -0.000974584130254013 0.10987714962537 -0.0802905598971897 -0.316830413723125 0.0628228320637334
c91 3.51439901391401 -0.0897940342199976 -0.285263972671659 0.172659781817013 0.0391670265062835 0.260627677432467 0.0258384513121436 -0.0179343630791306 0.0955772008761642 -0.139789010790194
c92 3.44975014752223 1.12365540828774 1.01041435931578 1.02732047340374 0.626176940190385 0.323673900067714 0.196732659410134 -0.0113507710397694 0.213660206651429 -0.0204854333071861
c93 3.51439901391401 -0.0897940342199724 -0.285263972671617 0.172659781816956 0.0391670265062841 0.260627677432469 0.0258384513121041 -0.0179343630790841 0.095577200876152 -0.139789010790186
c94 3.51439901391401 -0.0897940342199873 -0.285263972671601 0.172659781816966 0.0391670265062536 0.260627677432454 0.0258384513121055 -0.0179343630791209 0.0955772008761723 -0.139789010790211
c95 3.51439901391401 -0.0897940342199396 -0.285263972671593 0.172659781816927 0.0391670265062553 0.260627677432457 0.0258384513121352 -0.017934363079138 0.0955772008761468 -0.139789010790209
c96 3.46276130907412 0.869225294789914 0.749650073391522 0.856958825614205 0.477311209084243 0.280176539699603 0.157091271406791 -0.00649723909236018 0.199558876203886 -0.0256585914648814
c97 3.49005350017958 0.0151966663260596 -0.23185565344844 0.0744999588346581 -0.544856172889551 1.24954742086688 -0.123240985615513 0.114675251737495 0.376773512303665 -0.435769783587319
c98 3.42414344170524 -0.601906801967286 0.732625792016985 -0.304061296722018 -1.58708443856944 0.780731718757362 -0.2067738945816 0.100122998204842 -0.147496477904611 0.145172602343381
c99 3.47397587376074 0.374489956958205 0.168826590374889 0.309820719614693 -0.368571277652729 1.17904041317995 -0.0713203605231737 0.109368129697595 0.344548558077511 -0.306200515785839
c100 3.49572696531281 0.0017080192359472 -0.225732168779297 0.045421008537583 -0.518045690304273 1.09274733419631 -0.121344928256187 0.102743648944571 0.301350657720463 -0.359609559215693
c101 3.49289501497796 0.0024350025336106 -0.231719259927755 0.0529553217451679 -0.527136862982423 1.14565820311927 -0.125138186239212 0.108585276498568 0.326076009385698 -0.386059776131309
c102 3.49572696531281 0.00170801923595767 -0.225732168779294 0.0454210085375118 -0.518045690304218 1.09274733419634 -0.121344928256172 0.102743648944567 0.30135065772045 -0.359609559215763
c103 3.49162046286228 0.00440767790383723 -0.221645129308872 0.041022738182922 -0.591184077130622 1.18446908384785 -0.123034731878454 0.0903439729018747 0.208499665696724 -0.170430989198031
c104 3.49572696531281 0.0017080192359735 -0.225732168779282 0.0454210085375362 -0.518045690304226 1.09274733419635 -0.121344928256202 0.10274364894461 0.301350657720409 -0.359609559215716
c105 3.48789933844516 -0.0131364612340017 -0.265096855783569 0.0636690034699978 -0.522762603775114 1.11295046218066 -0.109498823845127 0.0831892356417472 0.281757250308417 -0.359362245474807
c106 3.49572696531281 0.00170801923592517 -0.225732168779355 0.0454210085375777 -0.518045690304233 1.09274733419633 -0.12134492825622 0.102743648944475 0.30135065772043 -0.359609559215731
c107 3.49572696531281 0.00170801923594693 -0.225732168779269 0.0454210085375341 -0.518045690304271 1.09274733419628 -0.121344928256207 0.102743648944509 0.301350657720472 -0.359609559215731
c108 3.49572696531281 0.00170801923593464 -0.225732168779291 0.0454210085376037 -0.518045690304222 1.09274733419631 -0.121344928256254 0.102743648944528 0.301350657720462 -0.359609559215612
c109 3.49572696531281 0.00170801923593025 -0.225732168779281 0.0454210085375785 -0.518045690304244 1.09274733419626 -0.12134492825618 0.102743648944473 0.30135065772045 -0.359609559215651
c110 3.44148129551072 0.589024739827384 -0.100045994674038 -0.816992353205766 -1.46076621925966 0.27147513412812 -0.244041764486822 0.19533719677004 0.328085210488881 -0.515085486488767
c111 3.49381870885299 0.031618616348349 -0.230330092648549 0.00213448491651579 -0.529607300315899 1.11821442281958 -0.128805959508388 0.110457341724992 0.315647542067466 -0.372828392415245
c112 3.49572696531281 0.00170801923593991 -0.225732168779337 0.0454210085376318 -0.518045690304235 1.09274733419634 -0.121344928256274 0.10274364894455 0.301350657720398 -0.359609559215635
c113 3.48911373972483 0.153012763010723 -0.0793070231195362 0.127296675162813 -0.440145299580571 1.11990731046217 -0.107583147739026 0.108852127983946 0.327966429370185 -0.35622313392112
c114 3.47635846679972 -0.0394187088756486 -0.194941651709383 0.0897369538798371 -0.843293134075853 1.40862269708461 -0.140500405433946 0.0642342743215209 -0.0841819887095322 0.70885873977778
c115 3.42803681845795 1.04574858623698 0.164593341226609 -0.740872176112557 -0.495580271547604 0.995388521900316 -0.107090656473158 0.10587426735051 0.145536374153958 -0.138917108467113
c116 3.49572696531281 0.0017080192359632 -0.225732168779265 0.0454210085376091 -0.518045690304253 1.09274733419629 -0.121344928256177 0.102743648944525 0.301350657720358 -0.359609559215669
c117 3.49572696531281 0.00170801923591378 -0.225732168779326 0.0454210085376627 -0.518045690304271 1.09274733419635 -0.12134492825623 0.102743648944534 0.30135065772033 -0.359609559215668
c118 3.49572696531281 0.0017080192359287 -0.225732168779352 0.0454210085377117 -0.51804569030425 1.09274733419638 -0.121344928256289 0.102743648944513 0.301350657720343 -0.359609559215713
c119 3.48782390093893 0.110038569791208 -0.10919459691081 0.138829346387779 -0.476913749178975 1.10302409768683 -0.102506589814919 0.101807723542209 0.320826301407293 -0.378793840278073
c120 3.46723978101437 0.56959906498402 0.375362111429834 0.450064951531706 -0.243864484836239 1.11611720272331 -0.0424059039955241 0.104102288343125 0.340479820741766 -0.310170188859468
c121 3.41548344072862 1.50268045359653 0.685512546816534 -0.297883314887087 -0.0936724474517974 0.954809489837249 -0.0553670702662131 0.157893357851097 0.379661738423666 -0.252407842855799
c122 3.46755658896342 0.55961622946726 0.372183249090489 0.430925804627886 -0.25598833980501 1.11765533771009 -0.0761394142692162 0.11997499336316 0.363225906041959 -0.320333959016157
c123 3.49572696531281 0.00170801923594697 -0.225732168779293 0.0454210085376188 -0.518045690304236 1.09274733419629 -0.1213449282562 0.102743648944499 0.301350657720336 -0.359609559215687
c124 3.4906328322406 0.129100165906839 -0.0887771328537026 0.139268059703392 -0.456923344908303 1.09505694470543 -0.0975929943467876 0.0989398009232985 0.299910709215053 -0.3286503787971
c125 3.45514831455879 0.633015177135293 0.419630296402874 0.554199522004321 -0.207698246266794 1.25779916648601 0.0694218020766068 -0.0265531083361806 0.00894014805154249 -0.67699263104334
c126 3.49572696531281 0.00170801923593924 -0.225732168779333 0.0454210085376358 -0.518045690304275 1.09274733419634 -0.121344928256188 0.102743648944559 0.301350657720319 -0.359609559215655
c127 3.50156377497825 -0.144672296394151 -0.421132411535257 0.323493960000158 0.365866847610437 -0.187005772248363 -1.59105737030949 0.369793606635481 0.0734791339008841 -0.00630351794044009
c128 3.49954350614191 -0.142703327608208 -0.438250424230234 0.361914527791183 0.414062503754401 -0.20641701635864 -1.76266638383964 0.405152075167176 0.0813069161585197 -0.00283686684138844
c129 3.50156377497825 -0.144672296394136 -0.421132411535263 0.323493960000168 0.365866847610436 -0.187005772248352 -1.59105737030951 0.369793606635474 0.0734791339009062 -0.00630351794038388
c130 3.50156377497825 -0.144672296394165 -0.421132411535271 0.323493960000169 0.365866847610433 -0.18700577224839 -1.59105737030949 0.369793606635511 0.0734791339009029 -0.00630351794040573
c131 3.49659209706688 0.0713396401282412 -0.156655273935032 0.465972370302735 0.416206709187832 -0.187640924427989 -1.34660114206011 0.318348823177386 0.0910122813519862 -0.0106536185311786
c132 3.50678692194151 -0.13316685123873 -0.392418791210644 0.303569621353336 0.337128147412076 -0.165851174686752 -1.37564115987568 0.31583913624187 0.0633599036521106 -0.00464836080635015
c133 3.50678692194151 -0.133166851238693 -0.392418791210588 0.303569621353276 0.337128147412078 -0.165851174686763 -1.37564115987564 0.315839136241896 0.0633599036520746 -0.00464836080631215
c134 3.50678692194151 -0.133166851238716 -0.392418791210618 0.303569621353306 0.337128147412067 -0.165851174686763 -1.37564115987568 0.31583913624184 0.0633599036521068 -0.00464836080631121
c135 3.49098878297759 0.198233840329546 -0.0346902176467115 0.525166289236192 0.493606347817506 -0.147479708264168 -1.36101291987988 0.334522896652338 0.113074889024617 0.0214100028406697
c136 3.49098878297759 0.198233840329639 -0.0346902176467098 0.525166289236142 0.493606347817508 -0.147479708264287 -1.36101291987978 0.334522896652331 0.113074889024667 0.0214100028406732
c137 3.49169932186683 0.178762219726687 -0.05822810972984 0.518325224001076 0.485928406848204 -0.157810223012929 -1.34118676773765 0.323167406929683 0.102110403198173 0.0160440282069924
c138 3.50395509063857 -0.138791865122388 -0.406110924411288 0.312564411782156 0.349794224496732 -0.174746442435867 -1.46226652660605 0.337042153946217 0.06702544121662 -0.00535159386108232
c139 3.47109844984662 0.557221870443317 0.348665898014713 0.799546513130846 0.655698749984837 -0.168942595120753 -1.27342115417733 0.322979621849964 0.139386097795698 0.0327257670719559
c140 3.50678692194151 -0.133166851238723 -0.392418791210629 0.303569621353311 0.337128147412085 -0.165851174686784 -1.37564115987564 0.315839136241805 0.0633599036521126 -0.00464836080633273
c141 3.50678692194151 -0.133166851238708 -0.39241879121061 0.303569621353311 0.33712814741206 -0.165851174686792 -1.37564115987566 0.315839136241838 0.063359903652047 -0.00464836080634212
c142 3.48117156446553 0.373553188808687 0.152854026493991 0.655616547219562 0.573214391669344 -0.160724511231505 -1.30634805208274 0.323307873375315 0.119837990728767 0.0503165041193603
c143 3.50395509063857 -0.138791865122441 -0.406110924411327 0.312564411782261 0.349794224496696 -0.174746442435776 -1.46226652660603 0.337042153946305 0.0670254412165052 -0.00535159386099025
c144 3.50529523934627 -0.174332819743062 -0.414054465389004 0.212171663285887 0.217563082238482 -0.111210827366236 0.281132860462985 -0.686174853117548 1.04206649181641 0.171374323209992
c145 3.50830396565157 -0.128397523745662 -0.358413402748347 0.234232182360978 0.185342432786095 0.10695739755813 0.238402102401955 -0.325965317076441 -0.793820080023922 -0.833749576072038
c146 3.50830396565157 -0.128397523745649 -0.358413402748375 0.234232182361023 0.185342432786088 0.106957397558265 0.238402102401898 -0.325965317076394 -0.793820080023949 -0.833749576072027
c147 3.50830396565157 -0.128397523745658 -0.358413402748399 0.234232182361058 0.185342432786102 0.10695739755824 0.238402102401891 -0.3259653170764 -0.793820080023972 -0.833749576072032
c148 3.50830396565157 -0.128397523745663 -0.358413402748382 0.234232182360998 0.185342432786091 0.106957397558182 0.238402102401885 -0.325965317076392 -0.793820080023937 -0.833749576071995
c149 3.50830396565157 -0.128397523745678 -0.35841340274839 0.23423218236101 0.185342432786085 0.106957397558178 0.238402102401943 -0.325965317076364 -0.793820080023977 -0.833749576071965
c150 3.50830396565157 -0.128397523745632 -0.358413402748339 0.234232182361009 0.1853424327861 0.106957397558247 0.238402102401888 -0.325965317076412 -0.793820080024013 -0.833749576072005
c151 3.50830396565157 -0.128397523745638 -0.35841340274832 0.23423218236095 0.185342432786079 0.106957397558114 0.23840210240195 -0.32596531707636 -0.793820080023958 -0.83374957607201
c152 3.50830396565157 -0.128397523745635 -0.358413402748337 0.234232182360973 0.1853424327861 0.106957397558178 0.23840210240193 -0.325965317076342 -0.793820080023915 -0.833749576072022
c153 3.50830396565157 -0.128397523745661 -0.358413402748358 0.234232182360983 0.185342432786091 0.106957397558162 0.238402102401924 -0.325965317076377 -0.793820080023921 -0.833749576072025
c154 3.50830396565157 -0.128397523745658 -0.358413402748362 0.23423218236101 0.185342432786071 0.106957397558201 0.238402102401917 -0.325965317076374 -0.793820080024004 -0.833749576072006
c155 3.51183009912525 -0.119640545843015 -0.285569340685721 0.123230886446971 0.0601650369897721 -0.000953479771674877 0.0637980704056343 -0.0873198850504602 -0.133769179350338 0.125364048021892
c156 3.51183009912525 -0.119640545843026 -0.285569340685702 0.123230886446929 0.0601650369897846 -0.000953479771738922 0.063798070405663 -0.0873198850505014 -0.133769179350301 0.125364048021911
c157 3.51183009912525 -0.119640545843054 -0.285569340685781 0.123230886447009 0.0601650369897918 -0.000953479771652621 0.0637980704056153 -0.0873198850504989 -0.133769179350339 0.125364048021925
c158 3.51183009912525 -0.119640545842998 -0.285569340685669 0.123230886446901 0.060165036989793 -0.000953479771761232 0.0637980704057268 -0.0873198850504955 -0.133769179350345 0.12536404802193
c159 3.51183009912525 -0.119640545843018 -0.285569340685705 0.123230886446929 0.0601650369897843 -0.000953479771756798 0.0637980704056347 -0.0873198850504656 -0.133769179350242 0.125364048021955
c160 3.51183009912525 -0.11964054584304 -0.285569340685777 0.123230886447003 0.0601650369898057 -0.000953479771672896 0.0637980704056417 -0.0873198850505102 -0.133769179350293 0.125364048021898
c161 3.51267310328119 -0.0417382409546896 -0.27070145214286 0.034433914543261 -0.0138095499423235 0.00694996812278127 0.030712522398712 -0.0506880716866066 -0.0245939592014254 0.0118068943069807
c162 3.4783144168887 0.611461858396108 0.437675870435708 0.484594312452583 0.294712482971909 0.0602683529267333 0.121018469330416 -0.0409979316045785 0.0436338486392856 0.0787311918398609
c163 3.5126731032812 -0.041738240954668 -0.270701452142858 0.0344339145432881 -0.0138095499423315 0.0069499681228828 0.0307125223986348 -0.0506880716866629 -0.0245939592014523 0.0118068943069435
c164 3.50984119678718 -0.0542512100213769 -0.272089790940627 0.0309248532855664 -0.00899756891317949 0.00634701084920441 0.0310059951727854 -0.0520630668296663 -0.026706520633162 0.00907327800345401
c165 3.5126731032812 -0.041738240954718 -0.270701452142947 0.0344339145433208 -0.013809549942309 0.00694996812279724 0.0307125223986621 -0.0506880716868003 -0.0245939592014566 0.0118068943070281
c166 3.50984120268452 -0.0395149401392919 -0.283147394632254 0.0228233360747633 -0.0111990482228447 0.00188531907430812 0.0306643197572844 -0.052217446957259 -0.027585560117007 0.0114257996756733
c167 3.50694242841851 -0.099907153879865 -0.239433189247678 0.206530321452194 -0.319700069900916 -0.276380436270624 0.0542077774994941 -0.097914950316922 -0.263248456582634 0.299304460249251
c168 3.50694242841851 -0.0999071538798229 -0.239433189247601 0.20653032145213 -0.319700069900933 -0.276380436270687 0.0542077774995344 -0.0979149503169102 -0.263248456582648 0.299304460249288
c169 3.47513407522841 0.519324375314537 0.431006818921435 0.647170528674764 -0.0200713035874803 -0.27717707857436 0.141517258558403 -0.0940106772216755 -0.203161532680526 0.33331283134024
c170 3.432935775497 0.464887165010451 0.570087543588641 0.58962571503253 -1.37148954823825 -0.23145459912814 0.0443215866017315 -0.0950609169468982 -0.613990115279924 1.18177456992069
c171 3.50694242841851 -0.0999071538798113 -0.239433189247582 0.206530321452124 -0.319700069900945 -0.276380436270627 0.054207777499503 -0.0979149503169173 -0.26324845658269 0.299304460249317
c172 3.50694242841851 -0.0999071538798161 -0.239433189247595 0.206530321452138 -0.319700069900935 -0.276380436270664 0.0542077774995514 -0.0979149503168972 -0.263248456582646 0.299304460249289
c173 3.50694242841851 -0.0999071538798467 -0.239433189247657 0.20653032145216 -0.31970006990092 -0.276380436270584 0.0542077774994908 -0.0979149503169148 -0.263248456582634 0.299304460249271
c174 3.50694242841851 -0.099907153879784 -0.239433189247556 0.20653032145212 -0.319700069900932 -0.276380436270626 0.0542077774995274 -0.0979149503168821 -0.263248456582688 0.299304460249255
c175 3.50694242841851 -0.0999071538798481 -0.239433189247644 0.206530321452162 -0.319700069900914 -0.276380436270666 0.0542077774995586 -0.0979149503169089 -0.263248456582656 0.299304460249254
c176 3.48258322233013 -0.0689384249695557 -0.037309845770961 0.2550626289378 -1.2455564503779 -0.760412458991214 -0.0304239715512473 -0.0252230971340775 -0.132055125028999 0.0127803904526033
c177 3.50411051455614 -0.112665789366495 -0.240681438533622 0.204009861320088 -0.317348071795601 -0.280788555828983 0.0549286032445019 -0.100269705062177 -0.271131126658868 0.303808925819295
c178 3.48630313910247 0.316199248142972 0.199076419432146 0.508914577894556 -0.120250104753791 -0.235002612765252 0.126794229028336 -0.108409439291359 -0.253064430245914 0.382679224135837
c179 3.50694242841851 -0.0999071538798388 -0.239433189247649 0.206530321452167 -0.319700069900923 -0.276380436270638 0.0542077774995463 -0.0979149503169414 -0.263248456582682 0.299304460249238
c180 3.49974944206665 -0.112962675434038 -0.275917961613355 0.222038551513837 -0.326615571845521 -0.230528565790252 0.0607855998982565 -0.110456401087455 -0.263155964710521 0.277314881969235
c181 3.48258322233013 -0.0689384249695271 -0.0373098457709418 0.255062628937783 -1.24555645037792 -0.760412458991199 -0.0304239715512455 -0.0252230971340505 -0.132055125028996 0.0127803904526124
c182 3.50856392622338 -0.144177713075554 -0.297756275929966 0.0315900346630643 0.209911356136187 -0.0987794259510446 0.136544034437135 -0.229974203743093 -0.357018838690212 0.0398442351693
c183 3.50856392622338 -0.144177713075549 -0.297756275929936 0.0315900346630438 0.20991135613619 -0.0987794259510201 0.13654403443709 -0.229974203743103 -0.357018838690228 0.0398442351692629
c184 3.50856392622338 -0.144177713075534 -0.297756275929934 0.0315900346630437 0.209911356136182 -0.0987794259510694 0.136544034437158 -0.229974203743093 -0.357018838690225 0.0398442351692914
c185 3.50856392622338 -0.144177713075535 -0.297756275929937 0.0315900346630533 0.209911356136187 -0.0987794259510267 0.136544034437082 -0.229974203743142 -0.357018838690179 0.0398442351692994
c186 3.50856392622338 -0.14417771307556 -0.297756275929971 0.0315900346630637 0.209911356136207 -0.0987794259510141 0.136544034437097 -0.229974203743111 -0.357018838690214 0.0398442351692894
c187 3.50856392622338 -0.144177713075585 -0.297756275929991 0.0315900346630762 0.209911356136202 -0.0987794259510385 0.13654403443712 -0.22997420374311 -0.357018838690221 0.039844235169297
c188 3.50856392622338 -0.144177713075523 -0.297756275929894 0.0315900346630201 0.209911356136186 -0.0987794259510927 0.136544034437143 -0.229974203743099 -0.357018838690226 0.0398442351692883
c189 3.48792463577031 0.272034593311174 0.140907995974709 0.334619340571537 0.406593486190189 -0.0588827213264871 0.20822400627002 -0.238860062805104 -0.345536321722231 0.1269270152215
c190 3.50856392622338 -0.144177713075563 -0.297756275929965 0.0315900346630596 0.209911356136194 -0.0987794259510337 0.136544034437114 -0.229974203743084 -0.357018838690236 0.039844235169326
c191 3.50573212256255 -0.149786095642582 -0.310165281581646 0.0370543911497301 0.217728781246838 -0.102453931491294 0.144016595456087 -0.240660558992561 -0.370740369627631 0.0398099360340472
c192 3.46025749850696 0.464689903465596 -0.340388343928519 -1.08406921016944 0.083243727846961 -0.206597441798094 0.0727925588860357 -0.230633975588445 -0.317844618338144 0.112647761049253
c193 3.50856392622338 -0.144177713075636 -0.297756275929856 0.0315900346629249 0.209911356136246 -0.0987794259512278 0.136544034437111 -0.229974203743099 -0.35701883869012 0.0398442351692253
c194 3.50856392622338 -0.144177713075682 -0.297756275929936 0.0315900346629814 0.209911356136267 -0.0987794259511475 0.136544034437051 -0.22997420374315 -0.357018838690118 0.0398442351692298
c195 3.50573197139494 -0.157219727823716 -0.299761202461925 0.0267112076491102 0.218308243791251 -0.103082391574097 0.142865456034664 -0.24400611445796 -0.385211460934983 0.0407617253303664
c196 3.50028215732292 0.0354401772194979 -0.0906975842494279 0.166867942364388 0.296988871659537 -0.112697419179931 0.161258644402329 -0.227701965158854 -0.333919603675044 0.0528896583791962
c197 3.46799283914853 -0.790522495255496 0.522163319777884 -0.490160092522115 0.194251211536475 -0.0645464258863602 0.060916849265438 -0.164257353359906 -0.332658390056873 0.0057324017535484
c198 3.51156257880584 -0.198918210456568 -0.279515568756549 0.121856248076017 0.171782756613701 -0.0842495788892447 0.155073628862793 -0.361217035644824 0.492136258640913 0.069711422167622
c199 3.51156257880584 -0.19891821045658 -0.279515568756587 0.121856248076051 0.171782756613719 -0.0842495788892274 0.155073628862793 -0.361217035644839 0.492136258640947 0.0697114221676293
c200 3.51156257880584 -0.198918210456579 -0.279515568756591 0.121856248076062 0.17178275661372 -0.0842495788891841 0.155073628862759 -0.361217035644855 0.492136258640901 0.069711422167646
c201 3.46620405980652 -0.86050829282469 0.515856730359288 -0.39592434179386 0.178682386556637 -0.0701066140541909 0.127543003871783 -0.431858383773795 0.757388140921543 0.0727112434915451
c202 3.50421605828511 -0.231547527205447 -0.303492722756691 0.126521974421266 0.200127647949426 -0.107172000333629 0.209586686828408 -0.517293944518323 0.756219689431947 0.108465360124114
c203 3.50421605828511 -0.231547527205412 -0.303492722756678 0.126521974421275 0.200127647949444 -0.107172000333676 0.209586686828401 -0.51729394451834 0.756219689431952 0.108465360124121
c204 3.50873077037721 -0.205562870431935 -0.291319975014586 0.126987099678003 0.179574844539447 -0.0892154070362456 0.16643462435675 -0.388961216125291 0.531540105185618 0.075449053817114
c205 3.50873077037721 -0.205562870431973 -0.291319975014644 0.12698709967809 0.179574844539399 -0.0892154070361777 0.16643462435676 -0.388961216125104 0.53154010518559 0.075449053817208
c206 3.4797224123524 0.557354626200841 -0.357637466965034 -0.973409127438657 0.016720900140867 -0.139578086127339 -0.0390098668710443 0.0177386523399531 -0.0183605696308924 -0.0041052367223133
c207 3.51590371136557 -0.0513031670730229 -0.308521875741433 0.0465914689914196 0.136347832870082 -0.0547201272694562 0.0458760155787246 -0.0488307319436981 -0.0365444839856911 -0.00673071182385048
c208 3.51590371136557 -0.0513031670730339 -0.308521875741411 0.046591468991418 0.136347832870146 -0.0547201272695037 0.0458760155786972 -0.0488307319436671 -0.0365444839857415 -0.00673071182381687
c209 3.51590371136557 -0.0513031670730463 -0.308521875741463 0.0465914689914408 0.13634783287014 -0.0547201272694669 0.0458760155786158 -0.0488307319436351 -0.0365444839857078 -0.0067307118238818
c210 3.48674228283123 0.527983407317679 0.315050141035986 0.461084831061424 0.423112540666881 -0.0439601259796028 0.135597247591196 -0.0498458186434252 0.0128009104261218 0.0506183517825991
c211 3.51233637948475 0.0481795532165697 -0.209899135953029 0.105104117095033 0.18620998543492 -0.0345866414394644 0.0530930838925217 -0.0439933988187921 -0.0177747408100641 -0.0043901077665175
c212 3.51290880726317 -0.156204528267322 -0.208135066178256 0.0951480753448371 0.0893240379989139 -0.00524181795903768 0.0501475748384801 -0.0569143725858848 -0.0736322561927514 0.0610562293620054
c213 3.51461824761876 -0.152403809986304 -0.211954269197671 0.0958323155179292 0.089114843929222 -0.00767739328503099 0.0469999674167033 -0.0538332182836394 -0.0672424891313201 0.0508484606884923
c214 3.50011192263682 0.0853836313863865 0.0417600259960538 0.281354731572581 0.186772855098847 0.00208304119783062 0.0876396353481707 -0.05997844339449 -0.056883000475953 0.100010101193095
c215 3.44240830012736 -0.123809814208316 1.34319648701624 0.0739051758724884 0.402839018354508 -0.0134091325520793 0.0601482837260116 0.0251941869162588 0.0625935974763216 0.0272120308086989
c216 3.51461824761876 -0.152403809986298 -0.211954269197706 0.0958323155179797 0.0891148439292339 -0.00767739328497936 0.0469999674166805 -0.053833218283683 -0.0672424891312789 0.050848460688547
c217 3.51218786111026 -0.116674898033371 -0.325933641700674 0.210253530148988 0.161293276502137 0.0813069197836017 0.173314969589278 -0.226469523313107 -0.515689812765077 -0.53134543902294
c218 3.49022014198997 0.330189890108332 0.146881389137066 0.515571233595659 0.38054406112246 0.110177168264081 0.233103086974422 -0.223729616691777 -0.468129512437278 -0.482079549206434
c219 3.51218786111026 -0.116674898033345 -0.325933641700619 0.210253530148945 0.161293276502136 0.0813069197835718 0.173314969589323 -0.226469523313093 -0.515689812765072 -0.531345439022964
c220 3.51218786111026 -0.11667489803341 -0.325933641700735 0.210253530149037 0.161293276502138 0.0813069197836489 0.173314969589239 -0.22646952331313 -0.51568981276509 -0.53134543902294
c221 3.51218786111026 -0.116674898033355 -0.325933641700661 0.210253530148977 0.16129327650214 0.0813069197836388 0.173314969589269 -0.226469523313088 -0.5156898127651 -0.531345439022904
c222 3.51137232747148 -0.0742219275002853 -0.260723603945562 -0.00222412546802217 0.0857160188816593 -0.0534502832522747 0.0746239886545794 -0.138092103843873 -0.0404819309100423 0.0999359540018774
c223 3.47766647122675 0.575042249936744 0.422833141844191 0.455231242531993 0.404734075068036 -0.00778857701221015 0.180430610466685 -0.146871471340328 0.00868997401083554 0.20118989863403
c224 3.51137232747148 -0.074221927500245 -0.260723603945458 -0.00222412546810362 0.0857160188816588 -0.0534502832523901 0.074623988654619 -0.138092103843876 -0.0404819309100431 0.0999359540018859
c225 3.51137232747148 -0.0742219275002798 -0.260723603945497 -0.00222412546806322 0.0857160188816607 -0.0534502832523167 0.0746239886545674 -0.13809210384387 -0.0404819309100685 0.0999359540018533
c226 3.51137232747148 -0.0742219275002419 -0.260723603945484 -0.0022241254680869 0.0857160188816718 -0.0534502832523627 0.0746239886546403 -0.138092103843875 -0.0404819309100598 0.0999359540018832
c227 3.51137232747148 -0.074221927500234 -0.260723603945443 -0.00222412546809373 0.085716018881645 -0.0534502832523834 0.0746239886546173 -0.138092103843894 -0.0404819309100182 0.0999359540018616
c228 3.47959752860274 0.554925848596504 -0.339568281548608 -0.952066048696812 -0.0377335776950477 -0.0202250595630259 -0.0584409939834649 0.0398557172919259 0.0318423796086095 -0.0480136024527026
c229 3.49080042642456 0.483061676502343 0.306321980375131 0.483471679094428 0.321106576125155 0.118475081646978 0.0829398006232057 -0.0187664252758097 0.0694261909284813 0.004654243088522
c230 3.51078964733119 -0.141654915660024 -0.319288560156193 0.165945422263399 0.130811946560364 0.0256765963374793 0.0568486421097885 -0.0662295164715654 -0.0580615071629395 0.0475666317794627
c231 3.48536466896772 0.481800469427449 0.328160361537851 0.586617993459666 0.438657221315406 -0.0131818436578683 0.13656291256671 -0.0610108387269073 0.00381550452552895 0.0637187474648025
c232 3.51568864256168 -0.124082606880487 -0.309805027547888 0.165524523805508 0.144650457461523 -0.034859631747008 0.0629344629625442 -0.0671241482107998 -0.0470996118225386 -0.0057482577157594
c233 3.51568864256168 -0.124082606880523 -0.309805027547971 0.165524523805557 0.144650457461546 -0.0348596317469312 0.0629344629625233 -0.0671241482108518 -0.0470996118225616 -0.00574825771576589
c234 3.51568864256168 -0.124082606880507 -0.309805027547973 0.165524523805581 0.144650457461538 -0.0348596317468852 0.0629344629624922 -0.0671241482108033 -0.0470996118225766 -0.00574825771576762
c235 3.51568864256168 -0.124082606880501 -0.309805027547945 0.165524523805543 0.144650457461546 -0.0348596317469368 0.0629344629625147 -0.067124148210803 -0.0470996118225317 -0.00574825771571728
c236 3.51568869430748 -0.127672634775451 -0.314115900641957 0.162273741478496 0.141183518316496 -0.0359675749218131 0.0618925467508225 -0.0682039374957095 -0.0486456774170335 -0.0138528234390508
c237 3.51568869430748 -0.127672634775444 -0.31411590064194 0.162273741478481 0.141183518316495 -0.0359675749218656 0.0618925467508026 -0.0682039374957226 -0.0486456774170312 -0.0138528234389915
c238 3.51568869430748 -0.127672634775455 -0.314115900641948 0.162273741478475 0.141183518316505 -0.0359675749218131 0.061892546750824 -0.0682039374957348 -0.0486456774170092 -0.0138528234390056
c239 3.50928361957575 -0.13924685354754 -0.346658174725409 0.176734100323101 0.129048012127789 0.00259993878301401 0.0675213405781878 -0.0802892681947752 -0.0546352777368488 -0.0245973196887003
c240 3.50424910258194 0.119410579909772 -0.0459561722579298 0.339696819666917 0.260983449315346 -0.0242022033209294 0.102405702110104 -0.068197407959165 -0.0254896489182245 0.0060298225228496
c241 3.51568869430748 -0.127672634775405 -0.3141159006419 0.162273741478473 0.141183518316501 -0.0359675749218616 0.061892546750875 -0.0682039374957213 -0.048645677417024 -0.0138528234390159
c242 3.51733759282217 -0.104877592490527 -0.255012288155645 0.116675802585956 0.0677557740145212 -0.00720989965220977 0.0451502776938352 -0.0535438055293564 -0.0637023572186767 0.0509038337921785
c243 3.45901643393591 0.969398501828064 0.88483527017655 0.866646211447501 0.597873667827542 0.0429894559538542 0.178461847301183 -0.0377145444017981 0.0511380807666144 0.134757578599709
c244 3.51733759282217 -0.104877592490565 -0.255012288155697 0.116675802586047 0.067755774014573 -0.00720989965209881 0.0451502776938356 -0.0535438055294091 -0.0637023572187014 0.0509038337921671
c245 3.51762938840102 -0.131165316369242 -0.254775117094415 0.129713067542454 0.113767373090535 -0.0189516094333385 0.0507618665355938 -0.0547266348377924 -0.053768983069117 0.0272946494092106
c246 3.51753372318276 -0.113866612533146 -0.302295436619133 0.177626023872578 0.13666423272289 0.0395869371236686 0.113348895807064 -0.144600642211192 -0.298428046165961 -0.298356760596039
c247 3.51145246241061 -0.171720166696025 -0.247352108037139 0.0997884351640883 0.127437954976352 -0.000250620558104219 0.0937600943575217 -0.109410514582996 -0.27284990822438 0.0576330451760821
c248 3.51145246241061 -0.171720166696049 -0.247352108037153 0.0997884351641165 0.127437954976364 -0.000250620558050959 0.0937600943575016 -0.109410514582996 -0.272849908224416 0.0576330451761164
c249 3.51145246241061 -0.171720166696062 -0.247352108037193 0.0997884351641309 0.127437954976392 -0.000250620558022657 0.093760094357511 -0.10941051458303 -0.272849908224424 0.0576330451760813
c250 3.51145246241061 -0.171720166696068 -0.247352108037232 0.0997884351641641 0.127437954976388 -0.000250620557995948 0.0937600943574939 -0.109410514583035 -0.272849908224437 0.0576330451760729
c251 3.46100274284078 -0.607373945906546 0.794650828168064 -0.281807534514239 0.187706791613138 0.0863380352273571 0.0545048206865204 -0.0406648546528429 -0.23910506193829 0.135602213053947
c252 3.50184154563289 -0.208933202675038 -0.248510541920083 0.111540190666694 0.133838270951932 -0.0465972806982998 0.162591498821949 0.0225225234801809 -0.269055995175581 0.0337907484626704
c253 3.50314441740906 0.00744355590086252 -0.0541335694387767 0.218214474710196 0.210824670072897 -0.00935217399942816 0.118068196317828 -0.102109153246136 -0.237981051978278 0.0681227531284384
c254 3.51145246241061 -0.171720166696059 -0.247352108037199 0.0997884351641408 0.127437954976407 -0.00025062055805026 0.0937600943574953 -0.109410514583015 -0.272849908224404 0.0576330451760607
c255 3.51145246241061 -0.171720166696022 -0.247352108037132 0.0997884351640771 0.127437954976387 -0.00025062055810805 0.0937600943575719 -0.109410514583007 -0.272849908224414 0.0576330451760739
c256 3.51697759508437 -0.127238620850217 -0.286730981045811 0.147032228358695 0.132654448765298 -0.0312531745415285 0.0495299632838947 -0.0521338141598673 -0.0361272236672399 -0.0108096294494312
c257 3.47975355167771 0.659921547186092 0.534814065462169 0.702228318993888 0.494805318677619 0.0166352557726199 0.166523015409684 -0.0547344696249204 0.0138106742758994 0.084041873861744
c258 3.51107206741806 -0.129021338186374 -0.356043428066976 0.241517998200979 0.251142618486019 -0.103335422670532 -0.686515571687407 0.127961814985023 0.00732814761488943 -0.00640898010108782
c259 3.47942735665043 0.490305763444093 0.282675174055615 0.652829069561925 0.56081082660358 -0.0404478402805976 -0.605309379305084 0.135459220229173 0.0832987210047702 0.0316950258589517
c260 3.51107206741806 -0.129021338186366 -0.356043428066962 0.24151799820097 0.251142618486006 -0.103335422670508 -0.686515571687426 0.127961814985033 0.00732814761483571 -0.00640898010108645
c261 3.51107206741806 -0.12902133818634 -0.356043428066888 0.241517998200918 0.251142618486017 -0.103335422670587 -0.68651557168738 0.12796181498502 0.00732814761487438 -0.00640898010111825
c262 3.51107206741806 -0.129021338186346 -0.356043428066932 0.241517998200953 0.251142618485998 -0.103335422670585 -0.686515571687374 0.127961814985012 0.00732814761487716 -0.00640898010109604
c263 3.48201914248235 0.44677457096752 0.244783729223111 0.644705083415681 0.539081646619745 -0.063933880611965 -0.602321503606185 0.12612078564428 0.0548615701442607 0.0588488093850298
c264 3.51107206741806 -0.129021338186338 -0.356043428066904 0.241517998200906 0.251142618486015 -0.103335422670599 -0.686515571687394 0.127961814985027 0.00732814761485028 -0.0064089801010547
c265 3.51107206741806 -0.12902133818634 -0.356043428066898 0.241517998200892 0.25114261848602 -0.103335422670574 -0.686515571687398 0.127961814985026 0.00732814761484153 -0.00640898010110089
c266 3.51107206741806 -0.129021338186352 -0.356043428066947 0.241517998200951 0.251142618486016 -0.103335422670521 -0.686515571687392 0.12796181498503 0.00732814761487879 -0.00640898010108028
c267 3.50813183738055 0.0115650818292362 -0.186747568137255 0.265920922917706 0.134054141906564 0.217176924005997 0.135944096064062 -0.158289591869742 -0.320098141239147 -0.478101150300221
c268 3.51310927514345 -0.101893355857419 -0.309434726379673 0.191226299165516 0.0812996381063453 0.219786459225478 0.119929916486707 -0.160809541912707 -0.340864688366218 -0.475263308434736
c269 3.51310927514345 -0.10189335585741 -0.309434726379664 0.191226299165485 0.0812996381063528 0.219786459225442 0.119929916486677 -0.160809541912667 -0.340864688366243 -0.47526330843472
c270 3.49912080455551 -0.126454348347373 -0.202610437045725 0.158897459120628 -0.415003324973898 0.533176483444021 -0.00898524492202994 -0.0667954249833084 -0.447113328525197 1.17592656327252
c271 3.50939355287857 -0.0780156445067763 -0.250886758536688 0.0514838918058984 -0.0424774493160062 0.0649902613965224 0.060865301999811 -0.0955980481999381 -0.265120045659935 0.172782945226609
c272 3.50939355287857 -0.0780156445067744 -0.250886758536638 0.0514838918058583 -0.0424774493160541 0.0649902613964547 0.0608653019998956 -0.0955980481999385 -0.265120045659922 0.172782945226626
c273 3.50939355287857 -0.078015644506815 -0.250886758536758 0.0514838918059837 -0.0424774493160088 0.0649902613965932 0.0608653019997837 -0.0955980481999437 -0.265120045659963 0.172782945226609
c274 3.50557626581517 -0.073924627232233 -0.247259583874812 0.0549004644632169 -0.131937333161763 0.219365662181814 0.0449859178032464 -0.0895074980612409 -0.295277350362449 0.305569503318237
c275 3.50354718258892 0.0644205496740629 -0.0813025659288006 0.253336502442991 0.151068961009245 -0.011502217811382 0.0902905202791334 -0.0830569890401638 -0.105520921387141 0.141688422551733
c276 3.51183009912525 -0.119640545843091 -0.285569340685739 0.123230886446959 0.0601650369898094 -0.000953479771762033 0.0637980704056392 -0.0873198850504718 -0.133769179350251 0.125364048021928
c277 3.51183009912525 -0.119640545843057 -0.285569340685741 0.123230886447014 0.060165036989797 -0.00095347977174187 0.0637980704056367 -0.0873198850504728 -0.133769179350325 0.125364048021903
c278 3.50978732439374 -0.168861664956665 -0.368437555526357 0.175178779462669 0.191105629873786 -0.110173902471388 0.23355336937089 -0.565009978629063 0.827171540157615 0.134743616502795
c279 3.50978732439374 -0.168861664956621 -0.368437555526315 0.175178779462625 0.191105629873783 -0.110173902471461 0.233553369370877 -0.565009978629086 0.82717154015763 0.13474361650283
c280 3.50130191156917 -0.201010445255857 -0.442016857834313 0.215763878478227 0.246992220183352 -0.154954710641519 0.367867555756312 -0.925967445286286 1.43627326563882 0.237353036726666
c281 3.50978732439374 -0.168861664956629 -0.368437555526281 0.175178779462589 0.191105629873788 -0.110173902471467 0.233553369370914 -0.565009978629082 0.827171540157637 0.13474361650284
c282 3.50978732439374 -0.168861664956611 -0.368437555526255 0.175178779462587 0.191105629873774 -0.110173902471513 0.233553369370929 -0.565009978629088 0.827171540157662 0.13474361650282
c283 3.50978732439374 -0.168861664956622 -0.368437555526286 0.175178779462609 0.191105629873778 -0.110173902471502 0.233553369370904 -0.565009978629084 0.827171540157623 0.134743616502839
c284 3.50978732439374 -0.168861664956598 -0.368437555526226 0.175178779462559 0.191105629873783 -0.110173902471522 0.233553369370917 -0.565009978629074 0.827171540157655 0.134743616502828
c285 3.50978732439374 -0.168861664956613 -0.368437555526283 0.175178779462594 0.191105629873805 -0.11017390247149 0.233553369370892 -0.565009978629112 0.827171540157653 0.134743616502838
c286 3.48277810487694 0.584036811739127 0.558315255846936 0.633270489393464 0.477592316204145 0.00816910859167405 0.144500741727824 -0.0373346401598783 0.0506152957968114 0.00648228875437031
c287 3.48189152974628 -0.790743110986605 0.593122826897644 -0.413933676078349 0.108247964130355 0.00725056140262333 -0.0379172637065576 0.0275351225205644 0.00330907326643488 -0.0466787695524778
c288 3.48893265302838 -0.0785477996349678 -0.0529089578812281 0.217236057096827 -1.05145346190548 -0.649505642288726 -0.0499379599844043 0.0199394474317507 0.0474532503617109 -0.245986790385026
c289 3.49176455615339 -0.0738413901800208 -0.0450110016790475 0.210219626054598 -1.02399470923811 -0.618764081865929 -0.0482867788451459 0.0201286009573471 0.0452890614768536 -0.226019200316224
c290 3.45547760244341 0.621697769160223 0.707921827519164 0.699746964994154 -0.688171582082147 -0.624970647065027 0.0429578625528802 0.0321045899098919 0.131147594744083 -0.17208776853186
c291 3.48668151689119 0.0528326406088874 0.0914155189919106 0.289840436193108 -0.973210036699842 -0.608086600506921 -0.0417523432217189 0.0282167333686768 0.0666433352523273 -0.213485105256461
c292 3.44905074217865 -0.560669259733781 0.887028576695374 -0.20162083116696 -0.833389443167436 -0.550923105774697 -0.0835170888662231 0.0776376632571002 0.0877672749883666 -0.272922609320588
c293 3.49176455615339 -0.0738413901800475 -0.0450110016790639 0.210219626054635 -1.02399470923813 -0.618764081865925 -0.0482867788451779 0.0201286009573812 0.0452890614769072 -0.226019200316219
c294 3.44902687601311 0.583348219502628 0.689936088501463 0.710735355901866 -0.684779459196619 -0.643716197907133 0.0955669997099249 0.129969473632829 0.112949102347164 -0.196951548912957
c295 3.48893265302838 -0.0785477996349568 -0.0529089578811797 0.217236057096781 -1.05145346190545 -0.649505642288861 -0.0499379599844286 0.0199394474316938 0.0474532503617628 -0.245986790385085
c296 3.4741016335976 0.268021456479619 0.340795167870276 0.468103762113937 -0.863174198504705 -0.63125292410958 -0.00892235315925207 0.0255714641925192 0.0924571580042552 -0.21914439356077
c297 3.43036079689349 1.08641545465143 1.1866435213407 1.02492724688197 -0.460986017958972 -0.56521060984948 0.0873100648913888 0.0360410519155264 0.161221813699412 -0.133153661774742
c298 3.49176455615339 -0.0738413901799839 -0.0450110016789586 0.210219626054572 -1.02399470923815 -0.618764081865969 -0.0482867788451432 0.0201286009573284 0.045289061476851 -0.226019200316215
c299 3.46664156161813 0.410887505229863 0.498048588181145 0.57759947277724 -0.792150818124475 -0.64639190778137 0.00786722995357884 0.030192984849659 0.106837998480859 -0.201058527639594
c300 3.48828639405578 0.0197294229276118 0.0568745980423712 0.274586722489958 -0.9787743502596 -0.618291819980833 -0.0463304364209474 0.0259305331824857 0.060581728909028 -0.207672995451401
c301 3.49176455615339 -0.0738413901800288 -0.0450110016790764 0.210219626054686 -1.02399470923813 -0.61876408186585 -0.0482867788451754 0.0201286009572999 0.0452890614768529 -0.226019200316271
c302 3.43833181512638 0.942024643973331 1.04006723578443 0.931714489347112 -0.540011689841762 -0.572543792801201 0.106665901058335 0.0199473282645672 0.130563001782091 -0.143682936841271
c303 3.46593173977096 0.379818979513258 0.456991537781379 0.56255431152008 -0.837323014629802 -0.667545448398276 0.0230376793118284 0.0226744781875764 0.101091338973652 -0.21776168501266
c304 3.49176455615339 -0.0738413901800146 -0.0450110016789506 0.210219626054574 -1.02399470923816 -0.618764081866009 -0.0482867788451641 0.0201286009572869 0.0452890614768936 -0.226019200316221
c305 3.49176455615339 -0.0738413901800038 -0.0450110016790681 0.210219626054645 -1.02399470923815 -0.61876408186589 -0.048286778845203 0.020128600957331 0.0452890614768209 -0.226019200316261
c306 3.46593173977096 0.379818979513216 0.456991537781338 0.562554311520122 -0.837323014629828 -0.6675454483982 0.0230376793118251 0.0226744781877752 0.101091338973681 -0.217761685012624
c307 3.49176455615339 -0.0738413901800009 -0.0450110016789981 0.210219626054611 -1.02399470923814 -0.618764081865936 -0.0482867788452065 0.0201286009573025 0.0452890614768449 -0.226019200316188
c308 3.49176455615339 -0.0738413901800362 -0.0450110016790615 0.210219626054664 -1.02399470923812 -0.618764081865888 -0.0482867788451898 0.0201286009573205 0.0452890614768734 -0.22601920031624
c309 3.49176455615339 -0.0738413901799939 -0.0450110016789873 0.210219626054581 -1.02399470923814 -0.618764081865967 -0.0482867788451598 0.0201286009573411 0.0452890614768759 -0.226019200316255
c310 3.49176455615339 -0.0738413901800184 -0.0450110016790434 0.210219626054689 -1.02399470923815 -0.618764081865887 -0.0482867788451826 0.0201286009572968 0.0452890614768508 -0.226019200316234
c311 3.49176455615339 -0.073841390179997 -0.0450110016790272 0.210219626054615 -1.02399470923812 -0.618764081865911 -0.0482867788451472 0.0201286009572947 0.0452890614768146 -0.226019200316258
c312 3.49176455615339 -0.0738413901800155 -0.0450110016789887 0.210219626054636 -1.02399470923815 -0.618764081865939 -0.0482867788451323 0.0201286009572856 0.0452890614768719 -0.226019200316217
c313 3.49176455615339 -0.0738413901799831 -0.0450110016790005 0.210219626054563 -1.02399470923814 -0.618764081865955 -0.0482867788451401 0.0201286009572929 0.0452890614768396 -0.226019200316243
c314 3.49176455615339 -0.0738413901800088 -0.0450110016790197 0.210219626054642 -1.02399470923815 -0.618764081865947 -0.0482867788451713 0.0201286009572841 0.0452890614768556 -0.226019200316247
c315 3.47819940599058 0.205065161419281 0.26010310068947 0.403777894196003 -0.879545102795695 -0.599404265093455 -0.0132798255451905 0.024342524623816 0.0759347500592159 -0.205082944019002
c316 3.4373128840286 0.890260043378426 1.01568116575043 0.919885749157009 -0.604284287602869 -0.60692388911829 0.0808122295865939 0.0341798143469139 0.157773159789582 -0.19072516826184
c317 3.40418008146697 0.275259778305365 1.77463009442728 0.415000120311662 -0.488725221769536 -0.555641417613776 0.0211881957808421 0.0903495458886121 0.188201648552195 -0.227189230932891
c318 3.47296534287985 0.281337697041869 0.361775076636707 0.484078757913601 -0.864867304946877 -0.644437345287127 -0.0190280016444351 0.0307756701043678 0.0992687239067926 -0.227860971659204
c319 3.49176455615339 -0.0738413901799975 -0.0450110016790615 0.210219626054648 -1.02399470923814 -0.618764081865895 -0.0482867788451696 0.0201286009573367 0.045289061476844 -0.226019200316271
c320 3.49176455615339 -0.0738413901799981 -0.0450110016790079 0.210219626054618 -1.02399470923814 -0.618764081865943 -0.048286778845123 0.0201286009573206 0.0452890614768385 -0.226019200316236
c321 3.4867871392023 0.0396358679480587 0.0768523202062595 0.284928689118088 -0.964198633750091 -0.612957567151277 -0.0300007782920191 0.0199985128399227 0.059684598578845 -0.233198193837912
c322 3.50529523934627 -0.17433281974301 -0.414054465388987 0.21217166328583 0.21756308223852 -0.111210827366266 0.281132860462916 -0.686174853118091 1.04206649181617 0.171374323210292
c323 3.50954297654793 -0.165081425180495 -0.393324198499004 0.201815846530023 0.204243336934281 -0.102246728124789 0.253740985267519 -0.614491102812709 0.923991435456432 0.151291803207348
c324 3.50954297654793 -0.165081425180468 -0.393324198498978 0.201815846529996 0.204243336934281 -0.102246728124831 0.253740985267582 -0.614491102812698 0.923991435456425 0.151291803207391
c325 3.50954297654793 -0.165081425180436 -0.393324198498902 0.201815846529928 0.204243336934279 -0.102246728124876 0.253740985267615 -0.61449110281268 0.923991435456434 0.151291803207406
c326 3.50954297654793 -0.165081425180462 -0.393324198498936 0.201815846529981 0.204243336934299 -0.1022467281249 0.253740985267665 -0.614491102812727 0.923991435456484 0.151291803207395
c327 3.50954297654793 -0.165081425180475 -0.393324198498978 0.201815846530014 0.204243336934267 -0.102246728124821 0.253740985267555 -0.614491102812732 0.923991435456449 0.151291803207407
c328 3.50954297654793 -0.165081425180425 -0.393324198498834 0.2018158465299 0.204243336934242 -0.102246728124933 0.253740985267665 -0.614491102812666 0.923991435456447 0.151291803207395
c329 3.50671115846734 -0.171201132478731 -0.407029046598429 0.208646370869092 0.21299242430772 -0.108079115897883 0.271418077774837 -0.660553050443916 0.999425862345373 0.164100154276231
c330 3.50671115846734 -0.17120113247867 -0.407029046598333 0.208646370868962 0.212992424307818 -0.108079115898011 0.271418077774864 -0.660553050444128 0.999425862345379 0.164100154276135
c331 3.50671108195114 -0.170195060037913 -0.402808892723803 0.20909627020591 0.185051059012506 -0.128424068266117 0.257539214149178 -0.627903973018721 0.947786768839196 0.138484894558793
c332 3.5167470267702 -0.103778447781835 -0.273571166517263 0.133979590304309 -0.00936924563325192 0.170554165799378 0.0275975487668449 -0.0484573385516955 -0.109604487427752 0.186749015099002
c333 3.49028619928883 0.0546609010826435 0.0226013802786905 0.307373944793838 -0.256557432326889 0.451955625377377 0.0436969120734073 -0.0727376370048523 -0.432195289684173 1.19870010937068
c334 3.50292684321722 -0.137494923218325 -0.204105126936609 0.171347357624024 -0.344294401379023 0.408958192152327 0.000677828095477794 -0.0684591208827137 -0.424237239678798 1.13902301196685
c335 3.49445125809371 0.0486601786222197 -0.0137312946726261 0.291784288560732 -0.25300620781396 0.431117722482977 0.0344477727804748 -0.0699584772308154 -0.39868422181879 1.16801814198012
c336 3.4948726921469 0.0490803761336637 -0.0110607827068254 0.303595353770684 -0.24907728417866 0.409918635798851 0.0290704799336306 -0.0701076860242434 -0.415269467037149 1.15999350719643
c337 3.50292684321722 -0.137494923218367 -0.204105126936701 0.171347357624094 -0.344294401379019 0.40895819215229 0.000677828095457871 -0.0684591208827174 -0.424237239678833 1.13902301196688
c338 3.50292684321722 -0.137494923218343 -0.204105126936653 0.171347357624071 -0.344294401379046 0.408958192152264 0.000677828095447047 -0.0684591208827206 -0.424237239678804 1.13902301196686
c339 3.50292684321722 -0.137494923218353 -0.20410512693664 0.171347357624092 -0.344294401379024 0.408958192152222 0.00067782809552184 -0.0684591208827201 -0.4242372396788 1.13902301196688
c340 3.50292684321722 -0.137494923218385 -0.204105126936699 0.171347357624126 -0.344294401378997 0.408958192152336 0.000677828095438043 -0.0684591208827187 -0.424237239678812 1.1390230119669
c341 3.50292684321722 -0.137494923218332 -0.204105126936628 0.17134735762405 -0.344294401379007 0.408958192152213 0.000677828095515031 -0.0684591208827331 -0.424237239678771 1.13902301196693
c342 3.50292684321722 -0.137494923218361 -0.204105126936687 0.171347357624135 -0.344294401378998 0.408958192152297 0.000677828095481993 -0.0684591208827424 -0.424237239678756 1.1390230119669
c343 3.50292684321722 -0.137494923218383 -0.204105126936707 0.171347357624113 -0.344294401378993 0.408958192152301 0.000677828095472127 -0.0684591208827086 -0.424237239678775 1.13902301196689
c344 3.50292684321722 -0.137494923218328 -0.20410512693661 0.171347357624023 -0.344294401379009 0.408958192152178 0.000677828095532861 -0.0684591208827212 -0.424237239678772 1.1390230119669
c345 3.50292684321722 -0.137494923218378 -0.204105126936682 0.171347357624102 -0.344294401379008 0.408958192152289 0.000677828095481111 -0.068459120882731 -0.424237239678753 1.13902301196691
c346 3.48843725720796 0.167214246290599 0.117854678010499 0.391343774780237 -0.19868165401784 0.412591696346893 0.0425199083403709 -0.0674165394316282 -0.399017791474279 1.14946950476486
c347 3.50292684321722 -0.137494923218359 -0.204105126936662 0.171347357624106 -0.344294401378996 0.40895819215226 0.000677828095479812 -0.0684591208827491 -0.424237239678791 1.13902301196691
c348 3.46984904773865 0.514185840821735 0.482958471512247 0.635779991654538 -0.0335898573507223 0.457910165189247 0.0997980572130459 -0.0722379828094494 -0.388192675939337 1.23489189555538
c349 3.484818208527 0.524209202023372 -0.335277575027507 -0.925798882255401 -0.000611759734915743 -0.122362035218568 -0.0447222347279046 0.022541300008569 -0.0130946206472627 -0.00614896918076321
c350 3.44854956344377 1.23604426347413 0.421471535056417 -0.424021288859861 0.330449373515451 -0.100763092291996 0.044342400512924 0.031742054678742 0.0550206882758096 0.0402795863766004
c351 3.484818208527 0.524209202023414 -0.33527757502741 -0.925798882255503 -0.000611759734992693 -0.122362035218679 -0.0447222347278806 0.0225413000085551 -0.0130946206472226 -0.00614896918072101
c352 3.42649712343678 1.59385545025539 0.806985350389373 -0.160957510551052 0.532002271588056 -0.068716375316548 0.0925565170461535 0.0353370474038329 0.100113775701594 0.0810035494327335
c353 3.484818208527 0.524209202023379 -0.335277575027511 -0.925798882255466 -0.000611759734979555 -0.122362035218675 -0.0447222347279478 0.0225413000083614 -0.0130946206473256 -0.00614896918076539
c354 3.48481820852701 0.524209202023409 -0.335277575027445 -0.925798882255488 -0.000611759734997109 -0.122362035218653 -0.0447222347278994 0.0225413000085392 -0.0130946206472308 -0.006148969180739
c355 3.43509496131089 1.46580215857431 0.663246674030023 -0.268996719600387 0.465545124282289 -0.0575631724921404 0.0950003906376942 0.0237093772881056 0.0734242853079466 0.0780220457994148
c356 3.484818208527 0.524209202023384 -0.335277575027479 -0.925798882255426 -0.000611759734963784 -0.122362035218628 -0.0447222347279424 0.0225413000085424 -0.0130946206471989 -0.00614896918077864
c357 3.484818208527 0.524209202023389 -0.335277575027376 -0.925798882255508 -0.000611759734995236 -0.122362035218713 -0.0447222347278599 0.0225413000085378 -0.0130946206472419 -0.00614896918078558
c358 3.48481820852701 0.524209202023417 -0.335277575027413 -0.925798882255511 -0.00061175973499519 -0.122362035218733 -0.0447222347279101 0.0225413000085384 -0.0130946206472231 -0.00614896918072556
c359 3.484818208527 0.524209202023403 -0.335277575027425 -0.925798882255501 -0.000611759734955054 -0.122362035218701 -0.0447222347278969 0.0225413000085809 -0.0130946206472176 -0.00614896918068303
c360 3.484818208527 0.524209202023405 -0.335277575027412 -0.925798882255487 -0.000611759734984618 -0.122362035218698 -0.0447222347278804 0.0225413000085318 -0.0130946206471932 -0.00614896918077324
c361 3.484818208527 0.524209202023379 -0.335277575027504 -0.925798882255415 -0.000611759734944108 -0.122362035218565 -0.0447222347279481 0.0225413000085506 -0.013094620647235 -0.00614896918073341
c362 3.484818208527 0.524209202023381 -0.335277575027454 -0.925798882255528 -0.00061175973506993 -0.122362035218788 -0.0447222347279621 0.0225413000083838 -0.0130946206473043 -0.00614896918076115
c363 3.45914486265965 1.03881917058397 0.211457646662104 -0.572289002885529 0.235428374703314 -0.114578172250179 0.00359604698835765 0.0374805813500877 0.0462011243971133 0.0186185465070713
c364 3.484818208527 0.524209202023334 -0.33527757502748 -0.925798882255478 -0.00061175973496706 -0.122362035218741 -0.0447222347279335 0.0225413000085525 -0.0130946206472391 -0.00614896918074069
c365 3.46226712449225 0.978953205101232 0.154455688541198 -0.604373257607303 0.214653151493573 -0.0916285158948122 0.0240757568224865 0.024796827070822 0.0326703854058512 -0.00188642527273878
c366 3.484818208527 0.524209202023398 -0.335277575027404 -0.925798882255503 -0.000611759734990973 -0.122362035218716 -0.0447222347278705 0.022541300008529 -0.0130946206472244 -0.00614896918072219
c367 3.484818208527 0.524209202023391 -0.335277575027425 -0.925798882255496 -0.000611759734984322 -0.1223620352187 -0.0447222347278693 0.022541300008518 -0.0130946206472184 -0.0061489691807394
c368 3.484818208527 0.52420920202341 -0.335277575027427 -0.925798882255474 -0.000611759735028545 -0.122362035218704 -0.0447222347278899 0.0225413000085425 -0.0130946206472514 -0.00614896918076949
c369 3.484818208527 0.524209202023436 -0.335277575027361 -0.925798882255574 -0.000611759734997753 -0.122362035218843 -0.0447222347278065 0.022541300008498 -0.0130946206472031 -0.00614896918076855
c370 3.484818208527 0.524209202023383 -0.335277575027419 -0.925798882255445 -0.000611759734951938 -0.122362035218634 -0.0447222347278778 0.0225413000085366 -0.0130946206472881 -0.00614896918078388
c371 3.43504566474209 1.46995301752294 0.679708803167966 -0.259256635979146 0.45015143798214 -0.0916502174126668 0.0808867168762635 0.0349611916235812 0.0875848128486901 0.0503541858109003
c372 3.47810907997519 0.677531453198362 -0.165560696812796 -0.819352260179896 0.0721521623098901 -0.108971108423035 -0.0192751761157301 0.0234396092344502 -0.000894553737469545 0.00389591006348463
c373 3.484818208527 0.524209202023404 -0.335277575027395 -0.925798882255531 -0.000611759735009191 -0.122362035218795 -0.044722234727836 0.0225413000085147 -0.0130946206472179 -0.00614896918068995
c374 3.43346709368891 1.50669324444524 0.709609731559772 -0.231672736884967 0.482257035399566 -0.0804026601090103 0.0637486989500725 0.037286424817152 0.0819669709142376 0.0995240373426011
c375 3.48315171052162 0.584889689200277 -0.267278694916569 -0.888123037653942 0.0165458119960319 -0.115353999811805 -0.0348986594072189 0.0212445020147698 -0.013283599290267 0.0105057444145406
c376 3.48198623626961 0.516297342910718 -0.334466611818414 -0.932782968847255 0.00645770201358774 -0.124345261754556 -0.0446972694309805 0.0227921326574892 -0.013606780511723 -0.00826662526345568
c377 3.484818208527 0.524209202023378 -0.335277575027459 -0.925798882255445 -0.000611759735006846 -0.122362035218606 -0.0447222347279078 0.022541300008564 -0.0130946206472613 -0.00614896918069424
c378 3.484818208527 0.52420920202335 -0.335277575027514 -0.925798882255412 -0.000611759734973646 -0.122362035218574 -0.0447222347279433 0.0225413000085649 -0.0130946206472801 -0.00614896918071549
c379 3.484818208527 0.524209202023394 -0.335277575027449 -0.925798882255454 -0.000611759734961159 -0.12236203521863 -0.0447222347279148 0.022541300008555 -0.0130946206472108 -0.00614896918067521
c380 3.44569927033765 1.22601043667974 0.409298657697299 -0.446614912329416 0.334725377631467 -0.135627909939984 0.0460631521189668 0.0355711713109002 0.0754411943866612 0.0426894523177934
c381 3.484818208527 0.524209202023392 -0.335277575027406 -0.925798882255454 -0.000611759734955585 -0.122362035218704 -0.0447222347278165 0.0225413000085496 -0.0130946206472326 -0.00614896918079582
c382 3.484818208527 0.524209202023386 -0.335277575027418 -0.925798882255474 -0.00061175973498739 -0.122362035218641 -0.0447222347279353 0.0225413000085616 -0.0130946206472762 -0.00614896918071578
c383 3.43672747093234 1.44039755838557 0.637392628773934 -0.292230018729405 0.442298154248494 -0.0577705945133968 0.0780479479168095 0.0335828027344576 0.092835485118403 0.0434498069232406
c384 3.46338171308768 0.964070550821462 0.123515505892164 -0.60860701222902 0.217483183348188 -0.0987007901439613 0.0222599269199787 0.0189597302445949 0.00815804126539794 0.0568145415506647
c385 3.484818208527 0.524209202023397 -0.335277575027365 -0.925798882255534 -0.000611759734930312 -0.122362035218658 -0.0447222347276914 0.0225413000084885 -0.0130946206470498 -0.00614896918075905
c386 3.484818208527 0.524209202023402 -0.335277575027382 -0.925798882255491 -0.000611759734911832 -0.122362035218633 -0.0447222347277043 0.0225413000084787 -0.0130946206471934 -0.00614896918082868
c387 3.4441825796064 1.30340621379619 0.505538229933523 -0.381133893543264 0.358510060191889 -0.0865890690340515 0.0267220547086993 0.0465228772706829 0.0801751249162946 0.0695439629042484
c388 3.47820499332382 0.673854838087427 -0.188409389365583 -0.839550435923274 0.0741724438767048 -0.0832670360061631 -0.0319227106458672 0.0298104175379918 0.0187145355796488 -0.00874430992991737
c389 3.48198636963507 0.522364221147882 -0.347238262932595 -0.928048525225956 0.00182690801033325 -0.124685429528771 -0.0426754763103507 0.0187318898709923 -0.016506766145726 -0.00587582157270671
c390 3.484818208527 0.524209202023421 -0.33527757502735 -0.925798882255532 -0.000611759734954858 -0.122362035218657 -0.0447222347277316 0.0225413000084934 -0.0130946206470771 -0.00614896918076302
c391 3.484818208527 0.524209202023402 -0.335277575027378 -0.925798882255493 -0.000611759734902661 -0.12236203521862 -0.0447222347277414 0.0225413000084559 -0.0130946206471034 -0.0061489691807747
c392 3.484818208527 0.524209202023419 -0.335277575027361 -0.925798882255501 -0.000611759734956778 -0.122362035218642 -0.0447222347277495 0.0225413000084737 -0.0130946206470849 -0.00614896918078265
c393 3.484818208527 0.524209202023371 -0.335277575027497 -0.925798882255409 -0.000611759734918058 -0.122362035218528 -0.0447222347277862 0.0225413000084994 -0.0130946206470763 -0.0061489691807277
c394 3.484818208527 0.5242092020234 -0.33527757502739 -0.925798882255502 -0.000611759734922209 -0.122362035218615 -0.0447222347277677 0.022541300008478 -0.0130946206471263 -0.00614896918076313
c395 3.44693026232531 1.2660377560143 0.44569942634655 -0.407152648564977 0.360660788787405 -0.0723972706935176 0.0543925289337642 0.0282849539662453 0.0603872809487061 0.0293670394139927
c396 3.484818208527 0.524209202023403 -0.335277575027392 -0.925798882255503 -0.000611759734932824 -0.122362035218674 -0.0447222347276885 0.0225413000085046 -0.0130946206470684 -0.00614896918077393
c397 3.484818208527 0.52420920202338 -0.335277575027447 -0.925798882255471 -0.000611759734916361 -0.122362035218594 -0.0447222347277415 0.0225413000084975 -0.0130946206470567 -0.00614896918079245
c398 3.46937318064689 0.83796179410131 0.00352049526073118 -0.703869704508666 0.146329968621344 -0.131631627808581 0.000351374357000483 0.0295957406115979 0.0303239429808341 0.00984548419152108
c399 3.4450514989616 1.27674445595806 0.4627314898636 -0.404148530827709 0.373603751543194 -0.0769968591589149 0.0538270338841359 0.0287936698843306 0.0701592920866533 0.0560287019668088
c400 3.484818208527 0.524209202023394 -0.335277575027404 -0.925798882255488 -0.000611759734951437 -0.122362035218639 -0.0447222347277298 0.0225413000085568 -0.013094620647091 -0.00614896918077491
c401 3.484818208527 0.524209202023399 -0.335277575027403 -0.925798882255494 -0.000611759734929717 -0.122362035218637 -0.0447222347277341 0.0225413000085029 -0.0130946206470447 -0.00614896918073887
c402 3.42440803432464 0.360800699556078 1.0176426013094 -1.03296892771729 0.239425595388619 -0.082044149841003 -0.103263967534085 0.11780174515548 0.104144701759217 -0.0333125553625544
c403 3.47463761134367 0.739696413199272 -0.110686167404356 -0.776355022165801 0.103810969038127 -0.0957810954274745 -0.00620891060247008 0.0195101578254435 0.00868770865343983 0.0447103242382075
c404 3.484818208527 0.524209202023399 -0.335277575027423 -0.925798882255479 -0.000611759734901155 -0.122362035218585 -0.0447222347277616 0.0225413000084813 -0.0130946206470774 -0.00614896918074025
c405 3.484818208527 0.524209202023388 -0.335277575027453 -0.925798882255459 -0.000611759734896656 -0.122362035218584 -0.0447222347277818 0.0225413000085011 -0.0130946206470733 -0.00614896918076181
c406 3.44938465363292 -0.118006581127394 1.27995478038407 0.0741956366789509 0.416585522006181 0.0231172706576744 0.0585224756747095 0.0284032970704509 0.0640790144591622 -0.00959714696850979
c407 3.46151239785224 -0.358394709440086 1.03769719794757 -0.0931362166118211 0.278819248055027 -0.020389363348811 0.0213857124158236 0.0294402881870198 0.0609010128289798 -0.0292700140372317
c408 3.44877285336944 -0.117480993934665 1.27791043767649 0.0492567556681239 0.410819070256985 0.0598325918580649 0.0541256950912811 0.0343834730027402 0.0699826088129765 0.0236712566843371
c409 3.48313152688225 -0.773325654130923 0.57111301624395 -0.403141758733142 0.102252240036568 0.00633775246991235 -0.0372667337349296 0.0255345703866356 0.00173709929024628 -0.0443986278695121
c410 3.48313152688225 -0.773325654130976 0.57111301624385 -0.403141758733049 0.102252240036591 0.0063377524699881 -0.0372667337349944 0.0255345703866286 0.00173709929018969 -0.0443986278695982
c411 3.47658422623964 -0.618727212368949 0.739873407969584 -0.289477243209258 0.16851370131499 0.00450086573239525 -0.00580893936453327 0.0231575723992949 0.0118490099699581 -0.0391695975503056
c412 3.48313152688225 -0.773325654130952 0.571113016243894 -0.403141758733046 0.10225224003659 0.00633775247001452 -0.037266733735005 0.0255345703866504 0.00173709929020644 -0.04439862786954
c413 3.48313152688225 -0.773325654130949 0.571113016243896 -0.403141758733053 0.102252240036579 0.00633775246999323 -0.0372667337350012 0.0255345703866362 0.00173709929020253 -0.0443986278695633
c414 3.48313152688225 -0.773325654130976 0.571113016243861 -0.403141758733058 0.102252240036582 0.00633775247003124 -0.0372667337349761 0.0255345703866555 0.00173709929019272 -0.0443986278695849
c415 3.48313152688225 -0.77332565413103 0.571113016243845 -0.403141758733033 0.102252240036638 0.00633775247007517 -0.0372667337350106 0.0255345703866992 0.00173709929017385 -0.0443986278696089
c416 3.48313152688225 -0.773325654130943 0.571113016243948 -0.403141758733089 0.102252240036617 0.00633775246997487 -0.037266733734931 0.0255345703866224 0.0017370992902043 -0.0443986278695838
c417 3.48313152688225 -0.773325654130956 0.571113016243909 -0.403141758733067 0.102252240036606 0.00633775246998805 -0.0372667337349398 0.0255345703866992 0.00173709929015486 -0.0443986278695566
c418 3.48313152688225 -0.77332565413094 0.571113016243913 -0.403141758733088 0.102252240036544 0.00633775246998278 -0.0372667337349709 0.0255345703866904 0.00173709929012699 -0.0443986278695676
c419 3.44065770432337 0.0371631084362028 1.44147383383106 0.170364157950566 0.492174849534324 0.031354648755846 0.0479940495863148 0.0380716526345074 0.0846111777507763 0.0344265757014349
c420 3.48313152688225 -0.773325654130924 0.571113016243915 -0.403141758733104 0.102252240036584 0.00633775246996606 -0.0372667337349277 0.0255345703866445 0.00173709929019408 -0.0443986278695445
c421 3.48313152688225 -0.773325654130961 0.571113016243888 -0.403141758733055 0.102252240036602 0.00633775247003119 -0.0372667337349872 0.0255345703866508 0.00173709929016075 -0.0443986278696054
c422 3.47275602634905 -0.810090583866363 0.562839636475857 -0.386955795245971 0.111140590296978 -0.0415008460649033 0.0405643825760098 0.164702205091432 -0.00361742760425365 -0.0653504894980392
c423 3.47205670700688 -0.525209774107834 0.826318958341251 -0.239462504437057 0.217169844117986 0.0103973753002923 -0.0168792372722943 0.0355972229772157 0.0345464936803745 -0.0311271287020586
c424 3.48313152688225 -0.773325654130945 0.571113016243972 -0.403141758733136 0.102252240036569 0.00633775246994886 -0.0372667337349385 0.0255345703866515 0.00173709929018144 -0.0443986278696069
c425 3.47169766868159 -0.575404939265066 0.767327790543308 -0.283955082729069 0.206513307895943 0.0117998079195348 -0.0140832827751942 0.0277456573295597 0.0222719520623889 -0.0282191238769641
c426 3.48313152688225 -0.773325654130937 0.5711130162439 -0.403141758733078 0.102252240036578 0.00633775246997773 -0.0372667337349307 0.0255345703866569 0.00173709929015858 -0.0443986278696293
c427 3.44553076275366 -0.0508891736778057 1.3579782258209 0.114243320289527 0.443898622277548 0.0180450697517382 0.0598390556212253 0.0356321888134687 0.0796388804718685 0.0280372737954052
c428 3.44795973629737 -0.105391247572434 1.31162181439204 0.0928353524910561 0.416172842145876 -0.0266229770264114 0.0536029273107718 0.0331944380419296 0.0887759819223339 -0.0163083756286871
c429 3.47355053080284 -0.637973125123404 0.738259691318213 -0.301586920580493 0.155934542928859 0.00383283248434359 -0.0133077404944928 0.0268199126607371 0.0162716055803522 -0.0643942685669459
c430 3.48313152688225 -0.773325654130924 0.571113016243934 -0.403141758733087 0.102252240036599 0.00633775246994982 -0.0372667337349133 0.0255345703866404 0.00173709929019996 -0.0443986278696024
c431 3.46495899116148 -0.405501888237557 0.974876567877124 -0.145093797762971 0.269322293277916 0.025023511243664 0.00536183622743419 0.036346569798027 0.0483216609094906 -0.0134582277752811
c432 3.44942581125975 -0.113271340020685 1.26973815869685 0.0692654422623785 0.416577992958833 0.0534011715442284 0.0536558933590499 0.0249660715879805 0.0437763797056528 0.0469549693739883
c433 3.4802996858032 -0.780589761001232 0.56322570226219 -0.402382597573408 0.10552049445617 0.00574593230520701 -0.0350833243584869 0.0217858221213467 -0.00131690884241796 -0.0450923338921311
c434 3.48313152688225 -0.773325654130948 0.571113016243886 -0.403141758733044 0.102252240036587 0.00633775247000354 -0.0372667337349601 0.0255345703866722 0.00173709929020453 -0.0443986278695922
c435 3.48313152688225 -0.773325654130966 0.571113016243779 -0.403141758732962 0.102252240036641 0.00633775247011464 -0.0372667337349916 0.0255345703867236 0.00173709929017654 -0.0443986278695759
c436 3.48313152688225 -0.773325654130947 0.571113016243879 -0.403141758733032 0.102252240036602 0.00633775247001617 -0.0372667337349514 0.0255345703866822 0.0017370992901741 -0.0443986278695924
c437 3.48029971075498 -0.781416135086502 0.563047677823888 -0.400590518122819 0.108533976608464 0.00445551151701596 -0.0342460706960724 0.0217822283715402 -0.00186512206752709 -0.0462919563037839
c438 3.46976836612674 -0.492987939060529 0.864227859608577 -0.220942402699138 0.239226329306109 0.0312285167837943 0.000769596736085295 0.031273673178306 0.041839448361985 -0.0400564065936742
c439 3.48313152688225 -0.773325654130943 0.571113016243919 -0.403141758733097 0.102252240036574 0.00633775246992506 -0.0372667337349054 0.0255345703866957 0.00173709929019382 -0.0443986278695671
c440 3.48313152688225 -0.773325654130978 0.571113016243839 -0.403141758733014 0.102252240036635 0.00633775247006107 -0.0372667337349435 0.0255345703866942 0.00173709929018131 -0.0443986278696057
c441 3.48313152688225 -0.773325654130947 0.571113016243868 -0.40314175873305 0.102252240036594 0.00633775247000492 -0.0372667337349244 0.0255345703866706 0.00173709929016489 -0.0443986278695951
c442 3.48313152688225 -0.773325654130946 0.57111301624388 -0.403141758733045 0.102252240036611 0.00633775246999359 -0.0372667337349378 0.025534570386639 0.00173709929021402 -0.0443986278695828
c443 3.48313152688225 -0.77332565413094 0.571113016243917 -0.403141758733066 0.102252240036557 0.00633775246996935 -0.0372667337349349 0.0255345703866545 0.00173709929016825 -0.0443986278695966
c444 3.48313152688225 -0.7733256541309 0.571113016244018 -0.403141758733158 0.10225224003658 0.00633775246983836 -0.0372667337348628 0.0255345703866369 0.00173709929020741 -0.0443986278695786
c445 3.48313152688225 -0.773325654130943 0.571113016243893 -0.403141758733094 0.102252240036571 0.00633775247000299 -0.0372667337349545 0.025534570386675 0.00173709929016858 -0.0443986278695875
c446 3.48029958251358 -0.788907648087211 0.573507446588029 -0.409175401408485 0.108009687946018 0.0057245704413116 -0.0382118604688032 0.0257378738899919 0.000251863989731033 -0.0485702170278182
c447 3.48313152688225 -0.773325654130929 0.571113016243927 -0.403141758733078 0.102252240036561 0.00633775246997314 -0.0372667337349947 0.0255345703866328 0.00173709929020522 -0.0443986278696024
c448 3.48029958251358 -0.788907648087191 0.573507446588068 -0.409175401408511 0.10800968794601 0.00572457044129975 -0.0382118604687557 0.0257378738900019 0.000251863989749846 -0.0485702170278717
c449 3.48313152688225 -0.773325654130938 0.57111301624392 -0.403141758733078 0.102252240036575 0.00633775246996706 -0.0372667337349965 0.0255345703866125 0.00173709929019161 -0.0443986278695848
c450 3.48313152688225 -0.773325654130934 0.57111301624392 -0.40314175873309 0.102252240036589 0.00633775246996863 -0.0372667337349644 0.0255345703866321 0.00173709929022863 -0.0443986278695699
c451 3.47823239912855 -0.787762224606505 0.5652721260773 -0.430536830814177 0.11303893308494 -0.00410708889063532 -0.0333730011488335 0.00936854029288513 -0.0258208332814099 -0.0406393065118425
c452 3.47823259890258 -0.786495239917094 0.55517147153588 -0.397455754659429 0.0889173390829899 0.0662806174366267 -0.0407424698924729 0.0237032936426385 -0.01093462436435 0.0106198372840874
c453 3.47523758791599 -0.802795428528986 0.5651443157492 -0.390567847584752 0.109638136081731 -0.0320358439018723 0.0271731204586503 0.142028748661514 -0.002205182033782 -0.0610059608501761
c454 3.48313152688225 -0.773325654130962 0.571113016243865 -0.403141758733043 0.102252240036616 0.00633775246997899 -0.0372667337349829 0.0255345703866366 0.00173709929024763 -0.0443986278695523
c455 3.48029966576638 -0.781251139368107 0.563607601155387 -0.399711086948674 0.0989606956456434 -0.0041084261348577 -0.0340020608244941 0.0193370711406269 -0.0155405608439266 -0.0273096484656683
c456 3.48313152688225 -0.773325654130941 0.571113016243882 -0.403141758733075 0.102252240036557 0.00633775247001224 -0.0372667337349756 0.0255345703866344 0.00173709929020284 -0.0443986278695532
c457 3.47823239912855 -0.787762224606509 0.565272126077281 -0.430536830814173 0.113038933084902 -0.00410708889062273 -0.0333730011488452 0.00936854029292202 -0.0258208332814826 -0.0406393065118569
c458 3.4531369896216 -0.181668138058901 1.19676826978623 0.00201743490307747 0.392377155520344 0.0508846585753554 0.0508705064828811 0.0249213212771971 0.0619328855818535 0.0166291225413966
c459 3.46722118566066 -0.453223116619877 0.907364611759359 -0.193076902128821 0.255790382162446 0.0168743414841364 0.00680483997085683 0.0341264724858942 0.0527920756323425 -0.0322516127066399
c460 3.48313152688225 -0.773325654130945 0.571113016243888 -0.403141758733029 0.102252240036593 0.00633775246997829 -0.0372667337349765 0.0255345703866363 0.00173709929019857 -0.044398627869578
c461 3.48313152688225 -0.773325654130928 0.571113016243911 -0.403141758733071 0.102252240036574 0.00633775246995383 -0.0372667337349841 0.0255345703866265 0.00173709929019777 -0.0443986278695746
c462 3.48313152688225 -0.773325654130948 0.571113016243915 -0.403141758733083 0.102252240036568 0.00633775246995796 -0.0372667337349436 0.0255345703866542 0.00173709929021401 -0.0443986278695846
c463 3.48313152688225 -0.773325654130954 0.571113016243874 -0.403141758733054 0.102252240036585 0.00633775246999846 -0.0372667337349749 0.0255345703866992 0.00173709929020362 -0.0443986278695703
c464 3.48313152688225 -0.77332565413095 0.571113016243861 -0.403141758733015 0.102252240036601 0.00633775247004678 -0.0372667337350041 0.0255345703866391 0.00173709929018747 -0.0443986278696086
c465 3.48313152688225 -0.773325654130949 0.571113016243879 -0.40314175873305 0.102252240036577 0.00633775246998662 -0.037266733735006 0.0255345703866647 0.00173709929018609 -0.0443986278695883
c466 3.44551981435761 -0.0524614400321805 1.34409876207005 0.108437661995041 0.437584180910636 0.022224752519296 0.0696768878480432 0.0288776834188012 0.0812933942192061 -0.0321163648064978
c467 3.48313152688225 -0.773325654130922 0.571113016243978 -0.403141758733118 0.10225224003657 0.00633775246988612 -0.0372667337349415 0.0255345703866233 0.00173709929021554 -0.0443986278695765
c468 3.48313152688225 -0.773325654131055 0.571113016243857 -0.403141758733039 0.102252240036649 0.00633775247086084 -0.0372667337351769 0.025534570386791 0.00173709928984374 -0.0443986278700136
c469 3.48313152688226 -0.77332565413102 0.571113016243898 -0.403141758733063 0.102252240036652 0.00633775247085085 -0.0372667337351277 0.0255345703868259 0.00173709928981091 -0.0443986278700275
c470 3.45607826720019 -0.243545392506848 1.15558957185719 -0.0159995453066239 0.359815006412866 -0.0161185108132008 0.0326951393964148 0.0331413957695968 0.0666475516461868 -0.012826541287178
c471 3.48313152688225 -0.77332565413106 0.571113016243802 -0.403141758732984 0.102252240036662 0.00633775247091515 -0.0372667337352063 0.0255345703867986 0.00173709928986029 -0.0443986278700202
c472 3.48313152688225 -0.773325654130891 0.571113016243924 -0.403141758733099 0.102252240036555 0.00633775246986273 -0.0372667337350505 0.025534570386595 0.00173709929018468 -0.0443986278695722
c473 3.48313152688225 -0.773325654130949 0.571113016243817 -0.403141758733018 0.102252240036561 0.00633775246996701 -0.0372667337351345 0.0255345703866563 0.00173709929017647 -0.0443986278696143
i0 3.41260054896502 -1.05470837593427 -0.686531230579005 0.244828249807795 0.030244028461796 -0.535835382893223 0.0678303046449599 -0.206823846381343 0.502768071903011 0.198335244843182
i1 3.45251116604643 -0.536070204315939 -0.191861024913132 -0.726418726473533 -0.0862308901821267 -0.0115479860138511 -0.0945106158132523 -0.163537207103272 0.268625528280528 -0.204064843268421
i2 3.47140289601966 -0.25319747367451 0.111649234040977 -0.504574404735879 -0.181032525649969 -0.225152349704852 -0.000256892944605685 0.115093561677392 -0.453168500644203 -0.256138284426148
i3 3.43502749301679 -0.785527224177004 -0.474348370837199 0.288781465381793 0.0448265413953284 -0.832915879202633 0.199490210553928 0.0802854041837688 -0.489971164441432 -0.383516247967001
i4 3.46604619377753 0.512649941357663 -0.0681183909620002 -0.0833046250093625 -0.252816936462191 0.106286110169445 0.750369083004323 0.736670003902839 0.532682041855314 -0.22972408183299
i5 3.41476028624636 -0.950403648172567 -0.207983884585179 -0.346147751047469 -0.767491903487975 0.311004378075286 -0.243501722978851 -0.181803302460489 0.119528432558033 -0.104004557862548
i6 3.46604619377753 0.51264994135766 -0.0681183909620065 -0.0833046250093648 -0.25281693646217 0.106286110169446 0.750369083004324 0.73667000390285 0.532682041855288 -0.229724081832989
i7 3.45944112938425 -0.388527403903885 0.0556199693601146 -0.556686838803876 -0.208185985845293 -0.200748057415713 -0.0115506504634597 0.136875063814181 -0.435312478770336 -0.111735938923455
i8 3.46604619377753 0.512649941357665 -0.0681183909619936 -0.0833046250093779 -0.252816936462182 0.106286110169472 0.75036908300431 0.736670003902853 0.532682041855317 -0.229724081832958
i9 3.42693968891765 -0.875190576857026 -0.511164403557555 0.232738534277214 0.00804564456895653 -0.774037055071721 0.180809925668627 0.104059216641416 -0.528041840506934 -0.321676085307789
i10 3.46604619377753 0.512649941357654 -0.0681183909620062 -0.0833046250093703 -0.252816936462184 0.106286110169462 0.750369083004315 0.736670003902849 0.532682041855314 -0.229724081833
i11 3.46135924820145 -0.33351353543736 0.124293659273619 -0.526161542806375 -0.376430650111735 -0.192460490635605 -0.057161720582879 0.155391147575234 -0.472913256174542 0.0206299108750023
i12 3.46604619377753 0.512649941357664 -0.0681183909619961 -0.0833046250093634 -0.25281693646217 0.106286110169493 0.750369083004309 0.736670003902826 0.532682041855332 -0.229724081832982
i13 3.44899908988161 -0.601510437334822 -0.381252744552165 0.662781480768831 0.241861281610922 -0.753206376084569 0.236156677380184 -0.0141216621544327 -0.08992739066713 -0.191478377881125
i14 3.42418575559303 -0.955028379339719 -0.695979523397804 0.337864432731634 0.262249170996732 -0.500813390588257 0.12453883360651 -0.244999182181789 0.487871421588213 -0.16497189957946
i15 3.43977770990284 -0.722371110116515 -0.437629819463052 0.31674396708676 0.0843793669679608 -0.848561478812768 0.210279287362948 0.0822960563816523 -0.478312680555354 -0.381728805683093
i16 3.46604619377753 0.512649941357662 -0.0681183909620018 -0.0833046250093695 -0.252816936462178 0.106286110169456 0.750369083004306 0.736670003902833 0.532682041855325 -0.229724081832978
i17 3.45980983868033 -0.444865844518776 -0.16040476182491 -0.392662088083647 0.0659404590078761 0.105009830851739 -0.0746131292326267 -0.269244427126539 0.679729120742015 -0.0122345775868196
i18 3.46604619377753 0.512649941357657 -0.0681183909620391 -0.0833046250093641 -0.252816936462156 0.106286110169456 0.750369083004306 0.736670003902855 0.532682041855298 -0.229724081832958
i19 3.45685858997467 -0.499132011543663 -0.325776861851165 0.748513634585315 0.31628854535917 -0.762178770529783 0.253595870685018 -0.0247886364215076 -0.0285247005067267 -0.177795841441031
i20 3.46604619377753 0.512649941357632 -0.0681183909619844 -0.0833046250093784 -0.252816936462061 0.106286110169397 0.750369083004381 0.736670003902855 0.532682041855377 -0.229724081832938
i21 3.44100649197424 -0.654128901431557 -0.247768707383257 -0.720305978196432 -0.100062908337158 0.0919188836113931 -0.115569081348433 -0.152394652553956 0.283397923863311 -0.129729492962892
i22 3.47100539178654 -0.229359326494157 0.113716234826647 -0.273783822101346 0.0087543132086625 -0.000482352958977947 0.00348285577819545 0.045207102631342 -0.0248225629221981 0.115747410026773
i23 3.49535953641286 0.0685599164454676 0.296198217263813 -0.0587562962471024 0.141782170383591 -0.105577855600606 0.054167206189053 0.0155739327101929 0.0409695699959386 -0.0161163440693855
i24 3.49535953641286 0.0685599164454702 0.29619821726382 -0.0587562962471029 0.141782170383584 -0.105577855600593 0.0541672061890475 0.0155739327101936 0.0409695699959434 -0.0161163440693933
i25 3.44908229771228 -0.526595382523524 -0.0858433533500559 -0.33267565202396 -0.197570688836966 0.0590501885176822 -0.0420447711449132 0.0055971103153014 0.123223245603436 0.474472154889025
i26 3.45061792876792 -0.582519485164087 -0.374245635470539 0.690853877475674 0.258812556215068 -0.747529808774801 0.239324913467242 -0.0215951618598241 -0.0621214413510236 -0.190334938627823
i27 3.45405292479871 0.657638437405561 -0.234952202560131 0.0972770447714526 0.092394061122136 -0.27184620324686 -1.26989872673363 0.412046989071022 0.0231786384930981 0.177926695244788
i28 3.47920562695449 -0.146889481601736 0.18297583306186 -0.493155059151841 -0.136358396442062 -0.230563704191498 0.00777698792083895 0.119760301707887 -0.441644578242695 -0.257594333037718
i29 3.48395533766453 -0.0289873633416434 0.460452706387979 0.480657039484316 -0.510941085847303 0.202837328645383 -0.0887718573478636 -0.0829002028129429 0.00375831859393742 -0.0985454586733444
i30 3.47484039253296 -0.185170459053928 0.138221826635941 -0.24246176568938 0.0834154652387077 -0.148802270403054 0.0297762765894729 0.00242391817165841 0.106165910839287 0.0966811982038904
i31 3.48480548800672 -0.0611318156425718 0.208261297678218 -0.211022156893557 0.066543013582665 -0.0409956601329427 0.021122239447077 0.0164501320750914 0.0504594574300381 0.0708214452080392
i32 3.47451854345122 -0.204877986990647 0.14673826770602 -0.512286564457909 -0.117523120691078 -0.217948831717098 0.00827503811662851 0.128032065221267 -0.454234075541559 -0.256466000696885
i33 3.42728398108159 0.924883790006431 -0.580630741017303 -0.0378253288231643 -0.289959552849496 0.289238136575046 0.963034337883167 -0.134509431317198 -0.0319561886070588 -0.0362090580467854
i34 3.48395533766453 -0.0289873633416517 0.460452706387979 0.480657039484316 -0.510941085847331 0.202837328645398 -0.0887718573478861 -0.0829002028129577 0.00375831859394713 -0.0985454586733555
i35 3.42820724542549 -0.731406662210378 -0.174095198166024 0.238319072860232 1.11994502928464 1.48179100970904 -0.0451909660423307 0.59437975679176 -0.695168464095376 0.0668276500241839
i36 3.47920562695449 -0.14688948160174 0.182975833061844 -0.493155059151841 -0.136358396442084 -0.230563704191501 0.00777698792084801 0.119760301707887 -0.441644578242723 -0.257594333037699
i37 3.47260775510122 0.428455680856081 0.0795573855560291 -0.0502372050174212 0.184546238945695 0.0565365931572524 0.0737850486768912 -1.04295136113446 -0.217232821743144 -0.184591447278532
i38 3.44479062311432 -0.623709748269001 -0.247762164884936 -0.740019795118769 -0.127791204453332 0.0114119259897325 -0.11231495330193 -0.216498247299337 0.369853301926355 -0.213301042064463
i39 3.47920562695449 -0.146889481601732 0.182975833061817 -0.493155059151836 -0.136358396442042 -0.230563704191518 0.00777698792087314 0.119760301707893 -0.441644578242726 -0.25759433303773
i40 3.47260775510122 0.428455680856086 0.0795573855560802 -0.0502372050174256 0.184546238945643 0.0565365931572494 0.0737850486768843 -1.0429513611345 -0.217232821743156 -0.184591447278575
i41 3.41623979316234 0.780472279492818 -0.662464844061441 -0.0972158796524098 -0.379716385500862 0.336310567138743 0.934529879465046 -0.115867784237689 -0.0918214289090246 0.00981330613925712
i42 3.48299154159989 -0.0829562956585031 0.199281861028794 -0.239628402951586 0.0482470636791387 -0.0491148266226191 0.0181756334025515 0.0246487730590889 0.0192300828866429 0.0687717123795616
i43 3.43624286726629 -0.720428929423396 -0.29287884929838 -0.466612684941407 -0.0258163629167977 0.292095169650671 -0.137666562846857 -0.2834873856746 0.775760129636801 0.196873545596511
i44 3.47920562695448 -0.146889481601728 0.182975833061844 -0.493155059151849 -0.136358396442055 -0.230563704191511 0.00777698792086296 0.119760301707869 -0.441644578242717 -0.257594333037751
i45 3.47522185258771 0.418618655325813 0.016778782282294 0.0301943001757679 0.102313301004764 -0.210697296660065 -0.654815703805187 0.186801454526108 0.0176914155699796 0.263641735209545
i46 3.40750735977157 -1.06132545353162 -0.616978123316353 1.0040719763389 1.30362965560329 0.825479156194001 0.152331641103705 0.526455022417505 -0.660947922182783 -0.0595829884119711
i47 3.45746662293256 -0.445968249777344 -0.040299793457362 -0.528558129470157 -0.23518430228802 -0.121509194771785 -0.0219790931804915 0.0802599098535158 -0.241661430511814 0.12205259436193
i48 3.49876190802325 0.144538782098307 0.360811585939161 -0.0205503271153041 0.138536363851762 -0.116896776257102 0.057611128361215 0.00542753742997656 0.0739095817620236 -0.00723939327357339
