c0 3.50964927334805 0.0137903840750346 -0.184557873681193 0.244826391166457 0.158975806378806 0.0122358184961397 0.0640207241576154 -0.0510319100879155 0.00262568010539181 0.0510073780859253 0.0386032789788888 -0.190240741011698 0.189987454276865 -0.0187634364904017 0.132702982505273 -0.00829026034919744 0.0129912352831152 -0.0168161021745221 -0.227432647050526 0.255004805958018 0.0478113849052478 -0.04248703579702 0.215104890271061 -0.0689139410681947 0.326104313359309 0.461017715913838 0.625769318329565 0.231961336487022 -0.430112286218404 1.05941486245571
c1 3.517552407109 0.123324754026174 -0.301827185187516 0.15307527472437 0.130529647100511 -0.0326823583031832 0.0521920563472082 -0.0572345731490424 0.0392386877454344 0.0138321930357434 0.0216978581977224 -0.175218426317216 0.21969992448382 -0.0229076153745812 0.11827807063957 -0.0164374173027616 -0.0203118017155541 0.0051879473536275 -0.20373321557082 0.15428042067052 0.0226019997051636 -0.0496187659714324 0.100525321503876 -0.0629875682392961 0.111504769989243 0.194202783735279 0.243270279925469 0.0453789456086861 -0.000862270745254826 0.47173336154872
c2 3.517552407109 0.123324754026185 -0.301827185187536 0.153075274724343 0.130529647100504 -0.0326823583032092 0.0521920563472512 -0.0572345731490497 0.0392386877454476 0.0138321930357017 0.0216978581977234 -0.1752184263172 0.219699924483855 -0.0229076153745854 0.118278070639537 -0.0164374173028544 -0.0203118017156125 0.00518794735367993 -0.203733215570826 0.154280420670555 0.0226019997052179 -0.0496187659714172 0.100525321503967 -0.0629875682393655 0.11150476998924 0.194202783735361 0.243270279925375 0.0453789456086369 -0.000862270745336678 0.471733361548765
c3 3.517552407109 0.12332475402611 -0.301827185187478 0.153075274724433 0.130529647100532 -0.0326823583032236 0.0521920563472731 -0.0572345731490894 0.0392386877453646 0.0138321930358175 0.0216978581978253 -0.175218426317274 0.219699924483836 -0.0229076153746524 0.118278070639823 -0.0164374173023208 -0.0203118017155321 0.00518794735401563 -0.203733215570899 0.154280420670472 0.0226019997051718 -0.0496187659710276 0.10052532150378 -0.0629875682385736 0.111504769988984 0.194202783734919 0.243270279925384 0.0453789456087459 -0.00086227074513794 0.471733361548639
c4 3.46016193540689 -0.517202213785431 0.28075733118729 0.726039414591157 0.437037439543405 0.413450352832469 0.459918634763905 -0.507613963269953 1.26000197760975 1.37067016832895 -0.914217581163523 1.1248321212743 -0.394448073967312 0.0905319326520607 -0.409915042444651 0.0343051681303431 0.0134690047223529 -0.026507804257634 0.248633150047119 -0.124191382527604 -0.0634476795317232 0.14770125510606 -0.0384116515133949 0.201362026690214 0.0326341935463244 0.223612633948745 0.034814843800522 -0.258793792272426 -0.128068152834295 0.0548424037290134
c5 3.51658458668505 0.115470115261245 -0.296229523208187 0.167283910315859 0.144734693183059 -0.0340644955399342 0.0635237818054164 -0.0622712367941683 0.0394884244816137 0.00521812990903977 0.0271650512143076 -0.199417647736669 0.247142203284085 -0.0233128636747741 0.126738004536384 -0.0106332197581928 -0.0477109759212292 0.0102784017550186 -0.284151616127739 0.224535332816314 0.0771349174260825 -0.0331242815337853 0.114915403165032 -0.246796274542608 0.379300713233382 0.550256613562175 0.848761861652586 0.213845447795893 -0.0704897250942504 -0.340553316778836
c6 3.46315184475506 -0.899388485339783 0.788241812299079 0.887851044687902 0.622344569537901 0.00769694433674577 0.216739040777511 -0.061563048461997 -0.0463637676953564 -0.0738444176656973 0.0843582732940666 -0.161042860298835 0.195261180817052 -0.00488938533673411 0.0664712312099078 -0.0291600783603888 -0.112686535620932 0.0197326540854431 -0.297476832360249 0.154374082844682 0.0265100956704235 0.109168417418804 0.0317730733460706 -0.210453728367087 0.366816299291411 0.502692556174211 0.938948821674035 0.114223380306111 0.0860757875246766 -0.558601394030844
c7 3.51658458668505 0.115470115261252 -0.296229523208209 0.167283910315829 0.144734693183051 -0.0340644955399133 0.0635237818054194 -0.0622712367941194 0.0394884244816261 0.0052181299090745 0.0271650512142985 -0.199417647736678 0.24714220328402 -0.0233128636747191 0.126738004536299 -0.0106332197583126 -0.0477109759211907 0.0102784017548779 -0.284151616127689 0.224535332816308 0.0771349174260441 -0.0331242815338326 0.114915403165049 -0.246796274542857 0.379300713233478 0.550256613562285 0.848761861652476 0.213845447795788 -0.0704897250942987 -0.3405533167788
c8 3.51658458668505 0.115470115261253 -0.296229523208216 0.167283910315803 0.144734693183032 -0.0340644955399266 0.0635237818054132 -0.0622712367941131 0.0394884244816353 0.00521812990901897 0.0271650512143275 -0.199417647736664 0.247142203284 -0.0233128636746788 0.12673800453627 -0.0106332197584091 -0.0477109759212128 0.0102784017547235 -0.284151616127607 0.224535332816323 0.077134917426104 -0.0331242815339671 0.11491540316512 -0.246796274543011 0.379300713233462 0.550256613562385 0.848761861652494 0.213845447795867 -0.0704897250944609 -0.340553316778806
c9 3.50207825616739 -0.121901194209953 -0.0416384170708964 0.351776782906269 0.24131122076091 -0.023518094358165 0.103494930392528 -0.0680459079216698 0.0305039608145399 -0.0467574607380901 0.0363571089073244 -0.247460763351828 0.185854107984425 -0.00524019723444099 0.0915674276912843 0.0768539086206716 -0.0637446606236938 -0.00422295051775383 -0.290799463406316 0.391129039323506 0.261056963658909 -0.0607067162367828 0.184441709055389 -0.50906378250492 0.811942893700816 0.970471369718771 1.28698190791311 0.549215522609052 -0.665696559564227 -0.49065746057211
c10 3.5212254464824 0.116097676675336 -0.284371748366696 0.142830859437168 0.119595499175555 -0.0297941656724054 0.044081667709916 -0.0481146305612823 0.0330213014011431 0.009787999122342 0.0165413423781238 -0.131897794178457 0.161745239385882 -0.0164428024673394 0.0835542579792984 -0.0113322874145602 -0.0154830007575761 0.00474677666591241 -0.115895463823644 0.0743654536648785 0.0101844246938623 -0.0246292750419382 0.0318591269561619 -0.0272150541894539 0.0200306652026096 0.0410835684947668 0.0348375929692991 -0.0120082086230404 0.0673069566445472 0.0502276505560149
c11 3.5212254464824 0.11609767667534 -0.284371748366713 0.142830859437182 0.119595499175538 -0.0297941656724236 0.0440816677098958 -0.0481146305612807 0.0330213014011331 0.00978799912236218 0.0165413423781352 -0.131897794178503 0.161745239385873 -0.0164428024673327 0.0835542579793158 -0.0113322874145956 -0.0154830007574135 0.00474677666582827 -0.115895463823633 0.0743654536648204 0.0101844246938645 -0.0246292750419809 0.0318591269561166 -0.0272150541895157 0.0200306652025784 0.0410835684948178 0.0348375929693108 -0.0120082086231373 0.0673069566446016 0.0502276505559412
c12 3.50833094049781 0.172803706627324 -0.421773816814473 0.225701766642255 0.233691562385577 -0.118267448509447 0.684348343080237 1.38285261319024 -0.218672053573489 -0.0543114352744068 -0.0644605602551685 0.242876140837432 -0.182678374180411 0.0316473526787435 -0.128150557248951 0.0290682518016572 0.00582895351895122 -0.00254951740713069 0.119294757413485 0.0995130045209076 -0.0801179398186806 0.00648631753055342 -0.0213138662036641 -0.0194059600867961 -0.0299133176871587 -0.0457799684545473 0.000699408025593741 0.0228137692950906 -0.00814442966895747 -0.028760998539939
c13 3.50833094049781 0.172803706627338 -0.421773816814503 0.225701766642249 0.233691562385553 -0.118267448509429 0.684348343080235 1.38285261319036 -0.218672053573494 -0.0543114352745006 -0.0644605602551641 0.242876140837492 -0.182678374180473 0.0316473526787566 -0.128150557248984 0.0290682518015822 0.00582895351881146 -0.00254951740729594 0.119294757413571 0.099513004520828 -0.0801179398186717 0.0064863175303 -0.021313866203612 -0.0194059600871294 -0.0299133176872054 -0.0457799684545043 0.000699408025627593 0.0228137692950782 -0.0081444296691026 -0.0287609985398035
c14 3.50549911653216 0.179044288581917 -0.435955819485504 0.233041399761822 0.243310602582473 -0.124873311197366 0.729603245850652 1.48123856093665 -0.235300235521926 -0.0587209858925893 -0.0694691519194213 0.267213963928644 -0.201433184763403 0.0350793668127606 -0.14372999251237 0.0335740250746803 0.00592387173234897 -0.00239726018043812 0.14369745478654 0.130937416591175 -0.104800738257963 0.00639155430668363 -0.026566413905189 -0.0289248255286827 -0.0412535306464243 -0.0615529374183367 0.00321479128686089 0.0314253011055714 -0.00482837494234311 -0.039190863369036
c15 3.50833094049781 0.172803706627327 -0.421773816814487 0.225701766642254 0.233691562385565 -0.118267448509468 0.684348343080236 1.38285261319027 -0.218672053573469 -0.0543114352744555 -0.0644605602551898 0.242876140837494 -0.182678374180467 0.031647352678694 -0.128150557248909 0.0290682518016554 0.00582895351887326 -0.00254951740720206 0.119294757413513 0.0995130045208677 -0.0801179398187302 0.00648631753042854 -0.0213138662036883 -0.019405960086833 -0.0299133176870751 -0.0457799684545325 0.000699408025680025 0.0228137692950344 -0.00814442966888179 -0.0287609985398879
c16 3.50833094049781 0.17280370662734 -0.421773816814515 0.225701766642249 0.233691562385536 -0.118267448509477 0.684348343080259 1.38285261319034 -0.218672053573464 -0.0543114352744839 -0.0644605602551723 0.242876140837457 -0.182678374180461 0.031647352678699 -0.128150557248977 0.0290682518016352 0.00582895351883112 -0.0025495174072532 0.119294757413502 0.0995130045208752 -0.0801179398186658 0.00648631753037424 -0.0213138662036527 -0.01940596008699 -0.0299133176871192 -0.0457799684545696 0.000699408025662176 0.0228137692950624 -0.0081444296690581 -0.0287609985397866
c17 3.50549911653216 0.179044288581908 -0.435955819485517 0.23304139976179 0.24331060258248 -0.124873311197319 0.729603245850607 1.48123856093665 -0.235300235521898 -0.05872098589249 -0.0694691519193737 0.267213963928523 -0.201433184763358 0.0350793668128146 -0.14372999251259 0.0335740250746189 0.00592387173239339 -0.00239726018053307 0.143697454786627 0.130937416591085 -0.104800738258055 0.00639155430653778 -0.0265664139050974 -0.0289248255288754 -0.0412535306461837 -0.0615529374182749 0.00321479128690151 0.031425301105557 -0.00482837494242186 -0.0391908633690964
c18 3.50833094049781 0.172803706627332 -0.421773816814478 0.225701766642263 0.233691562385598 -0.118267448509521 0.684348343080225 1.3828526131903 -0.218672053573575 -0.0543114352744001 -0.0644605602550968 0.242876140837351 -0.182678374180456 0.0316473526787478 -0.128150557248916 0.0290682518017857 0.00582895351879896 -0.00254951740712811 0.119294757413448 0.0995130045209405 -0.0801179398187424 0.00648631753066785 -0.0213138662037522 -0.019405960086704 -0.0299133176871375 -0.0457799684545285 0.00069940802564193 0.0228137692950838 -0.00814442966883936 -0.0287609985399837
c19 3.50043695205238 0.206190716535822 -0.420740161804141 0.232653890170662 0.239459387555116 -0.154114798646722 0.730273823330884 1.46044039253322 -0.207756748272268 -0.0344889002545324 -0.0925197044231529 0.116027333309216 -0.379927755846394 -0.0476221616417983 0.159968833088059 -0.161628938705374 0.0709758857371035 -0.0208932714069447 -0.558512246055481 -1.60438799422206 0.908568862352332 0.0688556232257882 0.0948817461911663 0.397505370624287 0.302940909369495 0.400308321013152 -0.164405890328458 -0.241131569138374 -0.213405238338604 0.185163092294055
c20 3.50833094049781 0.172803706627327 -0.421773816814506 0.225701766642253 0.233691562385576 -0.118267448509476 0.684348343080245 1.38285261319025 -0.21867205357351 -0.054311435274475 -0.0644605602551779 0.242876140837398 -0.182678374180413 0.0316473526786928 -0.128150557248924 0.0290682518016188 0.00582895351880679 -0.0025495174072008 0.119294757413542 0.0995130045208495 -0.0801179398186471 0.00648631753048259 -0.0213138662037015 -0.0194059600869367 -0.0299133176871647 -0.0457799684545718 0.000699408025643883 0.022813769295023 -0.00814442966897344 -0.0287609985399524
c21 3.50833094049781 0.172803706627337 -0.421773816814518 0.225701766642254 0.233691562385557 -0.118267448509482 0.684348343080232 1.38285261319027 -0.218672053573477 -0.0543114352744773 -0.0644605602551615 0.242876140837323 -0.18267837418048 0.0316473526787167 -0.12815055724899 0.0290682518016282 0.00582895351890409 -0.00254951740730681 0.119294757413451 0.0995130045209418 -0.0801179398186637 0.00648631753048876 -0.0213138662037327 -0.0194059600868696 -0.0299133176870697 -0.0457799684545144 0.000699408025629079 0.0228137692950572 -0.00814442966896843 -0.0287609985399133
c22 3.50833094049781 0.172803706627345 -0.421773816814508 0.225701766642218 0.233691562385564 -0.118267448509475 0.684348343080202 1.38285261319033 -0.218672053573511 -0.0543114352745369 -0.06446056025519 0.24287614083743 -0.182678374180399 0.0316473526787061 -0.128150557248916 0.0290682518015333 0.00582895351884856 -0.00254951740733996 0.119294757413555 0.0995130045208088 -0.0801179398186469 0.00648631753031057 -0.0213138662036257 -0.0194059600871889 -0.029913317687089 -0.0457799684544406 0.000699408025770568 0.0228137692950046 -0.0081444296690443 -0.0287609985398293
c23 3.50833094049781 0.172803706627312 -0.421773816814503 0.225701766642246 0.233691562385566 -0.118267448509452 0.68434834308025 1.38285261319025 -0.218672053573481 -0.0543114352744377 -0.0644605602551724 0.242876140837386 -0.182678374180447 0.0316473526787714 -0.128150557248892 0.0290682518016722 0.00582895351888493 -0.00254951740721451 0.119294757413499 0.0995130045208613 -0.0801179398186544 0.00648631753047945 -0.0213138662036868 -0.0194059600868949 -0.0299133176871558 -0.0457799684545579 0.000699408025617605 0.0228137692950814 -0.00814442966898078 -0.0287609985399937
c24 3.50833094049781 0.172803706627329 -0.421773816814518 0.22570176664224 0.233691562385551 -0.118267448509443 0.684348343080225 1.38285261319028 -0.218672053573458 -0.0543114352744655 -0.0644605602551569 0.242876140837426 -0.182678374180446 0.0316473526787471 -0.128150557249084 0.0290682518015141 0.00582895351888546 -0.00254951740737919 0.119294757413564 0.0995130045208813 -0.0801179398186648 0.00648631753025246 -0.0213138662035737 -0.0194059600873389 -0.0299133176871896 -0.0457799684544755 0.000699408025640312 0.0228137692949041 -0.008144429669176 -0.0287609985398297
c25 3.50833094049781 0.172803706627309 -0.421773816814486 0.225701766642269 0.233691562385567 -0.118267448509443 0.684348343080268 1.38285261319031 -0.218672053573532 -0.0543114352744012 -0.0644605602551687 0.242876140837376 -0.182678374180429 0.031647352678729 -0.128150557248814 0.0290682518017195 0.00582895351889852 -0.00254951740703476 0.119294757413464 0.0995130045209193 -0.0801179398186884 0.00648631753060009 -0.0213138662036663 -0.0194059600866465 -0.0299133176871387 -0.0457799684545761 0.000699408025527968 0.0228137692951053 -0.00814442966885871 -0.0287609985400107
c26 3.50833094049781 0.172803706627324 -0.421773816814476 0.225701766642267 0.233691562385577 -0.118267448509518 0.68434834308025 1.38285261319027 -0.218672053573514 -0.0543114352743828 -0.0644605602551567 0.242876140837347 -0.182678374180426 0.0316473526787222 -0.128150557248849 0.0290682518016948 0.00582895351887876 -0.00254951740717362 0.119294757413486 0.0995130045209629 -0.0801179398187132 0.00648631753055485 -0.0213138662037695 -0.0194059600866701 -0.0299133176871045 -0.0457799684545607 0.000699408025630481 0.0228137692950057 -0.00814442966888041 -0.0287609985400956
c27 3.50833094049781 0.172803706627336 -0.421773816814508 0.225701766642252 0.233691562385537 -0.118267448509437 0.684348343080226 1.38285261319028 -0.218672053573413 -0.0543114352744816 -0.0644605602551845 0.242876140837532 -0.182678374180431 0.0316473526787402 -0.128150557248993 0.0290682518015283 0.00582895351885318 -0.00254951740730451 0.119294757413561 0.0995130045208542 -0.0801179398186471 0.0064863175302685 -0.0213138662035492 -0.0194059600871579 -0.0299133176871992 -0.0457799684544738 0.000699408025598942 0.0228137692951137 -0.00814442966902824 -0.0287609985398585
c28 3.50833094049781 0.172803706627353 -0.421773816814527 0.2257017666422 0.233691562385538 -0.118267448509441 0.68434834308024 1.38285261319036 -0.21867205357344 -0.0543114352745344 -0.0644605602552547 0.242876140837504 -0.182678374180412 0.0316473526787094 -0.128150557248967 0.0290682518014787 0.00582895351890091 -0.00254951740740694 0.119294757413578 0.099513004520821 -0.0801179398186243 0.00648631753023708 -0.0213138662036284 -0.0194059600873172 -0.0299133176870995 -0.0457799684544218 0.000699408025694186 0.0228137692949314 -0.00814442966920774 -0.0287609985398154
c29 3.38949782203456 -0.141736706076017 1.55393700532748 0.191228611416281 -1.24173521464809 0.765458408931495 -0.176562636083114 0.187485720135503 -0.133206544512016 -0.378783600316003 -0.0140381817036335 0.695524545509626 -0.0198647782133855 -0.0304921506110626 0.114212551452992 -0.0938845172026657 0.0593133323401045 -0.000149518659802792 0.154824001326478 -0.0692510633656331 -0.193091952195627 0.147778221611848 0.0903262089872129 0.0565913349252037 0.240799895696885 -0.243221193320208 0.207320887294015 -0.00652258096353671 -0.206873932352654 0.321226669502095
c30 3.5212254464824 0.116097676675307 -0.284371748366691 0.142830859437194 0.11959549917557 -0.0297941656723871 0.0440816677099036 -0.0481146305612192 0.0330213014010923 0.00978799912255041 0.0165413423781108 -0.131897794178557 0.161745239385766 -0.0164428024673048 0.083554257979153 -0.0113322874147615 -0.0154830007574435 0.00474677666587334 -0.11589546382375 0.074365453664928 0.0101844246936877 -0.0246292750418255 0.0318591269561865 -0.0272150541894427 0.0200306652028304 0.0410835684947611 0.0348375929688758 -0.0120082086231006 0.0673069566444731 0.0502276505558962
c31 3.51121565406355 0.0958676952271846 -0.312242746798941 0.191967384970623 0.151373529346881 0.0860499965000961 0.181939318310913 -0.234688966967515 0.562688490034851 0.451090133836168 -0.377488992042372 0.187319162703188 -0.29861419862565 0.00505525314908097 0.00956269107305268 0.0129761175405507 0.0287841961876247 -0.00346952065614358 0.158743955058983 0.157697192585093 -0.113688665944036 0.0343358939090227 -0.106312760267695 0.187541888342033 -0.167074020849343 0.671166315216907 -0.186481589336038 -0.406531588330262 -0.0282216480553823 0.163456558757987
c32 3.51121565406354 0.0958676952272083 -0.312242746798937 0.191967384970595 0.151373529346869 0.0860499965000496 0.181939318310912 -0.234688966967478 0.562688490034795 0.451090133836154 -0.377488992042344 0.187319162703073 -0.298614198625715 0.00505525314905659 0.00956269107300587 0.0129761175404945 0.0287841961876329 -0.00346952065623186 0.158743955058999 0.15769719258511 -0.113688665944029 0.03433589390912 -0.10631276026773 0.187541888341949 -0.167074020849311 0.671166315216931 -0.186481589336023 -0.40653158833033 -0.0282216480553729 0.163456558758097
c33 3.47693695207242 -0.432868037258761 0.222182244486226 0.455345525207101 0.329668194075455 0.15456514964971 0.284840349024735 -0.280343912588211 0.707964272683482 0.363196142119132 -0.517779155607019 -0.0233966651154939 -0.970726447625805 -0.0180649695515706 0.18307257167157 -0.02994380276944 -0.0453902372648276 0.0372369231921518 0.399622472061879 0.410751295345223 -0.239619820961759 0.205921475431188 0.0381385728650331 0.420401511089578 0.117281584105301 0.770847065293455 -0.165349055611626 -0.654990593860356 -0.254766470261955 0.324598132956426
c34 3.48109854323741 -0.501227222135892 0.317969477876387 0.623149303392259 0.436777127749835 0.107668971416684 0.263679278291525 -0.231607609448077 0.516803765561014 0.376262845417218 -0.343979551824786 0.237682787408671 -0.281388331403789 0.00773150399608217 -0.00167972573432384 -0.0437703987801151 0.0984299567048748 -0.0332420213577891 0.0899939385906754 0.00398921268912451 -0.202762242337938 0.00678429593051205 -0.27433414682408 0.316375516508595 -0.441281167885472 0.793769108053524 -0.171003667065197 -0.431809716542189 0.164645997618218 0.169888263806518
c35 3.46010977394994 -0.869999716052947 0.736328363378487 0.890417603356283 0.604283269024851 0.105688960953839 0.316749638261969 -0.224309349446184 0.464918911481616 0.360189233926548 -0.317749609005809 0.219717357870375 -0.324765779288053 0.0069877332420776 0.000315314460604133 -0.00659684411959772 0.236597808838054 -0.0881246911730495 0.102691974825233 -0.00573836010737599 -0.281552990484254 -0.0730775543342328 -0.490140081224615 0.0836046912586622 -0.500136044602374 0.800766394627927 -0.285024165593769 -0.0412450632909827 0.19579902896657 0.381301711014141
c36 3.51653442110568 0.113920667473099 -0.270458176553824 0.174631796237174 -0.0428338779972512 -0.158746862837787 0.0366498396638594 -0.0444058448904822 0.0152445010100141 0.0776137020082013 0.0318967281421582 -0.108224075828081 0.206810634416081 -0.0374423448102301 0.202247787716164 0.014715292248325 -0.0242937659293829 0.0223061107304339 -0.155506239338746 0.144323268008234 0.00170499341817262 -0.023150769634802 0.0573070474114062 -0.0539903281179359 0.0515119001595386 0.0518729638338032 0.0925453644883836 -0.115877115171865 0.134800231450706 0.0293863079893275
c37 3.48482693845648 0.0822480074057192 -0.0595570827465793 0.237837157864363 -1.10304117518532 -0.702795969951377 -0.0369483242632076 -0.014755765227339 -0.107199529082881 0.262856144300514 0.0410418148705097 0.106550553953598 0.103867423587144 -0.145725787952318 0.299230543506203 0.0643622329230509 -0.0359173630568891 0.0487297697599962 -0.0386468694283785 0.143505198129162 -0.0383576871337395 0.0176746242561926 0.0462779658440689 -0.0278720974975892 0.0611895904911012 -0.0241449742079263 0.0660660095493406 -0.212112331438103 0.0842275689776523 -0.128177976131767
c38 3.51653442110568 0.113920667473082 -0.270458176553783 0.174631796237159 -0.0428338779972407 -0.158746862837772 0.0366498396639167 -0.044405844890542 0.0152445010100993 0.0776137020082039 0.031896728142173 -0.108224075828097 0.206810634416097 -0.0374423448102298 0.202247787716204 0.0147152922484414 -0.0242937659294964 0.0223061107305477 -0.155506239338772 0.144323268008151 0.00170499341817546 -0.023150769634742 0.057307047411405 -0.0539903281178233 0.0515119001593923 0.0518729638336857 0.0925453644883442 -0.115877115171962 0.134800231450722 0.0293863079893868
c39 3.51653442110568 0.11392066747307 -0.270458176553797 0.174631796237171 -0.0428338779972636 -0.15874686283775 0.0366498396638949 -0.0444058448905004 0.0152445010100263 0.0776137020082163 0.0318967281421549 -0.10822407582805 0.206810634416072 -0.0374423448102327 0.202247787716183 0.0147152922484456 -0.0242937659293787 0.0223061107304324 -0.155506239338749 0.144323268008187 0.00170499341818375 -0.0231507696347732 0.0573070474114817 -0.0539903281178846 0.0515119001593669 0.0518729638336968 0.0925453644882889 -0.115877115171921 0.134800231450741 0.029386307989259
c40 3.51653442110568 0.113920667473093 -0.270458176553785 0.174631796237197 -0.0428338779972547 -0.15874686283776 0.0366498396639122 -0.0444058448905868 0.0152445010100235 0.0776137020081638 0.0318967281421267 -0.108224075828014 0.206810634416111 -0.0374423448102729 0.202247787716284 0.0147152922484485 -0.0242937659294484 0.0223061107305333 -0.155506239338802 0.144323268008173 0.00170499341814211 -0.0231507696346769 0.0573070474114215 -0.0539903281177687 0.0515119001594838 0.0518729638337198 0.0925453644883927 -0.115877115171903 0.134800231450756 0.0293863079893174
c41 3.51405974847415 0.127655513008006 -0.322097116182212 0.176733714141474 0.15846808529095 -0.0412931885780324 0.077377458890075 -0.0829192789577502 0.0586668103764289 0.0119658277654863 0.0485998982869545 -0.355080914405919 0.553492309076545 -0.0589419102023335 0.317828039021438 -0.0985276933906882 -0.774068907708492 -1.2650204372244 0.925354261535978 -0.320076839314121 -0.0298304531331443 0.0340521460696507 -0.059270796829005 0.0587728049771694 -0.0435921972259435 -0.0234312768778396 -0.00753320522137487 0.0303586399507693 -0.161294870910791 0.0640433549698375
c42 3.51122793277766 0.133380627952504 -0.334313835810814 0.180780378906905 0.166967339179407 -0.0461849434769625 0.0864760321534465 -0.0981327381247421 0.0828428363958198 0.010117748767874 0.143805921236543 -0.343583770254932 0.557021787963285 -0.065284400818205 0.329273148679304 -0.108837906894086 -0.818535009630767 -1.3497159120303 0.997662513424946 -0.357883426427287 -0.0660460228062632 0.0436727037271741 -0.0578409217047247 0.0631506264329942 -0.0252629927197108 -0.013540778109536 -0.0264125961905396 0.0449193366133124 -0.186533457207217 0.0725539510163066
c43 3.51405974847415 0.127655513008005 -0.322097116182215 0.176733714141479 0.15846808529092 -0.041293188577996 0.0773774588900773 -0.0829192789576877 0.0586668103763855 0.0119658277654878 0.0485998982870189 -0.355080914405915 0.553492309076499 -0.0589419102023007 0.317828039021407 -0.0985276933907142 -0.774068907708462 -1.2650204372244 0.92535426153597 -0.320076839314132 -0.0298304531331182 0.0340521460696625 -0.0592707968289301 0.0587728049772029 -0.0435921972260059 -0.0234312768778634 -0.00753320522142923 0.0303586399507641 -0.161294870910708 0.0640433549697242
c44 3.51405974847415 0.127655513007995 -0.322097116182225 0.176733714141465 0.158468085290938 -0.0412931885779409 0.0773774588900466 -0.0829192789576394 0.0586668103764932 0.0119658277654846 0.0485998982869771 -0.355080914405862 0.553492309076528 -0.0589419102022543 0.317828039021361 -0.0985276933908311 -0.774068907708477 -1.26502043722452 0.925354261535949 -0.320076839314143 -0.0298304531331485 0.0340521460694851 -0.0592707968288657 0.0587728049769135 -0.0435921972259631 -0.0234312768778043 -0.00753320522147907 0.0303586399506419 -0.161294870910843 0.0640433549698508
c45 3.47572657617414 -0.618518048450333 0.461133746020142 0.687071248414281 0.515824916496173 -0.00281572351313937 0.169153402556991 -0.0716121634514245 -0.020904220849238 -0.0525935880437903 0.0881930106333224 -0.347371731316869 0.530902266103335 -0.0443329842197563 0.270485423812142 -0.0951006046053318 -0.902051124874745 -1.23602328420917 0.927981396741398 -0.463916638523795 0.00897289792255582 0.114148731021847 -0.109634910755151 0.0787862774079538 -0.0411825167103107 -0.180684498987685 -0.141497675575905 -0.0192446302700514 0.0628478303987201 -0.408463167969771
c46 3.51405974847415 0.127655513008024 -0.322097116182233 0.176733714141458 0.158468085290941 -0.0412931885780018 0.0773774588900741 -0.0829192789576228 0.0586668103764168 0.0119658277654767 0.0485998982870084 -0.355080914405962 0.553492309076525 -0.0589419102022721 0.317828039021396 -0.098527693390822 -0.774068907708461 -1.26502043722454 0.925354261536005 -0.320076839314076 -0.0298304531331704 0.0340521460696695 -0.0592707968289884 0.0587728049769307 -0.0435921972259558 -0.0234312768777454 -0.00753320522131068 0.0303586399507104 -0.161294870910816 0.0640433549697812
c47 3.51405974847415 0.127655513008022 -0.322097116182248 0.176733714141448 0.158468085290911 -0.0412931885779241 0.0773774588900306 -0.0829192789576918 0.0586668103765009 0.0119658277654518 0.0485998982869618 -0.355080914405858 0.55349230907648 -0.0589419102023029 0.317828039021286 -0.0985276933908498 -0.774068907708524 -1.26502043722453 0.925354261536002 -0.320076839314061 -0.0298304531331273 0.0340521460694665 -0.0592707968288952 0.0587728049767827 -0.0435921972260386 -0.0234312768777432 -0.00753320522144322 0.0303586399507106 -0.161294870910925 0.0640433549699186
c48 3.51405974847415 0.127655513008008 -0.322097116182219 0.17673371414147 0.158468085290929 -0.0412931885780132 0.0773774588900949 -0.0829192789577077 0.0586668103764088 0.0119658277654908 0.0485998982870039 -0.355080914405898 0.553492309076485 -0.0589419102022742 0.317828039021364 -0.0985276933907418 -0.774068907708523 -1.26502043722449 0.925354261535974 -0.320076839314103 -0.0298304531331433 0.0340521460696193 -0.0592707968289834 0.0587728049771394 -0.0435921972259369 -0.023431276877846 -0.00753320522142279 0.0303586399508183 -0.16129487091087 0.0640433549698707
c49 3.51697778840185 0.124224696949621 -0.302412480981281 0.151323019919817 0.12917800293388 -0.0334398688252064 0.0507773054842306 -0.0562068879206086 0.0399918664590967 0.0116212060658724 0.0202383967751003 -0.166651914824372 0.21094023964523 -0.0221430666965649 0.110473372527102 -0.0162349907546513 -0.0229308088006744 0.00781127674696617 -0.178358318012504 0.119838873637599 0.0142859644883237 -0.0440982117185597 0.0573116995579795 -0.0514555198851011 0.0345347856703497 0.0793883544834775 0.0706242961675711 -0.0258016376764547 0.148353576884258 0.114339756995803
c50 3.51697778840185 0.124224696949641 -0.302412480981319 0.151323019919743 0.129178002933944 -0.0334398688251457 0.0507773054841918 -0.0562068879208031 0.0399918664591346 0.011621206066015 0.02023839677498 -0.166651914824566 0.210940239645427 -0.0221430666965828 0.11047337252674 -0.0162349907546562 -0.0229308088001961 0.00781127674636134 -0.178358318012026 0.11983887363719 0.014285964488449 -0.0440982117192297 0.0573116995588056 -0.0514555198849904 0.0345347856704898 0.0793883544835787 0.0706242961678169 -0.02580163767611 0.148353576884078 0.114339756996004
c51 3.4344594092482 0.105218474549198 0.488851640266923 -1.48072957184197 -0.117307031764821 -0.048266652444301 -0.0671734567321919 -0.0275067015794363 0.15708858580448 -0.171646889851128 -0.171429633605848 -0.0479811336940212 -0.760859065282365 0.145764892300773 -0.0113865471876972 0.0955044281739213 -0.0422646162071038 0.00214442180787901 0.464281587614146 0.381586631157744 0.824508010237813 -0.136153867831954 -0.231008698478249 0.0998295973871722 -0.572313990850667 -0.124143269865837 0.191391048156874 -0.261658675862645 -0.165301684063716 0.0161858319553853
c52 3.4375726497056 -0.674617348037849 0.667678246472853 0.590117878377306 -1.19056020909198 0.445547108876165 -0.0937119358789693 0.152167561988837 -0.40885937051613 0.499035948964531 0.227893689315297 0.0435513023168911 -0.137491432441771 -0.00402335196590103 0.0948819755329763 -0.0316665347587347 0.164489520012722 -0.0935610407056567 0.109661810030059 -0.0707371267327328 -0.213131085216575 -0.0957440166223285 -0.166113446998342 -0.0458812444058383 -0.0903516546970316 -0.165069912403547 0.139842947602282 0.432500182457126 -0.0518740048859371 0.558673861507677
c53 3.51658474508126 0.125045876946705 -0.307239809309408 0.157717241727777 0.136198453983156 -0.0354186080213441 0.0568261360914615 -0.0621457429188214 0.043803956628564 0.0119961067018302 0.0246087881228848 -0.197316937681276 0.259165836519311 -0.0259446998861998 0.135548762811685 -0.0227777561635513 -0.038926071393147 0.0166570827221684 -0.27831021323979 0.202626236355228 0.0489402184147207 -0.0805988735277632 0.172763142026933 -0.0395602345056716 -0.0262747833965874 0.14397263469219 0.193391508887619 -0.235582065004749 0.865436441411136 0.298409770153778
c54 3.51658474508126 0.125045876946674 -0.307239809309394 0.157717241727793 0.136198453983159 -0.0354186080213645 0.0568261360914532 -0.0621457429188156 0.0438039566285989 0.0119961067018402 0.0246087881229356 -0.19731693768128 0.259165836519279 -0.0259446998861632 0.135548762811709 -0.0227777561634708 -0.0389260713931207 0.0166570827221843 -0.278310213239736 0.202626236355183 0.0489402184147043 -0.0805988735276288 0.172763142026779 -0.0395602345054356 -0.0262747833965955 0.143972634692074 0.19339150888773 -0.235582065004755 0.865436441411291 0.298409770153676
c55 3.51658474508126 0.125045876946737 -0.307239809309433 0.157717241727704 0.13619845398313 -0.035418608021235 0.056826136091376 -0.0621457429187555 0.0438039566286748 0.0119961067017793 0.0246087881228193 -0.197316937681041 0.259165836519304 -0.0259446998861431 0.135548762811437 -0.0227777561639377 -0.0389260713931985 0.0166570827218592 -0.278310213239638 0.202626236355217 0.0489402184147661 -0.0805988735281748 0.172763142027069 -0.0395602345065244 -0.0262747833964934 0.143972634692582 0.193391508887674 -0.235582065004712 0.86543644141092 0.298409770153914
c56 3.50613385921006 -0.0959448473582805 -0.0689556676090752 0.318213851631376 0.238653804176722 -0.0272378630619069 0.0913610018790892 -0.0646278991517555 0.0241370415606184 -0.0062277906773888 0.0504951805022475 -0.183984576512575 0.254756395024371 -0.012764035750121 0.113188901076205 -0.0294942425970559 -0.0742330080468021 0.0416717729485403 -0.276881314965429 0.226943611935177 0.109746465844612 -0.067397653259383 0.263850645077421 0.0871197938368012 -0.182692728447412 0.0547134861149536 0.154856922095229 -0.342327451966009 0.997711991866829 0.118604895259876
c57 3.51658474508126 0.125045876946711 -0.307239809309444 0.157717241727724 0.136198453983133 -0.0354186080213006 0.0568261360914158 -0.0621457429187855 0.0438039566287165 0.0119961067017505 0.0246087881228651 -0.197316937681145 0.259165836519305 -0.0259446998861425 0.135548762811498 -0.0227777561638563 -0.0389260713932055 0.0166570827219984 -0.278310213239697 0.202626236355244 0.0489402184147818 -0.0805988735279917 0.172763142026915 -0.0395602345060629 -0.0262747833964596 0.143972634692456 0.193391508887743 -0.235582065004743 0.865436441411116 0.298409770153754
c58 3.44715449905744 -0.549511886862081 -0.132406038543548 -0.869447386373835 -1.0927989127932 -0.704681769765436 -0.0665777352864655 -0.0881562235282946 -0.296304756423297 0.135396629638704 -0.0812018862205836 0.265348898383799 -0.235256521657857 0.393626813952656 0.101644681954373 0.208134209782039 -0.0692523700141211 0.0243858104082994 0.246969453797664 0.21394080472793 0.516425786123991 -0.019641926798903 0.0113420428722314 0.0803739324379539 0.473340222953409 -0.213093590077824 -0.708178249107901 0.258884341234439 0.296336155896054 0.251771264715047
c59 3.51540972187643 0.106806442606171 -0.294347365115118 0.0960083118686001 0.101852978408983 -0.0882573869216801 0.101665428666413 -0.214682081441056 -0.215342287025392 -0.0487941371640389 -0.00369935645271483 -0.0134463665289276 -0.0299982149051448 0.410363421279564 0.049955089961871 0.0735276423916661 -0.019350365470893 0.0059416728684667 0.0346150523230396 0.150252598755771 0.451087893738159 -0.0899852591116198 -0.0683633756203465 0.00740796841084573 -0.124667272265853 -0.150420382606549 0.105760086716009 -0.0182865771324613 0.0850448075507246 0.217087477762035
c60 3.48581731275495 -0.32491643443336 0.17331847209824 0.272833277284146 0.254133943988916 -0.0946451806682967 0.186045800347442 -0.269949015854882 -0.229123427463102 -0.152637263716236 0.151955753761978 0.0059793926466425 -0.285449284792128 0.58570647714552 -0.0686168829488021 0.348012066809902 0.00211645604066976 -0.00363316382722666 0.270298951481178 0.395404132144021 1.40220228501123 -0.272353984061545 -0.25099207221691 -0.0153369425960364 -0.54933938765927 -0.376018288674061 0.442304775844307 0.102768353091258 -0.0465170819668307 0.391735906550968
c61 3.49178684898182 0.242159103721405 -0.372016017364156 0.115021096160141 0.221807105078022 -0.190871758860929 0.35210391401602 -0.907708210692074 -1.37550596818436 -0.229133455376932 -0.267910783935964 0.473367616432753 -0.481684959178555 2.07575706316537 0.0147526458366009 -0.127600251599454 0.0614465667640452 -0.0163294028567227 0.157736052281516 -0.202860461737285 -0.11523978932374 0.0544602128601453 -0.0430168933689758 0.0426420904602466 -0.0313147108491143 -0.0433463396997089 -0.0287020675268182 -0.00614285934231943 -0.123877053705653 -0.23198782236066
c62 3.5212254464824 0.11609767667533 -0.284371748366684 0.14283085943718 0.119595499175561 -0.0297941656723895 0.0440816677099063 -0.0481146305611898 0.0330213014011613 0.00978799912245789 0.0165413423781178 -0.131897794178468 0.16174523938575 -0.0164428024673412 0.0835542579792164 -0.0113322874146772 -0.0154830007574415 0.00474677666581478 -0.115895463823584 0.0743654536648058 0.0101844246937126 -0.0246292750418488 0.0318591269561281 -0.0272150541894347 0.0200306652028034 0.0410835684946523 0.0348375929690669 -0.0120082086231019 0.0673069566445743 0.0502276505559157
c63 3.51568842879036 0.109773710084208 -0.293157227783912 0.179764142951436 0.157965628012549 -0.0354306262937676 0.0721547914247631 -0.0664895205600405 0.0356894593054859 0.00608042263039113 0.0359788974188576 -0.223723748479327 0.299280012772598 -0.0276741011358255 0.158574543484598 -0.0392185852605685 -0.081756196242593 0.0316016675304619 -0.467296329549053 0.371482194094146 0.0776488472753331 0.0109778274735267 1.33984950202611 0.494944043977626 -0.771637591845944 -0.169331920787743 -0.502200047976984 0.315480344205983 -0.658256065774856 0.0266360794304049
c64 3.47274921511901 -0.696178988174833 0.576676430914186 0.745238020185457 0.54136331427464 0.00812331333447576 0.172012298857353 -0.0535081243570657 -0.0572225909388568 -0.00567630234478568 0.0759727097030596 -0.180549411565612 0.25258640005781 -0.0186608599511201 0.12408549626952 -0.0796449320339993 -0.270294283072643 0.102320746375993 -0.453561823767194 0.451101241290019 0.0471200755604451 0.255672060138551 1.65074947215571 0.737614376289411 -0.532441444980559 -0.38340692383664 -0.388764201632294 -0.0501045251691301 -0.646259161376331 -0.276318926466764
c65 3.51568842879036 0.109773710084228 -0.293157227783967 0.179764142951394 0.157965628012561 -0.0354306262936856 0.0721547914247668 -0.0664895205599085 0.0356894593056225 0.00608042263033878 0.0359788974187784 -0.223723748479252 0.299280012772565 -0.0276741011357983 0.158574543484401 -0.0392185852609371 -0.081756196242563 0.0316016675302501 -0.467296329549034 0.371482194094194 0.0776488472753966 0.0109778274731187 1.33984950202617 0.494944043977108 -0.771637591845814 -0.169331920787499 -0.502200047976884 0.315480344205963 -0.658256065775118 0.0266360794305621
c66 3.51568842879036 0.109773710084224 -0.293157227783936 0.179764142951403 0.157965628012554 -0.0354306262936947 0.0721547914247426 -0.0664895205599587 0.0356894593055506 0.00608042263034456 0.0359788974188424 -0.223723748479214 0.299280012772543 -0.027674101135839 0.158574543484345 -0.0392185852608093 -0.081756196242555 0.0316016675302474 -0.467296329548966 0.371482194094157 0.0776488472754057 0.0109778274731969 1.33984950202625 0.494944043977136 -0.771637591845941 -0.169331920787566 -0.502200047976987 0.315480344205988 -0.658256065775141 0.026636079430476
c67 3.51568842879036 0.1097737100842 -0.293157227783935 0.179764142951406 0.157965628012544 -0.0354306262937205 0.0721547914247431 -0.0664895205599456 0.0356894593055461 0.0060804226303884 0.0359788974188691 -0.223723748479249 0.299280012772561 -0.0276741011358404 0.158574543484399 -0.0392185852607535 -0.0817561962425095 0.0316016675302524 -0.467296329549048 0.371482194094149 0.0776488472753998 0.0109778274732861 1.33984950202608 0.494944043977367 -0.771637591845857 -0.169331920787675 -0.502200047977001 0.315480344205934 -0.658256065775017 0.0266360794305016
c68 3.45161174191612 -1.07875843006027 0.982661102185235 1.04167235233183 0.717256589892436 -0.0132009518513175 0.229222986616906 -0.0612450697383828 -0.0795210197262324 -0.100287068160973 0.132396992166478 -0.191765869078264 0.239812505252106 0.00336648854932925 0.118132145931838 -0.0434974524060345 -0.016567207045831 0.00395665450586302 -0.464775162683148 0.306431745409776 0.127107842887815 -0.0520003215205509 1.21676520041808 0.532307448385121 -1.07139502217189 -0.136882127927118 -0.518077316950416 0.537201685626 -0.507856783387785 0.0485340857805555
c69 3.49469060562231 -0.319787010399306 0.2152583704495 0.423138716251239 0.331541675952204 0.0355610121865363 0.121855119548929 -0.0535406942990295 0.00457134503002937 -0.0984321983636793 0.0230892718098186 -0.218834430637272 0.104185876563954 0.0233090948283768 -0.00165731976370133 0.206315165675616 -0.223530283425501 0.0598760847128505 -0.0128063082644918 0.257782461425716 0.494749816593069 -0.00146663504134999 0.168335329290473 -0.278355358843742 0.677061788516679 0.0399061855170822 -0.0389636085249636 0.264794523583089 -0.052405430291699 -0.935905365359431
c70 3.50618334824416 0.0600617690467987 -0.355071564295929 0.0777763449069495 0.147277405922866 -0.0230525757618014 0.0701215254707027 -0.0773702498316249 0.0503825121751141 0.0140947031715657 0.0277421844759837 -0.545689015456542 0.759519774588725 -0.076194277877768 -0.0143756017424043 -0.603332353160857 1.52208843374254 0.649188265764969 1.10098664256186 -0.161821950478806 0.244614385243465 0.80648839069236 -0.173748328031396 0.27349667288662 0.117487378234971 -0.251279906308094 -0.100419023969272 -0.0621271325104768 -0.481666999614391 -0.319865232688164
c71 3.51337634791482 0.046639181775555 -0.319195035318375 0.060897613705841 0.1604071240011 -0.0644958903093519 0.0638091800774168 -0.063823056104411 0.0429641569088663 0.00279553779457126 0.00798806212150093 -0.312204320865943 0.578669917351361 -0.07076598699004 0.208731816271799 -0.325672148822291 1.14463655098333 0.470559065138571 0.920661731314226 -0.170033240687554 0.0901935991957191 -0.389779614191042 0.304054140236809 0.0622521586111379 0.18156651111575 0.00983334468182231 0.0388634996780212 -0.223622134386235 0.0400084574783194 -0.127621601734099
c72 3.51337634791482 0.0466391817755812 -0.319195035318397 0.0608976137058304 0.160407124001083 -0.0644958903094176 0.0638091800774313 -0.0638230561044243 0.0429641569088124 0.00279553779459033 0.00798806212147177 -0.31220432086598 0.578669917351387 -0.0707659869900169 0.208731816271831 -0.325672148822269 1.14463655098331 0.470559065138482 0.920661731314239 -0.17003324068755 0.0901935991957122 -0.389779614190973 0.304054140236796 0.0622521586112918 0.181566511115775 0.00983334468185946 0.0388634996778883 -0.223622134386276 0.0400084574783642 -0.127621601734095
c73 3.51337634791482 0.0466391817755613 -0.31919503531839 0.0608976137058385 0.160407124001081 -0.0644958903093495 0.0638091800774572 -0.0638230561044544 0.0429641569087892 0.00279553779458732 0.00798806212145861 -0.312204320865957 0.578669917351367 -0.0707659869900024 0.208731816271809 -0.325672148822368 1.14463655098332 0.470559065138472 0.920661731314294 -0.17003324068752 0.0901935991957462 -0.389779614191222 0.304054140236878 0.0622521586109293 0.181566511115686 0.00983334468194331 0.0388634996778858 -0.223622134386366 0.0400084574781656 -0.127621601733956
c74 3.43673187532313 -1.34088929054958 0.472552039171673 -0.417440859177557 0.397197438083318 -0.112898445894303 0.0482631031774074 0.0282641249662815 -0.0688158559067715 -0.0748456960571564 -0.0395461757243249 -0.0949521080376773 0.374515265904759 -0.0663467664663355 0.103978695822744 -0.317252965733742 1.20254376305714 0.314341478743527 0.887272449131309 -0.237719359205876 -0.193754880312564 -0.414699762903748 0.0748918951144332 0.0078169530397741 0.315732578012188 -0.183745034091443 0.0960815677683361 0.168037156113811 -0.210423979176081 0.597178277496711
c75 3.51337634791482 0.0466391817755773 -0.319195035318397 0.0608976137058206 0.160407124001062 -0.064495890309331 0.0638091800774298 -0.0638230561044458 0.0429641569088123 0.00279553779452367 0.00798806212150888 -0.312204320866011 0.57866991735138 -0.0707659869900429 0.208731816271883 -0.325672148822331 1.14463655098336 0.47055906513848 0.92066173131433 -0.170033240687531 0.0901935991957077 -0.389779614191159 0.304054140236866 0.0622521586110791 0.181566511115785 0.0098333446818189 0.0388634996780138 -0.223622134386359 0.0400084574783132 -0.127621601734171
c76 3.51337634791482 0.0466391817755569 -0.31919503531838 0.060897613705821 0.160407124001073 -0.0644958903094198 0.0638091800774494 -0.0638230561044511 0.0429641569087917 0.00279553779454225 0.0079880621214831 -0.312204320866021 0.578669917351394 -0.0707659869900641 0.208731816271818 -0.325672148822216 1.14463655098338 0.470559065138451 0.920661731314331 -0.170033240687557 0.0901935991957124 -0.389779614191083 0.304054140236861 0.0622521586111847 0.181566511115804 0.00983334468179151 0.0388634996778639 -0.223622134386326 0.0400084574783416 -0.1276216017341
c77 3.47208994907216 -0.732030432297825 0.530928529966083 0.636554706158625 0.536393688577485 -0.0905478118490722 0.167830589280749 -0.0569976792116156 -0.04088868471384 -0.0629487045874363 0.0699333696871521 -0.291916707496676 0.614351122710562 -0.0654905085123532 0.221323391496964 -0.301970559255879 1.3437394025908 0.38840949423425 0.823479722008875 -0.37385677295577 0.0671035542671033 -0.483827463817053 -0.0333690722783782 -0.0627412406648609 -0.512591160682807 0.19704759933425 -0.227684673717261 0.139873558678578 0.377689324064973 -0.283749495328484
c78 3.51337634791482 0.0466391817755563 -0.319195035318356 0.0608976137058517 0.160407124001082 -0.064495890309409 0.0638091800774528 -0.0638230561044808 0.0429641569087676 0.00279553779459271 0.00798806212145774 -0.312204320865987 0.578669917351367 -0.0707659869900892 0.208731816271939 -0.325672148822226 1.14463655098335 0.470559065138617 0.920661731314269 -0.170033240687499 0.0901935991956664 -0.389779614190899 0.30405414023663 0.0622521586113796 0.181566511115694 0.00983334468182091 0.0388634996779656 -0.223622134386155 0.0400084574784198 -0.12762160173428
c79 3.49648500121942 -0.291927414405361 0.161396132623346 0.456969987067941 0.316357314034407 -0.0446567963023768 0.117301124880627 -0.0542097286406763 -0.00408379788760571 -0.0113162513093496 0.0449044186412683 -0.158600457822961 0.207749899381315 -0.0177797375355211 0.110083295607922 0.021809927159351 0.074906605985725 -0.0354072709902911 -0.191353898018273 0.0209614333481919 -0.0129014987451669 -0.0724786690337797 -0.231706269060375 -0.199504607294743 -0.272087735902328 0.285604042104609 -0.00250618464388143 0.283020182051819 0.470966445482366 0.0253475568676776
c80 3.51755237431014 0.120811258341037 -0.298768307829437 0.155469528793174 0.133002272538206 -0.0341572371708481 0.0540464191847405 -0.0573601267057619 0.0389309069198065 0.010856379530309 0.0220120144937153 -0.173057979034835 0.221116362752216 -0.0228278603245676 0.11634630020304 -0.0132448311821991 -0.0128433432506179 0.00278874987850688 -0.19825748336079 0.116391871810024 0.0113179323578654 -0.0557374229250349 0.00208132307363867 -0.0925414800233129 -0.0340669538817587 0.147973280054281 0.063443832905261 0.0604856535288916 0.279697534324363 0.110564589382255
c81 3.51755237431014 0.12081125834104 -0.298768307829431 0.155469528793154 0.133002272538241 -0.0341572371708707 0.0540464191847747 -0.0573601267057894 0.038930906919836 0.010856379530261 0.0220120144936751 -0.173057979034852 0.221116362752255 -0.0228278603246029 0.116346300203121 -0.0132448311821429 -0.0128433432506051 0.0027887498785857 -0.198257483360815 0.116391871810026 0.0113179323577688 -0.0557374229249914 0.00208132307366012 -0.0925414800231335 -0.0340669538817383 0.147973280054251 0.0634438329052795 0.0604856535288932 0.279697534324348 0.110564589382263
c82 3.51755237431014 0.120811258341065 -0.298768307829473 0.155469528793098 0.133002272538193 -0.0341572371708644 0.0540464191847909 -0.0573601267057049 0.0389309069198802 0.0108563795302744 0.022012014493674 -0.173057979034777 0.221116362752182 -0.0228278603245671 0.11634630020291 -0.0132448311824377 -0.0128433432506636 0.00278874987836884 -0.198257483360719 0.116391871810043 0.0113179323578703 -0.0557374229253071 0.00208132307368905 -0.0925414800237276 -0.0340669538816585 0.147973280054569 0.0634438329052774 0.0604856535288448 0.279697534324158 0.110564589382364
c83 3.49501206172451 0.097552211903453 -0.228937942069903 -0.013806735772728 -0.0271269741899612 0.107303363619732 0.139541595810983 -0.196781856848764 0.616960892870525 -0.147761725495566 -0.442167866660206 -0.838489900676249 -1.67137938302147 -0.154124870438431 0.800766879004071 -0.309976224279855 0.0469609552683962 0.0298803428355816 0.29669138201557 0.24986534222245 -0.339655781227386 0.0447690064707792 -0.0495419076515757 0.00490652220584945 -0.195065184292992 -0.000606495944877389 -0.0400513339666469 -0.0636034741489392 -0.042696301476852 -0.181503366764642
c84 3.30472713284725 -0.932141331639352 1.67261142106625 -0.70812012206368 -1.5401426622747 0.586970719914717 -0.0478659532526473 -0.0406572693454943 0.481175064443947 -0.936879435753495 -0.39064681651049 -0.34501833713542 -1.40988635206402 0.348365839681972 -1.09074496178458 1.61436910636983 0.0957846782158073 -0.021517878347281 0.913307937758661 0.0297195671230152 0.783590276000081 -0.0963181441687189 -0.234497967598409 0.0129007013283182 0.220203369971501 0.277508037127959 -0.418393944619189 0.44853649234464 -0.307288248194637 -0.526870417139289
c85 3.49231363217414 -0.165464423031318 -0.0214072870547847 0.172381604827974 0.0370093144995915 0.0785625024229826 0.117566316956811 -0.151978094380108 0.442749165856144 -0.108979041588211 -0.311760330914063 -0.431740784728931 -1.04895124298037 -0.0438318638639673 0.339445610508555 -0.0437563615065612 0.0809259067766344 -0.0141629905748269 0.376237972151668 0.504799639581352 -0.0801803532661085 0.0244958970848673 0.0216143606928846 0.26555967618777 -0.217035612704822 0.908737220487826 -0.21711434471541 -0.153619601124173 -0.421868827817851 0.348617858592021
c86 3.50979418240129 0.0643968368622371 -0.276905904949771 0.0629842336605052 0.0682746932282064 0.0362615670585783 0.111962036623479 -0.148763192373389 0.388508577189535 0.0120215346131228 -0.263349990326453 -0.371723885016835 -0.751139681724832 -0.0505730756096276 0.30968230321033 -0.0239531547753945 0.0154654258105826 0.0104306898808088 0.251841712855123 0.329754683109031 -0.163213728876376 0.0411291195149199 -0.0830101789791106 0.170338678616129 -0.16515126184136 0.663357629336897 -0.224389994548012 -0.35387347929954 -0.132269197474269 0.0731930943291009
c87 3.50979418240129 0.0643968368622411 -0.27690590494979 0.0629842336604613 0.0682746932281458 0.0362615670586163 0.111962036623455 -0.148763192373314 0.388508577189638 0.012021534613122 -0.263349990326511 -0.371723885016715 -0.751139681724842 -0.0505730756095692 0.309682303210069 -0.0239531547756276 0.0154654258107226 0.0104306898805196 0.251841712855195 0.329754683108993 -0.163213728876403 0.0411291195146695 -0.083010178978842 0.170338678615567 -0.165151261841386 0.663357629337051 -0.224389994548047 -0.353873479299534 -0.132269197474481 0.0731930943292057
c88 3.5097941824013 0.0643968368622856 -0.276905904949792 0.0629842336604388 0.0682746932281648 0.036261567058615 0.111962036623406 -0.148763192373349 0.38850857718962 0.0120215346130202 -0.263349990326458 -0.371723885016694 -0.751139681724875 -0.0505730756096935 0.309682303210113 -0.0239531547756179 0.015465425810589 0.0104306898805391 0.251841712855122 0.329754683108932 -0.163213728876329 0.0411291195147002 -0.0830101789788777 0.17033867861559 -0.165151261841279 0.663357629337046 -0.22438999454799 -0.353873479299686 -0.132269197474553 0.0731930943293271
c89 3.5097941824013 0.0643968368622396 -0.27690590494978 0.0629842336604975 0.0682746932282183 0.0362615670585874 0.111962036623429 -0.148763192373467 0.388508577189535 0.0120215346131283 -0.263349990326419 -0.371723885016751 -0.751139681724856 -0.0505730756096132 0.309682303210249 -0.0239531547753686 0.0154654258106332 0.0104306898807147 0.251841712855054 0.329754683108933 -0.163213728876396 0.041129119514877 -0.0830101789789987 0.170338678615997 -0.165151261841273 0.663357629336858 -0.224389994547903 -0.353873479299516 -0.132269197474373 0.0731930943289567
c90 3.449654867156 -1.03581998743088 0.194155495982086 -0.592508715730262 0.196320334250409 -0.000974584130319598 0.109877149625413 -0.08029055989721 0.316830413723032 -0.062822832062775 -0.278338638345308 -0.160078392280749 -0.803244930104275 -0.0553118064306816 0.192084286002274 -0.149697615866462 0.00202210401346116 -0.00392649254866664 0.241897176810107 0.20035625124575 -0.398944593843721 0.116237331810398 -0.163018339200048 0.163371697175322 -0.105225886503069 0.412233591713278 -0.0187643315818009 -0.451257499131999 -0.120808246312954 0.263752118843571
c91 3.51439901391401 0.0897940342198984 -0.285263972671545 0.172659781816986 0.0391670265062924 0.260627677432337 0.0258384513122226 -0.0179343630791665 -0.095577200876186 0.139789010789353 0.111902131562952 -0.273894011851357 0.228140694540502 -0.016877058626627 0.0814257302189905 -0.0400802354145252 -0.0096914971909965 -0.0193771623758661 -0.37259999894847 0.131629963966596 0.0718628412431266 -0.346989375404734 -0.142054759247406 -1.23458241740487 0.0165325474736218 -0.121541445139412 -0.604062769079276 -0.913226016831657 -0.625046139471182 0.11865771748377
c92 3.44975014752223 -1.12365540828764 1.01041435931592 1.02732047340372 0.626176940190388 0.323673900067704 0.196732659410132 -0.0113507710397694 -0.213660206651433 0.0204854333073149 0.185942372768649 -0.263417453948146 0.171732582272532 0.00838145869059262 0.0206924385942817 -0.0380419285940603 -0.0762700624408428 0.00278271033568759 -0.360597593464267 0.0571226849929239 0.0529001315830065 -0.253260486477297 -0.219065246635007 -1.2223489048161 0.0692202602642927 -0.357976618295357 -0.63057071100347 -0.961402940384695 -0.447448140436015 -0.14602367988166
c93 3.51439901391401 0.089794034219912 -0.285263972671573 0.172659781816948 0.0391670265062882 0.260627677432417 0.0258384513121334 -0.0179343630790986 -0.0955772008761226 0.139789010789255 0.111902131562916 -0.273894011851202 0.22814069454051 -0.0168770586266779 0.0814257302189084 -0.0400802354147449 -0.00969149719111936 -0.019377162375997 -0.372599998948436 0.131629963966557 0.071862841243144 -0.346989375405007 -0.142054759247341 -1.23458241740514 0.0165325474736792 -0.121541445139195 -0.604062769079301 -0.913226016831631 -0.625046139471202 0.118657717483773
c94 3.51439901391401 0.0897940342199323 -0.285263972671567 0.17265978181696 0.039167026506257 0.260627677432412 0.0258384513121277 -0.0179343630791324 -0.0955772008761359 0.139789010789268 0.111902131562923 -0.273894011851246 0.228140694540495 -0.0168770586266525 0.0814257302188212 -0.0400802354146853 -0.00969149719111751 -0.0193771623759437 -0.372599998948492 0.131629963966559 0.0718628412431883 -0.346989375405004 -0.142054759247274 -1.23458241740531 0.0165325474736222 -0.121541445139118 -0.604062769079318 -0.913226016831753 -0.625046139471298 0.118657717483851
c95 3.51439901391401 0.0897940342198987 -0.285263972671585 0.172659781816927 0.039167026506257 0.260627677432444 0.0258384513121393 -0.0179343630791416 -0.0955772008760927 0.139789010789256 0.11190213156288 -0.273894011851207 0.228140694540465 -0.0168770586266282 0.0814257302187502 -0.0400802354148261 -0.00969149719105099 -0.0193771623761259 -0.372599998948395 0.131629963966567 0.0718628412432102 -0.346989375405213 -0.142054759247309 -1.23458241740549 0.0165325474736666 -0.121541445139141 -0.604062769079347 -0.913226016831701 -0.625046139471314 0.118657717483897
c96 3.46276130907412 -0.869225294789854 0.749650073391661 0.856958825614181 0.477311209084248 0.280176539699557 0.157091271406815 -0.00649723909237142 -0.199558876203913 0.0256585914650742 0.165446037161168 -0.290263321758283 0.151801192337159 -0.000724018326013287 0.0928702943331427 0.0198332909758568 0.125887310682285 -0.104985748439639 -0.404421016123078 0.0744724015034873 0.166342639762011 -0.448366445739589 -0.357107837299178 -1.65039300318572 0.0709407114496284 -0.0973139867593904 -0.637620603709272 -0.425188314561627 -0.791443970208129 0.0706039437469429
c97 3.49005350017958 -0.0151966663261338 -0.23185565344835 0.0744999588346382 -0.544856172889542 1.2495474208668 -0.123240985615492 0.114675251737487 -0.376773512303617 0.43576978358697 0.251989088920529 -0.265402338030735 0.0794223543901879 0.000696090760447411 -0.0379285299499489 -0.0575795887288488 0.00748086206866124 -0.0342767095882535 -0.25105546013849 0.0253160319058036 0.0412182049839808 -0.31725145070623 -0.114963600869875 -0.972076498261951 -0.0786941583772977 -0.0891526249989076 -0.465781400994179 -0.684389778856284 -0.480023638633502 0.0582720053245329
c98 3.42414344170524 0.601906801967327 0.732625792016994 -0.304061296722046 -1.58708443856944 0.780731718757274 -0.206773894581559 0.100122998204821 0.14749647790453 -0.145172602343317 -0.185476180746973 0.818734435504636 -0.0283257986758564 -0.0246509067532032 0.0682789938723531 -0.0621469653690064 0.0213612963983186 0.00739966552155481 0.179346577680479 -0.147170996273188 -0.108833597082049 0.0579561791463434 -0.00422691745675435 0.0111597034923464 -0.138962151947219 -0.0519493713829991 -0.036693778901789 -0.0884391085211913 -0.0349083199706065 -0.136363405194045
c99 3.47397587376074 -0.374489956958222 0.168826590374994 0.309820719614673 -0.368571277652722 1.1790404131799 -0.0713203605231703 0.109368129697593 -0.344548558077469 0.306200515785691 0.217083802098614 -0.170114914254415 -0.0858101621425215 0.00654500307581904 -0.053621750627066 -0.0630583126063139 0.0982160565334096 -0.0531675266791643 0.026044746559351 -0.018677154603481 -0.159303305656028 -0.121551823712152 -0.0780276810532567 -0.0424182349936523 0.0792059462787415 -0.177272459070386 0.170190109071697 0.289764579657563 0.0545783737193861 0.530183717036768
c100 3.49572696531281 -0.00170801923595575 -0.225732168779327 0.0454210085375928 -0.518045690304273 1.09274733419636 -0.121344928256249 0.102743648944598 -0.301350657720351 0.35960955921563 0.18947539297928 -0.150272951465656 0.00875257351807461 0.00314399795908014 -0.0507873534338585 -0.0375784035887944 0.00520744396035393 -0.0160780390828377 -0.0239397638655489 -0.0366437965249869 -0.0141370643048207 -0.0458913929581011 0.0303918205897422 0.0586205202966065 -0.0873409040981372 0.045114818368162 0.0822720891310783 0.0892529864835457 0.105204341936184 -0.00699891216575257
c101 3.49289501497796 -0.00243500253363431 -0.231719259927758 0.0529553217451715 -0.527136862982422 1.14565820311929 -0.125138186239258 0.108585276498589 -0.32607600938561 0.386059776131451 0.208062484025794 -0.173508537375134 0.0072477863404942 0.00289393740754679 -0.0546928906587621 -0.0473760525037767 0.0174201385706089 -0.0236347305345165 -0.0258270958138729 -0.0375600212530844 -0.0445941214658255 -0.0742817297522248 0.0184009213015521 0.0519988704918581 -0.0771447487956208 0.0102603966982923 0.131730592234451 0.16676514195025 0.133665818670881 0.137153373923422
c102 3.49572696531281 -0.00170801923595392 -0.225732168779347 0.0454210085375274 -0.51804569030422 1.09274733419642 -0.121344928256251 0.102743648944601 -0.301350657720316 0.359609559215546 0.189475392979302 -0.150272951465662 0.00875257351798915 0.00314399795907686 -0.0507873534338905 -0.0375784035887543 0.00520744396045545 -0.0160780390829733 -0.0239397638653763 -0.0366437965250658 -0.0141370643048077 -0.0458913929583333 0.0303918205897018 0.0586205202963329 -0.0873409040983149 0.0451148183682154 0.0822720891311287 0.0892529864834276 0.10520434193607 -0.00699891216573907
c103 3.49162046286228 -0.00440767790383547 -0.22164512930892 0.0410227381829362 -0.591184077130624 1.18446908384792 -0.123034731878533 0.0903439729019093 -0.208499665696632 0.17043098919798 0.125439164613858 -0.123180363544396 -0.124449501333873 -0.00313177982906131 0.018798238039151 -0.0585774894757801 0.005470004234799 -0.0138650570070875 0.0480059614413091 0.0198141561571488 -0.00840582897692096 -0.0344210325984745 0.0319450517701132 0.0849607507843713 -0.124391029212229 0.133903120530637 0.0161292491408276 0.0588665879209829 0.0754412301463988 -0.0365223083613518
c104 3.49572696531281 -0.00170801923596003 -0.225732168779352 0.0454210085375562 -0.518045690304229 1.09274733419645 -0.121344928256294 0.102743648944649 -0.301350657720266 0.359609559215562 0.189475392979267 -0.150272951465582 0.00875257351806975 0.00314399795904448 -0.050787353433868 -0.0375784035887802 0.00520744396034718 -0.0160780390829326 -0.0239397638654243 -0.036643796525009 -0.0141370643046725 -0.045891392958352 0.0303918205898605 0.0586205202964136 -0.0873409040982874 0.045114818368097 0.0822720891310393 0.0892529864834222 0.105204341936114 -0.00699891216567955
c105 3.48789933844516 0.0131364612339664 -0.265096855783561 0.0636690034699984 -0.522762603775112 1.11295046218068 -0.109498823845164 0.083189235641762 -0.281757250308305 0.359362245474083 0.204018787021514 -0.406853033219693 0.233971317629409 -0.00701614927894797 -0.270945395345545 -0.352754872070783 0.493333819345658 0.21300026961842 0.249879238128885 -0.0385810851153543 0.161863829203036 1.20145196849334 -0.45292521185495 0.285030623935054 -0.12575377615983 -0.238211694491536 -0.0725492808254846 0.223223785754004 -0.46143681286693 -0.228922401567379
c106 3.49572696531281 -0.00170801923597155 -0.225732168779317 0.0454210085375705 -0.518045690304229 1.09274733419631 -0.121344928256234 0.102743648944481 -0.301350657720362 0.359609559215605 0.18947539297928 -0.150272951465816 0.00875257351800233 0.00314399795902677 -0.0507873534337046 -0.037578403588653 0.00520744396033042 -0.0160780390827793 -0.023939763865434 -0.036643796524994 -0.0141370643048597 -0.0458913929581918 0.0303918205896393 0.0586205202967516 -0.087340904098183 0.0451148183681286 0.0822720891311314 0.0892529864835517 0.105204341936243 -0.00699891216604304
c107 3.49572696531281 -0.00170801923594489 -0.225732168779318 0.0454210085375488 -0.518045690304273 1.09274733419636 -0.121344928256284 0.102743648944543 -0.301350657720342 0.359609559215554 0.189475392979308 -0.150272951465638 0.00875257351800766 0.00314399795907723 -0.0507873534339147 -0.0375784035887176 0.00520744396034748 -0.0160780390828963 -0.0239397638653986 -0.0366437965250517 -0.0141370643047911 -0.0458913929582496 0.0303918205897734 0.0586205202964449 -0.0873409040982824 0.0451148183682133 0.0822720891310773 0.0892529864834803 0.105204341936143 -0.00699891216578684
c108 3.49572696531281 -0.00170801923596423 -0.225732168779283 0.0454210085376042 -0.51804569030422 1.09274733419632 -0.121344928256289 0.102743648944544 -0.301350657720377 0.359609559215612 0.189475392979286 -0.150272951465686 0.00875257351799249 0.00314399795905255 -0.0507873534338966 -0.0375784035888455 0.00520744396044266 -0.0160780390828739 -0.0239397638653133 -0.0366437965248906 -0.0141370643048536 -0.0458913929580818 0.0303918205896577 0.0586205202965732 -0.087340904098258 0.0451148183683222 0.0822720891311148 0.0892529864836084 0.105204341936207 -0.00699891216606427
c109 3.49572696531281 -0.00170801923595173 -0.225732168779287 0.0454210085375827 -0.518045690304243 1.09274733419629 -0.121344928256226 0.102743648944493 -0.301350657720355 0.359609559215622 0.189475392979232 -0.150272951465667 0.00875257351805436 0.00314399795907307 -0.0507873534338207 -0.0375784035888709 0.005207443960438 -0.0160780390829774 -0.0239397638653383 -0.0366437965249867 -0.0141370643048472 -0.045891392958149 0.0303918205897918 0.0586205202963853 -0.0873409040983449 0.0451148183681762 0.0822720891312217 0.0892529864835064 0.105204341936276 -0.00699891216608234
c110 3.44148129551072 -0.589024739827408 -0.100045994673955 -0.816992353205776 -1.46076621925966 0.271475134128087 -0.244041764486809 0.195337196770039 -0.32808521048882 0.515085486488921 0.120603544385634 0.183535362460885 -0.0579305213527472 -0.0343490835866465 0.0354116543455526 -0.0690222111675434 -0.00135126869140253 -0.00601204364220634 0.0489624075034482 -0.115395795569195 -0.148437287585616 0.00580555593427903 -0.00355676605259329 0.0206661804975761 -0.166742954241546 -0.0267611550544286 0.122930725921452 -0.056874471634753 -0.0813801726992104 -0.124053553428723
c111 3.49381870885299 -0.0316186163484728 -0.230330092648368 0.00213448491647371 -0.529607300315885 1.1182144228194 -0.128805959508304 0.110457341724956 -0.315647542067515 0.372828392415746 0.191149178933676 -0.148981678854194 0.0115407681259828 0.00173856967900228 -0.0577070209446147 -0.0434081341219437 -0.00163182248332852 -0.0189864468308058 -0.0328925114539506 -0.0434971622178535 -0.0249455915197883 -0.0422993778839512 0.0358009519228484 0.0619900895311044 -0.0888318619822314 0.0499464780606275 0.109483065060821 0.103398990123239 0.0925503012620727 -0.0156350485526134
c112 3.49572696531281 -0.00170801923599331 -0.225732168779286 0.0454210085376215 -0.51804569030423 1.09274733419631 -0.121344928256279 0.102743648944553 -0.301350657720345 0.359609559215705 0.189475392979295 -0.150272951465746 0.00875257351802949 0.00314399795910919 -0.0507873534339093 -0.0375784035888009 0.00520744396024711 -0.0160780390827605 -0.0239397638653561 -0.036643796524861 -0.0141370643048117 -0.0458913929578986 0.0303918205896632 0.0586205202967644 -0.0873409040980776 0.045114818368279 0.0822720891309747 0.0892529864834761 0.105204341936229 -0.0069989121660557
c113 3.48911373972483 -0.153012763010726 -0.0793070231195309 0.127296675162816 -0.44014529958057 1.11990731046221 -0.107583147739079 0.10885212798397 -0.327966429370114 0.3562231339218 0.192511988153707 -0.1663098873421 -0.00290405508955338 0.00972413145913816 -0.0630301102860926 -0.0247632825123474 -0.192964842914141 0.0778464127288292 0.0345275176012583 -0.0207714379634597 0.0687010867917648 0.0541994194612793 0.188160409124195 0.116658046470392 0.173647526765884 -0.136983334110521 -0.0274645114216616 -0.0859952555702131 0.178546791220528 -0.368131701765155
c114 3.47635846679972 0.0394187088755721 -0.194941651709288 0.089736953879814 -0.843293134075844 1.40862269708452 -0.140500405433923 0.0642342743215078 0.084181988709385 -0.70885873977785 -0.0440341718831843 0.416486976848949 0.223421300302739 -0.0162586860107886 0.130342911756477 -0.113606006750985 0.0178493902919385 -0.0130793765448277 -0.194978290353854 -0.0208706167379741 -0.108743582625877 -0.370295321601212 -0.391664142400771 0.48076210452508 -0.0155183899150498 -0.141822142067151 -0.026630988396268 0.076080315024064 -0.233907699949157 -0.205301117283252
c115 3.42803681845795 -1.04574858623696 0.164593341226725 -0.740872176112568 -0.495580271547601 0.995388521900313 -0.107090656473186 0.105874267350523 -0.145536374153933 0.138917108467548 -0.0540906004736706 -0.303509548254118 -0.725065210313681 0.0220675735367871 0.0167690202579329 0.040416150503442 -0.31152742257826 0.0736280271259693 0.362056179524277 0.224150666290539 0.280349398326255 0.110397373556736 0.279255543230499 0.167038111003647 0.696939376005161 -0.139796208941811 -1.07039753291558 0.0940282303544712 0.397091908402222 -0.60720109526308
c116 3.49572696531281 -0.00170801923597602 -0.225732168779287 0.0454210085376173 -0.518045690304253 1.09274733419634 -0.121344928256235 0.10274364894455 -0.301350657720254 0.359609559215686 0.189475392979266 -0.150272951465817 0.00875257351797888 0.00314399795911763 -0.0507873534340601 -0.0375784035889645 0.0052074439603599 -0.0160780390828976 -0.0239397638654308 -0.0366437965250939 -0.0141370643047411 -0.0458913929581777 0.030391820589583 0.0586205202965969 -0.0873409040983006 0.0451148183680831 0.0822720891311314 0.0892529864834352 0.105204341935916 -0.00699891216572197
c117 3.49572696531281 -0.00170801923597648 -0.225732168779258 0.0454210085376481 -0.518045690304265 1.0927473341963 -0.121344928256223 0.102743648944531 -0.30135065772029 0.359609559215784 0.18947539297928 -0.150272951465837 0.00875257351796571 0.00314399795914373 -0.0507873534340318 -0.0375784035889579 0.00520744396041181 -0.0160780390827428 -0.0239397638654088 -0.0366437965250848 -0.0141370643048493 -0.0458913929580392 0.030391820589448 0.058620520296909 -0.0873409040983716 0.0451148183680741 0.0822720891310612 0.0892529864835582 0.105204341936013 -0.0069989121661126
c118 3.49572696531281 -0.00170801923601142 -0.225732168779248 0.0454210085376881 -0.518045690304241 1.09274733419629 -0.121344928256257 0.102743648944499 -0.301350657720328 0.359609559215801 0.189475392979303 -0.15027295146592 0.00875257351797288 0.00314399795910341 -0.0507873534339061 -0.0375784035889553 0.00520744396032636 -0.0160780390826969 -0.0239397638653722 -0.0366437965250371 -0.0141370643048695 -0.0458913929578562 0.0303918205893312 0.0586205202970934 -0.087340904098282 0.0451148183680863 0.0822720891310236 0.0892529864837301 0.105204341936267 -0.00699891216625337
c119 3.48782390093893 -0.110038569791266 -0.109194596910717 0.138829346387759 -0.476913749178968 1.10302409768677 -0.102506589814905 0.101807723542203 -0.320826301407264 0.378793840278422 0.197326511041721 -0.167145092280277 -0.00452617072578331 0.00523693035196321 -0.0222014193602295 -0.0273054832159932 0.0361446264977912 -0.0359607431861081 -0.0699462888267242 0.0896238615423211 0.0164729352960522 -0.0392026240479253 0.157230162479192 0.033952647084889 0.162144812295141 0.340782100336373 0.49868812349577 0.271275931393913 -0.350247256827451 0.680763988924977
c120 3.46723978101437 -0.569599064983964 0.375362111429871 0.450064951531705 -0.243864484836238 1.11611720272335 -0.0424059039955838 0.104102288343151 -0.340479820741682 0.310170188859774 0.213555903068748 -0.111138541489566 -0.0151657049068552 0.00581574273630218 -0.0699919482837896 -0.0908975758371725 -0.0226955186767958 -0.0112829237489261 -0.0594024906240505 -0.125588491102537 -0.125239166811201 0.000875487305565794 -0.0795764643465653 0.2140066087678 -0.180090622740437 0.0956059389805188 0.134793489961277 -0.0702608156459607 0.221742094576725 -0.0151515934980215
c121 3.41548344072862 -1.50268045359645 0.685512546816685 -0.297883314887102 -0.0936724474517937 0.95480948983726 -0.0553670702662477 0.157893357851114 -0.379661738423622 0.252407842856338 0.136949144310754 0.0631632877390205 -0.0461822078470566 0.0169269693271571 -0.132653877554827 -0.0736952358263926 -0.219172492764379 0.0184234528278411 0.00926112056020593 -0.115876239901723 0.0710190616582059 0.233204943825812 0.151928437647615 0.0694055252908784 0.290801362931047 -0.218436688669274 0.244787578632778 -0.26820713715658 0.0110018051141385 -0.375986732957833
c122 3.46755658896342 -0.55961622946724 0.372183249090587 0.43092580462787 -0.255988339805004 1.11765533771007 -0.0761394142692344 0.119974993363169 -0.363225906041909 0.320333959016331 0.207935979837001 -0.0872540818401605 -0.0485015406219148 0.0112750037413528 -0.0891372503424869 -0.0726342306626485 -0.015859116644767 -0.00281246755158174 0.021207560501431 0.0497653137935998 -0.101745721759138 0.100494200687206 0.206993917603073 0.240843729734301 0.315568437707162 -0.0798567402992109 0.385705818190156 -0.0261608127180502 -0.113651584876406 0.322607915593642
c123 3.49572696531281 -0.0017080192359765 -0.225732168779285 0.0454210085376192 -0.518045690304234 1.0927473341963 -0.121344928256236 0.102743648944514 -0.301350657720252 0.359609559215714 0.189475392979291 -0.150272951465804 0.00875257351796926 0.00314399795911664 -0.050787353433946 -0.0375784035889375 0.00520744396030194 -0.0160780390828651 -0.0239397638654081 -0.0366437965250235 -0.014137064304788 -0.0458913929580887 0.0303918205894121 0.0586205202967139 -0.087340904098363 0.0451148183680761 0.0822720891312678 0.0892529864835726 0.105204341935973 -0.00699891216602757
c124 3.4906328322406 -0.129100165906798 -0.0887771328537809 0.139268059703415 -0.456923344908307 1.09505694470556 -0.0975929943468939 0.0989398009233451 -0.299910709214912 0.328650378797113 0.197431275889182 -0.135694409225756 0.00115730236006051 0.00448034951904871 -0.0582401518069878 -0.0541441291069944 0.0427921172824764 -0.0245871153491601 -0.0416455215826269 -0.0558084403676571 -0.0619032636056298 -0.0774581665390597 -0.031200109892634 0.0866962763013125 -0.212618285062474 0.100953945194711 0.056916374361997 0.119667425175148 0.159433137334696 0.0601193418392294
c125 3.45514831455879 -0.633015177135234 0.41963029640292 0.554199522004319 -0.207698246266793 1.25779916648606 0.0694218020765489 -0.0265531083361622 -0.00894014805140373 0.676992631043287 0.00352294203470722 0.211988458677352 -0.117481337736683 0.043550261707051 -0.253231889641166 -0.0956428254299299 -0.0925111575911115 0.0180737220209125 0.0114487203385807 -0.0862674777513944 -0.0762866489818251 0.101262571738381 0.127430416736837 0.386867861329454 -0.335379735718104 0.0572020706260026 0.113152506064501 -0.431572455500307 0.439090762384999 -0.385186995568849
c126 3.49572696531281 -0.00170801923598709 -0.225732168779292 0.0454210085376281 -0.518045690304271 1.09274733419632 -0.1213449282562 0.102743648944565 -0.30135065772026 0.35960955921572 0.189475392979272 -0.150272951465845 0.00875257351799696 0.00314399795909467 -0.0507873534340731 -0.0375784035889706 0.00520744396039404 -0.0160780390827217 -0.0239397638654194 -0.0366437965250031 -0.0141370643047232 -0.0458913929580776 0.0303918205895269 0.0586205202968647 -0.0873409040982303 0.045114818368068 0.0822720891310079 0.0892529864837163 0.105204341936025 -0.00699891216598293
c127 3.50156377497825 0.144672296394105 -0.421132411535272 0.323493960000164 0.365866847610436 -0.187005772248392 -1.59105737030948 0.369793606635501 -0.0734791339009066 0.00630351794146602 -0.0945820814801326 0.25571720089224 -0.289624368493752 0.025389931760324 -0.130708389658133 0.0360274932011923 0.421350193766655 -0.55480654640075 -0.131281702214386 0.13143528630871 0.0821851834335168 0.0689909490266205 0.105102066076021 0.0447547640218423 0.117535872337682 -0.0634041178445321 0.00479199632270661 -0.213013868546535 0.0600253679828617 -0.23753866150671
c128 3.49954350614191 0.142703327608153 -0.438250424230238 0.361914527791188 0.414062503754402 -0.206417016358678 -1.76266638383964 0.4051520751672 -0.0813069161585069 0.00283686684152881 -0.0953664976141061 0.212468416987952 -0.18946559687591 0.0217188170078198 -0.0890948462260685 0.00052488948758143 -0.507575697547765 0.669986946899151 0.35909811962441 -0.239344617657574 -0.0557035815980357 -0.0484125408523524 -0.131613454717041 -0.0558325232939215 -0.14082057073147 0.0515656331196916 -0.0633781377393981 0.150087612015773 -0.147719962163067 0.0755001337092993
c129 3.50156377497825 0.144672296394074 -0.42113241153525 0.323493960000168 0.365866847610438 -0.187005772248412 -1.59105737030948 0.369793606635485 -0.0734791339009468 0.00630351794142629 -0.0945820814801181 0.255717200892257 -0.289624368493729 0.02538993176023 -0.130708389657945 0.0360274932010866 0.421350193766559 -0.554806546400577 -0.131281702214369 0.131435286308829 0.0821851834336169 0.0689909490267851 0.105102066075991 0.0447547640221009 0.117535872337538 -0.0634041178446088 0.00479199632263612 -0.213013868546471 0.060025367982802 -0.237538661506761
c130 3.50156377497825 0.144672296394095 -0.421132411535242 0.323493960000165 0.365866847610435 -0.187005772248466 -1.59105737030945 0.369793606635517 -0.0734791339009536 0.00630351794144808 -0.0945820814801256 0.255717200892321 -0.289624368493721 0.0253899317602233 -0.130708389657778 0.0360274932011353 0.42135019376654 -0.554806546400595 -0.131281702214405 0.131435286308917 0.0821851834336523 0.0689909490268869 0.105102066075895 0.044754764022213 0.117535872337414 -0.0634041178446291 0.00479199632266443 -0.213013868546531 0.0600253679827425 -0.237538661506659
c131 3.49659209706688 -0.0713396401282395 -0.156655273935058 0.465972370302746 0.41620670918783 -0.187640924427975 -1.34660114206013 0.318348823177413 -0.0910122813519433 0.0106536185309667 -0.0618550805887815 0.20573238496036 -0.257625795753828 0.0213740052224658 -0.0617342071746815 0.0357260721446682 0.356340886736162 -0.357514488623735 -0.069045941416504 0.11903803025495 0.0654221936436245 0.00253648298449056 0.0968022265122798 0.0328698017548443 -0.0867714114407471 0.228219391309689 0.080487861169438 0.199563161345173 -0.239660194030197 0.243674275241103
c132 3.50678692194151 0.133166851238656 -0.392418791210602 0.303569621353329 0.337128147412079 -0.165851174686837 -1.37564115987563 0.315839136241869 -0.0633599036521342 0.00464836080632833 -0.0781207545681065 0.20116126346236 -0.219606637169152 0.0199234075601309 -0.0977565295656279 0.0246210092275829 0.260170190327679 -0.330559537717431 -0.0634237364258659 0.0613878257023095 0.0405141515057457 0.0338319336829655 0.0412560801287881 0.0220749491013446 0.0454450132953137 -0.0255834734581605 -0.0013290313620594 -0.0649805603293735 0.00874455882241795 -0.0642375602918661
c133 3.50678692194151 0.133166851238668 -0.392418791210636 0.303569621353291 0.337128147412076 -0.165851174686749 -1.37564115987566 0.315839136241924 -0.0633599036520372 0.00464836080629588 -0.0781207545681229 0.201161263462469 -0.219606637169156 0.019923407560136 -0.0977565295657952 0.0246210092274665 0.260170190327727 -0.330559537717614 -0.0634237364258188 0.0613878257023244 0.040514151505814 0.0338319336827243 0.0412560801289686 0.0220749491007994 0.0454450132951721 -0.0255834734580045 -0.0013290313621248 -0.0649805603293536 0.00874455882221465 -0.0642375602916678
c134 3.50678692194151 0.13316685123866 -0.392418791210608 0.303569621353306 0.337128147412068 -0.165851174686813 -1.37564115987566 0.31583913624185 -0.0633599036521102 0.0046483608063437 -0.0781207545681432 0.201161263462425 -0.219606637169131 0.019923407560128 -0.0977565295656565 0.0246210092274551 0.260170190327673 -0.330559537717402 -0.0634237364259042 0.0613878257023734 0.0405141515057672 0.0338319336828772 0.0412560801289057 0.0220749491010598 0.0454450132951583 -0.0255834734580909 -0.00132903136222069 -0.0649805603293447 0.0087445588222646 -0.0642375602918239
c135 3.49098878297759 -0.198233840329606 -0.0346902176465884 0.525166289236168 0.493606347817513 -0.147479708264304 -1.36101291987981 0.334522896652323 -0.113074889024651 -0.0214100028412026 -0.0637104895347725 0.254179529509429 -0.236313020494624 0.0198715043297283 -0.120386685501319 -0.00931644617068544 0.321021368893176 -0.335569711850246 -0.00952693058409901 0.0720709644520244 -0.0860772096661512 0.0677175948283978 0.0825097456760162 0.16482909244292 0.250270800437013 -0.193722091240361 0.138107922363879 -0.0534715987063074 -0.0498587726078737 0.323462067684636
c136 3.49098878297759 -0.198233840329633 -0.0346902176467061 0.525166289236147 0.493606347817507 -0.14747970826429 -1.36101291987979 0.334522896652353 -0.113074889024624 -0.0214100028411117 -0.0637104895347626 0.254179529509258 -0.236313020494619 0.019871504329966 -0.120386685501686 -0.00931644617127572 0.321021368892732 -0.335569711850346 -0.00952693058405889 0.0720709644522063 -0.0860772096659905 0.0677175948280628 0.0825097456762034 0.16482909244265 0.250270800437169 -0.193722091240329 0.138107922364147 -0.0534715987057648 -0.0498587726072873 0.323462067684327
c137 3.49169932186683 -0.1787622197267 -0.0582281097298081 0.518325224001074 0.485928406848205 -0.157810223012965 -1.34118676773764 0.323167406929696 -0.102110403198164 -0.0160440282071595 -0.0599381044056445 0.210654099489253 -0.213699891056164 0.0232553250872576 -0.116466707363981 0.0187963794029444 0.227830675429635 -0.317843730662557 -0.0437630345146307 0.0406383906400352 0.02852143619357 0.106419072472398 0.120157872876799 0.0856419367693463 0.0673580300900329 -0.115471714951379 0.0137151323985278 -0.159077198873829 0.0211097956797106 -0.21828300395563
c138 3.50395509063857 0.138791865122355 -0.406110924411323 0.312564411782168 0.34979422449673 -0.17474644243587 -1.46226652660606 0.337042153946241 -0.0670254412165865 0.0053515938609018 -0.0843640499451107 0.22042944054351 -0.243549511371748 0.0216837621447914 -0.108790268694933 0.0283167629030194 0.312284327299211 -0.401633072200652 -0.0847393524277027 0.0827320385129149 0.0517083434306865 0.0425281607957527 0.0574295359788348 0.0270723200470429 0.0620676517623417 -0.0333758197463225 0.000331738183150101 -0.0943429983601675 0.01965711498966 -0.0920565027710696
c139 3.47109844984662 -0.55722187044332 0.348665898014852 0.799546513130821 0.655698749984843 -0.168942595120866 -1.27342115417727 0.322979621849955 -0.139386097795745 -0.0327257670720427 -0.0357131270863602 0.228951793311894 -0.211637946314386 0.0216137879832654 -0.0715976796853165 0.0143008159549297 0.357384287934969 -0.425387753110585 -0.137503875195455 -0.180529466306358 0.0715769862622685 -0.0163356537949482 -0.193508508661802 -0.0982315943725538 -0.354709370435985 0.204900302271411 -0.150156544376853 0.211953916869988 0.14288426287122 -0.225460814186693
c140 3.50678692194151 0.133166851238679 -0.39241879121064 0.303569621353317 0.337128147412085 -0.165851174686809 -1.37564115987564 0.315839136241821 -0.0633599036520983 0.00464836080627327 -0.0781207545681205 0.201161263462499 -0.219606637169121 0.0199234075601309 -0.0977565295656618 0.0246210092274868 0.260170190327459 -0.330559537717404 -0.063423736425867 0.0613878257023154 0.0405141515058065 0.0338319336828228 0.0412560801289288 0.0220749491009807 0.0454450132952108 -0.02558347345802 -0.00132903136218559 -0.0649805603293384 0.0087445588222448 -0.0642375602917546
c141 3.50678692194151 0.133166851238659 -0.392418791210613 0.303569621353315 0.33712814741206 -0.165851174686828 -1.37564115987564 0.315839136241851 -0.0633599036520392 0.00464836080629726 -0.0781207545681321 0.201161263462418 -0.219606637169128 0.0199234075601504 -0.0977565295657351 0.0246210092275056 0.2601701903276 -0.330559537717526 -0.0634237364258353 0.0613878257022938 0.0405141515057628 0.0338319336829393 0.0412560801288511 0.0220749491011096 0.04544501329523 -0.0255834734580074 -0.00132903136205662 -0.0649805603293999 0.00874455882228927 -0.0642375602917646
c142 3.48117156446553 -0.373553188808715 0.152854026494115 0.655616547219539 0.57321439166935 -0.160724511231624 -1.30634805208268 0.323307873375305 -0.119837990728827 -0.050316504119095 -0.0520312869981114 0.190280316650712 -0.234978054816372 0.0232421538452391 -0.11657239488701 0.0518012234113949 0.409868334091073 -0.400481929713012 -0.0848768903145467 -0.0369569994893669 -0.0656426784368886 -0.127762981791998 -0.267272380369333 -0.159421809091679 -0.163052298014746 -0.0551898628308057 -0.204548268831114 0.238014610612705 0.0741544295337816 0.00706164023645374
c143 3.50395509063857 0.138791865122347 -0.406110924411253 0.312564411782245 0.349794224496702 -0.174746442435899 -1.46226652660597 0.337042153946295 -0.0670254412165393 0.00535159386072683 -0.0843640499451037 0.220429440543691 -0.243549511371907 0.0216837621446857 -0.108790268694529 0.0283167629030024 0.312284327299073 -0.401633072200393 -0.0847393524279393 0.0827320385131819 0.0517083434308177 0.0425281607962368 0.0574295359785654 0.0270723200474395 0.062067651761646 -0.0333758197464407 0.000331738183061324 -0.094342998360053 0.0196571149896399 -0.0920565027708417
c144 3.50529523934627 0.174332819743031 -0.414054465389051 0.212171663285901 0.217563082238479 -0.111210827366181 0.281132860462948 -0.686174853117538 -1.04206649181646 -0.171374323209286 -0.234124530494129 0.391586093369354 -0.302738138716428 -1.21532957422082 -0.284933856011266 0.0724847073849246 0.00439048656030102 -0.00389731665252383 0.0923026447256465 -0.0388720391243896 -0.0340667711605582 0.021766517125236 -0.00600889427193072 0.0115503169656901 0.00406003735619305 0.0303339859472906 -0.0373092264767371 -0.019586418636547 -0.0726112377280928 -0.313241248943125
c145 3.50830396565157 0.128397523745622 -0.358413402748359 0.234232182360983 0.185342432786095 0.106957397558127 0.238402102401965 -0.32596531707646 0.793820080024023 0.833749576071835 -0.538683989211488 0.700322403494732 0.0746011622174307 0.0496994186209434 -0.257537671921286 0.033099929384673 0.031675341903356 -0.0112924823904967 -0.0209839920615235 -0.1776773963051 0.0911371443176898 -0.0569482081339423 0.0194599543097859 -0.206334039389545 0.0811261015787732 -0.451599595660626 0.0185703113522432 0.357648257194063 -0.108035681600789 -0.0808374535400799
c146 3.50830396565157 0.12839752374558 -0.358413402748334 0.234232182361014 0.185342432786092 0.106957397558204 0.238402102401945 -0.325965317076429 0.793820080024015 0.833749576071775 -0.538683989211459 0.700322403494733 0.0746011622174931 0.0496994186209406 -0.257537671921204 0.0330999293847817 0.0316753419033932 -0.0112924823905127 -0.0209839920614888 -0.177677396305129 0.0911371443176855 -0.0569482081339612 0.0194599543098441 -0.206334039389383 0.0811261015786887 -0.451599595660658 0.0185703113521966 0.35764825719408 -0.108035681600576 -0.0808374535402293
c147 3.50830396565157 0.128397523745561 -0.358413402748308 0.234232182361037 0.185342432786109 0.106957397558122 0.238402102401975 -0.325965317076451 0.793820080024002 0.833749576071839 -0.538683989211396 0.700322403494582 0.0746011622174562 0.0496994186209112 -0.257537671921214 0.0330999293849496 0.0316753419033381 -0.011292482390334 -0.0209839920615039 -0.177677396305089 0.0911371443176185 -0.0569482081338149 0.0194599543097261 -0.206334039389112 0.0811261015787263 -0.451599595660702 0.0185703113521998 0.357648257194087 -0.108035681600476 -0.0808374535401533
c148 3.50830396565157 0.128397523745588 -0.35841340274833 0.234232182360987 0.185342432786096 0.106957397558108 0.238402102401941 -0.32596531707643 0.793820080023995 0.833749576071775 -0.538683989211369 0.700322403494651 0.074601162217465 0.0496994186209544 -0.257537671921263 0.0330999293848594 0.0316753419033291 -0.0112924823904084 -0.0209839920615249 -0.177677396305087 0.091137144317614 -0.0569482081338854 0.0194599543097404 -0.206334039389284 0.0811261015786818 -0.451599595660655 0.0185703113522708 0.357648257194184 -0.108035681600539 -0.0808374535401435
c149 3.50830396565157 0.128397523745605 -0.358413402748342 0.234232182360999 0.185342432786089 0.106957397558108 0.238402102401996 -0.325965317076402 0.793820080024033 0.833749576071828 -0.538683989211363 0.700322403494636 0.0746011622175186 0.0496994186209058 -0.257537671921191 0.0330999293848324 0.0316753419033024 -0.0112924823903202 -0.0209839920614793 -0.17767739630504 0.0911371443176402 -0.0569482081338454 0.0194599543097371 -0.206334039389206 0.0811261015788237 -0.451599595660677 0.0185703113523153 0.357648257194085 -0.10803568160057 -0.0808374535400932
c150 3.50830396565157 0.128397523745577 -0.358413402748324 0.234232182361007 0.185342432786102 0.106957397558214 0.238402102401917 -0.325965317076439 0.793820080024095 0.833749576071786 -0.538683989211413 0.700322403494797 0.0746011622174481 0.0496994186209151 -0.257537671921311 0.0330999293848025 0.0316753419034295 -0.0112924823905271 -0.0209839920614982 -0.177677396305171 0.0911371443176751 -0.0569482081340535 0.019459954309832 -0.206334039389645 0.0811261015786741 -0.451599595660664 0.0185703113521826 0.357648257194033 -0.108035681600712 -0.0808374535400461
c151 3.50830396565157 0.128397523745612 -0.358413402748358 0.234232182360962 0.185342432786077 0.106957397558141 0.238402102401942 -0.325965317076371 0.793820080024078 0.833749576071745 -0.538683989211422 0.700322403494746 0.0746011622174274 0.0496994186209769 -0.257537671921354 0.0330999293846721 0.0316753419033098 -0.0112924823905276 -0.020983992061459 -0.177677396305122 0.0911371443176529 -0.0569482081340615 0.0194599543097935 -0.20633403938969 0.0811261015788219 -0.451599595660458 0.0185703113523317 0.357648257194071 -0.108035681600671 -0.080837453539966
c152 3.50830396565157 0.128397523745604 -0.358413402748364 0.234232182360982 0.185342432786099 0.106957397558193 0.238402102401929 -0.325965317076356 0.793820080024027 0.833749576071782 -0.538683989211453 0.700322403494763 0.0746011622173773 0.0496994186209515 -0.257537671921296 0.0330999293846664 0.0316753419033809 -0.0112924823906151 -0.0209839920614149 -0.177677396305087 0.0911371443176657 -0.0569482081341539 0.0194599543099627 -0.206334039389733 0.0811261015786691 -0.451599595660559 0.0185703113521821 0.357648257194011 -0.108035681600797 -0.0808374535400475
c153 3.50830396565157 0.128397523745592 -0.358413402748318 0.234232182360975 0.185342432786094 0.106957397558101 0.238402102401971 -0.325965317076412 0.793820080023985 0.833749576071841 -0.538683989211403 0.70032240349468 0.0746011622174071 0.0496994186209496 -0.257537671921226 0.033099929384812 0.031675341903308 -0.0112924823903472 -0.0209839920614958 -0.177677396305059 0.0911371443176333 -0.0569482081338584 0.0194599543098434 -0.206334039389406 0.0811261015787146 -0.451599595660641 0.0185703113523225 0.357648257194169 -0.108035681600581 -0.0808374535400423
c154 3.50830396565157 0.128397523745589 -0.358413402748322 0.234232182361002 0.185342432786074 0.10695739755814 0.238402102401964 -0.325965317076409 0.793820080024068 0.833749576071821 -0.538683989211439 0.700322403494668 0.0746011622174671 0.0496994186209246 -0.257537671921258 0.0330999293847732 0.031675341903418 -0.0112924823904291 -0.0209839920615304 -0.177677396305102 0.0911371443176288 -0.056948208134031 0.0194599543098087 -0.206334039389465 0.0811261015786825 -0.451599595660667 0.018570311352311 0.357648257194021 -0.108035681600553 -0.0808374535400714
c155 3.51183009912525 0.119640545842987 -0.28556934068574 0.123230886446977 0.060165036989771 -0.000953479771657329 0.0637980704056228 -0.0873198850504563 0.133769179350347 -0.125364048022377 -0.0286714042201844 -0.484945163210042 0.118970689166884 0.0565244706988479 -0.127156051102677 1.59716620945084 0.216838729299774 0.064886432505491 -0.0456352226680853 -0.416678106275725 -0.450106961609274 0.153836766661285 0.0788967613716831 0.0856010297333397 -0.0347549303481352 -0.173511724669621 0.129225463633432 -0.169772165883692 -0.0552970533120389 0.0581162279857983
c156 3.51183009912525 0.119640545843013 -0.285569340685746 0.123230886446942 0.0601650369897817 -0.000953479771692396 0.0637980704056331 -0.0873198850504894 0.133769179350329 -0.125364048022431 -0.0286714042201707 -0.484945163209995 0.118970689166941 0.0565244706988552 -0.12715605110271 1.59716620945078 0.216838729299703 0.0648864325054382 -0.0456352226681052 -0.416678106275729 -0.450106961609237 0.153836766661221 0.078896761371717 0.0856010297331836 -0.0347549303480961 -0.173511724669522 0.129225463633412 -0.169772165883587 -0.0552970533120332 0.0581162279858478
c157 3.51183009912525 0.119640545842989 -0.285569340685733 0.123230886446999 0.0601650369897953 -0.000953479771710143 0.0637980704056515 -0.0873198850505154 0.133769179350297 -0.125364048022311 -0.0286714042201547 -0.484945163210066 0.118970689166869 0.0565244706988599 -0.127156051102525 1.59716620945102 0.216838729299678 0.0648864325056029 -0.0456352226681176 -0.416678106275701 -0.450106961609371 0.15383676666154 0.0788967613715438 0.0856010297337158 -0.0347549303481885 -0.17351172466963 0.129225463633421 -0.169772165883595 -0.0552970533118788 0.0581162279858837
c158 3.51183009912525 0.119640545843013 -0.285569340685765 0.123230886446927 0.0601650369897867 -0.000953479771658027 0.0637980704056608 -0.0873198850504679 0.133769179350406 -0.12536404802242 -0.0286714042202037 -0.484945163210023 0.118970689166826 0.0565244706988429 -0.127156051102727 1.59716620945073 0.216838729299663 0.0648864325052878 -0.0456352226680464 -0.416678106275819 -0.450106961609257 0.153836766661188 0.0788967613716922 0.0856010297330185 -0.0347549303480759 -0.173511724669432 0.129225463633466 -0.169772165883697 -0.0552970533121881 0.0581162279860073
c159 3.51183009912525 0.119640545843009 -0.28556934068576 0.123230886446945 0.0601650369897808 -0.000953479771699379 0.0637980704055979 -0.0873198850504506 0.133769179350274 -0.125364048022406 -0.0286714042201706 -0.484945163209998 0.118970689166925 0.0565244706988425 -0.127156051102674 1.59716620945076 0.216838729299739 0.064886432505452 -0.0456352226681358 -0.416678106275835 -0.450106961609262 0.153836766661231 0.0788967613715943 0.0856010297330982 -0.0347549303481561 -0.173511724669525 0.12922546363347 -0.169772165883649 -0.0552970533120632 0.0581162279858411
c160 3.51183009912525 0.119640545842977 -0.285569340685733 0.123230886446994 0.0601650369898089 -0.000953479771725504 0.0637980704056748 -0.0873198850505255 0.133769179350259 -0.125364048022388 -0.0286714042201434 -0.484945163210116 0.118970689166871 0.0565244706988179 -0.127156051102507 1.59716620945105 0.216838729299629 0.0648864325056904 -0.0456352226682149 -0.41667810627573 -0.450106961609292 0.153836766661567 0.0788967613715229 0.0856010297336713 -0.0347549303481439 -0.173511724669656 0.129225463633366 -0.169772165883565 -0.0552970533119614 0.0581162279857658
c161 3.5126731032812 0.0417382409546832 -0.270701452142908 0.0344339145432758 -0.0138095499423271 0.00694996812283758 0.0307125223986752 -0.0506880716865917 0.0245939592014841 -0.0118068943075651 -0.0175163368878809 -0.21375693518466 -0.011255161014574 0.0550630198737528 0.0415649772654191 0.222255117197998 -0.0743254020856192 0.0181719568053025 0.061740233265689 0.298484101278311 0.384419191312577 -0.0295452757290505 0.137985748038309 0.0719526262516574 0.813669465204032 0.0103947892127283 -1.00057583552952 0.450467788565095 0.525274509037627 0.261707882707214
c162 3.4783144168887 -0.611461858396042 0.437675870435742 0.484594312452584 0.294712482971907 0.0602683529267778 0.121018469330385 -0.0409979316045651 -0.0436338486392758 -0.0787311918395754 -0.00261439620864026 -0.188448641600722 -0.105280234746709 0.0612583576337513 0.0510385912240408 0.209416566572807 -0.111576490182132 0.0539999509410687 0.156109677434002 0.41920105474712 0.305904078805202 0.0697021895361447 0.234165376314057 0.0753271822562734 1.43579469941643 -0.368793409026744 -0.831861955048549 0.374352098090195 0.352484106279752 0.752474514233514
c163 3.5126731032812 0.0417382409546563 -0.270701452142896 0.0344339145433006 -0.0138095499423344 0.00694996812292859 0.0307125223986048 -0.050688071686651 0.0245939592015067 -0.0118068943075803 -0.0175163368879219 -0.213756935184575 -0.011255161014527 0.0550630198737605 0.0415649772653002 0.222255117197998 -0.0743254020854269 0.0181719568051823 0.0617402332657434 0.298484101278314 0.384419191312556 -0.0295452757291273 0.137985748038206 0.0719526262515386 0.813669465204002 0.0103947892126935 -1.00057583552943 0.450467788565081 0.52527450903747 0.261707882707324
c164 3.50984119678718 0.0542512100213435 -0.272089790940627 0.0309248532855693 -0.00899756891317974 0.006347010849205 0.0310059951727843 -0.052063066829666 0.0267065206331691 -0.00907327800364254 -0.0196607655941166 -0.227542516569867 0.00177644755253978 0.0522006353609621 0.044167176257794 0.232884169538238 -0.0821754449382765 0.0206323156007882 0.0618052262201815 0.339044615517246 0.415067747177464 -0.0349995526120082 0.159119528192481 0.0752746762477906 0.917018242084397 0.0179377546112572 -1.14840924120355 0.510436645638 0.621075459408269 0.313472817089892
c165 3.5126731032812 0.041738240954662 -0.270701452142905 0.0344339145433131 -0.0138095499423064 0.00694996812275321 0.0307125223986892 -0.050688071686813 0.0245939592014499 -0.0118068943074945 -0.0175163368878531 -0.213756935184772 -0.0112551610145186 0.0550630198737283 0.0415649772656346 0.222255117198169 -0.0743254020856857 0.0181719568056132 0.0617402332655059 0.29848410127837 0.384419191312547 -0.029545275728697 0.137985748038184 0.0719526262520816 0.813669465204111 0.0103947892127256 -1.00057583552927 0.450467788565058 0.525274509037883 0.261707882707071
c166 3.50984120268452 0.0395149401392454 -0.283147394632232 0.0228233360747607 -0.0111990482228433 0.00188531907428717 0.0306643197572968 -0.0522174469572647 0.0275855601170094 -0.0114257996760505 -0.0215977151603704 -0.223656023405994 0.0028880422196794 0.0540513088948995 0.0479308544796136 0.230609694958187 -0.0826952477314833 0.0176943664649114 0.0486128791493384 0.326699683330864 0.411186850931208 -0.0344093545947529 0.158587614020315 0.0712685448183399 0.910177123380188 0.0257675043357122 -1.14025147413019 0.520761629739299 0.60204159909245 0.316947091879703
c167 3.50694242841851 0.0999071538797906 -0.239433189247602 0.206530321452176 -0.319700069900913 -0.276380436270722 0.0542077774995676 -0.0979149503169538 0.263248456582507 -0.299304460248932 -0.0846886066662091 -0.612812809802236 -0.0434353221876115 0.0765552842315887 -1.23516303715231 -0.440237857879117 -0.0948528932612591 -0.086965034067492 -0.13572941342858 -0.141115757209105 -0.0993108237848063 -0.165261523162925 0.0901939863553065 -0.0340243601425831 0.0046933361158692 -0.027399569953085 0.0443823293859959 0.00625515631439289 0.0629921287983299 0.0971230424940358
c168 3.50694242841851 0.0999071538798083 -0.239433189247632 0.206530321452139 -0.319700069900936 -0.276380436270664 0.0542077774995309 -0.0979149503169087 0.263248456582596 -0.299304460249051 -0.0846886066662403 -0.612812809802095 -0.0434353221876159 0.076555284231572 -1.23516303715251 -0.440237857879323 -0.0948528932613556 -0.0869650340675774 -0.13572941342864 -0.141115757209163 -0.0993108237847035 -0.165261523163255 0.0901939863553122 -0.0340243601431465 0.00469333611577453 -0.0273995699530256 0.0443823293861759 0.00625515631428398 0.062992128798019 0.0971230424943742
c169 3.47513407522841 -0.519324375314586 0.431006818921668 0.647170528674713 -0.0200713035874689 -0.277177078574562 0.141517258558543 -0.0940106772217386 0.203161532680362 -0.333312831340845 -0.0412576746107142 -0.575052948652988 -0.0471784276176881 0.0770992250077249 -1.22710996718732 -0.454730515851994 0.0715277463253893 -0.177055187908786 -0.141729574442615 -0.290081543712663 -0.21989181212741 -0.301014202948856 -0.158702226234943 -0.0318144701615486 -0.367544318529916 -0.0204353035163955 -0.17179551297514 0.402785970823566 0.257801919557678 0.275151115044006
c170 3.432935775497 -0.464887165010417 0.570087543588745 0.589625715032508 -1.37148954823825 -0.2314545991282 0.0443215866017804 -0.0950609169469222 0.613990115279687 -1.18177456992066 -0.337844698019947 0.0111538410222424 -0.638250879071899 0.0320275970820435 -0.53722846642133 -0.408007352738928 -0.122325652323491 -0.0160570749176856 0.19181555085353 0.091121812492068 -0.124959422887611 0.0558375955420196 0.10420497916431 -0.0160605168160868 0.167516424172052 0.177558388131637 0.214469233572238 -0.279776977349371 -0.351248805458583 -0.118861322257696
c171 3.50694242841851 0.0999071538798032 -0.239433189247625 0.206530321452136 -0.319700069900949 -0.276380436270591 0.0542077774994911 -0.0979149503169121 0.263248456582646 -0.299304460249055 -0.0846886066662548 -0.61281280980204 -0.0434353221875841 0.0765552842315741 -1.23516303715257 -0.44023785787944 -0.0948528932611689 -0.0869650340677574 -0.135729413428585 -0.141115757209214 -0.0993108237846545 -0.1652615231634 0.0901939863554414 -0.0340243601432729 0.00469333611589166 -0.0273995699529892 0.0443823293861877 0.00625515631430214 0.0629921287980297 0.0971230424942104
c172 3.50694242841851 0.0999071538798108 -0.239433189247643 0.206530321452151 -0.31970006990094 -0.276380436270623 0.054207777499536 -0.0979149503168905 0.263248456582606 -0.299304460249057 -0.0846886066662551 -0.612812809802077 -0.043435322187568 0.0765552842315742 -1.23516303715247 -0.44023785787938 -0.0948528932613431 -0.0869650340676594 -0.135729413428586 -0.141115757209122 -0.0993108237846665 -0.165261523163218 0.090193986355416 -0.0340243601432147 0.00469333611591662 -0.027399569952952 0.044382329386079 0.00625515631430952 0.0629921287980828 0.0971230424942571
c173 3.50694242841851 0.0999071538797998 -0.23943318924763 0.206530321452155 -0.31970006990092 -0.276380436270626 0.0542077774995289 -0.0979149503169314 0.263248456582543 -0.299304460249009 -0.0846886066662519 -0.612812809802078 -0.0434353221875543 0.0765552842315853 -1.23516303715249 -0.440237857879279 -0.0948528932613233 -0.0869650340675391 -0.135729413428637 -0.141115757209129 -0.099310823784699 -0.165261523163162 0.0901939863553826 -0.0340243601429727 0.00469333611586761 -0.0273995699530368 0.0443823293860199 0.00625515631440678 0.0629921287980931 0.0971230424942025
c174 3.50694242841851 0.0999071538797859 -0.239433189247617 0.206530321452136 -0.319700069900937 -0.27638043627057 0.0542077774995027 -0.0979149503168715 0.26324845658266 -0.299304460249088 -0.084688606666267 -0.612812809802033 -0.0434353221875934 0.0765552842315968 -1.23516303715259 -0.44023785787938 -0.0948528932611725 -0.0869650340678057 -0.135729413428541 -0.141115757209216 -0.0993108237846571 -0.165261523163294 0.090193986355428 -0.0340243601433738 0.00469333611590545 -0.0273995699530091 0.0443823293860918 0.00625515631421816 0.0629921287979871 0.097123042494337
