c0 3.50964927334805 0.0137903840750255 -0.184557873681138 -0.244826391166439 -0.158975806378811 0.0122358184960718 0.0640207241576585 -0.0510319100879335 -0.0026256801053495 0.0510073780859222 0.0386032789789243 -0.190240741011845 0.189987454276903 0.0187634364903988 -0.132702982505355 -0.00829026035370338 0.0129912352829884 -0.0168161021743843 -0.227432647050596 0.255004805958012 0.0478113849052581 -0.0424870357971077 0.215104890271086 0.0689139410663505 -0.326104313359633 -0.461017715913963 0.625769318329331 -0.231961336487204 0.43011228621881 -1.05941486245462 -0.474155053983936 -0.203373111182498 0.14518887925869 -0.00543699480858229 -0.575144641448658 -1.4654115101159 0.299019849975672 -1.37417742675656 0.0683161866767548 0.231796687759343 -0.726813976049791 -0.260104430474828 0.305298165348531 0.244976615285921 -0.161739100710703 -0.331466398590865 -0.222646386923431 0.0957086737685844 0.105330986716343 -0.367942868057365
c1 3.517552407109 0.123324754026188 -0.301827185187465 -0.153075274724355 -0.130529647100515 -0.0326823583032339 0.0521920563472401 -0.0572345731490557 -0.0392386877454025 0.0138321930357406 0.0216978581977501 -0.175218426317333 0.219699924483854 0.0229076153745567 -0.11827807063962 -0.0164374173104456 -0.020311801715654 0.00518794735369645 -0.203733215570858 0.154280420670501 0.0226019997051769 -0.0496187659715304 0.100525321503926 0.0629875682383442 -0.111504769989609 -0.194202783735309 0.243270279925323 -0.0453789456087678 0.000862270745320394 -0.471733361548461 -0.212760467772734 -0.0813020186831601 0.0973664293298313 0.0338309256073632 -0.171243399723584 -0.919573917953322 0.403065238140069 -0.91769727414039 0.126058051726478 0.246663116675653 -0.837298252325643 -0.00247944558991741 0.62413445746694 0.159664457340225 -0.419040486782329 -0.420809608105909 -0.272357355241525 0.196021535978819 0.290093919544951 -0.16116074266541
c2 3.517552407109 0.123324754026193 -0.301827185187474 -0.153075274724326 -0.13052964710051 -0.0326823583032715 0.0521920563472905 -0.0572345731490661 -0.0392386877454088 0.0138321930356983 0.0216978581977566 -0.175218426317342 0.219699924483894 0.0229076153745642 -0.118278070639619 -0.0164374173105459 -0.0203118017157509 0.00518794735377911 -0.203733215570877 0.154280420670551 0.0226019997052252 -0.0496187659714481 0.100525321503996 0.0629875682383213 -0.111504769989653 -0.194202783735399 0.243270279925244 -0.0453789456087309 0.00086227074536089 -0.471733361548475 -0.212760467772633 -0.0813020186831482 0.0973664293297991 0.0338309256072156 -0.171243399723483 -0.919573917953385 0.403065238140183 -0.917697274140323 0.126058051726463 0.24666311667567 -0.837298252325689 -0.00247944558981612 0.624134457467079 0.159664457340204 -0.419040486782119 -0.420809608105999 -0.272357355241573 0.196021535978775 0.290093919544915 -0.161160742665466
c3 3.517552407109 0.123324754026217 -0.301827185187595 -0.153075274724461 -0.130529647100526 -0.0326823583030866 0.0521920563471855 -0.0572345731490507 -0.0392386877454458 0.013832193035825 0.0216978581977632 -0.175218426316993 0.219699924483789 0.0229076153745754 -0.118278070639352 -0.0164374173098809 -0.0203118017150052 0.00518794735359235 -0.203733215570714 0.154280420670197 0.0226019997052847 -0.0496187659722171 0.100525321504173 0.0629875682391236 -0.111504769988598 -0.194202783735033 0.243270279925088 -0.0453789456090416 0.000862270745818191 -0.471733361549015 -0.212760467771569 -0.081302018683773 0.0973664293298642 0.0338309256070823 -0.171243399723774 -0.919573917953118 0.403065238140566 -0.917697274140609 0.126058051725808 0.24666311667546 -0.837298252325558 -0.00247944559027602 0.624134457466613 0.159664457339783 -0.41904048678337 -0.420809608105273 -0.272357355241439 0.196021535977285 0.290093919544338 -0.161160742665107
c4 3.46016193540689 -0.51720221378549 0.28075733118728 -0.726039414591151 -0.437037439543406 0.413450352832416 0.45991863476393 -0.507613963269937 -1.26000197760978 1.37067016832895 -0.914217581163464 1.12483212127413 -0.394448073967276 -0.0905319326519976 0.409915042444047 0.0343051681350843 0.0134690047218017 -0.0265078042571948 0.248633150046916 -0.124191382527303 -0.0634476795318604 0.147701255107466 -0.0384116515141257 -0.201362026690721 -0.0326341935460007 -0.223612633948753 0.034814843800859 0.258793792272379 0.128068152834369 -0.0548424037286168 0.0371281966037264 -0.119131467245968 -0.0224749973136284 0.0108982017475065 0.44138561003152 -0.306939337178511 -0.594947878500382 0.00527670860311506 -0.0293202315593277 -0.0302302236916403 0.0791708773938374 -0.169547319628915 -0.191650637130004 0.102602694312816 0.166055888196155 -0.00631529276484563 0.0165002364848194 0.088094678308506 -0.268428655077346 -0.104507128849478
c5 3.51658458668505 0.115470115261305 -0.296229523208222 -0.167283910315865 -0.144734693183057 -0.0340644955398901 0.0635237818053879 -0.0622712367941553 -0.039488424481639 0.00521812990904254 0.0271650512142894 -0.199417647736581 0.247142203284079 0.0233128636747117 -0.126738004536155 -0.0106332197702807 -0.0477109759209885 0.0102784017547948 -0.284151616127647 0.224535332816123 0.077134917426165 -0.0331242815348661 0.114915403165855 0.246796274541763 -0.379300713233828 -0.550256613562287 0.848761861652358 -0.213845447796252 0.0704897250948031 0.340553316777043 0.757924620948784 0.768397635966475 0.589080182657333 -0.577604246797338 0.060394759664295 0.358919630240976 -0.442223343685964 0.342018003243735 0.200814678914827 0.100709045073254 -0.232092198349982 0.255507631781313 0.30660438099172 -0.0719475894901658 -0.373877445045436 -0.0666290029154815 -0.239983085457421 -0.351636111300156 0.039448172153695 -0.0250894333209185
c6 3.46315184475506 -0.899388485339891 0.78824181229901 -0.887851044687906 -0.622344569537904 0.00769694433670071 0.216739040777542 -0.0615630484620084 0.0463637676953875 -0.0738444176656995 0.0843582732940881 -0.161042860298944 0.195261180817088 0.00488938533668732 -0.0664712312099936 -0.0291600783761339 -0.112686535621093 0.0197326540854723 -0.297476832360294 0.154374082844671 0.0265100956704086 0.109168417418536 0.0317730733466363 0.210453728366089 -0.366816299292095 -0.502692556174354 0.938948821673778 -0.114223380306476 -0.0860757875245144 0.558601394028847 0.922398809954165 0.868037571624599 0.664563349382497 -0.569266691758289 -0.0345063323811928 0.210713638117317 -0.255363856911646 0.244977554488742 0.0591075906808852 0.0301878293506786 -0.196660873202293 0.0138429863502352 0.184192715783087 -0.0298412187412523 -0.263710426877168 -0.207676071212359 -0.0905270824264081 -0.0128204292730165 -0.0323219398384889 -0.147591342714156
c7 3.51658458668505 0.115470115261283 -0.296229523208191 -0.167283910315822 -0.144734693183052 -0.0340644955399273 0.0635237818054279 -0.0622712367941224 -0.0394884244816164 0.00521812990907409 0.0271650512143081 -0.199417647736713 0.247142203284039 0.0233128636746727 -0.126738004536232 -0.0106332197705086 -0.047710975921144 0.0102784017548065 -0.284151616127666 0.224535332816195 0.0771349174260957 -0.0331242815345753 0.114915403165766 0.246796274541547 -0.379300713234156 -0.550256613562383 0.8487618616523 -0.213845447796104 0.0704897250946578 0.340553316777197 0.757924620948538 0.768397635966519 0.589080182657322 -0.577604246797237 0.0603947596643033 0.358919630240939 -0.44222334368617 0.342018003243753 0.20081467891499 0.100709045073238 -0.232092198350038 0.255507631781511 0.306604380991735 -0.071947589490177 -0.373877445044894 -0.0666290029157904 -0.239983085457508 -0.351636111299514 0.0394481721538819 -0.0250894333212064
c8 3.51658458668505 0.115470115261266 -0.296229523208165 -0.167283910315788 -0.144734693183035 -0.0340644955399785 0.0635237818054458 -0.0622712367941266 -0.0394884244816027 0.00521812990901649 0.0271650512143552 -0.199417647736779 0.247142203284035 0.0233128636746427 -0.126738004536308 -0.0106332197706756 -0.0477109759212927 0.0102784017547515 -0.284151616127628 0.224535332816263 0.0771349174261355 -0.0331242815344894 0.114915403165768 0.246796274541397 -0.379300713234292 -0.550256613562478 0.848761861652354 -0.213845447796161 0.0704897250946928 0.340553316777325 0.757924620948295 0.768397635966637 0.589080182657357 -0.577604246797119 0.0603947596643698 0.358919630240892 -0.442223343686161 0.342018003243879 0.2008146789151 0.100709045073247 -0.232092198350183 0.255507631781703 0.306604380991864 -0.0719475894900113 -0.373877445044697 -0.0666290029158893 -0.239983085457445 -0.351636111299128 0.0394481721538596 -0.0250894333211258
c9 3.50207825616739 -0.121901194209915 -0.0416384170709709 -0.351776782906283 -0.241311220760908 -0.023518094358105 0.10349493039249 -0.0680459079216524 -0.0305039608145743 -0.0467574607380863 0.0363571089072978 -0.247460763351691 0.185854107984413 0.00524019723434034 -0.0915674276910111 0.0768539085984811 -0.0637446606233551 -0.00422295051805805 -0.2907994634062 0.39112903932325 0.261056963659036 -0.0607067162384822 0.184441709057237 0.509063782502673 -0.811942893701823 -0.970471369719096 1.28698190791358 -0.549215522609796 0.665696559565084 0.490657460571137 0.738424149158017 0.689292006086097 0.419562444188294 -0.551392353029502 -0.0807068902406395 0.556309455351701 -0.545170591546795 -0.060505872152811 0.0216816488894084 0.0120913222682306 0.11365338746696 -0.146552530563597 -0.187474019998931 0.1477678265767 0.249916908258455 0.0520309293213324 -0.031966969091313 0.139726081989179 0.109682168812673 -0.210218655110835
c10 3.5212254464824 0.116097676675373 -0.284371748366691 -0.142830859437165 -0.119595499175555 -0.0297941656724038 0.0440816677099144 -0.0481146305612811 -0.0330213014011435 0.00978799912234167 0.0165413423781253 -0.131897794178458 0.161745239385884 0.0164428024673288 -0.0835542579792229 -0.0113322874147529 -0.0154830007575189 0.00474677666585818 -0.115895463823623 0.0743654536648234 0.0101844246938855 -0.0246292750421582 0.0318591269562307 0.0272150541893689 -0.0200306652026723 -0.0410835684944309 0.0348375929690479 0.0120082086236845 -0.0673069566444172 -0.0502276505559535 -0.0177373641996638 9.83507840229943e-05 0.0192119741284096 0.0145794692546689 0.0469034637729139 -0.0579159710472185 0.0751029105352642 0.0334362310401226 0.0192191350841146 0.00297909833989889 -0.013460625211091 0.0689517211812649 0.0303037748906096 -0.0438426464884645 -0.0213395032682487 0.0544710122641439 0.0406496376637142 -0.0226735012564959 -0.0343199796294735 0.157003584593311
c11 3.5212254464824 0.116097676675378 -0.28437174836671 -0.142830859437179 -0.119595499175538 -0.0297941656724198 0.0440816677098928 -0.0481146305612789 -0.0330213014011348 0.00978799912236196 0.0165413423781356 -0.1318977941785 0.161745239385874 0.0164428024673214 -0.0835542579792341 -0.0113322874148109 -0.0154830007573487 0.00474677666576807 -0.11589546382361 0.0743654536647623 0.0101844246938889 -0.0246292750422143 0.0318591269561896 0.0272150541894491 -0.0200306652026318 -0.0410835684944673 0.0348375929690519 0.0120082086238031 -0.0673069566444607 -0.050227650555883 -0.0177373641997172 9.83507840643675e-05 0.0192119741283282 0.0145794692546781 0.046903463772968 -0.0579159710471333 0.0751029105351993 0.0334362310401314 0.0192191350842372 0.00297909833994918 -0.0134606252111933 0.0689517211812885 0.0303037748906011 -0.0438426464883828 -0.0213395032683166 0.0544710122640033 0.0406496376635391 -0.0226735012564643 -0.0343199796294157 0.157003584593268
c12 3.50833094049781 0.1728037066274 -0.421773816814506 -0.225701766642261 -0.233691562385575 -0.1182674485094 0.684348343080179 1.38285261319026 0.218672053573454 -0.0543114352744006 -0.0644605602552038 0.242876140837577 -0.182678374180441 -0.0316473526787493 0.128150557249025 0.0290682518021385 0.00582895351908319 -0.0025495174072353 0.119294757413519 0.0995130045208679 -0.0801179398186532 0.00648631753021484 -0.0213138662034042 0.0194059600873224 0.0299133176873364 0.0457799684545545 0.000699408025823411 -0.0228137692950996 0.0081444296692143 0.0287609985399424 0.00969078831482212 -4.70591710137406e-05 -0.00550558045729358 -0.00638599393058826 -0.00996270009729342 -0.00486276056876045 -0.0191110811600418 -0.0112845037892099 -0.00704721427234682 -0.00282683463632982 0.00988552030156726 -0.0116464761702706 -0.00724629046755388 0.00437358814046611 0.000833038910313836 -0.0107045943633505 -0.000525115874835471 0.00230329591471041 -0.00277788275825851 -0.0151036560556795
c13 3.50833094049781 0.172803706627365 -0.421773816814446 -0.225701766642232 -0.233691562385557 -0.118267448509482 0.684348343080241 1.38285261319036 0.218672053573519 -0.0543114352745 -0.0644605602551514 0.242876140837425 -0.182678374180459 -0.0316473526787365 0.128150557248778 0.0290682518013651 0.00582895351860738 -0.00254951740713656 0.119294757413486 0.0995130045209255 -0.0801179398186976 0.00648631753054842 -0.0213138662035365 0.0194059600868477 0.029913317686978 0.0457799684545009 0.000699408025959239 -0.0228137692950597 0.00814442966901642 0.0287609985401288 0.00969078831440346 -4.70591709585911e-05 -0.0055055804574501 -0.00638599393039734 -0.00996270009713061 -0.00486276056893303 -0.0191110811602326 -0.0112845037890384 -0.00704721427248882 -0.00282683463637953 0.0098855203013567 -0.0116464761702042 -0.00724629046781097 0.00437358814045396 0.000833038910515937 -0.0107045943637106 -0.000525115875094067 0.00230329591565887 -0.00277788275836234 -0.0151036560558136
c14 3.50549911653216 0.179044288581992 -0.435955819485532 -0.233041399761827 -0.243310602582472 -0.124873311197324 0.729603245850596 1.48123856093668 0.235300235521893 -0.0587209858925831 -0.0694691519194553 0.267213963928784 -0.201433184763431 -0.0350793668127708 0.143729992512423 0.0335740250734248 0.0059238717324641 -0.00239726018053063 0.143697454786565 0.130937416591144 -0.104800738257935 0.00639155430632445 -0.0265664139048808 0.0289248255292356 0.0412535306465718 0.0615529374184665 0.00321479128709511 -0.031425301105402 0.00482837494262458 0.0391908633690848 0.0158992449961613 -0.00118113308838547 -0.00767210993952466 -0.00710691754036692 -0.0132291314503382 -0.0133886081300651 -0.0268192425112945 -0.0169089756462807 -0.00986728221263956 -0.00160783045626753 0.0194699295681253 -0.0125198731777187 -0.0129887795062409 0.00518573214671994 0.0015381230499017 -0.0223046571359467 0.00352317144990612 0.00029395495619116 -0.0122416007285452 -0.0218076747382108
c15 3.50833094049781 0.172803706627387 -0.421773816814491 -0.225701766642253 -0.233691562385566 -0.118267448509453 0.684348343080199 1.38285261319029 0.218672053573453 -0.0543114352744511 -0.0644605602552097 0.242876140837572 -0.182678374180483 -0.0316473526786915 0.128150557248893 0.0290682518019127 0.00582895351889746 -0.00254951740722202 0.119294757413509 0.0995130045208721 -0.0801179398187198 0.00648631753027821 -0.0213138662034875 0.0194059600871002 0.0299133176871229 0.0457799684545439 0.000699408025939175 -0.0228137692950204 0.00814442966903065 0.028760998539999 0.00969078831465741 -4.70591709390182e-05 -0.00550558045729507 -0.00638599393045091 -0.00996270009726309 -0.00486276056893358 -0.0191110811601274 -0.0112845037891768 -0.00704721427234969 -0.00282683463636256 0.00988552030145945 -0.01164647617025 -0.0072462904675885 0.0043735881405001 0.000833038910271652 -0.0107045943634839 -0.000525115874971637 0.00230329591501212 -0.00277788275820733 -0.0151036560557313
c16 3.50833094049781 0.172803706627382 -0.421773816814485 -0.225701766642238 -0.233691562385539 -0.118267448509501 0.684348343080246 1.38285261319035 0.218672053573471 -0.0543114352744817 -0.0644605602551735 0.242876140837452 -0.18267837418046 -0.0316473526786864 0.128150557248852 0.0290682518016206 0.00582895351872448 -0.00254951740717039 0.119294757413451 0.0995130045209331 -0.0801179398186762 0.00648631753045243 -0.0213138662035238 0.0194059600869426 0.0299133176870092 0.0457799684545664 0.000699408025965385 -0.0228137692950566 0.00814442966907078 0.0287609985400177 0.00969078831449419 -4.7059171012885e-05 -0.00550558045741222 -0.00638599393038501 -0.00996270009721584 -0.00486276056899228 -0.0191110811603323 -0.0112845037890046 -0.00704721427245872 -0.00282683463638047 0.00988552030138562 -0.0116464761702807 -0.00724629046779211 0.004373588140411 0.000833038910466741 -0.0107045943635766 -0.000525115875100008 0.002303295915517 -0.00277788275830307 -0.015103656055867
c17 3.50549911653216 0.17904428858196 -0.435955819485502 -0.233041399761783 -0.243310602582482 -0.124873311197324 0.72960324585058 1.48123856093666 0.235300235521894 -0.0587209858924865 -0.0694691519193855 0.267213963928565 -0.201433184763366 -0.0350793668128134 0.143729992512515 0.03357402507295 0.00592387173235889 -0.00239726018050853 0.143697454786599 0.130937416591114 -0.10480073825805 0.00639155430643172 -0.0265664139048683 0.0289248255290825 0.0412535306461588 0.0615529374184266 0.00321479128716469 -0.0314253011053089 0.00482837494257033 0.039190863369308 0.0158992449959521 -0.00118113308790053 -0.00767210993963887 -0.00710691754032758 -0.0132291314505004 -0.0133886081300695 -0.0268192425113708 -0.0169089756465039 -0.00986728221273025 -0.00160783045645296 0.0194699295684951 -0.0125198731779567 -0.012988779506345 0.00518573214668009 0.00153812305017805 -0.0223046571358613 0.00352317145016066 0.000293954956791952 -0.0122416007282022 -0.0218076747384366
c18 3.50833094049781 0.172803706627417 -0.421773816814525 -0.225701766642273 -0.233691562385595 -0.118267448509457 0.684348343080156 1.38285261319033 0.218672053573529 -0.054311435274393 -0.0644605602551399 0.242876140837532 -0.182678374180494 -0.0316473526787578 0.128150557249035 0.0290682518023806 0.00582895351898565 -0.00254951740727569 0.119294757413501 0.0995130045208786 -0.0801179398187062 0.00648631753023372 -0.0213138662034624 0.0194059600873619 0.0299133176873811 0.0457799684545734 0.000699408025840066 -0.0228137692950323 0.00814442966916111 0.0287609985399529 0.00969078831493676 -4.70591708410552e-05 -0.00550558045727425 -0.00638599393061614 -0.00996270009725319 -0.00486276056871131 -0.0191110811600972 -0.0112845037892492 -0.00704721427232094 -0.00282683463632116 0.00988552030148824 -0.0116464761702883 -0.00724629046762004 0.00437358814043902 0.000833038910462527 -0.0107045943633464 -0.000525115874827108 0.00230329591467868 -0.00277788275822563 -0.0151036560556824
c19 3.50043695205238 0.206190716535857 -0.420740161804097 -0.232653890170649 -0.239459387555122 -0.154114798646761 0.730273823330879 1.46044039253322 0.207756748272286 -0.0344889002545309 -0.0925197044231422 0.116027333309153 -0.379927755846358 0.0476221616418581 -0.159968833088176 -0.161628938704582 0.0709758857370383 -0.0208932714068191 -0.558512246055331 -1.60438799422203 0.908568862352184 0.0688556232276858 0.0948817461890653 -0.397505370625594 -0.302940909368651 -0.400308321013342 -0.164405890330022 0.241131569137978 0.213405238338067 -0.185163092294731 -0.0933520872295499 0.0133219251687185 0.00987693730353514 0.0158683407307987 -0.0136745537831547 0.274851533612398 0.0446521264812507 0.0648604710868092 0.0396954131722538 0.00865727960666509 -0.127094114246874 -0.0285341831203831 0.0437880242701856 0.0378888793007663 0.0271612656194642 0.0685495159394436 -0.0879392633506823 0.0252848664031444 0.123640686848866 -0.0491617913072908
c20 3.50833094049781 0.17280370662738 -0.421773816814496 -0.225701766642247 -0.233691562385577 -0.118267448509477 0.684348343080217 1.38285261319026 0.218672053573503 -0.0543114352744715 -0.0644605602551903 0.242876140837442 -0.182678374180422 -0.0316473526786862 0.128150557248863 0.0290682518017664 0.00582895351877822 -0.0025495174071793 0.119294757413519 0.0995130045208754 -0.0801179398186452 0.00648631753042449 -0.0213138662035297 0.019405960087077 0.0299133176871489 0.0457799684545844 0.000699408025917312 -0.022813769294996 0.00814442966906985 0.028760998540118 0.00969078831460115 -4.70591709708997e-05 -0.00550558045734786 -0.00638599393048965 -0.00996270009712456 -0.00486276056879923 -0.0191110811601975 -0.0112845037890411 -0.00704721427247489 -0.00282683463641789 0.00988552030143526 -0.0116464761702032 -0.00724629046778253 0.00437358814044535 0.000833038910436238 -0.010704594363304 -0.000525115874925262 0.00230329591516015 -0.00277788275828927 -0.015103656055717
c21 3.50833094049781 0.17280370662739 -0.421773816814509 -0.225701766642249 -0.233691562385558 -0.118267448509482 0.684348343080204 1.38285261319029 0.21867205357347 -0.0543114352744738 -0.0644605602551742 0.242876140837368 -0.18267837418049 -0.0316473526787102 0.128150557248932 0.0290682518017801 0.00582895351887757 -0.00254951740728695 0.119294757413429 0.099513004520967 -0.0801179398186613 0.00648631753042698 -0.0213138662035597 0.0194059600870149 0.0299133176870563 0.045779968454505 0.000699408025911397 -0.0228137692950726 0.00814442966906086 0.0287609985400634 0.00969078831461883 -4.7059171026322e-05 -0.00550558045735718 -0.00638599393045193 -0.00996270009725443 -0.0048627605688919 -0.0191110811602279 -0.0112845037891033 -0.00704721427240706 -0.00282683463642546 0.00988552030142354 -0.0116464761702393 -0.00724629046775208 0.00437358814034514 0.000833038910539514 -0.0107045943633988 -0.000525115874884181 0.00230329591523934 -0.00277788275829511 -0.0151036560558724
c22 3.50833094049781 0.172803706627369 -0.421773816814445 -0.225701766642199 -0.233691562385569 -0.118267448509535 0.684348343080212 1.38285261319033 0.21867205357354 -0.0543114352745366 -0.0644605602551741 0.242876140837349 -0.182678374180382 -0.0316473526786843 0.128150557248692 0.0290682518012702 0.00582895351862236 -0.00254951740716323 0.119294757413461 0.0995130045209155 -0.0801179398186763 0.00648631753059764 -0.0213138662035624 0.019405960086854 0.0299133176868349 0.0457799684544344 0.000699408026109504 -0.0228137692949865 0.00814442966893538 0.0287609985401757 0.00969078831426947 -4.70591709848697e-05 -0.00550558045749432 -0.00638599393025453 -0.00996270009728119 -0.00486276056886009 -0.0191110811603497 -0.0112845037890212 -0.00704721427242743 -0.00282683463647523 0.00988552030136359 -0.011646476170258 -0.00724629046768042 0.00437358814049351 0.000833038910520689 -0.0107045943635983 -0.000525115875072187 0.00230329591560558 -0.00277788275833303 -0.0151036560557762
c23 3.50833094049781 0.172803706627373 -0.421773816814509 -0.225701766642244 -0.233691562385566 -0.118267448509435 0.684348343080212 1.38285261319027 0.218672053573464 -0.0543114352744333 -0.064460560255193 0.242876140837467 -0.182678374180464 -0.0316473526787691 0.128150557248879 0.0290682518019393 0.00582895351891387 -0.00254951740723817 0.119294757413496 0.0995130045208639 -0.0801179398186433 0.00648631753032087 -0.0213138662034835 0.0194059600871735 0.0299133176872093 0.045779968454567 0.000699408025876456 -0.022813769295073 0.00814442966913366 0.028760998540098 0.0096907883146762 -4.7059170928326e-05 -0.00550558045735991 -0.00638599393056117 -0.00996270009728809 -0.00486276056884144 -0.0191110811601163 -0.0112845037891936 -0.0070472142723751 -0.0028268346362693 0.00988552030132999 -0.0116464761702053 -0.00724629046756399 0.00437358814042844 0.000833038910499108 -0.0107045943633903 -0.000525115874883726 0.00230329591510198 -0.00277788275828113 -0.0151036560557146
c24 3.50833094049781 0.172803706627346 -0.421773816814441 -0.225701766642218 -0.233691562385556 -0.118267448509518 0.684348343080245 1.38285261319028 0.218672053573496 -0.054311435274466 -0.0644605602551338 0.242876140837313 -0.182678374180423 -0.0316473526787214 0.128150557248817 0.0290682518011462 0.00582895351860878 -0.00254951740716285 0.119294757413452 0.0995130045210085 -0.0801179398187022 0.0064863175306276 -0.021313866203538 0.0194059600868828 0.0299133176868748 0.0457799684544716 0.000699408025992987 -0.0228137692948751 0.00814442966901652 0.028760998540226 0.00969078831423987 -4.70591709976154e-05 -0.00550558045752415 -0.00638599393021956 -0.00996270009724354 -0.00486276056887064 -0.0191110811604781 -0.011284503788959 -0.00704721427248963 -0.00282683463638504 0.00988552030133333 -0.0116464761702644 -0.00724629046783687 0.00437358814037514 0.000833038910549012 -0.0107045943636024 -0.000525115875064078 0.00230329591572919 -0.002777882758343 -0.0151036560558309
c25 3.50833094049781 0.1728037066274 -0.421773816814546 -0.225701766642281 -0.233691562385564 -0.118267448509366 0.684348343080192 1.38285261319034 0.218672053573479 -0.0543114352743934 -0.0644605602552179 0.242876140837584 -0.182678374180472 -0.0316473526787423 0.128150557248968 0.0290682518024039 0.00582895351912829 -0.00254951740721617 0.119294757413533 0.0995130045208398 -0.0801179398186453 0.00648631753009073 -0.0213138662033527 0.0194059600874078 0.0299133176874342 0.0457799684546016 0.000699408025721568 -0.0228137692950942 0.00814442966921932 0.0287609985399288 0.00969078831495401 -4.70591709698017e-05 -0.00550558045726431 -0.00638599393054122 -0.00996270009723695 -0.00486276056879599 -0.0191110811599208 -0.0112845037892173 -0.00704721427230874 -0.00282683463630063 0.00988552030161275 -0.0116464761703822 -0.00724629046757417 0.00437358814043835 0.000833038910260364 -0.0107045943632289 -0.000525115874768476 0.00230329591452617 -0.00277788275826918 -0.0151036560556975
c26 3.50833094049781 0.172803706627402 -0.421773816814512 -0.225701766642274 -0.233691562385575 -0.118267448509467 0.684348343080189 1.3828526131903 0.218672053573477 -0.0543114352743765 -0.0644605602551937 0.2428761408375 -0.182678374180458 -0.0316473526787288 0.128150557248932 0.0290682518021994 0.00582895351902202 -0.00254951740728705 0.119294757413524 0.0995130045209188 -0.0801179398186838 0.00648631753019666 -0.0213138662035035 0.0194059600872234 0.0299133176872956 0.0457799684545822 0.000699408025850665 -0.0228137692949886 0.00814442966915262 0.0287609985400969 0.00969078831474995 -4.70591709506046e-05 -0.00550558045726509 -0.00638599393052758 -0.00996270009730829 -0.00486276056888075 -0.019111081160072 -0.0112845037891473 -0.0070472142723801 -0.0028268346363622 0.00988552030150654 -0.0116464761702955 -0.00724629046764207 0.00437358814038692 0.000833038910368537 -0.010704594363281 -0.0005251158748395 0.0023032959146829 -0.00277788275821491 -0.0151036560557741
c27 3.50833094049781 0.172803706627371 -0.421773816814467 -0.225701766642239 -0.23369156238554 -0.118267448509473 0.684348343080221 1.38285261319028 0.218672053573427 -0.05431143527448 -0.0644605602551801 0.242876140837502 -0.182678374180424 -0.0316473526787247 0.128150557248835 0.0290682518014323 0.00582895351870739 -0.00254951740719094 0.119294757413496 0.0995130045209281 -0.0801179398186638 0.00648631753041511 -0.0213138662034417 0.0194059600870164 0.0299133176870421 0.0457799684544619 0.000699408025916865 -0.0228137692951166 0.00814442966899937 0.0287609985401242 0.00969078831449991 -4.70591710106314e-05 -0.00550558045740546 -0.00638599393037773 -0.009962700097295 -0.00486276056889944 -0.0191110811603861 -0.0112845037890615 -0.00704721427247444 -0.00282683463636706 0.00988552030137486 -0.0116464761702521 -0.0072462904678696 0.00437358814045817 0.000833038910534738 -0.0107045943635812 -0.000525115875035845 0.0023032959155311 -0.00277788275842069 -0.0151036560560257
c28 3.50833094049781 0.172803706627359 -0.421773816814433 -0.225701766642173 -0.233691562385545 -0.118267448509535 0.684348343080273 1.38285261319035 0.21867205357349 -0.0543114352745361 -0.0644605602552221 0.242876140837348 -0.18267837418038 -0.0316473526786786 0.128150557248645 0.0290682518009717 0.00582895351855734 -0.00254951740713804 0.119294757413443 0.0995130045209755 -0.0801179398186724 0.00648631753072915 -0.0213138662036294 0.0194059600867003 0.0299133176867039 0.0457799684544005 0.000699408026073592 -0.0228137692949249 0.008144429668976 0.0287609985402677 0.00969078831410554 -4.70591710074669e-05 -0.00550558045744895 -0.00638599393017859 -0.00996270009726124 -0.00486276056893606 -0.0191110811605287 -0.0112845037889121 -0.00704721427247505 -0.00282683463638822 0.00988552030119775 -0.0116464761700863 -0.00724629046792115 0.00437358814042902 0.000833038910626585 -0.0107045943637655 -0.000525115875277746 0.00230329591614247 -0.00277788275845044 -0.0151036560561145
c29 3.38949782203456 -0.141736706076217 1.55393700532751 -0.191228611416291 1.24173521464809 0.765458408931452 -0.176562636083069 0.187485720135484 0.133206544512053 -0.378783600316006 -0.0140381817036184 0.695524545509448 -0.0198647782133082 0.0304921506111131 -0.114212551453328 -0.0938845172033352 0.0593133323397839 -0.000149518659501052 0.154824001326345 -0.0692510633654358 -0.193091952195727 0.147778221612548 0.0903262089866289 -0.0565913349262522 -0.240799895696998 0.243221193320259 0.207320887293077 0.00652258096358279 0.206873932352296 -0.321226669502004 -0.147446239686977 -0.163061044034597 -0.00247801101768288 0.0240372432184066 -0.0378107789952115 -0.0377220324595856 -0.217181704411108 0.451649809082178 0.00625609948554885 -0.104913332382481 0.12908876440475 0.305909913271418 -0.0185642910579015 -0.0110684531601128 -0.2141019679088 -0.0456247536954221 -0.21423826345154 0.0882524594690668 -0.326759291168164 -0.213613310006723
c30 3.5212254464824 0.116097676675373 -0.284371748366738 -0.142830859437203 -0.119595499175566 -0.0297941656723273 0.044081667709865 -0.0481146305612019 -0.0330213014011279 0.00978799912255343 0.0165413423780843 -0.131897794178434 0.161745239385743 0.0164428024672753 -0.0835542579789139 -0.0113322874155493 -0.0154830007571873 0.00474677666566235 -0.115895463823658 0.0743654536647908 0.010184424693743 -0.0246292750423983 0.0318591269563665 0.0272150541898451 -0.0200306652026482 -0.0410835684943686 0.0348375929685469 0.0120082086237872 -0.0673069566441278 -0.0502276505560301 -0.0177373641994987 9.83507840192853e-05 0.0192119741283367 0.0145794692546159 0.0469034637735456 -0.0579159710472567 0.075102910535456 0.0334362310398602 0.0192191350844867 0.00297909834032303 -0.0134606252109317 0.0689517211819091 0.0303037748916939 -0.0438426464883917 -0.0213395032683858 0.0544710122642739 0.0406496376639223 -0.0226735012571017 -0.0343199796297421 0.157003584593239
c31 3.51121565406354 0.0958676952272694 -0.31224274679902 -0.19196738497064 -0.151373529346875 0.0860499965001912 0.181939318310847 -0.234688966967477 -0.56268849003493 0.451090133836175 -0.3774889920424 0.187319162703368 -0.298614198625683 -0.00505525314905295 -0.0095626910728876 0.0129761175466587 0.0287841961878898 -0.00346952065632616 0.158743955059042 0.157697192585025 -0.113688665944006 0.0343358939088579 -0.106312760268007 -0.187541888340116 0.16707402085049 -0.671166315216743 -0.186481589336141 0.406531588330484 0.0282216480561266 -0.163456558758319 0.0170220211713619 -0.0730585757306133 -0.0143812201350935 -0.0105063845833439 0.455536603417579 0.0119450819201529 -0.161790747914725 -0.0310276034201643 0.0183493822827453 -0.022680657521218 -0.103089790324733 -0.106830259934621 0.125831803382309 -0.0699650515781859 -0.0867668906634361 -0.052224447277696 0.132988709977729 -0.451434790803052 -0.617562874053922 -0.13926999376453
c32 3.51121565406354 0.095867695227274 -0.312242746798981 -0.191967384970604 -0.151373529346866 0.086049996500106 0.18193931831087 -0.23468896696745 -0.562688490034852 0.451090133836158 -0.377488992042353 0.187319162703171 -0.298614198625731 -0.0050552531490182 -0.00956269107294852 0.0129761175464474 0.0287841961877684 -0.00346952065631274 0.158743955059012 0.157697192585094 -0.113688665944019 0.0343358939091809 -0.106312760268112 -0.187541888340343 0.167074020850303 -0.671166315216803 -0.186481589336074 0.406531588330506 0.0282216480559778 -0.16345655875832 0.0170220211711225 -0.0730585757306172 -0.0143812201351758 -0.010506384583266 0.45553660341763 0.011945081919991 -0.161790747914816 -0.0310276034199318 0.0183493822826839 -0.0226806575212654 -0.103089790324798 -0.106830259934453 0.125831803382334 -0.0699650515780974 -0.0867668906631814 -0.0522244472778323 0.132988709977728 -0.451434790802496 -0.617562874053962 -0.139269993764434
c33 3.47693695207242 -0.432868037258813 0.222182244486225 -0.455345525207093 -0.32966819407546 0.15456514964965 0.28484034902477 -0.280343912588214 -0.707964272683466 0.363196142119129 -0.517779155606961 -0.0233966651156644 -0.970726447625747 0.0180649695517057 -0.183072571671914 -0.029943802767317 -0.0453902372651454 0.0372369231923433 0.399622472061686 0.41075129534546 -0.23961982096187 0.20592147543247 0.0381385728635741 -0.42040151108935 -0.11728158410387 -0.770847065293558 -0.165349055612056 0.654990593860116 0.254766470262385 -0.324598132956458 -0.109921367908341 -0.234460219552199 -0.0764320110937837 -0.0309588654096468 0.150779685751918 0.086589611659823 -0.157101762655502 0.307341171251352 0.108366729896545 -0.0907774063716079 -0.395858344322338 -0.133834402676018 0.228844585949461 -0.126415883143418 -0.140501645001381 0.0566278555129252 0.0881953576955678 -0.783988655778727 -0.614378406140403 -0.237157728295268
c34 3.48109854323741 -0.501227222135946 0.31796947787636 -0.623149303392256 -0.436777127749837 0.10766897141665 0.263679278291542 -0.231607609448073 -0.516803765561016 0.376262845417217 -0.343979551824756 0.237682787408585 -0.281388331403769 -0.00773150399601427 0.00167972573413973 -0.0437703987721614 0.0984299567047209 -0.0332420213575627 0.0899939385905862 0.00398921268924185 -0.202762242337989 0.00678429593141859 -0.274334146825157 -0.316375516506374 0.441281167886443 -0.793769108053552 -0.171003667065575 0.431809716542137 -0.16464599761815 -0.169888263807137 0.0863668622799685 0.0573012580663292 0.0577754677028224 -0.0652799272046732 0.352935680537091 0.00355649489336821 0.116635209245816 -0.578391915698627 -0.00824562630056998 -0.108679930494638 0.329110186856325 -0.000448595539986475 0.0551450228801488 -0.144436023258196 -0.109704415451325 0.0352896767864554 0.154376131396517 -0.487942686580231 -0.72052263328497 0.204484246325941
c35 3.46010977394994 -0.869999716052975 0.736328363378287 -0.890417603356321 -0.604283269024846 0.105688960953952 0.316749638261893 -0.224309349446139 -0.464918911481707 0.360189233926556 -0.317749609005853 0.219717357870616 -0.324765779288103 -0.0069877332420396 -0.000315314460350201 -0.00659684410808872 0.236597808838462 -0.0881246911731082 0.102691974825317 -0.00573836010746868 -0.281552990484197 -0.0730775543345815 -0.490140081224565 -0.0836046912547747 0.500136044603248 -0.800766394627965 -0.285024165593877 0.0412450632909294 -0.195799028966121 -0.381301711014722 0.0339463230476274 0.130500420366311 0.136446494415131 -0.0938826492806381 0.603215268054734 0.171031302976215 0.146991185186034 -0.190942183770153 -0.0952385981420064 -0.0564576408720339 -0.0157910733397325 -0.221809861741726 0.112296970882228 -0.134623456214502 -0.197692123610168 -0.207916039544525 0.172933720672277 -0.231391622275114 -0.514339578673031 -0.298037115776598
c36 3.51653442110568 0.11392066747311 -0.270458176553774 -0.174631796237159 0.0428338779972459 -0.158746862837835 0.0366498396638872 -0.0444058448904941 -0.0152445010099847 0.0776137020081984 0.0318967281421835 -0.108224075828206 0.206810634416116 0.0374423448102602 -0.202247787716212 0.0147152922531728 -0.0242937659294717 0.0223061107304799 -0.155506239338777 0.14432326800822 0.00170499341818308 -0.0231507696348847 0.0573070474115619 0.0539903281173368 -0.051511900159829 -0.0518729638334103 0.0925453644883982 0.11587711517267 -0.134800231450515 -0.0293863079889816 -0.0826111216633208 -0.0266222509650161 0.0570715203320127 0.0500250741264184 0.290117250397316 -0.129596946188794 0.66138323829806 0.309545884657367 1.52287002883531 -0.277371625387035 0.504610225073397 -0.534612644627854 -0.276975398545189 0.162396736240761 0.069028400437096 -0.100973153563993 -0.0813857276815666 -0.0510132040966749 0.127792602332799 -0.175924299472163
c37 3.48482693845648 0.0822480074057231 -0.0595570827465655 -0.237837157864358 1.10304117518531 -0.702795969951385 -0.0369483242632174 -0.0147557652273377 0.107199529082879 0.262856144300514 0.0410418148705085 0.106550553953541 0.103867423587192 0.145725787952361 -0.299230543506194 0.0643622329277864 -0.0359173630568757 0.0487297697599359 -0.0386468694283754 0.143505198129132 -0.038357687133724 0.0176746242560284 0.0462779658443605 0.0278720974973063 -0.0611895904911097 0.0241449742081265 0.0660660095498691 0.212112331438537 -0.0842275689772605 0.12817797613228 -0.152153314098172 -0.012698116055244 0.0869021863966791 0.0408069887133663 0.320316693914792 -0.0360918266498923 0.658467718941699 0.284344290821906 1.6248642927677 -0.287284864373469 0.490587124981002 -0.611251985045269 -0.262644951276052 0.207630592057237 0.0876314949948546 -0.194546823219893 -0.139153497509426 0.0333959649973599 0.10373250685179 -0.324551713162387
c38 3.51653442110568 0.113920667473119 -0.270458176553781 -0.174631796237157 0.0428338779972387 -0.158746862837767 0.0366498396639104 -0.0444058448905391 -0.0152445010101021 0.0776137020082041 0.0318967281421728 -0.108224075828109 0.206810634416109 0.0374423448102453 -0.202247787716104 0.0147152922534382 -0.0242937659294064 0.0223061107304532 -0.15550623933874 0.144323268008064 0.00170499341821434 -0.0231507696351363 0.0573070474116586 0.0539903281176531 -0.0515119001594679 -0.0518729638333263 0.0925453644883208 0.115877115172683 -0.134800231450359 -0.0293863079892316 -0.0826111216628576 -0.0266222509653481 0.0570715203320064 0.0500250741263025 0.290117250397392 -0.129596946188892 0.661383238298215 0.309545884657241 1.52287002883525 -0.27737162538705 0.504610225073396 -0.534612644627867 -0.276975398545351 0.162396736240623 0.0690284004369038 -0.100973153563842 -0.0813857276815707 -0.051013204096912 0.127792602332756 -0.175924299472234
c39 3.51653442110568 0.113920667473104 -0.27045817655379 -0.174631796237167 0.0428338779972612 -0.158746862837751 0.0366498396638926 -0.0444058448904993 -0.0152445010100254 0.0776137020082161 0.0318967281421577 -0.108224075828075 0.206810634416087 0.0374423448102499 -0.2022477877161 0.0147152922534249 -0.0242937659293098 0.0223061107303544 -0.155506239338724 0.144323268008109 0.00170499341821929 -0.0231507696351309 0.0573070474117238 0.0539903281176639 -0.0515119001594677 -0.0518729638333119 0.092545364488261 0.115877115172691 -0.134800231450393 -0.0293863079890714 -0.0826111216630028 -0.0266222509651615 0.0570715203320227 0.0500250741263289 0.290117250397277 -0.129596946188778 0.661383238298202 0.30954588465731 1.52287002883526 -0.27737162538705 0.504610225073402 -0.534612644627875 -0.276975398545279 0.162396736240661 0.0690284004369918 -0.100973153563974 -0.0813857276816256 -0.0510132040969163 0.127792602332758 -0.175924299472454
c40 3.51653442110568 0.113920667473133 -0.270458176553791 -0.174631796237196 0.0428338779972532 -0.158746862837748 0.0366498396639011 -0.0444058448905819 -0.0152445010100309 0.0776137020081643 0.0318967281421229 -0.10822407582801 0.206810634416119 0.0374423448102863 -0.202247787716164 0.014715292253466 -0.0242937659293335 0.0223061107304192 -0.155506239338761 0.144323268008076 0.00170499341818494 -0.0231507696351146 0.0573070474116887 0.0539903281176581 -0.0515119001595294 -0.0518729638333507 0.0925453644883581 0.115877115172638 -0.134800231450366 -0.0293863079891824 -0.0826111216629549 -0.0266222509652884 0.0570715203319605 0.0500250741263023 0.290117250397321 -0.129596946188766 0.661383238298187 0.30954588465725 1.5228700288353 -0.277371625387075 0.504610225073406 -0.534612644628066 -0.276975398545289 0.162396736240689 0.069028400436811 -0.100973153563806 -0.0813857276816466 -0.0510132040970119 0.127792602332649 -0.175924299472286
c41 3.51405974847415 0.127655513008063 -0.322097116182236 -0.176733714141477 -0.158468085290941 -0.0412931885780015 0.0773774588900558 -0.0829192789577416 -0.0586668103764434 0.0119658277654864 0.0485998982869469 -0.355080914405879 0.553492309076546 0.0589419102022944 -0.317828039021114 -0.0985276933906257 -0.774068907706996 -1.26502043722541 0.925354261536014 -0.320076839313996 -0.0298304531331727 0.0340521460697592 -0.0592707968294045 -0.0587728049764091 0.0435921972262114 0.0234312768778038 -0.00753320522236 -0.0303586399508851 0.161294870910473 -0.0640433549703245 -0.0271048681566015 0.00205360976038818 -0.00298564801347094 -0.0189804970163568 -0.0150122832263788 0.0900047281722233 -0.0512082657523368 -0.0197201235422964 -0.0509765783419908 -0.00954772479434947 0.0838988674719791 -0.00877272036032805 -0.0166117171885861 0.00651414213151481 -0.0180575019630895 -0.00816397924774384 -0.0530525284243164 -0.00489880529604936 0.0447459682733612 -0.0708819364082833
c42 3.51122793277766 0.133380627952562 -0.334313835810834 -0.180780378906907 -0.166967339179397 -0.0461849434769354 0.0864760321534299 -0.0981327381247348 -0.0828428363958296 0.0101177487678731 0.143805921236537 -0.343583770254899 0.557021787963288 0.0652844008181718 -0.32927314867899 -0.108837906892915 -0.818535009629207 -1.34971591203135 0.997662513424971 -0.357883426427132 -0.066046022806303 0.0436727037273682 -0.0578409217051872 -0.0631506264323283 0.0252629927199543 0.0135407781091316 -0.0264125961914699 -0.0449193366140837 0.186533457206726 -0.0725539510169655 -0.0278948301845722 -0.010204696140719 -0.0141798892927752 -0.0187163734414227 -0.0274015233475099 0.101995319253897 -0.0676524218188964 -0.00205605365728603 -0.0560339434921649 0.0551430111731006 0.110883808773106 -0.00663457274900245 -0.0262506762539065 0.0132492160536913 -0.018792292098937 -0.00875794747012534 -0.0755409002651666 -0.00678744945101847 0.0313764734300217 -0.121823798492415
c43 3.51405974847415 0.127655513008058 -0.322097116182229 -0.176733714141481 -0.158468085290912 -0.0412931885779743 0.077377458890064 -0.0829192789576817 -0.0586668103763945 0.0119658277654873 0.0485998982870156 -0.355080914405894 0.553492309076504 0.0589419102022639 -0.31782803902111 -0.098527693390693 -0.774068907706995 -1.26502043722539 0.925354261535995 -0.320076839313994 -0.0298304531331514 0.0340521460698248 -0.0592707968293466 -0.0587728049765168 0.0435921972262367 0.0234312768778476 -0.00753320522241314 -0.0303586399508428 0.161294870910362 -0.0640433549701733 -0.027104868156838 0.00205360976053767 -0.00298564801357049 -0.0189804970162671 -0.0150122832264498 0.0900047281723205 -0.0512082657524442 -0.0197201235423008 -0.0509765783419007 -0.00954772479418327 0.0838988674720715 -0.00877272036030485 -0.0166117171886239 0.00651414213148065 -0.0180575019631393 -0.00816397924782182 -0.0530525284244247 -0.00489880529624283 0.0447459682733771 -0.0708819364082552
c44 3.51405974847415 0.127655513008026 -0.3220971161822 -0.176733714141456 -0.158468085290932 -0.0412931885779636 0.0773774588900614 -0.0829192789576457 -0.0586668103764754 0.0119658277654818 0.0485998982869951 -0.355080914405935 0.553492309076553 0.0589419102022294 -0.317828039021186 -0.0985276933910069 -0.774068907707159 -1.26502043722539 0.925354261535921 -0.320076839313944 -0.0298304531332054 0.034052146069906 -0.0592707968293634 -0.0587728049765835 0.0435921972260154 0.023431276877796 -0.00753320522242243 -0.0303586399506912 0.161294870910349 -0.0640433549701559 -0.0271048681569613 0.00205360976056576 -0.00298564801350361 -0.0189804970161165 -0.0150122832263821 0.0900047281723171 -0.0512082657525479 -0.0197201235422886 -0.0509765783419772 -0.00954772479430403 0.0838988674720152 -0.00877272036024774 -0.0166117171886196 0.00651414213159388 -0.018057501962998 -0.0081639792479945 -0.0530525284243875 -0.00489880529575797 0.0447459682732703 -0.0708819364083852
c45 3.47572657617414 -0.618518048450435 0.461133746020163 -0.687071248414265 -0.515824916496172 -0.00281572351324953 0.169153402557064 -0.0716121634514556 0.0209042208493112 -0.052593588043798 0.0881930106333798 -0.347371731317134 0.530902266103398 0.0443329842197496 -0.270485423812256 -0.0951006046073015 -0.90205112487378 -1.2360232842099 0.927981396741281 -0.463916638523457 0.00897289792242357 0.114148731022978 -0.109634910755832 -0.0787862774080769 0.0411825167100652 0.180684498987677 -0.141497675576659 0.019244630270112 -0.0628478303996748 0.408463167969333 0.137791338340581 0.0135498682336663 -0.0586418385239489 -0.0141550500593882 -0.116742266033781 -0.091997342346804 -0.0615200179052667 -0.0563355616633233 0.135968624711812 -0.0493378704749551 -0.334798801188561 -0.177319724663133 0.000152900487658958 0.0822593497382325 0.130202114484042 -0.0906197329810982 0.161173217143669 0.0832732498457542 -0.123746929715688 0.0795547153874838
c46 3.51405974847415 0.127655513008059 -0.322097116182216 -0.176733714141451 -0.158468085290935 -0.0412931885780159 0.0773774588900834 -0.0829192789576266 -0.0586668103764042 0.0119658277654742 0.0485998982870222 -0.355080914406016 0.553492309076546 0.0589419102022449 -0.317828039021197 -0.0985276933909591 -0.774068907707114 -1.26502043722544 0.925354261535988 -0.320076839313889 -0.0298304531332226 0.0340521460700396 -0.0592707968294701 -0.0587728049765307 0.0435921972260432 0.0234312768777346 -0.00753320522226166 -0.0303586399507666 0.16129487091035 -0.0640433549701136 -0.0271048681569933 0.00205360976061303 -0.00298564801351332 -0.0189804970161988 -0.0150122832263547 0.0900047281722399 -0.0512082657526218 -0.0197201235422189 -0.0509765783419239 -0.00954772479427291 0.0838988674718846 -0.00877272036017349 -0.0166117171886453 0.00651414213166929 -0.018057501963048 -0.00816397924793133 -0.0530525284243993 -0.00489880529573458 0.0447459682732519 -0.070881936408233
c47 3.51405974847415 0.127655513008041 -0.322097116182202 -0.176733714141433 -0.158468085290906 -0.0412931885779702 0.0773774588900604 -0.0829192789577045 -0.058666810376469 0.0119658277654476 0.048599898286991 -0.355080914405981 0.553492309076515 0.0589419102022842 -0.317828039021176 -0.0985276933911296 -0.774068907707285 -1.26502043722534 0.925354261535946 -0.320076839313831 -0.0298304531331966 0.0340521460700239 -0.0592707968294357 -0.0587728049766405 0.0435921972259969 0.0234312768777111 -0.00753320522235386 -0.0303586399507926 0.161294870910345 -0.0640433549701596 -0.0271048681570526 0.00205360976049715 -0.00298564801357069 -0.0189804970161503 -0.0150122832262596 0.0900047281722361 -0.051208265752655 -0.0197201235422676 -0.0509765783418916 -0.00954772479431838 0.0838988674719625 -0.00877272036021768 -0.0166117171886434 0.006514142131599 -0.0180575019628485 -0.00816397924810497 -0.0530525284244712 -0.00489880529557194 0.0447459682733577 -0.0708819364082599
c48 3.51405974847415 0.127655513008056 -0.322097116182225 -0.176733714141469 -0.158468085290921 -0.0412931885780017 0.077377458890088 -0.0829192789577045 -0.0586668103764116 0.0119658277654897 0.0485998982870055 -0.355080914405899 0.553492309076494 0.05894191020224 -0.317828039021094 -0.0985276933907655 -0.77406890770709 -1.26502043722545 0.925354261535987 -0.320076839313951 -0.0298304531331819 0.0340521460698407 -0.0592707968294183 -0.0587728049765346 0.0435921972261269 0.0234312768778291 -0.00753320522239589 -0.030358639950898 0.161294870910489 -0.0640433549702907 -0.027104868156763 0.00205360976050732 -0.00298564801345075 -0.0189804970162726 -0.0150122832263304 0.0900047281722953 -0.0512082657524481 -0.0197201235424016 -0.0509765783419718 -0.00954772479420119 0.0838988674720669 -0.00877272036030985 -0.0166117171885299 0.00651414213159026 -0.0180575019630709 -0.00816397924795538 -0.0530525284243774 -0.00489880529607058 0.0447459682733673 -0.070881936408434
c49 3.51697778840185 0.124224696949683 -0.302412480981316 -0.151323019919823 -0.129178002933879 -0.0334398688251621 0.0507773054842024 -0.0562068879205962 -0.0399918664591216 0.0116212060658747 0.0202383967750829 -0.166651914824292 0.210940239645225 0.0221430666965096 -0.110473372526905 -0.0162349907635209 -0.0229308088004828 0.00781127674680132 -0.178358318012435 0.11983887363747 0.014285964488377 -0.0440982117190917 0.0573116995581634 0.0514555198851182 -0.0345347856703847 -0.0793883544833796 0.0706242961673647 0.0258016376766173 -0.148353576884062 -0.11433975699607 -0.0366207766028736 -0.00240744100955033 0.0455397929362103 0.0423302593323151 0.131698972275357 -0.175626989736538 0.263031503181018 0.135913221039493 0.0924468323001223 0.0307164824241497 -0.0745669935239869 0.526879078517609 0.28618280041804 -0.475242674139757 -0.263699891353078 1.65200858774372 2.16328849342257 0.446047227061473 0.374669703373236 -0.817172312159839
c50 3.51697778840185 0.124224696949639 -0.302412480981239 -0.15132301991972 -0.129178002933951 -0.0334398688252277 0.0507773054842432 -0.0562068879208249 -0.0399918664590841 0.0116212060660102 0.0202383967750223 -0.166651914824748 0.210940239645471 0.0221430666965812 -0.110473372526879 -0.0162349907584918 -0.022930808800405 0.00781127674650904 -0.178358318012098 0.119838873637222 0.0142859644884405 -0.0440982117190863 0.0573116995587781 0.0514555198840861 -0.0345347856709844 -0.0793883544836883 0.0706242961677886 0.0258016376760542 -0.148353576884293 -0.114339756995938 -0.0366207766035021 -0.00240744100938493 0.0455397929344254 0.0423302593333044 0.131698972275276 -0.175626989736912 0.263031503180319 0.135913221038916 0.0924468322997124 0.0307164824227774 -0.0745669935231382 0.526879078516756 0.286182800417259 -0.475242674141522 -0.263699891352419 1.65200858774451 2.16328849342218 0.446047227062067 0.374669703375157 -0.817172312160495
c51 3.4344594092482 0.105218474549162 0.488851640266899 1.48072957184194 0.117307031764824 -0.0482666524442259 -0.0671734567322401 -0.0275067015794154 -0.157088585804527 -0.171646889851124 -0.171429633605877 -0.0479811336938538 -0.760859065282401 -0.145764892300754 0.0113865471877603 0.0955044281656467 -0.0422646162068585 0.00214442180763321 0.464281587614193 0.381586631157677 0.824508010237883 -0.136153867832014 -0.23100869847814 -0.0998295973849717 0.572313990851149 0.124143269865579 0.191391048157893 0.261658675862177 0.165301684064077 -0.0161858319547555 -0.0559527438399395 0.123551146584203 0.187068201873745 -0.10315578906852 -0.372997796309852 0.0934882383390874 0.0580596149494433 0.1632231560193 0.0923602864934477 0.43146780559867 -0.0353027076210866 0.076026895947273 -0.0918456233449238 0.103244058552606 0.121045136683265 -0.00694710399991753 -0.0847870709637682 0.401775695425448 0.300803182080094 0.110963245303934
c52 3.4375726497056 -0.674617348037895 0.667678246472723 -0.590117878377331 1.19056020909198 0.445547108876217 -0.0937119358789896 0.152167561988842 0.408859370516109 0.499035948964534 0.227893689315267 0.0435513023170071 -0.137491432441792 0.00402335196592407 -0.0948819755328146 -0.0316665347534359 0.164489520013001 -0.0935610407056688 0.109661810030106 -0.0707371267327696 -0.213131085216539 -0.0957440166226174 -0.166113446998241 0.0458812444067706 0.090351654697038 0.165069912403634 0.139842947601894 -0.432500182456991 0.0518740048860037 -0.55867386150747 -0.201110269547039 0.123692696079359 0.0830311529209508 0.0445383650541995 0.358742384353748 0.466402372104844 -0.0730041758523723 0.11248958002975 0.0529761984440303 0.146463191807897 -0.391967080853719 -0.188285174404519 -0.0140785824451702 -0.0101681056903927 0.106440437712068 0.0468105215725926 0.0599201803362494 -0.0794171194288783 0.22290441239902 0.265525492375765
c53 3.51658474508126 0.125045876946743 -0.307239809309398 -0.157717241727772 -0.136198453983157 -0.035418608021353 0.0568261360914679 -0.0621457429188242 -0.0438039566285542 0.011996106701828 0.0246087881228951 -0.197316937681329 0.259165836519322 0.0259446998862104 -0.135548762811645 -0.022777756157958 -0.0389260713932007 0.0166570827221879 -0.278310213239818 0.202626236355187 0.0489402184147382 -0.0805988735277643 0.172763142026815 0.0395602345042479 0.02627478339583 -0.143972634692292 0.193391508887787 0.235582065004677 -0.865436441411532 -0.298409770153614 -0.626090715112049 0.620577898839451 -1.33643081848655 -0.451361256954564 -0.403700382951144 0.363582875861692 -0.382460700130673 0.0902854114531091 -0.113853372340397 -0.0955270091282973 -0.0223037155813252 -0.238750513136879 -0.124765421345373 0.0865388110888447 0.0276694548755964 -0.217045449248729 0.064054362526266 0.243562591669184 -0.186875367231722 -0.142332482820999
c54 3.51658474508126 0.125045876946737 -0.307239809309429 -0.157717241727799 -0.136198453983157 -0.0354186080213223 0.056826136091427 -0.0621457429188043 -0.0438039566286199 0.0119961067018409 0.0246087881229214 -0.197316937681224 0.259165836519267 0.0259446998861597 -0.135548762811527 -0.0227777561577826 -0.0389260713930038 0.0166570827220698 -0.278310213239703 0.202626236355072 0.048940218414749 -0.080598873527927 0.172763142026753 0.0395602345044206 0.026274783396043 -0.143972634692191 0.193391508887855 0.235582065004633 -0.865436441411519 -0.298409770153685 -0.626090715111949 0.620577898839379 -1.3364308184866 -0.451361256954563 -0.403700382951201 0.363582875861802 -0.382460700130623 0.0902854114530573 -0.113853372340606 -0.0955270091281313 -0.0223037155812816 -0.238750513137065 -0.124765421345513 0.0865388110888037 0.0276694548753131 -0.217045449248567 0.0640543625263135 0.243562591668932 -0.186875367231812 -0.142332482820798
c55 3.51658474508126 0.125045876946688 -0.307239809309267 -0.15771724172766 -0.136198453983142 -0.0354186080214177 0.056826136091493 -0.0621457429188064 -0.0438039566285603 0.0119961067017677 0.0246087881229127 -0.197316937681462 0.25916583651939 0.0259446998862016 -0.135548762811879 -0.0227777561586675 -0.0389260713938325 0.0166570827223345 -0.278310213239872 0.202626236355412 0.0489402184146915 -0.0805988735271651 0.172763142026633 0.0395602345037095 0.026274783395039 -0.143972634692596 0.193391508887977 0.23558206500486 -0.865436441411882 -0.298409770153154 -0.626090715112809 0.620577898840034 -1.33643081848668 -0.451361256954288 -0.403700382950912 0.363582875861612 -0.38246070013116 0.0902854114532896 -0.113853372340002 -0.095527009128003 -0.0223037155814289 -0.238750513136494 -0.124765421345098 0.0865388110892472 0.0276694548766251 -0.217045449249339 0.0640543625262648 0.243562591670431 -0.186875367231333 -0.14233248282108
c56 3.50613385921006 -0.0959448473582624 -0.0689556676091036 -0.318213851631378 -0.238653804176722 -0.0272378630618998 0.091361001879086 -0.0646278991517536 -0.024137041560618 -0.00622779067738968 0.0504951805022488 -0.183984576512592 0.254756395024374 0.0127640357501204 -0.113188901076134 -0.0294942425932714 -0.074233008046835 0.0416717729484949 -0.276881314965439 0.226943611935115 0.109746465844632 -0.0673976532593283 0.263850645076943 -0.087119793837929 0.182692728447033 -0.0547134861148097 0.154856922095259 0.342327451966387 -0.997711991867161 -0.118604895259882 -0.605078612178231 0.638211725088838 -1.42625026651221 -0.441613154909479 -0.427345588660936 0.410066486564572 -0.351105720130263 -0.137540938671476 -0.0509389934367925 0.0137229059326104 0.0529251619599255 -0.101217749894964 -0.00676060091537031 0.07162190046393 0.0386149447744423 0.0522731557478338 -0.179583429869757 -0.220935585119334 0.323831198507763 -0.15924365392851
c57 3.51658474508126 0.125045876946691 -0.30723980930933 -0.157717241727693 -0.136198453983141 -0.0354186080214256 0.0568261360914961 -0.0621457429188204 -0.0438039566286367 0.011996106701742 0.0246087881229309 -0.197316937681444 0.259165836519366 0.0259446998861851 -0.13554876281178 -0.0227777561584789 -0.038926071393647 0.0166570827223223 -0.278310213239863 0.202626236355361 0.0489402184147376 -0.0805988735273174 0.172763142026584 0.0395602345037095 0.0262747833952365 -0.143972634692538 0.193391508888018 0.235582065004746 -0.865436441411899 -0.298409770153214 -0.626090715112801 0.620577898839824 -1.33643081848664 -0.451361256954269 -0.403700382950978 0.363582875861641 -0.382460700131127 0.090285411453333 -0.113853372340075 -0.095527009128042 -0.0223037155814408 -0.238750513136654 -0.124765421345341 0.0865388110890566 0.0276694548762804 -0.217045449249106 0.0640543625261828 0.243562591670058 -0.18687536723147 -0.142332482820977
c58 3.44715449905744 -0.549511886862097 -0.132406038543553 0.869447386373845 1.09279891279319 -0.704681769765476 -0.0665777352864547 -0.0881562235283022 0.296304756423307 0.135396629638706 -0.0812018862205825 0.265348898383718 -0.235256521657863 -0.39362681395256 -0.101644681954617 0.208134209796858 -0.0692523700142615 0.0243858104083358 0.246969453797591 0.213940804728016 0.516425786123965 -0.0196419267981255 0.0113420428722797 -0.0803739324396607 -0.47334022295292 0.213093590077868 -0.708178249106048 -0.258884341234426 -0.296336155894837 -0.251771264714801 0.336231868500695 0.231931088111176 0.184710038822034 -0.212898313132152 0.0822929496512027 -0.00193690312966905 -0.158794192938373 -0.290121373858709 -0.152358105373124 0.0532696132806124 0.318302717726586 -0.0500574378895759 -0.00879168131237612 -0.0314116745982495 0.0533211036795547 -0.0740126540359926 -0.0600032104148801 -0.0645993340597996 -0.0769812634844361 -0.1334960798045
c59 3.51540972187643 0.106806442606207 -0.294347365115111 -0.0960083118685961 -0.101852978408985 -0.0882573869216818 0.101665428666413 -0.214682081441054 0.215342287025384 -0.0487941371640359 -0.00369935645272879 -0.0134463665288965 -0.0299982149051804 -0.410363421279555 -0.0499550899618838 0.0735276423928619 -0.0193503654708224 0.00594167286838979 0.0346150523230633 0.150252598755713 0.451087893738199 -0.0899852591116754 -0.0683633756201614 -0.00740796841045326 0.12466727226598 0.150420382606665 0.105760086716628 0.0182865771326668 -0.0850448075500946 -0.217087477761957 0.179612698232375 -0.0183416813074216 0.00333955434245649 -0.0115935529708061 0.0699225502683383 -0.0328698624568393 0.0217634414998525 -0.000602737183668713 0.0206466945653675 0.139520496384232 0.0525084854490024 0.0425911364618333 0.0335596245257596 -0.0863453395936078 0.0631982309387481 0.0295630299138408 0.00726943354083252 -0.0455757123638391 -0.123207070250546 0.0631288491816056
c60 3.48581731275495 -0.324916434433349 0.173318472098146 -0.272833277284164 -0.254133943988914 -0.0946451806682347 0.186045800347402 -0.269949015854862 0.229123427463055 -0.15263726371623 0.151955753761928 0.005979392646854 -0.285449284792221 -0.585706477145522 0.0686168829489173 0.348012066810266 0.00211645604101597 -0.00363316382750271 0.270298951481281 0.395404132143842 1.40220228501136 -0.272353984061879 -0.250992072215783 0.0153369425976703 0.549339387659636 0.376018288674432 0.442304775847401 -0.10276835309067 0.0465170819686872 -0.391735906548839 -0.131252458709 -0.0582397204341439 0.0803131147124431 -0.0784246373291688 0.0171119820285889 -0.214204435199769 -0.211280401230097 0.199098806372503 0.0546999188029927 0.467952343227779 0.179412879240987 -0.0459970236923237 -0.117285955519354 -0.173660751042385 0.0830462570162993 0.0392107579528185 0.0250308105683398 -0.363389710738529 0.097714914579251 0.0400949259270664
c61 3.49178684898182 0.242159103721422 -0.372016017364086 -0.115021096160122 -0.221807105078034 -0.190871758860988 0.352103914016063 -0.907708210692085 1.37550596818434 -0.229133455376918 -0.267910783936019 0.473367616432779 -0.481684959178689 -2.07575706316533 -0.0147526458370658 -0.127600251605134 0.0614465667638522 -0.0163294028565229 0.157736052281453 -0.202860461737151 -0.115239789323807 0.05446021286066 -0.0430168933695697 -0.0426420904602361 0.0313147108488896 0.0433463396996332 -0.0287020675279597 0.00614285934220596 0.123877053704562 0.231987822360631 -0.322775949587411 0.119485997798854 0.138731150814801 -0.0487448981498445 -0.0293813333150972 0.0788076673075653 -0.127093324898452 -0.0741600217230058 -0.0634086171747071 0.059535651764953 0.0350212759247973 -0.23142594687022 -0.225428721592349 0.84666516722729 -0.738893661411949 0.229006168361076 0.0906881110673895 -0.0584996272396393 -0.0248650851947493 0.0464356075653612
c62 3.5212254464824 0.116097676675383 -0.284371748366708 -0.142830859437185 -0.119595499175558 -0.0297941656723556 0.0440816677098842 -0.0481146305611797 -0.0330213014011812 0.00978799912245943 0.0165413423781038 -0.131897794178401 0.161745239385739 0.0164428024673202 -0.0835542579790503 -0.0113322874151995 -0.015483000757274 0.00474677666567375 -0.115895463823524 0.0743654536647054 0.0101844246937536 -0.0246292750422641 0.0318591269562586 0.0272150541896195 -0.0200306652027305 -0.0410835684943073 0.0348375929687815 0.0120082086237319 -0.0673069566443301 -0.0502276505559718 -0.0177373641996626 9.83507839574591e-05 0.0192119741283617 0.0145794692547009 0.0469034637732363 -0.0579159710472571 0.0751029105352991 0.0334362310399291 0.0192191350844669 0.00297909834006179 -0.0134606252111416 0.0689517211816795 0.0303037748911889 -0.0438426464884819 -0.021339503268258 0.0544710122642688 0.0406496376639368 -0.0226735012568661 -0.0343199796296986 0.157003584593473
c63 3.51568842879036 0.109773710084271 -0.293157227783953 -0.179764142951444 -0.157965628012544 -0.035430626293718 0.0721547914247306 -0.066489520560026 -0.035689459305514 0.00608042263039305 0.0359788974188374 -0.223723748479237 0.299280012772586 0.027674101135788 -0.158574543484343 -0.0392185852632674 -0.0817561962423589 0.0316016675302091 -0.467296329548962 0.371482194093897 0.0776488472754384 0.0109778274722792 1.33984950202486 -0.494944043978933 0.77163759184738 0.16933192078783 -0.502200047977573 -0.315480344205961 0.65825606577463 -0.0266360794302486 0.07184964768009 0.028404303997906 0.150295410393534 0.0110910101254933 0.215431489919137 0.337581838038807 -0.0736359228168332 0.0315693043301952 -0.108842646788738 -0.000997249135246867 -0.0879370496815105 -0.160783642194723 -0.0339830371462546 0.0516889003825953 -0.0546285544786171 -0.294470379923679 0.110123287674013 0.290086492876628 -0.213980282899762 -0.102139318230715
c64 3.47274921511901 -0.696178988174877 0.576676430914067 -0.745238020185476 -0.541363314274636 0.00812331333451045 0.172012298857334 -0.0535081243570559 0.0572225909388416 -0.00567630234478395 0.075972709703046 -0.180549411565579 0.252586400057819 0.0186608599510689 -0.124085496269406 -0.0796449320448503 -0.270294283072641 0.102320746375716 -0.453561823767174 0.451101241289867 0.0471200755604646 0.255672060137932 1.65074947215357 -0.737614376291805 0.532441444982687 0.383406923836478 -0.388764201633211 0.0501045251685929 0.646259161376101 0.276318926466157 0.180985551707911 0.0187743921756191 0.00285794301910119 0.00181797646036433 -0.194883343862464 0.0461165699028868 -0.14244834780964 -0.19410948137254 0.0201111782647327 -0.0810071433346047 -0.00480701779057606 -0.0176431548469167 0.0103444846942331 0.175425233189554 0.270832407770507 0.437847743552914 -0.270798184598845 -0.100273130388931 -0.227437958530727 -0.252643060338959
c65 3.51568842879036 0.109773710084233 -0.293157227783905 -0.179764142951376 -0.157965628012564 -0.0354306262937522 0.0721547914248083 -0.0664895205599261 -0.0356894593055807 0.00608042263033434 0.0359788974188137 -0.223723748479408 0.299280012772603 0.0276741011357924 -0.158574543484469 -0.0392185852639701 -0.0817561962427168 0.031601667530302 -0.467296329549081 0.371482194094103 0.0776488472754403 0.0109778274725474 1.33984950202471 -0.494944043979345 0.771637591846784 0.169331920787612 -0.502200047977369 -0.315480344205857 0.658256065774504 -0.0266360794300263 0.0718496476794125 0.0284043039982031 0.150295410393415 0.0110910101257415 0.215431489919259 0.337581838038709 -0.0736359228172748 0.0315693043304725 -0.108842646788601 -0.00099724913523733 -0.0879370496817252 -0.160783642194454 -0.0339830371460706 0.0516889003828697 -0.0546285544779601 -0.294470379924052 0.110123287673938 0.290086492877525 -0.213980282899554 -0.102139318230971
c66 3.51568842879036 0.109773710084246 -0.293157227783905 -0.179764142951393 -0.157965628012554 -0.0354306262937257 0.0721547914247615 -0.0664895205599664 -0.0356894593055302 0.00608042263034207 0.0359788974188607 -0.223723748479294 0.299280012772566 0.0276741011358233 -0.158574543484315 -0.0392185852637399 -0.0817561962425899 0.0316016675302057 -0.467296329548972 0.371482194094018 0.0776488472754684 0.0109778274724182 1.33984950202485 -0.494944043979088 0.771637591847054 0.16933192078766 -0.502200047977499 -0.315480344205925 0.658256065774645 -0.0266360794300604 0.0718496476797111 0.0284043039980242 0.150295410393437 0.0110910101255753 0.215431489919302 0.337581838038688 -0.0736359228169926 0.0315693043302096 -0.1088426467885 -0.000997249135204648 -0.087937049681703 -0.160783642194498 -0.0339830371461614 0.0516889003827327 -0.0546285544783363 -0.294470379923927 0.110123287673974 0.290086492877233 -0.213980282899516 -0.10213931823077
c67 3.51568842879036 0.109773710084239 -0.293157227783934 -0.179764142951403 -0.157965628012542 -0.0354306262937177 0.0721547914247403 -0.066489520559944 -0.0356894593055461 0.00608042263038776 0.0359788974188713 -0.223723748479258 0.299280012772568 0.0276741011358156 -0.158574543484275 -0.039218585263587 -0.0817561962424316 0.0316016675301223 -0.467296329549013 0.371482194093963 0.0776488472754804 0.0109778274723109 1.33984950202474 -0.494944043979049 0.771637591847105 0.169331920787726 -0.502200047977529 -0.315480344205961 0.658256065774625 -0.026636079430215 0.071849647679804 0.0284043039979141 0.150295410393514 0.0110910101255584 0.215431489919165 0.33758183803869 -0.0736359228170166 0.0315693043304039 -0.108842646788695 -0.000997249135263221 -0.0879370496816674 -0.160783642194492 -0.0339830371461765 0.0516889003826566 -0.0546285544783672 -0.294470379923854 0.110123287673987 0.290086492877158 -0.213980282899644 -0.102139318230628
c68 3.45161174191612 -1.0787584300604 0.982661102185147 -1.04167235233183 -0.717256589892436 -0.0132009518513607 0.229222986616935 -0.0612450697383933 0.0795210197262614 -0.100287068160977 0.132396992166495 -0.191765869078355 0.239812505252127 -0.00336648854933398 -0.11813214593185 -0.0434974524071621 -0.0165672070458989 0.00395665450591941 -0.46477516268317 0.306431745409662 0.127107842887876 -0.0520003215211323 1.21676520041655 -0.532307448386264 1.07139502217293 0.136882127926849 -0.518077316950719 -0.537201685626483 0.507856783386891 -0.0485340857800892 -0.060246294386768 0.00548327708310991 0.00355605519972735 -0.0725915786597846 0.0421592129726987 0.224534752848922 -0.129950799887607 0.059350656383252 -0.037022901475485 0.0597386124419955 0.108450219986268 -0.0744316591476706 -0.0663887011747783 -0.0989643745556975 -0.157361245679774 -0.233514445302031 0.0276595358195605 -0.241349425231228 0.62524027721354 0.0751540417930858
c69 3.49469060562231 -0.319787010399312 0.215258370449431 -0.42313871625125 -0.331541675952202 0.0355610121865635 0.121855119548916 -0.0535406942990225 -0.00457134503004081 -0.0984321983636788 0.0230892718098096 -0.218834430637225 0.104185876563938 -0.023309094828403 0.00165731976378594 0.206315165672922 -0.22353028342542 0.0598760847125588 -0.0128063082644429 0.257782461425618 0.494749816593116 -0.00146663504182744 0.168335329291769 0.278355358841057 -0.677061788517331 -0.0399061855166384 -0.0389636085232722 -0.264794523582096 0.0524054302922444 0.935905365361088 -0.257267338891953 -0.706194637197845 -0.742758579771101 0.496815546911643 0.382008267446516 0.0737004065034517 0.107858589654669 0.0784718357133362 0.0904849002080868 -0.00690537057112712 -0.688097229944063 -0.148439586897851 0.201107164712516 -0.00624043315303539 -0.0078913073211084 -0.187946968000715 0.269758947382437 -0.351917646777937 0.122039478817848 0.141783886515539
c70 3.50618334824416 0.0600617690468599 -0.355071564295961 -0.0777763449069536 -0.147277405922866 -0.0230525757617652 0.0701215254706805 -0.0773702498316136 -0.0503825121751325 0.0140947031715684 0.0277421844759716 -0.545689015456407 0.759519774588676 0.0761942778776281 0.0143756017429264 -0.603332353170979 1.52208843374204 0.649188265766222 1.10098664256172 -0.161821950478419 0.244614385243207 0.806488390693255 -0.173748328033353 -0.273496672882865 -0.117487378233698 0.251279906307693 -0.100419023975059 0.0621271325096075 0.481666999612213 0.319865232684273 0.0208070043413689 -0.432531089519683 -0.307355538873999 -1.46779770989921 0.253447391964148 -0.04664964756991 0.262158002436125 -0.131209125207001 -0.0671553790401626 0.0219672497035478 0.000220767364958168 -0.060001973133193 0.0202243155673565 0.0165879013428526 0.0347094517654549 -0.0148796130943066 0.0234354787258466 0.0726838211835914 0.0222151518428081 -0.0170750239522383
c71 3.51337634791482 0.0466391817755955 -0.319195035318378 -0.0608976137058384 -0.160407124001102 -0.0644958903093458 0.0638091800774108 -0.0638230561044075 -0.0429641569088713 0.00279553779457066 0.0079880621215 -0.3122043208659 0.578669917351353 0.070765986989986 -0.208731816271422 -0.325672148822921 1.14463655098311 0.470559065139385 0.920661731314228 -0.17003324068741 0.0901935991957269 -0.389779614190515 0.304054140235062 -0.0622521586142045 -0.18156651111672 -0.00983334468203191 0.0388634996751969 0.223622134385889 -0.0400084574801538 0.127621601732499 0.0753874187990716 0.0728194732196577 0.0891862124788752 0.431060633208194 -0.160555072166807 0.0312325075049529 -0.12332880064587 -0.0301432469550314 -0.041628686799793 -0.0129196296508789 -0.0142582123046685 -0.0776478930584891 -0.0579885128559319 0.0371883906273429 0.0526290375541143 -0.0365075284349267 0.0278438238270095 -0.00872277570478211 -0.0682763082718257 -0.0876906556714396
c72 3.51337634791482 0.0466391817756261 -0.319195035318408 -0.0608976137058297 -0.160407124001085 -0.0644958903094028 0.0638091800774197 -0.0638230561044185 -0.0429641569088227 0.0027955377945902 0.0079880621214666 -0.312204320865918 0.578669917351375 0.0707659869899606 -0.20873181627143 -0.325672148822851 1.14463655098312 0.470559065139273 0.920661731314253 -0.170033240687418 0.0901935991957246 -0.389779614190498 0.304054140235065 -0.0622521586142882 -0.181566511116711 -0.00983334468206743 0.038863499675055 0.223622134385928 -0.0400084574801687 0.127621601732468 0.0753874187991264 0.0728194732196234 0.0891862124788703 0.431060633208164 -0.160555072166815 0.0312325075050129 -0.123328800645901 -0.0301432469550196 -0.0416286867997334 -0.0129196296510099 -0.0142582123045649 -0.0776478930584334 -0.0579885128560168 0.0371883906272346 0.052629037554108 -0.0365075284350282 0.027843823826872 -0.00872277570470195 -0.068276308271826 -0.0876906556715314
c73 3.51337634791482 0.0466391817755829 -0.319195035318359 -0.0608976137058272 -0.160407124001085 -0.064495890309382 0.0638091800774758 -0.0638230561044616 -0.042964156908771 0.00279553779458461 0.00798806212147615 -0.312204320865996 0.578669917351376 0.0707659869899586 -0.20873181627154 -0.325672148823209 1.14463655098298 0.470559065139387 0.920661731314251 -0.170033240687323 0.0901935991957335 -0.389779614190471 0.304054140235061 -0.0622521586143056 -0.181566511116812 -0.00983334468217564 0.0388634996751087 0.223622134385994 -0.0400084574801365 0.127621601732469 0.0753874187989058 0.0728194732195828 0.0891862124788026 0.431060633208225 -0.160555072166682 0.0312325075048542 -0.123328800645995 -0.0301432469549197 -0.0416286867996442 -0.0129196296509911 -0.0142582123045591 -0.0776478930583337 -0.0579885128559901 0.0371883906273226 0.052629037554274 -0.0365075284351125 0.0278438238270084 -0.0087227757044229 -0.0682763082717104 -0.0876906556716018
c74 3.43673187532313 -1.34088929054964 0.472552039171545 0.417440859177546 -0.397197438083319 -0.112898445894301 0.0482631031774031 0.0282641249662834 0.0688158559067683 -0.0748456960571558 -0.0395461757243295 -0.0949521080376404 0.374515265904751 0.0663467664663081 -0.103978695822472 -0.317252965730404 1.20254376305694 0.314341478744488 0.887272449131252 -0.237719359205664 -0.193754880312578 -0.414699762902973 0.074891895112799 -0.00781695304255675 -0.315732578013213 0.183745034091321 0.0960815677654453 -0.16803715611395 0.210423979174451 -0.597178277497321 -0.250012274800417 0.0883490289993903 0.0938696975086462 0.358345964997099 0.173425567743181 0.545216938248574 -0.207820781072585 0.190274459467354 0.163614881970945 0.0499708104240124 -0.244786604336243 0.042680547873845 0.108440045276437 0.12071371213966 0.0211780512220076 0.135347830373636 -0.251779625378576 0.343422732876594 -0.0675043327225505 -0.0830190469312423
c75 3.51337634791482 0.0466391817756067 -0.31919503531838 -0.0608976137058129 -0.160407124001066 -0.0644958903093476 0.0638091800774382 -0.0638230561044486 -0.0429641569088036 0.00279553779452186 0.00798806212151876 -0.312204320866016 0.578669917351382 0.070765986989995 -0.20873181627157 -0.325672148823085 1.14463655098307 0.470559065139353 0.920661731314306 -0.170033240687356 0.0901935991957034 -0.389779614190501 0.304054140235077 -0.0622521586143278 -0.181566511116847 -0.00983334468204545 0.0388634996752183 0.223622134385994 -0.0400084574802283 0.127621601732639 0.0753874187988009 0.0728194732197551 0.0891862124788992 0.431060633208238 -0.160555072166867 0.0312325075049415 -0.123328800646043 -0.030143246955038 -0.0416286867998016 -0.0129196296509679 -0.0142582123045849 -0.0776478930584269 -0.0579885128559485 0.0371883906272901 0.0526290375543463 -0.0365075284350922 0.0278438238269758 -0.00872277570455783 -0.0682763082717262 -0.0876906556716145
c76 3.51337634791482 0.0466391817756034 -0.319195035318394 -0.0608976137058211 -0.160407124001075 -0.0644958903094017 0.0638091800774358 -0.0638230561044443 -0.042964156908804 0.0027955377945423 0.00798806212147639 -0.312204320865953 0.578669917351381 0.0707659869900069 -0.208731816271408 -0.325672148822781 1.14463655098321 0.470559065139234 0.920661731314348 -0.170033240687429 0.0901935991957266 -0.389779614190627 0.304054140235136 -0.062252158614155 -0.181566511116727 -0.00983334468199029 0.0388634996750239 0.223622134385991 -0.0400084574801335 0.127621601732465 0.0753874187990217 0.0728194732196705 0.0891862124789246 0.43106063320813 -0.160555072166916 0.0312325075049736 -0.123328800645939 -0.0301432469550382 -0.0416286867997866 -0.0129196296509493 -0.0142582123045642 -0.0776478930585032 -0.0579885128560402 0.037188390627209 0.0526290375542563 -0.0365075284350098 0.0278438238269623 -0.00872277570485456 -0.0682763082717483 -0.0876906556714289
c77 3.47208994907216 -0.732030432297881 0.53092852996599 -0.636554706158637 -0.536393688577486 -0.090547811849057 0.167830589280736 -0.0569976792116083 0.0408886847138273 -0.0629487045874359 0.0699333696871396 -0.291916707496586 0.614351122710539 0.0654905085123044 -0.221323391496491 -0.301970559251737 1.34373940259077 0.38840949423515 0.823479722008929 -0.37385677295569 0.0671035542671589 -0.483827463817047 -0.0333690722794007 0.0627412406645366 0.51259116068147 -0.197047599334569 -0.227684673719605 -0.139873558678992 -0.377689324067275 0.283749495326799 0.154745011454927 0.198053144223861 0.0877505822718306 0.347679529985889 -0.331425103473996 -0.246448511828466 -0.0695268835786231 -0.080816405522867 -0.0309725324628287 -0.0465888216447942 0.284831993076047 0.0362075061560917 -0.0183026268563714 -0.11727530560551 -0.161566427408458 -0.108690758176992 0.0101649299786575 -0.28621645359091 0.339213864294222 0.114504219487185
c78 3.51337634791482 0.0466391817756271 -0.319195035318414 -0.0608976137058627 -0.160407124001081 -0.064495890309342 0.063809180077408 -0.0638230561044605 -0.0429641569088093 0.00279553779459542 0.00798806212142759 -0.312204320865815 0.578669917351332 0.0707659869900193 -0.208731816271393 -0.325672148822522 1.14463655098333 0.470559065139271 0.920661731314343 -0.170033240687439 0.0901935991957066 -0.389779614190728 0.304054140234995 -0.0622521586139567 -0.181566511116419 -0.00983334468202064 0.0388634996750781 0.223622134385799 -0.0400084574800457 0.127621601732488 0.0753874187993667 0.0728194732196988 0.0891862124789963 0.431060633208137 -0.16055507216686 0.0312325075050816 -0.12332880064577 -0.030143246955054 -0.0416286867998226 -0.0129196296508829 -0.0142582123046241 -0.077647893058434 -0.0579885128559289 0.0371883906272189 0.0526290375538591 -0.0365075284348138 0.0278438238270464 -0.00872277570506118 -0.068276308271861 -0.0876906556715452
c79 3.49648500121942 -0.291927414405403 0.161396132623356 -0.456969987067932 -0.316357314034411 -0.0446567963024301 0.11730112488066 -0.0542097286406898 0.00408379788763816 -0.0113162513093532 0.0449044186412936 -0.158600457823072 0.20774989938134 0.0177797375355262 -0.110083295607961 0.0218099271606989 0.0749066059856687 -0.0354072709901498 -0.191353898018301 0.0209614333481783 -0.0129014987451436 -0.0724786690340606 -0.231706269059642 0.199504607295619 0.272087735901528 -0.285604042105003 -0.00250618464330326 -0.28302018205242 -0.470966445482687 -0.0253475568681512 0.149614135729555 0.226726905380596 0.254978381366405 0.0106235267790966 0.403502797867103 -0.459284325617125 1.13282446663472 1.0482745516584 -1.23123936152847 -0.0803555478114735 -0.291737379519804 -0.526430659193684 -0.287462977069119 0.514903398664583 0.437516398455186 0.062468988060919 -0.299810478641287 0.0477840463743195 0.0915950161450907 -0.400069244213819
c80 3.51755237431014 0.120811258341097 -0.298768307829471 -0.15546952879318 -0.133002272538205 -0.0341572371708039 0.0540464191847115 -0.0573601267057488 -0.0389309069198324 0.0108563795303113 0.0220120144936966 -0.173057979034747 0.221116362752198 0.0228278603245493 -0.116346300202815 -0.013244831180222 -0.0128433432503858 0.00278874987832116 -0.198257483360703 0.116391871809871 0.0113179323579338 -0.0557374229257515 0.00208132307402051 0.0925414800237681 0.0340669538816606 -0.147973280054673 0.0634438329053166 -0.0604856535296442 -0.279697534324254 -0.110564589383075 0.0238575309370252 0.086782158305028 0.140680729138652 0.0407539128147399 0.310582047939727 -0.389138501641699 0.935982319511312 0.885539936721532 -0.967403660489765 -0.0579747879765573 -0.366632788569274 -0.339970406106475 -0.281978482529776 0.604977528315368 0.678605357066042 0.582812171310627 -0.492358327568226 -0.167970734611462 -0.111373374652784 -0.00444667617651495
c81 3.51755237431014 0.120811258341113 -0.298768307829489 -0.155469528793167 -0.133002272538238 -0.0341572371707996 0.0540464191847286 -0.057360126705769 -0.0389309069198782 0.0108563795302648 0.0220120144936436 -0.173057979034707 0.221116362752226 0.022827860324577 -0.116346300202821 -0.0132448311801481 -0.0128433432502833 0.00278874987832954 -0.198257483360696 0.116391871809836 0.0113179323578514 -0.0557374229258641 0.00208132307409098 0.0925414800238037 0.0340669538817479 -0.147973280054668 0.063443832905319 -0.0604856535296998 -0.279697534324154 -0.11056458938318 0.0238575309372706 0.0867821583049726 0.140680729138774 0.0407539128147012 0.310582047939657 -0.389138501641701 0.935982319511551 0.885539936721347 -0.967403660489942 -0.0579747879765435 -0.366632788569206 -0.339970406106633 -0.281978482529878 0.604977528315242 0.678605357065896 0.582812171310743 -0.492358327568172 -0.167970734611444 -0.111373374652872 -0.00444667617661462
c82 3.51755237431014 0.120811258341074 -0.298768307829413 -0.15546952879308 -0.133002272538198 -0.0341572371709244 0.0540464191848282 -0.0573601267057207 -0.0389309069198433 0.010856379530271 0.0220120144937052 -0.17305797903491 0.22111636275221 0.022827860324578 -0.116346300202974 -0.0132448311805293 -0.0128433432507792 0.00278874987845626 -0.198257483360756 0.116391871810032 0.0113179323578834 -0.055737422925418 0.00208132307388064 0.0925414800233493 0.034066953881143 -0.147973280054913 0.0634438329054156 -0.0604856535294735 -0.279697534324389 -0.110564589382827 0.0238575309365306 0.0867821583054368 0.140680729138711 0.0407539128148946 0.310582047939752 -0.389138501641778 0.935982319511147 0.885539936721757 -0.967403660489501 -0.0579747879765038 -0.366632788569305 -0.339970406106324 -0.281978482529463 0.604977528315646 0.678605357066712 0.582812171310384 -0.492358327568202 -0.167970734610756 -0.11137337465264 -0.00444667617676147
c83 3.49501206172451 0.0975522119034653 -0.228937942069866 0.0138067357727385 0.02712697418995 0.10730336361969 0.139541595811013 -0.19678185684877 -0.616960892870496 -0.147761725495571 -0.442167866660146 -0.838489900676392 -1.67137938302138 0.154124870438643 -0.80076687900415 -0.309976224283131 0.0469609552684505 0.0298803428355691 0.296691382015535 0.249865342222501 -0.339655781227402 0.0447690064705937 -0.0495419076523476 -0.004906522204682 0.195065184292702 0.000606495944779209 -0.0400513339694248 0.0636034741487866 0.0426963014752238 0.181503366763058 0.065315358363347 -0.0457885886280465 -0.028659840808078 -0.0418712418055801 -0.316672184163751 -0.049072888891377 0.0354740096288665 0.129752816819362 0.0144479304680759 -0.0676168904213686 0.00990178756379584 0.0975333958979617 0.0470158558629915 0.0128679539876271 -0.0718296909790292 -0.027168982795151 -0.082681376282329 0.137831616339778 0.0512334039043418 0.0210532788352233
c84 3.30472713284725 -0.932141331639566 1.67261142106619 0.70812012206366 1.5401426622747 0.586970719914698 -0.0478659532526234 -0.0406572693455005 -0.481175064443932 -0.9368794357535 -0.390646816510467 -0.345018337135316 -1.40988635206418 -0.348365839681956 1.09074496178417 1.61436910637296 0.0957846782156082 -0.0215178783470346 0.913307937758518 0.0297195671233005 0.783590276000078 -0.0963181441672113 -0.234497967594252 -0.012900701331059 -0.220203369970128 -0.277508037126706 -0.418393944604699 -0.448536492342473 0.307288248201396 0.526870417148845 -0.0842990432043901 -0.150750823718502 -0.220640280135314 0.193613235716207 -0.0141167022507839 0.435346807941096 -0.109003680443258 -0.155159247825884 -0.123737025431886 0.114559350712986 0.0779608710467478 -0.297877532181734 -0.153329472360873 0.24495256205316 0.0721579145883337 -0.41491461621287 -0.151329826173288 0.526859158988074 -0.259645202556483 -1.02824343722692
c85 3.49231363217414 -0.165464423031346 -0.0214072870547475 -0.17238160482796 -0.0370093144995977 0.0785625024229123 0.117566316956856 -0.151978094380122 -0.442749165856104 -0.108979041588217 -0.311760330914007 -0.431740784729098 -1.04895124298031 0.0438318638640917 -0.339445610508779 -0.0437563615104843 0.0809259067764738 -0.014162990574609 0.376237972151502 0.504799639581518 -0.0801803532661526 0.0244958970855822 0.0216143606918894 -0.265559676187257 0.217035612705522 -0.908737220488004 -0.21711434471584 0.15361960112386 0.421868827817541 -0.348617858591505 -0.17133489103199 -0.121169305976327 -0.0404997162628208 -0.134902690518056 -0.783893835163147 -0.00200813958657435 0.0742418868353303 0.431427393473325 0.103060044677858 -0.0604188246205224 0.0654107428357118 0.195458605648165 -0.0384842566380533 -0.0687870969407967 -0.01040437419649 0.213319282915177 -0.130511036871934 -0.167150377237636 0.630798748444568 0.247968815125692
c86 3.50979418240129 0.0643968368623261 -0.276905904949868 -0.0629842336605267 -0.0682746932282028 0.0362615670586859 0.11196203662341 -0.148763192373354 -0.388508577189604 0.0120215346131273 -0.263349990326485 -0.371723885016626 -0.751139681724855 0.0505730756096906 -0.309682303210026 -0.0239531547743729 0.0154654258110241 0.010430689880477 0.251841712855216 0.329754683108912 -0.163213728876319 0.0411291195144162 -0.0830101789793828 -0.170338678613915 0.165151261842571 -0.66335762933689 -0.224389994548434 0.353873479299497 0.132269197474779 -0.0731930943295872 0.000594798600466948 -0.061358095812521 -0.0290640431122448 -0.0324454769062362 -0.162993842548759 0.185761726109776 0.206675889687077 0.182634788313663 0.0754991381698241 -0.0476703718131664 -0.242656646309708 -0.00954027016846916 0.204889595091652 -0.0871147919502134 -0.133463198689755 -0.038268063702435 0.0828497994577668 -0.234826896803041 -0.280443118479599 -0.00932972521687967
c87 3.50979418240129 0.0643968368622643 -0.276905904949768 -0.062984233660453 -0.0682746932281505 0.036261567058591 0.11196203662347 -0.148763192373316 -0.388508577189627 0.0120215346131191 -0.263349990326479 -0.371723885016788 -0.751139681724806 0.0505730756096667 -0.309682303210134 -0.0239531547754451 0.0154654258107196 0.0104306898805371 0.25184171285513 0.329754683109057 -0.163213728876418 0.0411291195149418 -0.0830101789793579 -0.170338678614421 0.165151261842062 -0.663357629337059 -0.224389994548333 0.353873479299521 0.132269197474537 -0.0731930943292684 0.000594798599870677 -0.061358095812498 -0.029064043112541 -0.032445476905913 -0.162993842548767 0.185761726109697 0.206675889686737 0.182634788313736 0.0754991381699134 -0.0476703718132016 -0.242656646309873 -0.00954027016804125 0.20488959509131 -0.0871147919500422 -0.133463198689341 -0.0382680637030063 0.082849799457565 -0.234826896802168 -0.280443118479515 -0.00932972521703476
c88 3.50979418240129 0.0643968368622977 -0.276905904949749 -0.0629842336604255 -0.0682746932281708 0.0362615670585672 0.111962036623436 -0.148763192373357 -0.388508577189595 0.0120215346130161 -0.263349990326415 -0.371723885016814 -0.751139681724829 0.0505730756097968 -0.30968230321024 -0.0239531547755775 0.0154654258105106 0.0104306898806157 0.25184171285503 0.329754683109026 -0.163213728876356 0.0411291195151038 -0.0830101789794348 -0.170338678614624 0.165151261841864 -0.663357629337053 -0.224389994548254 0.353873479299684 0.132269197474532 -0.0731930943293177 0.000594798599723605 -0.0613580958124132 -0.0290640431126002 -0.0324454769058256 -0.16299384254869 0.18576172610972 0.20667588968647 0.182634788313887 0.0754991381698063 -0.0476703718130797 -0.242656646309887 -0.00954027016819851 0.204889595091404 -0.087114791950135 -0.133463198689089 -0.0382680637029118 0.0828497994574807 -0.234826896801761 -0.280443118479593 -0.00932972521709594
c89 3.50979418240129 0.0643968368623084 -0.27690590494984 -0.0629842336605099 -0.0682746932282173 0.0362615670586542 0.111962036623385 -0.148763192373443 -0.38850857718958 0.0120215346131305 -0.263349990326431 -0.371723885016629 -0.751139681724861 0.0505730756096868 -0.309682303210057 -0.0239531547746045 0.0154654258109383 0.01043068988049 0.251841712855099 0.32975468310887 -0.163213728876362 0.0411291195146113 -0.0830101789793458 -0.17033867861411 0.165151261842319 -0.663357629336895 -0.224389994548267 0.353873479299413 0.132269197474734 -0.0731930943293306 0.000594798600213487 -0.0613580958125778 -0.0290640431123153 -0.0324454769060996 -0.162993842548733 0.185761726109683 0.206675889686878 0.182634788313629 0.0754991381698008 -0.0476703718130649 -0.242656646309723 -0.00954027016841269 0.20488959509136 -0.087114791949976 -0.133463198689535 -0.0382680637023891 0.0828497994576408 -0.234826896802446 -0.280443118479218 -0.00932972521662746
c90 3.449654867156 -1.03581998743088 0.194155495981929 0.592508715730241 -0.19632033425041 -0.000974584130254706 0.10987714962537 -0.0802905598971867 -0.316830413723076 -0.0628228320627719 -0.278338638345323 -0.160078392280631 -0.80324493010428 0.0553118064307563 -0.192084286002167 -0.149697615865273 0.00202210401366925 -0.00392649254882663 0.24189717681013 0.200356251245738 -0.398944593843724 0.116237331810257 -0.163018339200702 -0.16337169717302 0.10522588650404 -0.412233591713365 -0.0187643315833255 0.451257499131711 0.120808246312982 -0.263752118844845 0.0708441153018605 0.275060891043269 0.0555472875148642 0.0463840540308443 0.257579168817466 0.886899996559583 0.678444814614034 -0.530272997097304 -0.214997021805925 0.116514540490872 -0.0429532124384626 -0.392994776081424 0.118068740171963 -0.073537978337324 0.0458856279537712 -0.190035418017948 0.272780340841337 -0.143682366897616 0.287842772718863 0.0479084010976553
c91 3.51439901391401 0.0897940342199975 -0.285263972671657 -0.172659781817012 -0.0391670265062831 0.260627677432467 0.0258384513121449 -0.0179343630791336 0.0955772008761091 0.139789010789361 0.111902131562886 -0.273894011851027 0.228140694540422 0.0168770586265737 -0.0814257302183996 -0.0400802354101671 -0.00969149719020196 -0.0193771623765068 -0.372599998948098 0.13162996396603 0.0718628412434515 -0.346989375409161 -0.142054759243096 1.23458241740565 -0.0165325474768105 0.121541445139373 -0.604062769079531 0.913226016831373 0.625046139470669 -0.118657717483369 0.00153878419716217 -0.0633480397432206 -0.0308712398403157 -0.105032049530754 -0.00871424265955065 0.0913599775894937 -0.0447096563677508 0.000298738617374749 -0.150250353226154 -0.0172745746511769 0.263002266345132 0.171073330603636 0.0829662752011511 0.00254203072678212 -0.153629769357788 0.0333651778147824 -0.225178733132266 -0.0719969520204315 0.0285062036218085 -0.070322731059789
c92 3.44975014752223 -1.12365540828775 1.01041435931578 -1.02732047340374 -0.626176940190386 0.323673900067714 0.196732659410135 -0.0113507710397697 0.213660206651432 0.0204854333073164 0.185942372768636 -0.263417453948069 0.171732582272501 -0.00838145869061254 -0.0206924385940703 -0.0380419285903266 -0.0762700624405248 0.00278271033534604 -0.360597593464048 0.0571226849925592 0.0529001315832334 -0.2532604864808 -0.219065246630922 1.22234890481618 -0.0692202602678906 0.357976618295593 -0.630570711003655 0.961402940384956 0.447448140435128 0.146023679882236 0.111884479935375 0.0110697919641247 -0.0367110691668977 -0.079501122995811 -0.0863977644190907 0.108495474057578 0.056189073486638 -0.270049423344578 0.00542786125511619 0.00512328092805695 -0.0337167132719978 -0.087285033840222 0.0238271188148661 0.0495474789122675 0.0959967132957588 0.0645173724173492 -0.014576081548178 0.0422153114179946 0.0656114294934848 0.163919225713801
c93 3.51439901391401 0.0897940342199727 -0.285263972671616 -0.172659781816956 -0.0391670265062837 0.26062767743247 0.0258384513121049 -0.0179343630790871 0.0955772008760922 0.139789010789258 0.111902131562888 -0.273894011851037 0.228140694540465 0.0168770586266452 -0.0814257302185326 -0.0400802354107219 -0.00969149719058379 -0.0193771623764342 -0.372599998948156 0.131629963966097 0.0718628412434276 -0.346989375408982 -0.142054759243173 1.2345824174053 -0.0165325474771792 0.121541445139188 -0.604062769079494 0.913226016831432 0.625046139470433 -0.118657717483111 0.00153878419674626 -0.0633480397430705 -0.0308712398403507 -0.105032049530553 -0.00871424265950049 0.0913599775894762 -0.044709656367953 0.000298738617501576 -0.150250353225937 -0.01727457465111 0.263002266344933 0.171073330603708 0.0829662752011721 0.00254203072690808 -0.15362976935741 0.0333651778145187 -0.225178733132371 -0.0719969520198932 0.0285062036217907 -0.0703227310598565
c94 3.51439901391401 0.0897940342199876 -0.2852639726716 -0.172659781816966 -0.0391670265062532 0.260627677432454 0.0258384513121062 -0.0179343630791239 0.0955772008761121 0.13978901078927 0.1119021315629 -0.273894011851103 0.228140694540454 0.0168770586266228 -0.0814257302184757 -0.0400802354107094 -0.00969149719061832 -0.0193771623763524 -0.372599998948225 0.131629963966113 0.0718628412434661 -0.346989375408915 -0.142054759243127 1.23458241740538 -0.0165325474771659 0.121541445139075 -0.604062769079486 0.913226016831497 0.625046139470484 -0.11865771748317 0.00153878419672384 -0.0633480397431862 -0.0308712398403324 -0.105032049530619 -0.00871424265945598 0.0913599775893405 -0.0447096563679672 0.000298738617587602 -0.150250353225921 -0.0172745746511745 0.263002266344883 0.171073330603856 0.0829662752011267 0.00254203072685613 -0.153629769357437 0.0333651778145763 -0.225178733132279 -0.0719969520196295 0.028506203621705 -0.0703227310601467
c95 3.51439901391401 0.0897940342199401 -0.285263972671592 -0.172659781816926 -0.0391670265062549 0.260627677432458 0.0258384513121357 -0.0179343630791409 0.0955772008760859 0.139789010789257 0.111902131562871 -0.273894011851124 0.228140694540436 0.016877058626606 -0.0814257302184828 -0.040080235410972 -0.0096914971906458 -0.0193771623764607 -0.372599998948161 0.13162996396616 0.0718628412434731 -0.34698937540896 -0.142054759243213 1.23458241740533 -0.0165325474773232 0.121541445139109 -0.604062769079491 0.913226016831478 0.625046139470408 -0.118657717483119 0.00153878419663211 -0.0633480397429826 -0.0308712398404304 -0.105032049530561 -0.00871424265934945 0.0913599775894034 -0.0447096563680755 0.000298738617569078 -0.150250353225944 -0.0172745746511042 0.263002266344873 0.171073330603765 0.0829662752011988 0.00254203072690262 -0.153629769357306 0.0333651778144202 -0.225178733132331 -0.0719969520197445 0.0285062036218674 -0.0703227310598215
c96 3.46276130907412 -0.869225294789918 0.74965007339152 -0.856958825614205 -0.477311209084243 0.280176539699603 0.157091271406791 -0.00649723909236139 0.199558876203887 0.0256585914650778 0.165446037161136 -0.290263321758107 0.151801192337108 0.000724018325996335 -0.0928702943327459 0.0198332909829587 0.125887310682935 -0.104985748439995 -0.404421016122779 0.0744724015029855 0.166342639762344 -0.448366445744313 -0.357107837293523 1.65039300318585 -0.0709407114543863 0.0973139867596192 -0.637620603708947 0.425188314561966 0.79144397020714 -0.0706039437452824 -0.0479058508285066 -0.0633486211108687 -0.0921363942143936 -0.195076229978172 -0.0263573001351018 0.0554512743530724 -0.306236231587611 0.0717149960750259 0.013256225243321 0.0162210405596098 -0.204421480133264 -0.340995377407804 -0.153802087151941 0.0785564389288567 0.209713198864669 -0.160888600113475 0.246413975066574 0.180845708347637 0.0647444045210251 -0.197817371814739
c97 3.49005350017958 -0.0151966663260594 -0.231855653448438 -0.0744999588346575 0.54485617288955 1.24954742086688 -0.123240985615512 0.114675251737493 0.376773512303586 0.435769783586975 0.25198908892049 -0.265402338030511 0.0794223543901195 -0.000696090760486815 0.037928529950336 -0.0575795887258003 0.00748086206920381 -0.0342767095886735 -0.251055460138223 0.0253160319054021 0.0412182049842256 -0.317251450709548 -0.114963600866629 0.972076498262402 0.0786941583745508 0.0891526249988806 -0.465781400994561 0.684389778856104 0.480023638632771 -0.0582720053242013 0.0196830089324223 -0.0299742818905583 -0.0150986867060031 -0.0206302943320446 -0.0464922927092319 0.105276157872583 -0.0721450194210478 0.021166862058911 -0.12542392602779 -0.0307730737095324 0.243087681677603 0.174562612574678 0.0102431484588661 0.00879259604128571 -0.144513217238282 -0.019746043839446 -0.199392161098073 -0.0766848651467626 -0.00633293462708188 -0.145464923296556
c98 3.42414344170524 0.601906801967285 0.732625792016988 0.304061296722019 1.58708443856945 0.780731718757363 -0.206773894581601 0.100122998204843 -0.147496477904583 -0.145172602343313 -0.185476180747013 0.818734435504735 -0.0283257986758386 0.0246509067532186 -0.0682789938723523 -0.0621469653684517 0.0213612963984604 0.00739966552144339 0.179346577680545 -0.14717099627321 -0.108833597082044 0.0579561791460204 -0.00422691745677735 -0.0111597034913541 0.138962151947413 0.0519493713830227 -0.0366937789024007 0.0884391085211924 0.0349083199704303 0.136363405193452 0.103817524430482 -0.0243456986018312 -0.0251973155806261 0.00596266169197899 0.123353176271928 -0.00563086780511139 -0.273447414353079 -0.0504452950416321 -0.0158527219805794 0.0324521034368489 -0.0185203477492946 0.0566412356810444 -0.164779606520836 0.0865532285908183 0.017281623575309 -0.164876161676468 -0.0434944039528049 0.00749165817033257 -0.139847894619171 -0.260413896773681
c99 3.47397587376074 -0.374489956958206 0.168826590374889 -0.309820719614693 0.368571277652727 1.17904041317995 -0.0713203605231733 0.109368129697593 0.344548558077457 0.306200515785694 0.21708380209859 -0.170114914254282 -0.0858101621425684 -0.00654500307581665 0.0536217506272604 -0.063058312600097 0.0982160565336395 -0.0531675266792265 0.0260447465594079 -0.0186771546035498 -0.159303305655983 -0.121551823712446 -0.0780276810533399 0.0424182349938206 -0.0792059462787899 0.177272459070707 0.170190109070916 -0.28976457965702 -0.0545783737192516 -0.530183717036802 -0.194348290022863 0.188485627944181 0.100903303817966 0.18912713514746 0.564408236706568 0.835980519767718 0.2524349504683 -0.0871196253927032 0.0168926789839418 0.202966098385519 -0.43757417930193 -0.256561769313025 -0.0332868622089471 -0.0505465305263624 0.0866905010555325 -0.218644640110431 0.321537348779671 -0.0625550552621071 0.599808462584832 0.287397707816577
c100 3.49572696531281 -0.00170801923594577 -0.225732168779297 -0.0454210085375829 0.518045690304272 1.09274733419631 -0.121344928256187 0.102743648944569 0.301350657720401 0.359609559215626 0.189475392979309 -0.150272951465762 0.00875257351808382 -0.00314399795907565 0.0507873534337392 -0.0375784035892739 0.00520744396018713 -0.0160780390826912 -0.0239397638656091 -0.0366437965249169 -0.0141370643048467 -0.0458913929576814 0.0303918205893086 -0.0586205202970669 0.0873409040979452 -0.045114818368363 0.0822720891308884 -0.089252986483798 -0.105204341936609 0.00699891216562448 0.0047711543110594 0.0254095092452688 0.0270993714738983 0.087189345963319 -0.00839657591166252 -0.0113490947611155 0.0216327538384552 0.0500128759739446 0.017154877579434 -0.0166655220234833 0.0110622661828178 0.0805589844748059 -0.042257110167346 -0.0264229307103033 -0.0334801586829921 -0.0146716828029669 0.0221943080587762 -0.0362555960411355 -0.062891526514527 0.0127363115930124
c101 3.49289501497796 -0.0024350025336095 -0.231719259927754 -0.0529553217451678 0.527136862982424 1.14565820311927 -0.125138186239213 0.108585276498567 0.326076009385643 0.38605977613145 0.208062484025809 -0.173508537375171 0.00724778634048369 -0.00289393740753765 0.054692890658743 -0.0473760525000855 0.0174201385705633 -0.0236347305344515 -0.0258270958138915 -0.0375600212530653 -0.0445941214658278 -0.0742817297520163 0.01840092130115 -0.0519988704920867 0.077144748795527 -0.0102603966982012 0.131730592234016 -0.16676514195002 -0.133665818671107 -0.137153373923539 -0.0483489852236769 0.080825080276292 0.0592901629015904 0.155149559403533 0.172547192653178 0.258431737548976 0.118539385419129 0.0260647312859528 0.0282453028946617 0.0670334384817403 -0.173544627993476 -0.0140148632108976 -0.0633200132531569 -0.0570381495487053 0.0022833680090302 -0.126870165320676 0.194379884258518 -0.0812530105986376 0.271750658376636 0.212480251423575
c102 3.49572696531281 -0.00170801923595624 -0.225732168779294 -0.0454210085375118 0.518045690304217 1.09274733419634 -0.121344928256173 0.102743648944565 0.301350657720381 0.359609559215541 0.189475392979343 -0.150272951465821 0.00875257351800932 -0.00314399795906563 0.0507873534337019 -0.0375784035893219 0.00520744396020506 -0.0160780390827613 -0.0239397638654662 -0.0366437965249617 -0.0141370643048469 -0.0458913929577673 0.0303918205892222 -0.0586205202969948 0.0873409040980219 -0.0451148183684005 0.0822720891309561 -0.0892529864836375 -0.105204341936575 0.00699891216570247 0.00477115431101166 0.0254095092451536 0.0270993714738086 0.087189345963371 -0.00839657591159515 -0.0113490947611208 0.0216327538383054 0.0500128759741662 0.0171548775792072 -0.0166655220234423 0.0110622661826777 0.0805589844748881 -0.042257110167555 -0.0264229307103246 -0.0334801586827362 -0.0146716828030048 0.0221943080588383 -0.0362555960406876 -0.0628915265143732 0.0127363115929612
c103 3.49162046286228 -0.00440767790383552 -0.221645129308872 -0.0410227381829219 0.591184077130622 1.18446908384785 -0.123034731878455 0.0903439729018745 0.208499665696697 0.170430989197975 0.125439164613901 -0.123180363544571 -0.124449501333837 0.0031317798290811 -0.0187982380393748 -0.0585774894799579 0.00547000423453052 -0.0138650570068614 0.0480059614411993 0.0198141561572789 -0.00840582897696974 -0.0344210325978084 0.031945051769487 -0.0849607507849641 0.124391029211953 -0.133903120530749 0.0161292491404515 -0.058866587921104 -0.0754412301470905 0.0365223083612841 0.017245460252864 0.0330412116280022 0.0421292723526047 0.0577101865155653 -0.246508269122466 -0.00958264948543836 0.0788013337449356 0.17291066390957 0.0889829024356913 -0.0113967176067054 -0.0908448740826738 0.194651660699751 -0.108076463648614 0.0193855393655561 0.0171598179711307 0.0311150424066423 -0.039765748908575 0.245610704894251 0.286240146511864 0.215341618396275
